{"learner":{"attributes":{},"feature_names":["dia_semana","mes","dia_mes","semana_anio","trimestre","es_fin_semana","dias_desde_inicio","sin_dia","cos_dia","sin_mes","cos_mes","target_lag_1d","eventos_lag_1d","target_lag_2d","eventos_lag_2d","target_lag_3d","eventos_lag_3d","target_lag_7d","eventos_lag_7d","target_lag_14d","eventos_lag_14d","target_lag_28d","eventos_lag_28d","target_media_7d","target_max_7d","target_suma_7d","eventos_media_7d","target_media_14d","target_max_14d","target_suma_14d","eventos_media_14d","target_media_28d","target_max_28d","target_suma_28d","eventos_media_28d","subclave_1_min_lag_1d","subclave_1_min_media_7d","subclave_1_min_suma_28d","subclave_2_min_lag_1d","subclave_2_min_media_7d","subclave_2_min_suma_28d","subclave_3_min_lag_1d","subclave_3_min_media_7d","subclave_3_min_suma_28d","subclave_4_min_lag_1d","subclave_4_min_media_7d","subclave_4_min_suma_28d","subclave_5_min_lag_1d","subclave_5_min_media_7d","subclave_5_min_suma_28d","subclave_6_min_lag_1d","subclave_6_min_media_7d","subclave_6_min_suma_28d"],"feature_types":["int","int","int","int","int","int","int","float","float","float","float","float","float","float","float","float","float","float","float","float","float","float","float","float","float","float","float","float","float","float","float","float","float","float","float","float","float","float","float","float","float","float","float","float","float","float","float","float","float","float","float","float","float"],"gradient_booster":{"model":{"cats":{"enc":[],"feature_segments":[],"sorted_idx":[]},"gbtree_model_param":{"num_parallel_tree":"1","num_trees":"420"},"iteration_indptr":[0,1,2,3,4,5,6,7,8,9,10,11,12,13,14,15,16,17,18,19,20,21,22,23,24,25,26,27,28,29,30,31,32,33,34,35,36,37,38,39,40,41,42,43,44,45,46,47,48,49,50,51,52,53,54,55,56,57,58,59,60,61,62,63,64,65,66,67,68,69,70,71,72,73,74,75,76,77,78,79,80,81,82,83,84,85,86,87,88,89,90,91,92,93,94,95,96,97,98,99,100,101,102,103,104,105,106,107,108,109,110,111,112,113,114,115,116,117,118,119,120,121,122,123,124,125,126,127,128,129,130,131,132,133,134,135,136,137,138,139,140,141,142,143,144,145,146,147,148,149,150,151,152,153,154,155,156,157,158,159,160,161,162,163,164,165,166,167,168,169,170,171,172,173,174,175,176,177,178,179,180,181,182,183,184,185,186,187,188,189,190,191,192,193,194,195,196,197,198,199,200,201,202,203,204,205,206,207,208,209,210,211,212,213,214,215,216,217,218,219,220,221,222,223,224,225,226,227,228,229,230,231,232,233,234,235,236,237,238,239,240,241,242,243,244,245,246,247,248,249,250,251,252,253,254,255,256,257,258,259,260,261,262,263,264,265,266,267,268,269,270,271,272,273,274,275,276,277,278,279,280,281,282,283,284,285,286,287,288,289,290,291,292,293,294,295,296,297,298,299,300,301,302,303,304,305,306,307,308,309,310,311,312,313,314,315,316,317,318,319,320,321,322,323,324,325,326,327,328,329,330,331,332,333,334,335,336,337,338,339,340,341,342,343,344,345,346,347,348,349,350,351,352,353,354,355,356,357,358,359,360,361,362,363,364,365,366,367,368,369,370,371,372,373,374,375,376,377,378,379,380,381,382,383,384,385,386,387,388,389,390,391,392,393,394,395,396,397,398,399,400,401,402,403,404,405,406,407,408,409,410,411,412,413,414,415,416,417,418,419,420],"tree_info":[0,0,0,0,0,0,0,0,0,0,0,0,0,0,0,0,0,0,0,0,0,0,0,0,0,0,0,0,0,0,0,0,0,0,0,0,0,0,0,0,0,0,0,0,0,0,0,0,0,0,0,0,0,0,0,0,0,0,0,0,0,0,0,0,0,0,0,0,0,0,0,0,0,0,0,0,0,0,0,0,0,0,0,0,0,0,0,0,0,0,0,0,0,0,0,0,0,0,0,0,0,0,0,0,0,0,0,0,0,0,0,0,0,0,0,0,0,0,0,0,0,0,0,0,0,0,0,0,0,0,0,0,0,0,0,0,0,0,0,0,0,0,0,0,0,0,0,0,0,0,0,0,0,0,0,0,0,0,0,0,0,0,0,0,0,0,0,0,0,0,0,0,0,0,0,0,0,0,0,0,0,0,0,0,0,0,0,0,0,0,0,0,0,0,0,0,0,0,0,0,0,0,0,0,0,0,0,0,0,0,0,0,0,0,0,0,0,0,0,0,0,0,0,0,0,0,0,0,0,0,0,0,0,0,0,0,0,0,0,0,0,0,0,0,0,0,0,0,0,0,0,0,0,0,0,0,0,0,0,0,0,0,0,0,0,0,0,0,0,0,0,0,0,0,0,0,0,0,0,0,0,0,0,0,0,0,0,0,0,0,0,0,0,0,0,0,0,0,0,0,0,0,0,0,0,0,0,0,0,0,0,0,0,0,0,0,0,0,0,0,0,0,0,0,0,0,0,0,0,0,0,0,0,0,0,0,0,0,0,0,0,0,0,0,0,0,0,0,0,0,0,0,0,0,0,0,0,0,0,0,0,0,0,0,0,0,0,0,0,0,0,0,0,0,0,0,0,0,0,0,0,0,0,0,0,0,0,0,0,0,0,0,0,0,0,0,0,0,0,0,0,0,0,0,0,0,0,0,0,0,0,0,0,0,0,0,0,0,0,0],"trees":[{"base_weights":[4.0013587E-1,-3.2689297E0,1.3195827E1,-1.7073816E1,-4.2738113E-1,4.0305183E1,7.536736E0,-8.965843E-1,1.0422769E0,4.3018845E-1,-1.15394495E-1,2.2959998E0,2.9983997E-1,3.7686422E-2,1.0949714E0],"categories":[],"categories_nodes":[],"categories_segments":[],"categories_sizes":[],"default_left":[0,0,0,0,0,0,0,0,0,0,0,0,0,0,0],"id":0,"left_children":[1,3,5,7,9,11,13,-1,-1,-1,-1,-1,-1,-1,-1],"loss_changes":[1.7173521E4,1.1141912E4,1.1743841E4,1.2632228E4,6.6314927E3,6.4960293E3,9.158348E3,0E0,0E0,0E0,0E0,0E0,0E0,0E0,0E0],"parents":[2147483647,0,0,1,1,2,2,3,3,4,4,5,5,6,6],"right_children":[2,4,6,8,10,12,14,-1,-1,-1,-1,-1,-1,-1,-1],"split_conditions":[8.868E1,1.5E0,2.7478214E1,2E1,2.8823214E1,7.707E1,6.76E1,-8.965843E-1,1.0422769E0,4.3018845E-1,-1.15394495E-1,2.2959998E0,2.9983997E-1,3.7686422E-2,1.0949714E0],"split_indices":[24,35,31,49,31,35,40,0,0,0,0,0,0,0,0],"split_type":[0,0,0,0,0,0,0,0,0,0,0,0,0,0,0],"sum_hessian":[3.61E2,2.82E2,7.9E1,4.6E1,2.36E2,1.1E1,6.8E1,4.2E1,4E0,4.1E1,1.95E2,6E0,5E0,5.3E1,1.5E1],"tree_param":{"num_deleted":"0","num_feature":"53","num_nodes":"15","size_leaf_vector":"1"}},{"base_weights":[9.0465933E-1,-2.451096E0,1.40045395E1,-1.6189953E1,2.8805766E-1,4.4782997E1,8.066164E0,-8.543043E-1,1.0166208E0,8.222866E-1,-6.950209E-2,2.2311716E0,2.973126E-1,5.5310434E-1,-2.919082E-1],"categories":[],"categories_nodes":[],"categories_segments":[],"categories_sizes":[],"default_left":[0,0,0,0,0,0,0,0,0,0,0,0,0,0,0],"id":1,"left_children":[1,3,5,7,9,11,13,-1,-1,-1,-1,-1,-1,-1,-1],"loss_changes":[1.6065275E4,1.0981632E4,1.2713599E4,1.1784671E4,1.0168867E4,3.686713E3,6.0502075E3,0E0,0E0,0E0,0E0,0E0,0E0,0E0,0E0],"parents":[2147483647,0,0,1,1,2,2,3,3,4,4,5,5,6,6],"right_children":[2,4,6,8,10,12,14,-1,-1,-1,-1,-1,-1,-1,-1],"split_conditions":[8.868E1,1.5E0,2.7478214E1,2E1,2.7562857E1,7.707E1,1E1,-8.543043E-1,1.0166208E0,8.222866E-1,-6.950209E-2,2.2311716E0,2.973126E-1,5.5310434E-1,-2.919082E-1],"split_indices":[24,11,31,49,31,35,26,0,0,0,0,0,0,0,0],"split_type":[0,0,0,0,0,0,0,0,0,0,0,0,0,0,0],"sum_hessian":[3.61E2,2.89E2,7.2E1,4.6E1,2.43E2,9E0,6.3E1,4.2E1,4E0,2E1,2.23E2,6E0,3E0,4.6E1,1.7E1],"tree_param":{"num_deleted":"0","num_feature":"53","num_nodes":"15","size_leaf_vector":"1"}},{"base_weights":[1.092074E-3,-1.4718096E1,2.3982725E0,-1.8994286E1,1.2494057E0,2.318158E1,-1.188275E-1,-9.4128805E-1,5.9468687E-1,-1.2516774E-1,1.1967345E0,-4.2746967E-1,1.4910433E-1],"categories":[],"categories_nodes":[],"categories_segments":[],"categories_sizes":[],"default_left":[0,0,0,0,0,0,0,0,0,0,0,0,0],"id":2,"left_children":[1,3,5,7,-1,9,11,-1,-1,-1,-1,-1,-1],"loss_changes":[1.3478733E4,1.1996228E4,1.7191924E4,8.634496E3,0E0,6.5264277E3,1.2111311E4,0E0,0E0,0E0,0E0,0E0,0E0],"parents":[2147483647,0,0,1,1,2,2,3,3,5,5,6,6],"right_children":[2,4,6,8,-1,10,12,-1,-1,-1,-1,-1,-1],"split_conditions":[1.5E0,2E1,2.7562857E1,3.3978573E1,1.2494057E0,1.187E1,-2.2252093E-1,-9.4128805E-1,5.9468687E-1,-1.2516774E-1,1.1967345E0,-4.2746967E-1,1.4910433E-1],"split_indices":[11,49,31,23,0,11,8,0,0,0,0,0,0],"split_type":[0,0,0,0,0,0,0,0,0,0,0,0,0],"sum_hessian":[3.77E2,5.1E1,3.26E2,4.8E1,3E0,3.3E1,2.93E2,4.3E1,5E0,7E0,2.6E1,7.7E1,2.16E2],"tree_param":{"num_deleted":"0","num_feature":"53","num_nodes":"13","size_leaf_vector":"1"}},{"base_weights":[-2.1675538E-1,-2.4659257E0,1.7039341E1,-3.688315E0,2.0133831E1,3.1512024E1,4.7821455E0,-6.16542E-1,-6.472901E-2,1.0302631E0,-1.5366046E-1,1.5793798E0,2.2378263E-1,-1.1072707E-1,1.3947564E0],"categories":[],"categories_nodes":[],"categories_segments":[],"categories_sizes":[],"default_left":[0,0,0,0,0,0,0,0,0,0,0,0,0,0,0],"id":3,"left_children":[1,3,5,7,9,11,13,-1,-1,-1,-1,-1,-1,-1,-1],"loss_changes":[1.4640102E4,9.398819E3,7.339921E3,7.668366E3,2.6064883E3,3.4769688E3,6.2611743E3,0E0,0E0,0E0,0E0,0E0,0E0,0E0,0E0],"parents":[2147483647,0,0,1,1,2,2,3,3,4,4,5,5,6,6],"right_children":[2,4,6,8,10,12,14,-1,-1,-1,-1,-1,-1,-1,-1],"split_conditions":[1.0851E2,8.577E1,9.428572E0,1.5E0,4.015E1,4.3E1,9.749279E-1,-6.16542E-1,-6.472901E-2,1.0302631E0,-1.5366046E-1,1.5793798E0,2.2378263E-1,-1.1072707E-1,1.3947564E0],"split_indices":[24,19,26,11,11,3,7,0,0,0,0,0,0,0,0],"split_type":[0,0,0,0,0,0,0,0,0,0,0,0,0,0,0],"sum_hessian":[3.72E2,3.31E2,4.1E1,3.16E2,1.5E1,1.7E1,2.4E1,4.5E1,2.71E2,1.2E1,3E0,1.2E1,5E0,2.1E1,3E0],"tree_param":{"num_deleted":"0","num_feature":"53","num_nodes":"15","size_leaf_vector":"1"}},{"base_weights":[3.271874E-1,-1.5280204E1,2.8169942E0,-1.9905968E1,9.7601813E-1,3.5171684E1,1.1738918E0,-9.025751E-1,2.2164278E-1,-8.231369E-2,1.7807335E0,-2.9750592E-1,1.7438255E-1],"categories":[],"categories_nodes":[],"categories_segments":[],"categories_sizes":[],"default_left":[0,0,0,0,0,0,0,0,0,0,0,0,0],"id":4,"left_children":[1,3,5,7,-1,9,11,-1,-1,-1,-1,-1,-1],"loss_changes":[1.4543873E4,1.0667282E4,1.7041547E4,3.5258887E3,0E0,5.622588E3,8.571742E3,0E0,0E0,0E0,0E0,0E0,0E0],"parents":[2147483647,0,0,1,1,2,2,3,3,5,5,6,6],"right_children":[2,4,6,8,-1,10,12,-1,-1,-1,-1,-1,-1],"split_conditions":[1.5E0,2E1,4.892857E0,8.428572E0,9.7601813E-1,4E0,-2.2252093E-1,-9.025751E-1,2.2164278E-1,-8.231369E-2,1.7807335E0,-2.9750592E-1,1.7438255E-1],"split_indices":[11,49,34,26,0,14,8,0,0,0,0,0,0],"split_type":[0,0,0,0,0,0,0,0,0,0,0,0,0],"sum_hessian":[3.69E2,4.9E1,3.2E2,4.5E1,4E0,1.3E1,3.07E2,4.1E1,4E0,3E0,1E1,8.2E1,2.25E2],"tree_param":{"num_deleted":"0","num_feature":"53","num_nodes":"13","size_leaf_vector":"1"}},{"base_weights":[-5.5434483E-1,-1.5816929E1,1.981885E0,-2.2039824E1,6.7027273E0,2.3691921E1,-6.974275E-1,-9.1242164E-1,-2.5946268E-1,8.6559224E-1,-4.9840823E-1,4.308728E-1,2.0755737E0,-3.671294E-1,1.0829302E-1],"categories":[],"categories_nodes":[],"categories_segments":[],"categories_sizes":[],"default_left":[0,0,0,0,0,0,0,0,0,0,0,0,0,0,0],"id":5,"left_children":[1,3,5,7,9,11,13,-1,-1,-1,-1,-1,-1,-1,-1],"loss_changes":[1.4536338E4,7.866671E3,1.8800479E4,1.3954883E2,4.538308E3,1.1535771E4,8.421449E3,0E0,0E0,0E0,0E0,0E0,0E0,0E0,0E0],"parents":[2147483647,0,0,1,1,2,2,3,3,4,4,5,5,6,6],"right_children":[2,4,6,8,10,12,14,-1,-1,-1,-1,-1,-1,-1,-1],"split_conditions":[1.5E0,3.0705715E1,7.7176E2,2.7E1,9.9566E2,4.591E1,-2.2252093E-1,-9.1242164E-1,-2.5946268E-1,8.6559224E-1,-4.9840823E-1,4.308728E-1,2.0755737E0,-3.671294E-1,1.0829302E-1],"split_indices":[11,23,33,2,33,15,8,0,0,0,0,0,0,0,0],"split_type":[0,0,0,0,0,0,0,0,0,0,0,0,0,0,0],"sum_hessian":[3.71E2,5.1E1,3.2E2,4E1,1.1E1,3.3E1,2.87E2,3.7E1,3E0,6E0,5E0,2.5E1,8E0,8.1E1,2.06E2],"tree_param":{"num_deleted":"0","num_feature":"53","num_nodes":"15","size_leaf_vector":"1"}},{"base_weights":[6.050417E-1,2.3420366E1,-6.035064E-1,-3.131784E-1,2.8394506E1,1.2516022E1,-2.9420238E0,1.5815002E0,7.374955E-2,-5.0926244E-1,7.335012E-1,-2.074477E-1,3.6947358E-1],"categories":[],"categories_nodes":[],"categories_segments":[],"categories_sizes":[],"default_left":[0,0,0,0,0,0,0,0,0,0,0,0,0],"id":6,"left_children":[1,3,5,-1,7,9,11,-1,-1,-1,-1,-1,-1],"loss_changes":[1.0140993E4,3.4314424E3,1.0845481E4,0E0,4.699369E3,8.447042E3,8.305521E3,0E0,0E0,0E0,0E0,0E0,0E0],"parents":[2147483647,0,0,1,1,2,2,4,4,5,5,6,6],"right_children":[2,4,6,-1,8,10,12,-1,-1,-1,-1,-1,-1],"split_conditions":[9.23E0,5.4E-1,-7.818315E-1,-3.131784E-1,1.3E1,1.469E1,1.33E2,1.5815002E0,7.374955E-2,-5.0926244E-1,7.335012E-1,-2.074477E-1,3.6947358E-1],"split_indices":[40,11,7,0,12,40,32,0,0,0,0,0,0],"split_type":[0,0,0,0,0,0,0,0,0,0,0,0,0],"sum_hessian":[3.64E2,1.6E1,3.48E2,2E0,1.4E1,5.1E1,2.97E2,9E0,5E0,9E0,4.2E1,2.52E2,4.5E1],"tree_param":{"num_deleted":"0","num_feature":"53","num_nodes":"13","size_leaf_vector":"1"}},{"base_weights":[-4.2790523E-1,-1.4352768E1,1.8999964E0,-1.733492E1,7.6042366E-1,3.457312E1,9.015768E-2,-8.3026665E-1,5.313833E-1,2.0886095E-1,1.60515E0,-5.4118436E-2,6.897787E-1],"categories":[],"categories_nodes":[],"categories_segments":[],"categories_sizes":[],"default_left":[0,0,0,0,0,0,0,0,0,0,0,0,0],"id":7,"left_children":[1,3,5,7,-1,9,11,-1,-1,-1,-1,-1,-1],"loss_changes":[1.1883702E4,6.047335E3,1.8589564E4,5.875583E3,0E0,2.1667637E3,7.497416E3,0E0,0E0,0E0,0E0,0E0,0E0],"parents":[2147483647,0,0,1,1,2,2,3,3,5,5,6,6],"right_children":[2,4,6,8,-1,10,12,-1,-1,-1,-1,-1,-1],"split_conditions":[1E0,2E1,4.892857E0,2.3785E2,7.6042366E-1,4E0,8.437E1,-8.3026665E-1,5.313833E-1,2.0886095E-1,1.60515E0,-5.4118436E-2,6.897787E-1],"split_indices":[12,49,34,25,0,14,19,0,0,0,0,0,0],"split_type":[0,0,0,0,0,0,0,0,0,0,0,0,0],"sum_hessian":[3.62E2,5E1,3.12E2,4.7E1,3E0,1.4E1,2.98E2,4.3E1,4E0,3E0,1.1E1,2.77E2,2.1E1],"tree_param":{"num_deleted":"0","num_feature":"53","num_nodes":"13","size_leaf_vector":"1"}},{"base_weights":[6.0581166E-1,-1.8841643E0,1.2914204E1,-1.3810798E1,2.3541082E-1,1.2257527E0,2.5460253E1,-7.3828214E-1,1.2023711E0,5.8216435E-1,-8.227478E-2,-3.424761E-1,2.1430355E-1,1.2392211E0,-2.7351528E-1],"categories":[],"categories_nodes":[],"categories_segments":[],"categories_sizes":[],"default_left":[0,0,0,0,0,0,0,0,0,0,0,0,0,0,0],"id":8,"left_children":[1,3,5,7,9,11,13,-1,-1,-1,-1,-1,-1,-1,-1],"loss_changes":[1.1569006E4,7.9584985E3,9.233867E3,1.1069017E4,8.920495E3,1.550333E3,5.967586E3,0E0,0E0,0E0,0E0,0E0,0E0,0E0,0E0],"parents":[2147483647,0,0,1,1,2,2,3,3,4,4,5,5,6,6],"right_children":[2,4,6,8,10,12,14,-1,-1,-1,-1,-1,-1,-1,-1],"split_conditions":[5.908E1,1.5E0,9.185E1,2E1,2.8229286E1,6.285714E0,-1.8369701E-16,-7.3828214E-1,1.2023711E0,5.8216435E-1,-8.227478E-2,-3.424761E-1,2.1430355E-1,1.2392211E0,-2.7351528E-1],"split_indices":[15,11,28,49,31,34,10,0,0,0,0,0,0,0,0],"split_type":[0,0,0,0,0,0,0,0,0,0,0,0,0,0,0],"sum_hessian":[3.73E2,3.12E2,6.1E1,4.5E1,2.67E2,3.3E1,2.8E1,4.2E1,3E0,3.5E1,2.32E2,9E0,2.4E1,2.4E1,4E0],"tree_param":{"num_deleted":"0","num_feature":"53","num_nodes":"15","size_leaf_vector":"1"}},{"base_weights":[-2.441765E-1,-2.4820695E0,1.7370129E1,-1.3791576E1,-2.4760295E-1,2.4940498E1,-5.0441426E-1,-7.1825814E-1,9.035705E-1,1.0593468E0,-5.719362E-2,-1.896723E-1,1.2704133E0,-3.7198108E-1,2.6287344E-1],"categories":[],"categories_nodes":[],"categories_segments":[],"categories_sizes":[],"default_left":[0,0,0,0,0,0,0,0,0,0,0,0,0,0,0],"id":9,"left_children":[1,3,5,7,9,11,13,-1,-1,-1,-1,-1,-1,-1,-1],"loss_changes":[1.4160633E4,8.0401855E3,5.511787E3,8.968946E3,8.579996E3,6.145711E3,1.0552156E3,0E0,0E0,0E0,0E0,0E0,0E0,0E0,0E0],"parents":[2147483647,0,0,1,1,2,2,3,3,4,4,5,5,6,6],"right_children":[2,4,6,8,10,12,14,-1,-1,-1,-1,-1,-1,-1,-1],"split_conditions":[1.0851E2,1.5E0,1.3632E2,2E1,1.9037857E1,1E0,1.007E1,-7.1825814E-1,9.035705E-1,1.0593468E0,-5.719362E-2,-1.896723E-1,1.2704133E0,-3.7198108E-1,2.6287344E-1],"split_indices":[24,35,24,49,27,0,21,0,0,0,0,0,0,0,0],"split_type":[0,0,0,0,0,0,0,0,0,0,0,0,0,0,0],"sum_hessian":[3.54E2,3.16E2,3.8E1,5E1,2.66E2,2.6E1,1.2E1,4.6E1,4E0,9E0,2.57E2,5E0,2.1E1,5E0,7E0],"tree_param":{"num_deleted":"0","num_feature":"53","num_nodes":"15","size_leaf_vector":"1"}},{"base_weights":[6.72532E-2,-3.094414E0,1.1006499E1,-1.04720125E1,5.485789E-1,3.5282448E1,6.4414573E0,-5.6742567E-1,1.19511366E-1,7.114221E-1,-4.5960147E-2,1.9037503E0,2.2451471E-1,6.645015E-2,8.491053E-1],"categories":[],"categories_nodes":[],"categories_segments":[],"categories_sizes":[],"default_left":[0,0,0,0,0,0,0,0,0,0,0,0,0,0,0],"id":10,"left_children":[1,3,5,7,9,11,13,-1,-1,-1,-1,-1,-1,-1,-1],"loss_changes":[1.2726424E4,7.6876133E3,8.574533E3,4.8295137E3,5.7131294E3,3.8980479E3,5.036206E3,0E0,0E0,0E0,0E0,0E0,0E0,0E0,0E0],"parents":[2147483647,0,0,1,1,2,2,3,3,4,4,5,5,6,6],"right_children":[2,4,6,8,10,12,14,-1,-1,-1,-1,-1,-1,-1,-1],"split_conditions":[8.868E1,1.239E1,7.6939E2,3.0535715E1,7.6939E2,7.707E1,6.781E1,-5.6742567E-1,1.19511366E-1,7.114221E-1,-4.5960147E-2,1.9037503E0,2.2451471E-1,6.645015E-2,8.491053E-1],"split_indices":[24,11,33,23,33,35,40,0,0,0,0,0,0,0,0],"split_type":[0,0,0,0,0,0,0,0,0,0,0,0,0,0,0],"sum_hessian":[3.63E2,2.83E2,8E1,9.2E1,1.91E2,1E1,7E1,7.2E1,2E1,1.5E1,1.76E2,6E0,4E0,5.5E1,1.5E1],"tree_param":{"num_deleted":"0","num_feature":"53","num_nodes":"15","size_leaf_vector":"1"}},{"base_weights":[4.4423792E-1,-1.448547E0,1.2128537E1,-3.7032335E0,1.2283047E1,2.7523697E1,1.0110831E0,3.4700468E-1,-2.3100346E-1,9.6816206E-1,1.21964335E-1,1.4227748E0,2.5946004E-2,3.007008E-1,-1.9714352E-1],"categories":[],"categories_nodes":[],"categories_segments":[],"categories_sizes":[],"default_left":[0,0,0,0,0,0,0,0,0,0,0,0,0,0,0],"id":11,"left_children":[1,3,5,7,9,11,13,-1,-1,-1,-1,-1,-1,-1,-1],"loss_changes":[8.171502E3,9.974617E3,8.74491E3,7.190757E3,4.8240396E3,4.591217E3,1.3486252E3,0E0,0E0,0E0,0E0,0E0,0E0,0E0,0E0],"parents":[2147483647,0,0,1,1,2,2,3,3,4,4,5,5,6,6],"right_children":[2,4,6,8,10,12,14,-1,-1,-1,-1,-1,-1,-1,-1],"split_conditions":[6.177E1,1.33E2,7.9635E2,-7.818315E-1,1.1257143E0,2.5714285E0,8E0,3.4700468E-1,-2.3100346E-1,9.6816206E-1,1.21964335E-1,1.4227748E0,2.5946004E-2,3.007008E-1,-1.9714352E-1],"split_indices":[35,32,37,7,39,39,20,0,0,0,0,0,0,0,0],"split_type":[0,0,0,0,0,0,0,0,0,0,0,0,0,0,0],"sum_hessian":[3.65E2,3.16E2,4.9E1,2.73E2,4.3E1,1.9E1,3E1,3.8E1,2.35E2,1.7E1,2.6E1,1.4E1,5E0,1.4E1,1.6E1],"tree_param":{"num_deleted":"0","num_feature":"53","num_nodes":"15","size_leaf_vector":"1"}},{"base_weights":[-1.4663525E-1,-1.8346705E0,1.3986587E1,8.888235E0,-3.6465309E0,2.719416E1,4.069276E0,-2.6776606E-1,8.558429E-1,-2.1520032E-1,3.2519898E-1,1.4865587E0,2.7520943E-1,-1.6178697E-1,1.1737049E0],"categories":[],"categories_nodes":[],"categories_segments":[],"categories_sizes":[],"default_left":[0,0,0,0,0,0,0,0,0,0,0,0,0,0,0],"id":12,"left_children":[1,3,5,7,9,11,13,-1,-1,-1,-1,-1,-1,-1,-1],"loss_changes":[8.831738E3,6.502116E3,4.8972017E3,9.810815E3,5.9172188E3,2.7024355E3,5.5259033E3,0E0,0E0,0E0,0E0,0E0,0E0,0E0,0E0],"parents":[2147483647,0,0,1,1,2,2,3,3,4,4,5,5,6,6],"right_children":[2,4,6,8,10,12,14,-1,-1,-1,-1,-1,-1,-1,-1],"split_conditions":[1.0851E2,-7.818315E-1,9.428572E0,6E0,1.33E2,3.208E1,9.749279E-1,-2.6776606E-1,8.558429E-1,-2.1520032E-1,3.2519898E-1,1.4865587E0,2.7520943E-1,-1.6178697E-1,1.1737049E0],"split_indices":[24,7,26,1,32,21,7,0,0,0,0,0,0,0,0],"split_type":[0,0,0,0,0,0,0,0,0,0,0,0,0,0,0],"sum_hessian":[3.65E2,3.28E2,3.7E1,4.6E1,2.82E2,1.4E1,2.3E1,2.1E1,2.5E1,2.47E2,3.5E1,8E0,6E0,1.9E1,4E0],"tree_param":{"num_deleted":"0","num_feature":"53","num_nodes":"15","size_leaf_vector":"1"}},{"base_weights":[1.4678697E-1,-2.399566E0,8.004467E0,8.47695E0,-4.4408293E0,3.593414E1,4.627626E0,-1.8725826E-1,8.517394E-1,5.90726E-1,-2.1754779E-1,1.8376958E0,3.108999E-1,-2.025103E-1,4.832582E-1],"categories":[],"categories_nodes":[],"categories_segments":[],"categories_sizes":[],"default_left":[0,0,0,0,0,0,0,0,0,0,0,0,0,0,0],"id":13,"left_children":[1,3,5,7,9,11,13,-1,-1,-1,-1,-1,-1,-1,-1],"loss_changes":[7.481148E3,6.36613E3,8.214012E3,7.9225664E3,4.7915303E3,1.7848486E3,6.2563877E3,0E0,0E0,0E0,0E0,0E0,0E0,0E0,0E0],"parents":[2147483647,0,0,1,1,2,2,3,3,4,4,5,5,6,6],"right_children":[2,4,6,8,10,12,14,-1,-1,-1,-1,-1,-1,-1,-1],"split_conditions":[4.059714E1,-7.818315E-1,2.7478214E1,6E0,9.23E0,7.619E1,8.9697E2,-1.8725826E-1,8.517394E-1,5.90726E-1,-2.1754779E-1,1.8376958E0,3.108999E-1,-2.025103E-1,4.832582E-1],"split_indices":[23,7,31,1,40,35,37,0,0,0,0,0,0,0,0],"split_type":[0,0,0,0,0,0,0,0,0,0,0,0,0,0,0],"sum_hessian":[3.69E2,2.8E2,8.9E1,4.3E1,2.37E2,7E0,8.2E1,2.2E1,2.1E1,1E1,2.27E2,4E0,3E0,3.6E1,4.6E1],"tree_param":{"num_deleted":"0","num_feature":"53","num_nodes":"15","size_leaf_vector":"1"}},{"base_weights":[9.4007367E-1,-1.6791368E0,1.0481338E1,-2.6500018E0,1.7257673E1,-4.5978036E0,1.4766776E1,-4.1784722E-1,-4.228165E-3,1.6930737E-1,1.1201373E0,6.287929E-1,-4.9506068E-1,8.313537E-1,1.599398E-1],"categories":[],"categories_nodes":[],"categories_segments":[],"categories_sizes":[],"default_left":[0,0,0,0,0,0,0,0,0,0,0,0,0,0,0],"id":14,"left_children":[1,3,5,7,9,11,13,-1,-1,-1,-1,-1,-1,-1,-1],"loss_changes":[9.228036E3,5.4551997E3,5.307085E3,5.52151E3,1.7331455E3,3.5682695E3,3.841834E3,0E0,0E0,0E0,0E0,0E0,0E0,0E0,0E0],"parents":[2147483647,0,0,1,1,2,2,3,3,4,4,5,5,6,6],"right_children":[2,4,6,8,10,12,14,-1,-1,-1,-1,-1,-1,-1,-1],"split_conditions":[8.868E1,8.437E1,-2.2252093E-1,3E0,2.9595715E1,7.5486E2,2.5714285E0,-4.1784722E-1,-4.228165E-3,1.6930737E-1,1.1201373E0,6.287929E-1,-4.9506068E-1,8.313537E-1,1.599398E-1],"split_indices":[24,19,8,22,23,37,39,0,0,0,0,0,0,0,0],"split_type":[0,0,0,0,0,0,0,0,0,0,0,0,0,0,0],"sum_hessian":[3.65E2,2.88E2,7.7E1,2.76E2,1.2E1,1.7E1,6E1,6.6E1,2.1E2,7E0,5E0,4E0,1.3E1,3.7E1,2.3E1],"tree_param":{"num_deleted":"0","num_feature":"53","num_nodes":"15","size_leaf_vector":"1"}},{"base_weights":[-2.805158E-1,-2.137293E0,1.4881421E1,-8.492104E0,6.9323957E-1,3.063767E0,2.6613682E1,-5.458954E-1,-4.2295087E-2,7.460323E-1,-5.581152E-3,7.468609E-1,-2.55469E-1,1.5986267E0,-1.5963154E-1],"categories":[],"categories_nodes":[],"categories_segments":[],"categories_sizes":[],"default_left":[0,0,0,0,0,0,0,0,0,0,0,0,0,0,0],"id":15,"left_children":[1,3,5,7,9,11,13,-1,-1,-1,-1,-1,-1,-1,-1],"loss_changes":[1.0707023E4,6.103486E3,5.550039E3,3.9692114E3,3.5432441E3,3.7643982E3,8.775661E3,0E0,0E0,0E0,0E0,0E0,0E0,0E0,0E0],"parents":[2147483647,0,0,1,1,2,2,3,3,4,4,5,5,6,6],"right_children":[2,4,6,8,10,12,14,-1,-1,-1,-1,-1,-1,-1,-1],"split_conditions":[1.0851E2,5.538E1,5.923E1,4E0,4.857143E0,8.857142E0,-1.8369701E-16,-5.458954E-1,-4.2295087E-2,7.460323E-1,-5.581152E-3,7.468609E-1,-2.55469E-1,1.5986267E0,-1.5963154E-1],"split_indices":[24,24,15,0,34,26,10,0,0,0,0,0,0,0,0],"split_type":[0,0,0,0,0,0,0,0,0,0,0,0,0,0,0],"sum_hessian":[3.75E2,3.36E2,3.9E1,1.02E2,2.34E2,2.1E1,1.8E1,5.9E1,4.3E1,8E0,2.26E2,7E0,1.4E1,1.2E1,6E0],"tree_param":{"num_deleted":"0","num_feature":"53","num_nodes":"15","size_leaf_vector":"1"}},{"base_weights":[8.60952E-1,-8.107334E-1,1.3704586E1,-1.0825234E1,9.1455126E-1,2.6796453E1,1.8361645E0,-5.9825385E-1,8.902441E-1,5.9827185E-1,-2.953309E-2,1.4419463E0,2.6387545E-1,-1.9065066E-1,9.187502E-1],"categories":[],"categories_nodes":[],"categories_segments":[],"categories_sizes":[],"default_left":[0,0,0,0,0,0,0,0,0,0,0,0,0,0,0],"id":16,"left_children":[1,3,5,7,9,11,13,-1,-1,-1,-1,-1,-1,-1,-1],"loss_changes":[8.111426E3,5.821474E3,6.636014E3,7.596979E3,6.7237285E3,3.2367334E3,3.8316133E3,0E0,0E0,0E0,0E0,0E0,0E0,0E0,0E0],"parents":[2147483647,0,0,1,1,2,2,3,3,4,4,5,5,6,6],"right_children":[2,4,6,8,10,12,14,-1,-1,-1,-1,-1,-1,-1,-1],"split_conditions":[1.0851E2,5.4E-1,5.622286E1,2E1,2.7562857E1,4.3E1,1.7E1,-5.9825385E-1,8.902441E-1,5.9827185E-1,-2.953309E-2,1.4419463E0,2.6387545E-1,-1.9065066E-1,9.187502E-1],"split_indices":[24,11,23,49,31,3,12,0,0,0,0,0,0,0,0],"split_type":[0,0,0,0,0,0,0,0,0,0,0,0,0,0,0],"sum_hessian":[3.74E2,3.33E2,4.1E1,4.7E1,2.86E2,1.8E1,2.3E1,4.3E1,4E0,2.8E1,2.58E2,1.1E1,7E0,1.9E1,4E0],"tree_param":{"num_deleted":"0","num_feature":"53","num_nodes":"15","size_leaf_vector":"1"}},{"base_weights":[-2.4575613E-2,-2.1599283E0,1.0414012E1,-5.9993668E0,2.3371024E0,3.0665395E0,2.5093401E1,-8.133081E-2,-6.297988E-1,-5.8306146E-1,1.6116206E-1,-1.2089308E-1,4.5041025E-1,1.3523028E0,-5.121405E-2],"categories":[],"categories_nodes":[],"categories_segments":[],"categories_sizes":[],"default_left":[0,0,0,0,0,0,0,0,0,0,0,0,0,0,0],"id":17,"left_children":[1,3,5,7,9,11,13,-1,-1,-1,-1,-1,-1,-1,-1],"loss_changes":[8.203253E3,5.309838E3,6.5486514E3,6.3168716E3,4.22475E3,2.3052056E3,4.819635E3,0E0,0E0,0E0,0E0,0E0,0E0,0E0,0E0],"parents":[2147483647,0,0,1,1,2,2,3,3,4,4,5,5,6,6],"right_children":[2,4,6,8,10,12,14,-1,-1,-1,-1,-1,-1,-1,-1],"split_conditions":[5.908E1,4E0,1.0851E2,3E0,1.2735714E1,3.385E1,-1.8369701E-16,-8.133081E-2,-6.297988E-1,-5.8306146E-1,1.6116206E-1,-1.2089308E-1,4.5041025E-1,1.3523028E0,-5.121405E-2],"split_indices":[15,0,24,0,23,21,10,0,0,0,0,0,0,0,0],"split_type":[0,0,0,0,0,0,0,0,0,0,0,0,0,0,0],"sum_hessian":[3.63E2,3.03E2,6E1,1.63E2,1.4E2,4.2E1,1.8E1,1.18E2,4.5E1,1.1E1,1.29E2,2.5E1,1.7E1,1.3E1,5E0],"tree_param":{"num_deleted":"0","num_feature":"53","num_nodes":"15","size_leaf_vector":"1"}},{"base_weights":[2.0890853E-1,1.9483068E1,-6.7717195E-1,2.8935492E1,-1.5050013E0,9.487133E0,-2.4731448E0,2.556156E-1,1.2800059E0,-3.4319258E-1,1.9870295E-1,6.347048E-1,-1.599734E-1,-1.7676519E-1,3.7104443E-1],"categories":[],"categories_nodes":[],"categories_segments":[],"categories_sizes":[],"default_left":[0,0,0,0,0,0,0,0,0,0,0,0,0,0,0],"id":18,"left_children":[1,3,5,7,9,11,13,-1,-1,-1,-1,-1,-1,-1,-1],"loss_changes":[6.411787E3,3.382274E3,6.621263E3,2.8333496E2,4.4999408E2,4.8483887E3,7.133123E3,0E0,0E0,0E0,0E0,0E0,0E0,0E0,0E0],"parents":[2147483647,0,0,1,1,2,2,3,3,4,4,5,5,6,6],"right_children":[2,4,6,8,10,12,14,-1,-1,-1,-1,-1,-1,-1,-1],"split_conditions":[9.23E0,1.3E1,-7.818315E-1,1.8242857E0,1.4E1,1.915E1,1.33E2,2.556156E-1,1.2800059E0,-3.4319258E-1,1.9870295E-1,6.347048E-1,-1.599734E-1,-1.7676519E-1,3.7104443E-1],"split_indices":[40,12,7,27,12,13,32,0,0,0,0,0,0,0,0],"split_type":[0,0,0,0,0,0,0,0,0,0,0,0,0,0,0],"sum_hessian":[3.71E2,1.4E1,3.57E2,9E0,5E0,5.2E1,3.05E2,2E0,7E0,2E0,3E0,3.5E1,1.7E1,2.63E2,4.2E1],"tree_param":{"num_deleted":"0","num_feature":"53","num_nodes":"15","size_leaf_vector":"1"}},{"base_weights":[-8.704052E-2,-7.0358186E0,2.606598E0,3.359546E-1,-1.3803235E1,6.920276E-1,1.6713417E1,4.2831588E-1,-2.0371202E-1,-6.542614E-1,6.365963E-1,-2.739063E-1,1.756774E-1,1.018732E0,1.2955497E-2],"categories":[],"categories_nodes":[],"categories_segments":[],"categories_sizes":[],"default_left":[0,0,0,0,0,0,0,0,0,0,0,0,0,0,0],"id":19,"left_children":[1,3,5,7,9,11,13,-1,-1,-1,-1,-1,-1,-1,-1],"loss_changes":[6.8683765E3,5.1250986E3,7.114832E3,3.0361301E3,4.710328E3,6.6447266E3,4.4992617E3,0E0,0E0,0E0,0E0,0E0,0E0,0E0,0E0],"parents":[2147483647,0,0,1,1,2,2,3,3,4,4,5,5,6,6],"right_children":[2,4,6,8,10,12,14,-1,-1,-1,-1,-1,-1,-1,-1],"split_conditions":[-2.2252093E-1,0E0,1.0851E2,7.5486E2,1.2E1,1.362E1,5.622286E1,4.2831588E-1,-2.0371202E-1,-6.542614E-1,6.365963E-1,-2.739063E-1,1.756774E-1,1.018732E0,1.2955497E-2],"split_indices":[8,7,24,37,1,35,23,0,0,0,0,0,0,0,0],"split_type":[0,0,0,0,0,0,0,0,0,0,0,0,0,0,0],"sum_hessian":[3.62E2,1E2,2.62E2,4.9E1,5.1E1,2.33E2,2.9E1,1.6E1,3.3E1,4.8E1,3E0,7.6E1,1.57E2,1.8E1,1.1E1],"tree_param":{"num_deleted":"0","num_feature":"53","num_nodes":"15","size_leaf_vector":"1"}},{"base_weights":[5.5453733E-2,-1.5843399E0,1.057052E1,-2.7042558E0,1.6881363E1,2.074699E1,-5.0949965E0,-1.7006792E-1,2.1553458E-1,8.7305325E-1,-2.5702093E-2,1.0474504E0,-3.763243E-1,-3.5261118E-1,2.752306E-1],"categories":[],"categories_nodes":[],"categories_segments":[],"categories_sizes":[],"default_left":[0,0,0,0,0,0,0,0,0,0,0,0,0,0,0],"id":20,"left_children":[1,3,5,7,9,11,13,-1,-1,-1,-1,-1,-1,-1,-1],"loss_changes":[6.3267734E3,6.6800396E3,8.1555386E3,3.832918E3,1.6381826E3,5.6185703E3,1.109534E3,0E0,0E0,0E0,0E0,0E0,0E0,0E0,0E0],"parents":[2147483647,0,0,1,1,2,2,3,3,4,4,5,5,6,6],"right_children":[2,4,6,8,10,12,14,-1,-1,-1,-1,-1,-1,-1,-1],"split_conditions":[6.177E1,8.577E1,8.6297E2,5.908E1,7.15E0,5.645E1,2.1871428E0,-1.7006792E-1,2.1553458E-1,8.7305325E-1,-2.5702093E-2,1.0474504E0,-3.763243E-1,-3.5261118E-1,2.752306E-1],"split_indices":[35,19,37,15,52,17,39,0,0,0,0,0,0,0,0],"split_type":[0,0,0,0,0,0,0,0,0,0,0,0,0,0,0],"sum_hessian":[3.62E2,3.15E2,4.7E1,2.99E2,1.6E1,2.8E1,1.9E1,2.52E2,4.7E1,1.2E1,4E0,2.4E1,4E0,1.5E1,4E0],"tree_param":{"num_deleted":"0","num_feature":"53","num_nodes":"15","size_leaf_vector":"1"}},{"base_weights":[1.07399195E-1,-1.24082E1,2.0847678E0,-1.6864992E1,1.5646961E0,1.7609869E1,1.4287247E-1,-7.05396E-1,-5.002957E-2,-3.9073712E-1,4.975046E-1,-1.860494E-1,9.3942046E-1,-2.8148386E-1,1.0903922E-1],"categories":[],"categories_nodes":[],"categories_segments":[],"categories_sizes":[],"default_left":[0,0,0,0,0,0,0,0,0,0,0,0,0,0,0],"id":21,"left_children":[1,3,5,7,9,11,13,-1,-1,-1,-1,-1,-1,-1,-1],"loss_changes":[9.159543E3,3.2108237E3,9.626035E3,4.076875E2,2.0904897E3,4.9164307E3,5.361569E3,0E0,0E0,0E0,0E0,0E0,0E0,0E0,0E0],"parents":[2147483647,0,0,1,1,2,2,3,3,4,4,5,5,6,6],"right_children":[2,4,6,8,10,12,14,-1,-1,-1,-1,-1,-1,-1,-1],"split_conditions":[1.5E0,7.1428573E-1,2.7562857E1,4.6E1,8E0,1.187E1,-2.2252093E-1,-7.05396E-1,-5.002957E-2,-3.9073712E-1,4.975046E-1,-1.860494E-1,9.3942046E-1,-2.8148386E-1,1.0903922E-1],"split_indices":[35,39,31,3,22,11,8,0,0,0,0,0,0,0,0],"split_type":[0,0,0,0,0,0,0,0,0,0,0,0,0,0,0],"sum_hessian":[3.65E2,4.8E1,3.17E2,3.6E1,1.2E1,3.3E1,2.84E2,3.4E1,2E0,6E0,6E0,7E0,2.6E1,7.4E1,2.1E2],"tree_param":{"num_deleted":"0","num_feature":"53","num_nodes":"15","size_leaf_vector":"1"}},{"base_weights":[-5.435209E-1,1.5631488E1,-1.4369885E0,2.0275368E1,-4.444881E-1,-4.970305E0,3.4202404E0,-2.2170432E-1,9.800275E-1,-6.214958E-2,-5.3722876E-1,-5.1451826E-1,1.9272055E-1],"categories":[],"categories_nodes":[],"categories_segments":[],"categories_sizes":[],"default_left":[0,0,0,0,0,0,0,0,0,0,0,0,0],"id":22,"left_children":[1,3,5,7,-1,9,11,-1,-1,-1,-1,-1,-1],"loss_changes":[5.381661E3,2.9850527E3,6.0749873E3,2.2485557E3,0E0,5.859017E3,3.5575867E3,0E0,0E0,0E0,0E0,0E0,0E0],"parents":[2147483647,0,0,1,1,2,2,3,3,5,5,6,6],"right_children":[2,4,6,8,-1,10,12,-1,-1,-1,-1,-1,-1],"split_conditions":[9.23E0,6.552E1,4E0,5.4E-1,-4.444881E-1,3E0,1.2735714E1,-2.2170432E-1,9.800275E-1,-6.214958E-2,-5.3722876E-1,-5.1451826E-1,1.9272055E-1],"split_indices":[40,19,0,11,0,0,23,0,0,0,0,0,0],"split_type":[0,0,0,0,0,0,0,0,0,0,0,0,0],"sum_hessian":[3.66E2,1.7E1,3.49E2,1.5E1,2E0,2.02E2,1.47E2,2E0,1.3E1,1.46E2,5.6E1,1E1,1.37E2],"tree_param":{"num_deleted":"0","num_feature":"53","num_nodes":"13","size_leaf_vector":"1"}},{"base_weights":[2.0750712E-1,-1.9552749E0,1.080549E1,-1.1466382E1,-2.9438847E-1,1.9701736E1,4.8682433E-1,-5.826955E-1,7.0831686E-1,5.8471805E-1,-9.759531E-2,-1.1458028E-2,1.0400249E0,-1.0217477E-1,6.409781E-1],"categories":[],"categories_nodes":[],"categories_segments":[],"categories_sizes":[],"default_left":[0,0,0,0,0,0,0,0,0,0,0,0,0,0,0],"id":23,"left_children":[1,3,5,7,9,11,13,-1,-1,-1,-1,-1,-1,-1,-1],"loss_changes":[8.453412E3,4.833301E3,5.7133584E3,4.7612656E3,8.519674E3,4.236382E3,1.5907982E3,0E0,0E0,0E0,0E0,0E0,0E0,0E0,0E0],"parents":[2147483647,0,0,1,1,2,2,3,3,4,4,5,5,6,6],"right_children":[2,4,6,8,10,12,14,-1,-1,-1,-1,-1,-1,-1,-1],"split_conditions":[5.908E1,1.5E0,1.79E2,2E1,7.9042E2,4E0,1.2E1,-5.826955E-1,7.0831686E-1,5.8471805E-1,-9.759531E-2,-1.1458028E-2,1.0400249E0,-1.0217477E-1,6.409781E-1],"split_indices":[15,11,6,49,33,1,20,0,0,0,0,0,0,0,0],"split_type":[0,0,0,0,0,0,0,0,0,0,0,0,0,0,0],"sum_hessian":[3.64E2,3.04E2,6E1,4.3E1,2.61E2,3.1E1,2.9E1,4E1,3E0,3.1E1,2.3E2,8E0,2.3E1,2.6E1,3E0],"tree_param":{"num_deleted":"0","num_feature":"53","num_nodes":"15","size_leaf_vector":"1"}},{"base_weights":[2.1884394E-1,9.897133E0,-1.2965508E0,-2.36382E-1,1.8025434E1,1.9063309E1,-2.325666E0,-2.51236E-1,6.223263E-1,9.142779E-1,-9.910361E-2,-2.074039E-1,9.446347E-1,-1.659113E-1,3.404994E-1],"categories":[],"categories_nodes":[],"categories_segments":[],"categories_sizes":[],"default_left":[0,0,0,0,0,0,0,0,0,0,0,0,0,0,0],"id":24,"left_children":[1,3,5,7,9,11,13,-1,-1,-1,-1,-1,-1,-1,-1],"loss_changes":[5.363326E3,4.0878813E3,6.742347E3,2.5833225E3,2.8657432E3,2.0172075E3,6.0819023E3,0E0,0E0,0E0,0E0,0E0,0E0,0E0,0E0],"parents":[2147483647,0,0,1,1,2,2,3,3,4,4,5,5,6,6],"right_children":[2,4,6,8,10,12,14,-1,-1,-1,-1,-1,-1,-1,-1],"split_conditions":[-7.818315E-1,6E0,9.23E0,5.781E1,1.731E1,5.4E-1,1.33E2,-2.51236E-1,6.223263E-1,9.142779E-1,-9.910361E-2,-2.074039E-1,9.446347E-1,-1.659113E-1,3.404994E-1],"split_indices":[7,1,40,40,13,11,32,0,0,0,0,0,0,0,0],"split_type":[0,0,0,0,0,0,0,0,0,0,0,0,0,0,0],"sum_hessian":[3.61E2,4.7E1,3.14E2,2.2E1,2.5E1,1.3E1,3.01E2,1.7E1,5E0,2E1,5E0,2E0,1.1E1,2.59E2,4.2E1],"tree_param":{"num_deleted":"0","num_feature":"53","num_nodes":"15","size_leaf_vector":"1"}},{"base_weights":[6.8335935E-2,1.0012781E1,-1.4048746E0,-9.256023E0,2.3207607E1,9.598057E0,-3.0632176E0,-5.227697E-1,4.9640635E-1,4.897488E-1,1.6052738E0,3.526443E-2,8.968904E-1,-1.9740817E-1,2.7455938E-1],"categories":[],"categories_nodes":[],"categories_segments":[],"categories_sizes":[],"default_left":[0,0,0,0,0,0,0,0,0,0,0,0,0,0,0],"id":25,"left_children":[1,3,5,7,9,11,13,-1,-1,-1,-1,-1,-1,-1,-1],"loss_changes":[5.5070396E3,1.2868078E4,6.0492754E3,2.1817632E3,4.2454775E3,4.813075E3,5.4088877E3,0E0,0E0,0E0,0E0,0E0,0E0,0E0,0E0],"parents":[2147483647,0,0,1,1,2,2,3,3,4,4,5,5,6,6],"right_children":[2,4,6,8,10,12,14,-1,-1,-1,-1,-1,-1,-1,-1],"split_conditions":[2.7562857E1,1.187E1,-7.818315E-1,2.7270714E1,4.591E1,3.330464E1,1.33E2,-5.227697E-1,4.9640635E-1,4.897488E-1,1.6052738E0,3.526443E-2,8.968904E-1,-1.9740817E-1,2.7455938E-1],"split_indices":[31,11,7,31,15,31,32,0,0,0,0,0,0,0,0],"split_type":[0,0,0,0,0,0,0,0,0,0,0,0,0,0,0],"sum_hessian":[3.71E2,4.6E1,3.25E2,1.9E1,2.7E1,4.1E1,2.84E2,1.7E1,2E0,1.9E1,8E0,2.6E1,1.5E1,2.4E2,4.4E1],"tree_param":{"num_deleted":"0","num_feature":"53","num_nodes":"15","size_leaf_vector":"1"}},{"base_weights":[2.5853837E-1,1.581004E1,-5.525703E-1,2.0552284E1,-8.495982E-1,-9.551312E0,1.138343E0,-1.9442303E-1,1.0236183E0,-1.7805606E-1,1.2896816E-1,-6.092383E-1,2.8943654E-2,-2.8204445E-2,3.7364364E-1],"categories":[],"categories_nodes":[],"categories_segments":[],"categories_sizes":[],"default_left":[0,0,0,0,0,0,0,0,0,0,0,0,0,0,0],"id":26,"left_children":[1,3,5,7,9,11,13,-1,-1,-1,-1,-1,-1,-1,-1],"loss_changes":[4.707926E3,1.5052285E3,5.4365024E3,2.16746E3,1.312553E2,3.324768E3,4.5755654E3,0E0,0E0,0E0,0E0,0E0,0E0,0E0,0E0],"parents":[2147483647,0,0,1,1,2,2,3,3,4,4,5,5,6,6],"right_children":[2,4,6,8,10,12,14,-1,-1,-1,-1,-1,-1,-1,-1],"split_conditions":[9.23E0,7.707E1,3.31E0,7.714286E-2,2.045E1,8.660254E-1,6.781E1,-1.9442303E-1,1.0236183E0,-1.7805606E-1,1.2896816E-1,-6.092383E-1,2.8943654E-2,-2.8204445E-2,3.7364364E-1],"split_indices":[40,35,17,23,21,9,40,0,0,0,0,0,0,0,0],"split_type":[0,0,0,0,0,0,0,0,0,0,0,0,0,0,0],"sum_hessian":[3.69E2,1.6E1,3.53E2,1.2E1,4E0,5.4E1,2.99E2,2E0,1E1,2E0,2E0,3.4E1,2E1,2.46E2,5.3E1],"tree_param":{"num_deleted":"0","num_feature":"53","num_nodes":"15","size_leaf_vector":"1"}},{"base_weights":[7.70006E-2,-1.7419086E0,9.318687E0,-5.6646004E0,3.1468742E0,1.766965E1,7.648094E-1,-8.534292E-2,-5.8038396E-1,4.088285E-1,-7.867212E-3,-7.5536236E-2,9.478538E-1,-1.2756933E-1,3.9235243E-1],"categories":[],"categories_nodes":[],"categories_segments":[],"categories_sizes":[],"default_left":[0,0,0,0,0,0,0,0,0,0,0,0,0,0,0],"id":27,"left_children":[1,3,5,7,9,11,13,-1,-1,-1,-1,-1,-1,-1,-1],"loss_changes":[6.1845586E3,5.9415493E3,4.287918E3,5.2788833E3,3.280795E3,3.70692E3,1.2404185E3,0E0,0E0,0E0,0E0,0E0,0E0,0E0,0E0],"parents":[2147483647,0,0,1,1,2,2,3,3,4,4,5,5,6,6],"right_children":[2,4,6,8,10,12,14,-1,-1,-1,-1,-1,-1,-1,-1],"split_conditions":[5.908E1,4E0,1.79E2,3E0,7.6711E2,4E0,3.673E1,-8.534292E-2,-5.8038396E-1,4.088285E-1,-7.867212E-3,-7.5536236E-2,9.478538E-1,-1.2756933E-1,3.9235243E-1],"split_indices":[15,0,6,0,37,1,35,0,0,0,0,0,0,0,0],"split_type":[0,0,0,0,0,0,0,0,0,0,0,0,0,0,0],"sum_hessian":[3.63E2,3.05E2,5.8E1,1.69E2,1.36E2,2.8E1,3E1,1.23E2,4.6E1,4.2E1,9.4E1,7E0,2.1E1,2.2E1,8E0],"tree_param":{"num_deleted":"0","num_feature":"53","num_nodes":"15","size_leaf_vector":"1"}},{"base_weights":[-5.9047904E-2,-7.045321E-1,1.6266302E1,2.989901E0,-3.298711E0,2.2577675E1,-4.1208494E-1,-5.053541E-1,1.7710726E-1,7.3444474E-1,-1.7399763E-1,1.0752901E-1,1.3976494E0],"categories":[],"categories_nodes":[],"categories_segments":[],"categories_sizes":[],"default_left":[0,0,0,0,0,0,0,0,0,0,0,0,0],"id":28,"left_children":[1,3,5,7,9,11,-1,-1,-1,-1,-1,-1,-1],"loss_changes":[4.0171912E3,3.5372007E3,3.0129023E3,3.5655344E3,5.1292627E3,2.83898E3,0E0,0E0,0E0,0E0,0E0,0E0,0E0],"parents":[2147483647,0,0,1,1,2,2,3,3,4,4,5,5],"right_children":[2,4,6,8,10,12,-1,-1,-1,-1,-1,-1,-1],"split_conditions":[9.162E1,0E0,1.3632E2,1.2735714E1,9.23E0,8.685714E-1,-4.1208494E-1,-5.053541E-1,1.7710726E-1,7.3444474E-1,-1.7399763E-1,1.0752901E-1,1.3976494E0],"split_indices":[15,7,15,23,40,39,0,0,0,0,0,0,0],"split_type":[0,0,0,0,0,0,0,0,0,0,0,0,0],"sum_hessian":[3.76E2,3.64E2,1.2E1,1.5E2,2.14E2,1E1,2E0,1.1E1,1.39E2,8E0,2.06E2,5E0,5E0],"tree_param":{"num_deleted":"0","num_feature":"53","num_nodes":"13","size_leaf_vector":"1"}},{"base_weights":[8.447871E-1,9.418984E0,-6.3732123E-1,1.3371089E-1,1.820383E1,8.714815E0,-2.392501E0,-2.942459E-1,4.1491318E-1,8.532912E-1,-4.1330025E-1,-3.2456073E-1,8.386786E-1,-1.706904E-1,2.8945443E-1],"categories":[],"categories_nodes":[],"categories_segments":[],"categories_sizes":[],"default_left":[0,0,0,0,0,0,0,0,0,0,0,0,0,0,0],"id":29,"left_children":[1,3,5,7,9,11,13,-1,-1,-1,-1,-1,-1,-1,-1],"loss_changes":[4.78682E3,4.521033E3,5.345861E3,2.4531018E3,3.0953643E3,1.1044068E4,5.0143643E3,0E0,0E0,0E0,0E0,0E0,0E0,0E0,0E0],"parents":[2147483647,0,0,1,1,2,2,3,3,4,4,5,5,6,6],"right_children":[2,4,6,8,10,12,14,-1,-1,-1,-1,-1,-1,-1,-1],"split_conditions":[-7.818315E-1,2.4E1,2.8229286E1,1.038E1,8.857142E0,1.187E1,1.33E2,-2.942459E-1,4.1491318E-1,8.532912E-1,-4.1330025E-1,-3.2456073E-1,8.386786E-1,-1.706904E-1,2.8945443E-1],"split_indices":[7,3,31,43,26,11,32,0,0,0,0,0,0,0,0],"split_type":[0,0,0,0,0,0,0,0,0,0,0,0,0,0,0],"sum_hessian":[3.73E2,5.3E1,3.2E2,2.7E1,2.6E1,4.9E1,2.71E2,1.6E1,1.1E1,2.4E1,2E0,2.1E1,2.8E1,2.28E2,4.3E1],"tree_param":{"num_deleted":"0","num_feature":"53","num_nodes":"15","size_leaf_vector":"1"}},{"base_weights":[1.8235476E-1,-7.5743467E-1,1.3570131E1,1.2508198E1,-1.4876314E0,1.8603292E1,-7.5229645E0,7.6268417E-1,-2.7736226E-1,-6.0154516E-1,-2.563941E-2,6.57985E-2,9.523361E-1,-3.5899106E-1,-7.566912E-2],"categories":[],"categories_nodes":[],"categories_segments":[],"categories_sizes":[],"default_left":[0,0,0,0,0,0,0,0,0,0,0,0,0,0,0],"id":30,"left_children":[1,3,5,7,9,11,13,-1,-1,-1,-1,-1,-1,-1,-1],"loss_changes":[4.6997944E3,3.4319583E3,2.950921E3,2.6896501E3,3.8021128E3,1.711625E3,1.0696136E1,0E0,0E0,0E0,0E0,0E0,0E0,0E0,0E0],"parents":[2147483647,0,0,1,1,2,2,3,3,4,4,5,5,6,6],"right_children":[2,4,6,8,10,12,14,-1,-1,-1,-1,-1,-1,-1,-1],"split_conditions":[8.577E1,9.23E0,4.692107E1,1.3E1,1.2735714E1,1.362E1,1.2422E2,7.6268417E-1,-2.7736226E-1,-6.0154516E-1,-2.563941E-2,6.57985E-2,9.523361E-1,-3.5899106E-1,-7.566912E-2],"split_indices":[19,40,31,12,23,17,19,0,0,0,0,0,0,0,0],"split_type":[0,0,0,0,0,0,0,0,0,0,0,0,0,0,0],"sum_hessian":[3.69E2,3.47E2,2.2E1,1.6E1,3.31E2,1.8E1,4E0,1.2E1,4E0,1.7E1,3.14E2,5E0,1.3E1,2E0,2E0],"tree_param":{"num_deleted":"0","num_feature":"53","num_nodes":"15","size_leaf_vector":"1"}},{"base_weights":[6.1794317E-1,-7.455328E-1,1.1088379E1,1.0857717E1,-1.7525254E0,2.0980753E1,1.6796194E0,1.0572698E0,7.513416E-2,9.791818E-2,-1.974053E-1,1.1080017E0,1.3390483E-1,-2.2853181E-1,9.7398907E-1],"categories":[],"categories_nodes":[],"categories_segments":[],"categories_sizes":[],"default_left":[0,0,0,0,0,0,0,0,0,0,0,0,0,0,0],"id":31,"left_children":[1,3,5,7,9,11,13,-1,-1,-1,-1,-1,-1,-1,-1],"loss_changes":[5.267166E3,3.874208E3,3.8675864E3,3.581768E3,4.0875352E3,2.1970615E3,4.4539487E3,0E0,0E0,0E0,0E0,0E0,0E0,0E0,0E0],"parents":[2147483647,0,0,1,1,2,2,3,3,4,4,5,5,6,6],"right_children":[2,4,6,8,10,12,14,-1,-1,-1,-1,-1,-1,-1,-1],"split_conditions":[1.0851E2,-8.660254E-1,9.428572E0,1.923E1,8.5036E2,4.3E1,9.749279E-1,1.0572698E0,7.513416E-2,9.791818E-2,-1.974053E-1,1.1080017E0,1.3390483E-1,-2.2853181E-1,9.7398907E-1],"split_indices":[24,10,26,35,33,3,7,0,0,0,0,0,0,0,0],"split_type":[0,0,0,0,0,0,0,0,0,0,0,0,0,0,0],"sum_hessian":[3.65E2,3.25E2,4E1,2.4E1,3.01E2,1.8E1,2.2E1,7E0,1.7E1,1.3E2,1.71E2,1.2E1,6E0,1.8E1,4E0],"tree_param":{"num_deleted":"0","num_feature":"53","num_nodes":"15","size_leaf_vector":"1"}},{"base_weights":[5.109488E-1,-6.954038E-1,1.0204696E1,-9.172344E0,9.204294E-1,2.119849E1,1.6594738E0,-4.6720904E-1,7.0271367E-1,5.0202286E-1,-2.2762718E-2,1.2753224E0,1.5242703E-1,-2.08485E-1,9.50014E-1],"categories":[],"categories_nodes":[],"categories_segments":[],"categories_sizes":[],"default_left":[0,0,0,0,0,0,0,0,0,0,0,0,0,0,0],"id":32,"left_children":[1,3,5,7,9,11,13,-1,-1,-1,-1,-1,-1,-1,-1],"loss_changes":[4.280232E3,4.4932817E3,3.7168032E3,4.033706E3,4.8076836E3,2.947433E3,4.1803657E3,0E0,0E0,0E0,0E0,0E0,0E0,0E0,0E0],"parents":[2147483647,0,0,1,1,2,2,3,3,4,4,5,5,6,6],"right_children":[2,4,6,8,10,12,14,-1,-1,-1,-1,-1,-1,-1,-1],"split_conditions":[1.0851E2,1.5E0,9.428572E0,2E1,2.7562857E1,2E1,9.749279E-1,-4.6720904E-1,7.0271367E-1,5.0202286E-1,-2.2762718E-2,1.2753224E0,1.5242703E-1,-2.08485E-1,9.50014E-1],"split_indices":[24,35,26,49,31,2,7,0,0,0,0,0,0,0,0],"split_type":[0,0,0,0,0,0,0,0,0,0,0,0,0,0,0],"sum_hessian":[3.62E2,3.24E2,3.8E1,5E1,2.74E2,1.5E1,2.3E1,4.7E1,3E0,2.9E1,2.45E2,8E0,7E0,1.9E1,4E0],"tree_param":{"num_deleted":"0","num_feature":"53","num_nodes":"15","size_leaf_vector":"1"}},{"base_weights":[2.2866517E-1,-1.6328211E0,7.7808013E0,-2.7950861E0,1.007487E1,3.2371887E1,3.5417418E0,-1.3430725E-1,6.29288E-1,-1.5637581E-1,1.0120413E0,1.5747418E0,4.686371E-2,5.617886E-1,-7.386552E-2],"categories":[],"categories_nodes":[],"categories_segments":[],"categories_sizes":[],"default_left":[0,0,0,0,0,0,0,0,0,0,0,0,0,0,0],"id":33,"left_children":[1,3,5,7,9,11,13,-1,-1,-1,-1,-1,-1,-1,-1],"loss_changes":[5.2262656E3,4.1322207E3,7.3752334E3,2.982849E3,6.1027637E3,2.1768174E3,3.7717468E3,0E0,0E0,0E0,0E0,0E0,0E0,0E0,0E0],"parents":[2147483647,0,0,1,1,2,2,3,3,4,4,5,5,6,6],"right_children":[2,4,6,8,10,12,14,-1,-1,-1,-1,-1,-1,-1,-1],"split_conditions":[5.118E1,7.907E1,2.7104286E1,1.8E1,3.8802856E1,9.407E1,3.1872143E1,-1.3430725E-1,6.29288E-1,-1.5637581E-1,1.0120413E0,1.5747418E0,4.686371E-2,5.617886E-1,-7.386552E-2],"split_indices":[35,15,31,20,27,11,27,0,0,0,0,0,0,0,0],"split_type":[0,0,0,0,0,0,0,0,0,0,0,0,0,0,0],"sum_hessian":[3.67E2,2.96E2,7.1E1,2.71E2,2.5E1,8E0,6.3E1,2.65E2,6E0,1.4E1,1.1E1,6E0,2E0,2E1,4.3E1],"tree_param":{"num_deleted":"0","num_feature":"53","num_nodes":"15","size_leaf_vector":"1"}},{"base_weights":[2.691386E-1,-6.1091456E0,2.8203218E0,-7.611513E0,8.0651355E-1,5.961631E-1,1.0607864E1,-5.2082616E-1,-1.0142953E-1,-2.77644E-1,1.3423687E-1,5.60713E-1,-9.5665604E-2],"categories":[],"categories_nodes":[],"categories_segments":[],"categories_sizes":[],"default_left":[0,0,0,0,0,0,0,0,0,0,0,0,0],"id":34,"left_children":[1,3,5,7,-1,9,11,-1,-1,-1,-1,-1,-1],"loss_changes":[6.1207305E3,4.6267188E3,4.6348057E3,2.7591104E3,0E0,4.4576523E3,2.7213188E3,0E0,0E0,0E0,0E0,0E0,0E0],"parents":[2147483647,0,0,1,1,2,2,3,3,5,5,6,6],"right_children":[2,4,6,8,-1,10,12,-1,-1,-1,-1,-1,-1],"split_conditions":[-2.2252093E-1,1.5E1,8.868E1,4E0,8.0651355E-1,1.37E2,4.376E1,-5.2082616E-1,-1.0142953E-1,-2.77644E-1,1.3423687E-1,5.60713E-1,-9.5665604E-2],"split_indices":[8,22,24,18,0,6,21,0,0,0,0,0,0],"split_type":[0,0,0,0,0,0,0,0,0,0,0,0,0],"sum_hessian":[3.71E2,1.05E2,2.66E2,1.01E2,4E0,2.09E2,5.7E1,4.7E1,5.4E1,5.5E1,1.54E2,4.5E1,1.2E1],"tree_param":{"num_deleted":"0","num_feature":"53","num_nodes":"13","size_leaf_vector":"1"}},{"base_weights":[1.21852614E-1,-1.4388258E0,7.47805E0,-2.2556348E0,1.2045699E1,1.8211334E1,6.9104844E-1,6.947575E-2,-2.094763E-1,6.4545256E-1,-3.4945023E-1,1.0167094E0,-2.6383036E-1,6.9500214E-1,-8.987663E-2],"categories":[],"categories_nodes":[],"categories_segments":[],"categories_sizes":[],"default_left":[0,0,0,0,0,0,0,0,0,0,0,0,0,0,0],"id":35,"left_children":[1,3,5,7,9,11,13,-1,-1,-1,-1,-1,-1,-1,-1],"loss_changes":[4.165677E3,3.3667036E3,4.594311E3,3.4090918E3,1.8401194E3,4.7989854E3,2.1318066E3,0E0,0E0,0E0,0E0,0E0,0E0,0E0,0E0],"parents":[2147483647,0,0,1,1,2,2,3,3,4,4,5,5,6,6],"right_children":[2,4,6,8,10,12,14,-1,-1,-1,-1,-1,-1,-1,-1],"split_conditions":[5.908E1,8.437E1,1.49E2,3.0298214E1,4.692107E1,1E0,1E1,6.947575E-2,-2.094763E-1,6.4545256E-1,-3.4945023E-1,1.0167094E0,-2.6383036E-1,6.9500214E-1,-8.987663E-2],"split_indices":[15,19,6,31,31,9,16,0,0,0,0,0,0,0,0],"split_type":[0,0,0,0,0,0,0,0,0,0,0,0,0,0,0],"sum_hessian":[3.58E2,2.97E2,6.1E1,2.82E2,1.5E1,2.2E1,3.9E1,1.21E2,1.61E2,1.3E1,2E0,1.7E1,5E0,4E0,3.5E1],"tree_param":{"num_deleted":"0","num_feature":"53","num_nodes":"15","size_leaf_vector":"1"}},{"base_weights":[2.3167546E-1,-3.7481792E0,2.5599234E0,-5.989852E0,6.2911406E0,1.4983914E1,1.2391863E0,-4.545551E-1,-1.0892522E-1,-3.4161252E-1,5.084066E-1,-6.8956785E-2,9.1229755E-1,3.0562752E-1,-9.724757E-2],"categories":[],"categories_nodes":[],"categories_segments":[],"categories_sizes":[],"default_left":[0,0,0,0,0,0,0,0,0,0,0,0,0,0,0],"id":36,"left_children":[1,3,5,7,9,11,13,-1,-1,-1,-1,-1,-1,-1,-1],"loss_changes":[3.4756057E3,3.211132E3,3.8342683E3,1.9327349E3,2.7942632E3,3.0393638E3,5.1333057E3,0E0,0E0,0E0,0E0,0E0,0E0,0E0,0E0],"parents":[2147483647,0,0,1,1,2,2,3,3,4,4,5,5,6,6],"right_children":[2,4,6,8,10,12,14,-1,-1,-1,-1,-1,-1,-1,-1],"split_conditions":[1.503E1,6.337E1,2.7478214E1,1.5E0,2.392E1,4E0,2.115E1,-4.545551E-1,-1.0892522E-1,-3.4161252E-1,5.084066E-1,-6.8956785E-2,9.1229755E-1,3.0562752E-1,-9.724757E-2],"split_indices":[35,40,31,11,17,14,13,0,0,0,0,0,0,0,0],"split_type":[0,0,0,0,0,0,0,0,0,0,0,0,0,0,0],"sum_hessian":[3.7E2,1.36E2,2.34E2,1.12E2,2.4E1,2E1,2.14E2,4E1,7.2E1,7E0,1.7E1,7E0,1.3E1,7.7E1,1.37E2],"tree_param":{"num_deleted":"0","num_feature":"53","num_nodes":"15","size_leaf_vector":"1"}},{"base_weights":[7.7159256E-1,-3.8973956E0,3.2595046E0,-5.24088E0,6.581129E-1,1.744811E1,1.6890173E0,-2.6243412E-1,3.524488E-1,1.3668762E-1,1.253848E0,2.64587E-1,-9.355858E-2],"categories":[],"categories_nodes":[],"categories_segments":[],"categories_sizes":[],"default_left":[0,0,0,0,0,0,0,0,0,0,0,0,0],"id":37,"left_children":[1,3,5,7,-1,9,11,-1,-1,-1,-1,-1,-1],"loss_changes":[4.2541865E3,3.7014438E3,5.240826E3,2.3981523E3,0E0,4.3147803E3,4.3539785E3,0E0,0E0,0E0,0E0,0E0,0E0],"parents":[2147483647,0,0,1,1,2,2,3,3,5,5,6,6],"right_children":[2,4,6,8,-1,10,12,-1,-1,-1,-1,-1,-1],"split_conditions":[1.503E1,4.15E2,2.7478214E1,1.2422E2,6.581129E-1,5E0,7E0,-2.6243412E-1,3.524488E-1,1.3668762E-1,1.253848E0,2.64587E-1,-9.355858E-2],"split_indices":[35,6,31,28,0,16,14,0,0,0,0,0,0],"split_type":[0,0,0,0,0,0,0,0,0,0,0,0,0],"sum_hessian":[3.61E2,1.25E2,2.36E2,1.19E2,6E0,2.1E1,2.15E2,1.1E2,9E0,1.2E1,9E0,9.6E1,1.19E2],"tree_param":{"num_deleted":"0","num_feature":"53","num_nodes":"13","size_leaf_vector":"1"}},{"base_weights":[1.6250195E-1,-1.2373732E0,7.2918453E0,-2.425813E0,7.947896E0,1.6648102E1,-1.2368269E0,-1.3111013E-1,4.3188816E-1,7.637919E-1,-4.4383943E-2,1.0700097E0,1.2836131E-1,4.434711E-1,-1.5047158E-1],"categories":[],"categories_nodes":[],"categories_segments":[],"categories_sizes":[],"default_left":[0,0,0,0,0,0,0,0,0,0,0,0,0,0,0],"id":38,"left_children":[1,3,5,7,9,11,13,-1,-1,-1,-1,-1,-1,-1,-1],"loss_changes":[3.7401777E3,3.4704097E3,4.958959E3,3.237106E3,3.7381182E3,3.790413E3,1.1777894E3,0E0,0E0,0E0,0E0,0E0,0E0,0E0,0E0],"parents":[2147483647,0,0,1,1,2,2,3,3,4,4,5,5,6,6],"right_children":[2,4,6,8,10,12,14,-1,-1,-1,-1,-1,-1,-1,-1],"split_conditions":[5.908E1,7.244E1,1.73E2,8.413E1,6.071429E0,3.43E1,6.168E1,-1.3111013E-1,4.3188816E-1,7.637919E-1,-4.4383943E-2,1.0700097E0,1.2836131E-1,4.434711E-1,-1.5047158E-1],"split_indices":[15,11,6,19,30,17,15,0,0,0,0,0,0,0,0],"split_type":[0,0,0,0,0,0,0,0,0,0,0,0,0,0,0],"sum_hessian":[3.7E2,3.11E2,5.9E1,2.77E2,3.4E1,2.7E1,3.2E1,2.62E2,1.5E1,1.4E1,2E1,1.4E1,1.3E1,4E0,2.8E1],"tree_param":{"num_deleted":"0","num_feature":"53","num_nodes":"15","size_leaf_vector":"1"}},{"base_weights":[6.0238594E-1,-9.217601E-1,8.897839E0,6.8614736E0,-2.2469304E0,3.3584201E0,1.7524982E1,-1.5067431E-1,6.226688E-1,-4.6846103E-2,-5.7278305E-1,4.327991E-1,-2.3067844E-1,1.2832235E0,1.9868006E-1],"categories":[],"categories_nodes":[],"categories_segments":[],"categories_sizes":[],"default_left":[0,0,0,0,0,0,0,0,0,0,0,0,0,0,0],"id":39,"left_children":[1,3,5,7,9,11,13,-1,-1,-1,-1,-1,-1,-1,-1],"loss_changes":[4.6037656E3,3.2204463E3,2.5529585E3,4.356356E3,3.4062512E3,2.7093547E3,3.531604E3,0E0,0E0,0E0,0E0,0E0,0E0,0E0,0E0],"parents":[2147483647,0,0,1,1,2,2,3,3,4,4,5,5,6,6],"right_children":[2,4,6,8,10,12,14,-1,-1,-1,-1,-1,-1,-1,-1],"split_conditions":[5.908E1,-7.818315E-1,4.164357E1,6E0,3.977E1,1.1257143E0,8.5E0,-1.5067431E-1,6.226688E-1,-4.6846103E-2,-5.7278305E-1,4.327991E-1,-2.3067844E-1,1.2832235E0,1.9868006E-1],"split_indices":[15,7,27,1,46,39,30,0,0,0,0,0,0,0,0],"split_type":[0,0,0,0,0,0,0,0,0,0,0,0,0,0,0],"sum_hessian":[3.6E2,3.06E2,5.4E1,4.3E1,2.63E2,3.5E1,1.9E1,2E1,2.3E1,2.44E2,1.9E1,1.9E1,1.6E1,7E0,1.2E1],"tree_param":{"num_deleted":"0","num_feature":"53","num_nodes":"15","size_leaf_vector":"1"}},{"base_weights":[6.1709565E-1,-1.4148415E0,5.753469E0,-9.200105E0,-1.3251713E-1,1.3264693E1,-1.1048512E0,-5.0752306E-1,6.9980156E-1,9.4097793E-1,-4.441352E-2,8.359247E-1,1.881187E-1,-2.795272E-1,2.4650215E-1],"categories":[],"categories_nodes":[],"categories_segments":[],"categories_sizes":[],"default_left":[0,0,0,0,0,0,0,0,0,0,0,0,0,0,0],"id":40,"left_children":[1,3,5,7,9,11,13,-1,-1,-1,-1,-1,-1,-1,-1],"loss_changes":[3.9602385E3,2.717383E3,5.5744355E3,4.139756E3,5.5360825E3,3.1200889E3,2.60892E3,0E0,0E0,0E0,0E0,0E0,0E0,0E0,0E0],"parents":[2147483647,0,0,1,1,2,2,3,3,4,4,5,5,6,6],"right_children":[2,4,6,8,10,12,14,-1,-1,-1,-1,-1,-1,-1,-1],"split_conditions":[4.493E1,1.5E0,2.16E2,2E1,1.9037857E1,3.43E1,1.7814286E0,-5.0752306E-1,6.9980156E-1,9.4097793E-1,-4.441352E-2,8.359247E-1,1.881187E-1,-2.795272E-1,2.4650215E-1],"split_indices":[15,35,6,49,27,17,39,0,0,0,0,0,0,0,0],"split_type":[0,0,0,0,0,0,0,0,0,0,0,0,0,0,0],"sum_hessian":[3.75E2,2.7E2,1.05E2,3.6E1,2.34E2,4.9E1,5.6E1,3.3E1,3E0,7E0,2.27E2,2.4E1,2.5E1,3.1E1,2.5E1],"tree_param":{"num_deleted":"0","num_feature":"53","num_nodes":"15","size_leaf_vector":"1"}},{"base_weights":[-1.875933E-1,-1.4037379E0,7.7326536E0,-2.1223812E0,1.1670776E1,1.467876E1,-3.3433456E0,-3.3887196E-1,-2.997031E-2,-3.0930164E-1,6.1686456E-1,7.5831777E-1,-3.6284655E-1,-2.850002E-1,3.249579E-1],"categories":[],"categories_nodes":[],"categories_segments":[],"categories_sizes":[],"default_left":[0,0,0,0,0,0,0,0,0,0,0,0,0,0,0],"id":41,"left_children":[1,3,5,7,9,11,13,-1,-1,-1,-1,-1,-1,-1,-1],"loss_changes":[3.6536467E3,3.1484814E3,4.0079119E3,2.717391E3,1.5717478E3,3.6312827E3,1.077064E3,0E0,0E0,0E0,0E0,0E0,0E0,0E0,0E0],"parents":[2147483647,0,0,1,1,2,2,3,3,4,4,5,5,6,6],"right_children":[2,4,6,8,10,12,14,-1,-1,-1,-1,-1,-1,-1,-1],"split_conditions":[6.177E1,8.577E1,8.7347E2,2E0,5.4E-1,5.645E1,6.984E1,-3.3887196E-1,-2.997031E-2,-3.0930164E-1,6.1686456E-1,7.5831777E-1,-3.6284655E-1,-2.850002E-1,3.249579E-1],"split_indices":[35,19,37,22,35,17,17,0,0,0,0,0,0,0,0],"split_type":[0,0,0,0,0,0,0,0,0,0,0,0,0,0,0],"sum_hessian":[3.74E2,3.26E2,4.8E1,3.11E2,1.5E1,2.9E1,1.9E1,5.3E1,2.58E2,2E0,1.3E1,2.5E1,4E0,1.5E1,4E0],"tree_param":{"num_deleted":"0","num_feature":"53","num_nodes":"15","size_leaf_vector":"1"}},{"base_weights":[1.3051945E-1,-8.9823407E-1,9.120596E0,-3.7517412E0,2.9958253E0,2.1184366E1,-1.3466895E0,-1.8525296E-1,5.3068864E-1,4.9341694E-1,-8.440019E-2,1.0341829E0,1.047352E-1,-2.642842E-1,5.981006E-1],"categories":[],"categories_nodes":[],"categories_segments":[],"categories_sizes":[],"default_left":[0,0,0,0,0,0,0,0,0,0,0,0,0,0,0],"id":42,"left_children":[1,3,5,7,9,11,13,-1,-1,-1,-1,-1,-1,-1,-1],"loss_changes":[3.55806E3,3.8672002E3,5.0591816E3,3.1550134E3,7.098814E3,1.4348369E3,2.2618862E3,0E0,0E0,0E0,0E0,0E0,0E0,0E0,0E0],"parents":[2147483647,0,0,1,1,2,2,3,3,4,4,5,5,6,6],"right_children":[2,4,6,8,10,12,14,-1,-1,-1,-1,-1,-1,-1,-1],"split_conditions":[1.0851E2,3.565E1,5.622286E1,5.376E1,3.0738214E1,4.151E1,1.7E1,-1.8525296E-1,5.3068864E-1,4.9341694E-1,-8.440019E-2,1.0341829E0,1.047352E-1,-2.642842E-1,5.981006E-1],"split_indices":[24,21,23,43,31,21,12,0,0,0,0,0,0,0,0],"split_type":[0,0,0,0,0,0,0,0,0,0,0,0,0,0,0],"sum_hessian":[3.8E2,3.43E2,3.7E1,1.98E2,1.45E2,1.6E1,2.1E1,1.9E2,8E0,5E1,9.5E1,1.2E1,4E0,1.7E1,4E0],"tree_param":{"num_deleted":"0","num_feature":"53","num_nodes":"15","size_leaf_vector":"1"}},{"base_weights":[2.4784765E-1,-4.5133123E0,2.1741116E0,-1.1267029E1,2.5839663E0,1.1401402E0,1.2754778E1,6.8903916E-2,-5.596368E-1,6.247568E-1,-4.0422406E-2,-2.7175218E-2,2.5262675E-1,7.675761E-1,-2.604376E-1],"categories":[],"categories_nodes":[],"categories_segments":[],"categories_sizes":[],"default_left":[0,0,0,0,0,0,0,0,0,0,0,0,0,0,0],"id":43,"left_children":[1,3,5,7,9,11,13,-1,-1,-1,-1,-1,-1,-1,-1],"loss_changes":[3.294082E3,5.0338506E3,2.7588418E3,1.9532056E3,2.4993203E3,2.228426E3,3.1016248E3,0E0,0E0,0E0,0E0,0E0,0E0,0E0,0E0],"parents":[2147483647,0,0,1,1,2,2,3,3,4,4,5,5,6,6],"right_children":[2,4,6,8,10,12,14,-1,-1,-1,-1,-1,-1,-1,-1],"split_conditions":[-2.2252093E-1,4E0,1.5E1,2.8108572E1,7.0839E2,5.781E1,9.857142E0,6.8903916E-2,-5.596368E-1,6.247568E-1,-4.0422406E-2,-2.7175218E-2,2.5262675E-1,7.675761E-1,-2.604376E-1],"split_indices":[8,0,14,31,37,40,26,0,0,0,0,0,0,0,0],"split_type":[0,0,0,0,0,0,0,0,0,0,0,0,0,0,0],"sum_hessian":[3.54E2,1.01E2,2.53E2,5.1E1,5E1,2.33E2,2E1,9E0,4.2E1,9E0,4.1E1,1.74E2,5.9E1,1.5E1,5E0],"tree_param":{"num_deleted":"0","num_feature":"53","num_nodes":"15","size_leaf_vector":"1"}},{"base_weights":[2.8639505E-2,-3.465303E0,1.9852403E0,-4.6503215E0,1.5886835E1,1.4614273E1,7.031279E-1,-2.2653002E-1,5.593807E-1,7.19518E-1,1.6103478E-1,1.28839E-1,1.174299E0,2.4870576E-1,-9.0437E-2],"categories":[],"categories_nodes":[],"categories_segments":[],"categories_sizes":[],"default_left":[0,0,0,0,0,0,0,0,0,0,0,0,0,0,0],"id":44,"left_children":[1,3,5,7,9,11,13,-1,-1,-1,-1,-1,-1,-1,-1],"loss_changes":[2.618392E3,3.3379355E3,3.9494072E3,2.6801577E3,3.0787842E1,3.5430093E3,3.7210137E3,0E0,0E0,0E0,0E0,0E0,0E0,0E0,0E0],"parents":[2147483647,0,0,1,1,2,2,3,3,4,4,5,5,6,6],"right_children":[2,4,6,8,10,12,14,-1,-1,-1,-1,-1,-1,-1,-1],"split_conditions":[1.503E1,4.15E2,2.7478214E1,1.1384E2,2.5E1,3.06E1,2.115E1,-2.2653002E-1,5.593807E-1,7.19518E-1,1.6103478E-1,1.28839E-1,1.174299E0,2.4870576E-1,-9.0437E-2],"split_indices":[35,6,31,24,2,15,13,0,0,0,0,0,0,0,0],"split_type":[0,0,0,0,0,0,0,0,0,0,0,0,0,0,0],"sum_hessian":[3.78E2,1.35E2,2.43E2,1.29E2,6E0,2E1,2.23E2,1.24E2,5E0,4E0,2E0,1.3E1,7E0,7.7E1,1.46E2],"tree_param":{"num_deleted":"0","num_feature":"53","num_nodes":"15","size_leaf_vector":"1"}},{"base_weights":[1.5161605E-1,-3.4822419E0,2.3031573E0,-1.0302253E1,-1.0221859E0,-3.768869E0,4.8010697E0,3.9410484E-1,-4.852634E-1,2.59897E-1,-1.9505568E-1,9.6322514E-2,-6.059062E-1,6.332159E-1,1.2335301E-1],"categories":[],"categories_nodes":[],"categories_segments":[],"categories_sizes":[],"default_left":[0,0,0,0,0,0,0,0,0,0,0,0,0,0,0],"id":45,"left_children":[1,3,5,7,9,11,13,-1,-1,-1,-1,-1,-1,-1,-1],"loss_changes":[2.99495E3,2.3644824E3,3.692994E3,1.6814431E3,3.1947896E3,5.1166387E3,3.1261736E3,0E0,0E0,0E0,0E0,0E0,0E0,0E0,0E0],"parents":[2147483647,0,0,1,1,2,2,3,3,4,4,5,5,6,6],"right_children":[2,4,6,8,10,12,14,-1,-1,-1,-1,-1,-1,-1,-1],"split_conditions":[2.712E1,1.5E0,-2.2252093E-1,-8.660254E-1,2.8684643E1,3.469E1,7.2799E2,3.9410484E-1,-4.852634E-1,2.59897E-1,-1.9505568E-1,9.6322514E-2,-6.059062E-1,6.332159E-1,1.2335301E-1],"split_indices":[23,11,8,9,31,11,37,0,0,0,0,0,0,0,0],"split_type":[0,0,0,0,0,0,0,0,0,0,0,0,0,0,0],"sum_hessian":[3.78E2,1.4E2,2.38E2,3.5E1,1.05E2,6.9E1,1.69E2,2E0,3.3E1,3.5E1,7E1,4.6E1,2.3E1,2E1,1.49E2],"tree_param":{"num_deleted":"0","num_feature":"53","num_nodes":"15","size_leaf_vector":"1"}},{"base_weights":[2.790364E-1,-2.0727096E0,3.6118467E0,-4.858317E0,2.2336276E0,1.2790408E1,-9.547031E-1,-2.6856896E-1,2.855169E-1,-3.2495394E-2,5.308873E-1,6.6712243E-3,8.218386E-1,-1.3650857E-1,5.247472E-1],"categories":[],"categories_nodes":[],"categories_segments":[],"categories_sizes":[],"default_left":[0,0,0,0,0,0,0,0,0,0,0,0,0,0,0],"id":46,"left_children":[1,3,5,7,9,11,13,-1,-1,-1,-1,-1,-1,-1,-1],"loss_changes":[2.9853699E3,2.7081826E3,6.632039E3,3.158837E3,3.0362654E3,5.1313555E3,3.8306238E3,0E0,0E0,0E0,0E0,0E0,0E0,0E0,0E0],"parents":[2147483647,0,0,1,1,2,2,3,3,4,4,5,5,6,6],"right_children":[2,4,6,8,10,12,14,-1,-1,-1,-1,-1,-1,-1,-1],"split_conditions":[3.565E1,4E0,3.0738214E1,3.438E1,9.091E1,1.7E1,4.5019287E1,-2.6856896E-1,2.855169E-1,-3.2495394E-2,5.308873E-1,6.6712243E-3,8.218386E-1,-1.3650857E-1,5.247472E-1],"split_indices":[21,0,31,43,24,2,27,0,0,0,0,0,0,0,0],"split_type":[0,0,0,0,0,0,0,0,0,0,0,0,0,0,0],"sum_hessian":[3.76E2,2.21E2,1.55E2,1.34E2,8.7E1,5E1,1.05E2,1.17E2,1.7E1,7E1,1.7E1,2E1,3E1,9.1E1,1.4E1],"tree_param":{"num_deleted":"0","num_feature":"53","num_nodes":"15","size_leaf_vector":"1"}},{"base_weights":[2.4079637E-1,1.0617086E0,-9.386438E0,-5.5824566E-1,7.9716806E0,-1.197883E1,4.437823E-1,-1.5385264E-1,1.5978025E-1,8.185807E-1,4.206904E-2,-1.2626483E-1,-6.146908E-1],"categories":[],"categories_nodes":[],"categories_segments":[],"categories_sizes":[],"default_left":[0,0,0,0,0,0,0,0,0,0,0,0,0],"id":47,"left_children":[1,3,5,7,9,11,-1,-1,-1,-1,-1,-1,-1],"loss_changes":[2.8660837E3,3.7442708E3,1.8454504E3,4.1176724E3,5.4357593E3,6.709065E2,0E0,0E0,0E0,0E0,0E0,0E0,0E0],"parents":[2147483647,0,0,1,1,2,2,3,3,4,4,5,5],"right_children":[2,4,6,8,10,12,-1,-1,-1,-1,-1,-1,-1],"split_conditions":[2.2E1,1.2422E2,7.985E1,3.554E1,3.385E1,1.146E1,4.437823E-1,-1.5385264E-1,1.5978025E-1,8.185807E-1,4.206904E-2,-1.2626483E-1,-6.146908E-1],"split_indices":[52,32,17,21,11,17,0,0,0,0,0,0,0],"split_type":[0,0,0,0,0,0,0,0,0,0,0,0,0],"sum_hessian":[3.57E2,3.31E2,2.6E1,2.7E2,6.1E1,2.4E1,2E0,1.57E2,1.13E2,2E1,4.1E1,8E0,1.6E1],"tree_param":{"num_deleted":"0","num_feature":"53","num_nodes":"13","size_leaf_vector":"1"}},{"base_weights":[2.5177413E-1,-1.0761796E0,9.069004E0,-3.3921387E0,2.532388E0,1.900661E1,2.7145965E0,-2.001152E-1,2.3349611E-1,3.2884246E-1,-1.2664366E-1,9.283067E-1,-2.7825966E-1,5.966738E-1,-1.1167753E-1],"categories":[],"categories_nodes":[],"categories_segments":[],"categories_sizes":[],"default_left":[0,0,0,0,0,0,0,0,0,0,0,0,0,0,0],"id":48,"left_children":[1,3,5,7,9,11,13,-1,-1,-1,-1,-1,-1,-1,-1],"loss_changes":[4.3391196E3,2.7167036E3,2.9336707E3,3.0091245E3,4.1982124E3,2.4214502E3,2.2878608E3,0E0,0E0,0E0,0E0,0E0,0E0,0E0,0E0],"parents":[2147483647,0,0,1,1,2,2,3,3,4,4,5,5,6,6],"right_children":[2,4,6,8,10,12,14,-1,-1,-1,-1,-1,-1,-1,-1],"split_conditions":[6.177E1,3.565E1,3.1872143E1,1.33E2,7E0,5.645E1,9.24E0,-2.001152E-1,2.3349611E-1,3.2884246E-1,-1.2664366E-1,9.283067E-1,-2.7825966E-1,5.966738E-1,-1.1167753E-1],"split_indices":[35,21,27,32,18,17,21,0,0,0,0,0,0,0,0],"split_type":[0,0,0,0,0,0,0,0,0,0,0,0,0,0,0],"sum_hessian":[3.66E2,3.2E2,4.6E1,1.95E2,1.25E2,1.6E1,3E1,1.67E2,2.8E1,6.2E1,6.3E1,1.4E1,2E0,8E0,2.2E1],"tree_param":{"num_deleted":"0","num_feature":"53","num_nodes":"15","size_leaf_vector":"1"}},{"base_weights":[5.010717E-2,-7.252549E-1,1.1422246E1,-1.8153967E0,6.5308022E0,1.8320896E1,-2.1380715E0,-9.537669E-2,4.5252848E-1,8.5677046E-1,6.638089E-2,8.938638E-1,-1.9316319E-1,3.5334885E-1,-2.927129E-1],"categories":[],"categories_nodes":[],"categories_segments":[],"categories_sizes":[],"default_left":[0,0,0,0,0,0,0,0,0,0,0,0,0,0,0],"id":49,"left_children":[1,3,5,7,9,11,13,-1,-1,-1,-1,-1,-1,-1,-1],"loss_changes":[3.3845957E3,2.8733323E3,2.389851E3,2.416894E3,3.356114E3,1.807499E3,7.583362E2,0E0,0E0,0E0,0E0,0E0,0E0,0E0,0E0],"parents":[2147483647,0,0,1,1,2,2,3,3,4,4,5,5,6,6],"right_children":[2,4,6,8,10,12,14,-1,-1,-1,-1,-1,-1,-1,-1],"split_conditions":[8.577E1,6.177E1,3.499E1,1.27825E3,5.571429E0,5.1530716E1,-2.2252093E-1,-9.537669E-2,4.5252848E-1,8.5677046E-1,6.638089E-2,8.938638E-1,-1.9316319E-1,3.5334885E-1,-2.927129E-1],"split_indices":[19,35,13,37,34,27,8,0,0,0,0,0,0,0,0],"split_type":[0,0,0,0,0,0,0,0,0,0,0,0,0,0,0],"sum_hessian":[3.79E2,3.57E2,2.2E1,3.12E2,4.5E1,1.4E1,8E0,3.01E2,1.1E1,9E0,3.6E1,1.2E1,2E0,2E0,6E0],"tree_param":{"num_deleted":"0","num_feature":"53","num_nodes":"15","size_leaf_vector":"1"}},{"base_weights":[1.1150783E-1,6.7925644E0,-1.0254543E0,9.761473E0,-4.858197E-1,-1.4953649E0,1.9083937E1,5.6890416E-1,-8.121558E-2,1.4542134E-1,-1.14520736E-1,-1.6291715E-1,1.1742378E0],"categories":[],"categories_nodes":[],"categories_segments":[],"categories_sizes":[],"default_left":[0,0,0,0,0,0,0,0,0,0,0,0,0],"id":50,"left_children":[1,3,5,7,-1,9,11,-1,-1,-1,-1,-1,-1],"loss_changes":[2.846964E3,3.3606768E3,3.0999458E3,2.6235386E3,0E0,2.239977E3,2.0829185E3,0E0,0E0,0E0,0E0,0E0,0E0],"parents":[2147483647,0,0,1,1,2,2,3,3,5,5,6,6],"right_children":[2,4,6,8,-1,10,12,-1,-1,-1,-1,-1,-1],"split_conditions":[-7.818315E-1,1E0,1.1052E2,6.099E1,-4.858197E-1,2.8823214E1,1.67E1,5.6890416E-1,-8.121558E-2,1.4542134E-1,-1.14520736E-1,-1.6291715E-1,1.1742378E0],"split_indices":[7,9,15,17,0,31,17,0,0,0,0,0,0],"split_type":[0,0,0,0,0,0,0,0,0,0,0,0,0],"sum_hessian":[3.7E2,5.2E1,3.18E2,4.6E1,6E0,3.13E2,5E0,3.3E1,1.3E1,6.5E1,2.48E2,2E0,3E0],"tree_param":{"num_deleted":"0","num_feature":"53","num_nodes":"13","size_leaf_vector":"1"}},{"base_weights":[-7.73388E-2,-8.5183406E-1,1.1053959E1,-5.68501E0,8.057569E-1,1.8121746E1,-2.011336E0,-3.327208E-1,2.0468538E-1,2.815026E-1,-6.669517E-2,8.94921E-1,-1.879893E-1,-2.8443065E-1,3.4953323E-1],"categories":[],"categories_nodes":[],"categories_segments":[],"categories_sizes":[],"default_left":[0,0,0,0,0,0,0,0,0,0,0,0,0,0,0],"id":51,"left_children":[1,3,5,7,9,11,13,-1,-1,-1,-1,-1,-1,-1,-1],"loss_changes":[3.114218E3,2.7153093E3,2.261176E3,2.5666567E3,3.9363057E3,1.766686E3,7.309209E2,0E0,0E0,0E0,0E0,0E0,0E0,0E0,0E0],"parents":[2147483647,0,0,1,1,2,2,3,3,4,4,5,5,6,6],"right_children":[2,4,6,8,10,12,14,-1,-1,-1,-1,-1,-1,-1,-1],"split_conditions":[8.577E1,3E0,3.499E1,5E0,7.5501E2,5.1530716E1,7E0,-3.327208E-1,2.0468538E-1,2.815026E-1,-6.669517E-2,8.94921E-1,-1.879893E-1,-2.8443065E-1,3.4953323E-1],"split_indices":[19,22,13,0,37,27,16,0,0,0,0,0,0,0,0],"split_type":[0,0,0,0,0,0,0,0,0,0,0,0,0,0,0],"sum_hessian":[3.56E2,3.35E2,2.1E1,8.4E1,2.51E2,1.3E1,8E0,6.8E1,1.6E1,7E1,1.81E2,1.1E1,2E0,6E0,2E0],"tree_param":{"num_deleted":"0","num_feature":"53","num_nodes":"15","size_leaf_vector":"1"}},{"base_weights":[-4.8848465E-2,-2.256106E0,3.3273504E0,8.219135E-1,-7.0285335E0,1.0504793E1,-1.8718536E0,-9.285127E-2,3.19377E-1,4.7023192E-2,-3.9998385E-1,1.2082269E0,2.4589549E-1,6.365085E-1,-1.3804205E-1],"categories":[],"categories_nodes":[],"categories_segments":[],"categories_sizes":[],"default_left":[0,0,0,0,0,0,0,0,0,0,0,0,0,0,0],"id":52,"left_children":[1,3,5,7,9,11,13,-1,-1,-1,-1,-1,-1,-1,-1],"loss_changes":[2.7425244E3,3.2828838E3,5.478781E3,3.1418967E3,2.1621948E3,4.815236E3,2.5666716E3,0E0,0E0,0E0,0E0,0E0,0E0,0E0,0E0],"parents":[2147483647,0,0,1,1,2,2,3,3,4,4,5,5,6,6],"right_children":[2,4,6,8,10,12,14,-1,-1,-1,-1,-1,-1,-1,-1],"split_conditions":[3.565E1,1.9E1,5.26E1,3E0,3E0,7.7176E2,6.552E1,-9.285127E-2,3.19377E-1,4.7023192E-2,-3.9998385E-1,1.2082269E0,2.4589549E-1,6.365085E-1,-1.3804205E-1],"split_indices":[21,21,21,22,1,33,32,0,0,0,0,0,0,0,0],"split_type":[0,0,0,0,0,0,0,0,0,0,0,0,0,0,0],"sum_hessian":[3.63E2,2.2E2,1.43E2,1.35E2,8.5E1,5.9E1,8.4E1,9.5E1,4E1,2.3E1,6.2E1,8E0,5.1E1,5E0,7.9E1],"tree_param":{"num_deleted":"0","num_feature":"53","num_nodes":"15","size_leaf_vector":"1"}},{"base_weights":[4.490706E-1,-3.9734275E0,2.1571472E0,9.915149E0,-6.193312E0,3.245928E-1,7.8217297E0,-1.03667736E-1,1.1291647E0,-1.1409226E-1,-5.698089E-1,-7.117118E-2,3.3628222E-1,5.706815E-1,-8.094034E-2],"categories":[],"categories_nodes":[],"categories_segments":[],"categories_sizes":[],"default_left":[0,0,0,0,0,0,0,0,0,0,0,0,0,0,0],"id":53,"left_children":[1,3,5,7,9,11,13,-1,-1,-1,-1,-1,-1,-1,-1],"loss_changes":[2.857942E3,3.4061936E3,2.8223818E3,3.7331768E3,2.3868074E3,3.5828286E3,4.2919697E3,0E0,0E0,0E0,0E0,0E0,0E0,0E0,0E0],"parents":[2147483647,0,0,1,1,2,2,3,3,4,4,5,5,6,6],"right_children":[2,4,6,8,10,12,14,-1,-1,-1,-1,-1,-1,-1,-1],"split_conditions":[-2.2252093E-1,7.0839E2,4.0557144E1,3.484E1,3.469E1,1.1E1,1.79E2,-1.03667736E-1,1.1291647E0,-1.1409226E-1,-5.698089E-1,-7.117118E-2,3.3628222E-1,5.706815E-1,-8.094034E-2],"split_indices":[8,37,23,21,11,12,6,0,0,0,0,0,0,0,0],"split_type":[0,0,0,0,0,0,0,0,0,0,0,0,0,0,0],"sum_hessian":[3.73E2,1.03E2,2.7E2,1.3E1,9E1,2.06E2,6.4E1,9E0,4E0,6.6E1,2.4E1,1.65E2,4.1E1,3.8E1,2.6E1],"tree_param":{"num_deleted":"0","num_feature":"53","num_nodes":"15","size_leaf_vector":"1"}},{"base_weights":[4.516365E-1,-6.7426157E-1,6.2612195E0,1.899362E-1,-1.2256412E1,2.0427687E0,1.8723171E1,-2.1415923E-2,4.574542E-1,-5.487045E-1,4.837168E-2,2.3731239E-1,-4.2633262E-1,9.02422E-1,5.9652876E-2],"categories":[],"categories_nodes":[],"categories_segments":[],"categories_sizes":[],"default_left":[0,0,0,0,0,0,0,0,0,0,0,0,0,0,0],"id":54,"left_children":[1,3,5,7,9,11,13,-1,-1,-1,-1,-1,-1,-1,-1],"loss_changes":[2.5190269E3,3.243818E3,3.1900156E3,2.4910825E3,4.8418408E2,2.6037678E3,9.4082764E2,0E0,0E0,0E0,0E0,0E0,0E0,0E0,0E0],"parents":[2147483647,0,0,1,1,2,2,3,3,4,4,5,5,6,6],"right_children":[2,4,6,8,10,12,14,-1,-1,-1,-1,-1,-1,-1,-1],"split_conditions":[5.908E1,2.2E1,6.76E1,8.437E1,1.2422E2,2.857143E0,5.658E1,-2.1415923E-2,4.574542E-1,-5.487045E-1,4.837168E-2,2.3731239E-1,-4.2633262E-1,9.02422E-1,5.9652876E-2],"split_indices":[15,52,40,19,19,39,11,0,0,0,0,0,0,0,0],"split_type":[0,0,0,0,0,0,0,0,0,0,0,0,0,0,0],"sum_hessian":[3.81E2,3.21E2,6E1,3.01E2,2E1,4.7E1,1.3E1,2.85E2,1.6E1,1.8E1,2E0,3.7E1,1E1,1E1,3E0],"tree_param":{"num_deleted":"0","num_feature":"53","num_nodes":"15","size_leaf_vector":"1"}},{"base_weights":[3.4548667E-1,-5.117188E-1,1.0191939E0,1.20666065E1,-2.653237E-1,-1.3733483E-2,7.798516E-1,3.036322E-1,-6.657188E-2],"categories":[],"categories_nodes":[],"categories_segments":[],"categories_sizes":[],"default_left":[0,0,0,0,0,0,0,0,0],"id":55,"left_children":[1,-1,3,5,7,-1,-1,-1,-1],"loss_changes":[3.3563247E3,0E0,5.1095234E3,3.4743076E3,3.5980051E3,0E0,0E0,0E0,0E0],"parents":[2147483647,0,0,2,2,3,3,4,4],"right_children":[2,-1,4,6,8,-1,-1,-1,-1],"split_conditions":[2E1,-5.117188E-1,2.7562857E1,1.669E1,-7.818315E-1,-1.3733483E-2,7.798516E-1,3.036322E-1,-6.657188E-2],"split_indices":[24,0,31,15,7,0,0,0,0],"split_type":[0,0,0,0,0,0,0,0,0],"sum_hessian":[3.73E2,1.6E1,3.57E2,3.5E1,3.22E2,1.4E1,2.1E1,4.7E1,2.75E2],"tree_param":{"num_deleted":"0","num_feature":"53","num_nodes":"9","size_leaf_vector":"1"}},{"base_weights":[-1.5685049E-1,-4.2832427E0,1.5529116E0,-1.0530067E1,2.5039227E0,-3.4743297E0,4.516065E0,4.4140585E-2,-5.214929E-1,-5.063736E-1,2.0129333E-1,1.1077739E-1,-2.4563573E-1,7.645769E-2,3.9315182E-1],"categories":[],"categories_nodes":[],"categories_segments":[],"categories_sizes":[],"default_left":[0,0,0,0,0,0,0,0,0,0,0,0,0,0,0],"id":56,"left_children":[1,3,5,7,9,11,13,-1,-1,-1,-1,-1,-1,-1,-1],"loss_changes":[2.6376167E3,4.7085225E3,3.979347E3,1.713148E3,2.248738E3,1.699132E3,2.27084E3,0E0,0E0,0E0,0E0,0E0,0E0,0E0,0E0],"parents":[2147483647,0,0,1,1,2,2,3,3,4,4,5,5,6,6],"right_children":[2,4,6,8,10,12,14,-1,-1,-1,-1,-1,-1,-1,-1],"split_conditions":[-2.2252093E-1,4E0,2.712E1,2.8108572E1,6E0,1.2E1,5.781E1,4.4140585E-2,-5.214929E-1,-5.063736E-1,2.0129333E-1,1.1077739E-1,-2.4563573E-1,7.645769E-2,3.9315182E-1],"split_indices":[8,0,23,31,2,3,40,0,0,0,0,0,0,0,0],"split_type":[0,0,0,0,0,0,0,0,0,0,0,0,0,0,0],"sum_hessian":[3.69E2,1.07E2,2.62E2,5.5E1,5.2E1,9.7E1,1.65E2,1E1,4.5E1,6E0,4.6E1,2.9E1,6.8E1,1.13E2,5.2E1],"tree_param":{"num_deleted":"0","num_feature":"53","num_nodes":"15","size_leaf_vector":"1"}},{"base_weights":[5.992575E-1,1.4251692E0,-8.928514E0,-2.2687263E0,3.5329156E0,5.8454657E-1,-1.3176265E1,-4.4644713E-1,-3.515144E-3,6.6896886E-1,8.2087174E-2,3.2335505E-1,-2.4438888E-1,7.004462E-4,-5.841994E-1],"categories":[],"categories_nodes":[],"categories_segments":[],"categories_sizes":[],"default_left":[0,0,0,0,0,0,0,0,0,0,0,0,0,0,0],"id":57,"left_children":[1,3,5,7,9,11,13,-1,-1,-1,-1,-1,-1,-1,-1],"loss_changes":[2.9079666E3,2.6555298E3,1.2113242E3,2.4119866E3,4.143058E3,7.008047E2,3.870691E2,0E0,0E0,0E0,0E0,0E0,0E0,0E0,0E0],"parents":[2147483647,0,0,1,1,2,2,3,3,4,4,5,5,6,6],"right_children":[2,4,6,8,10,12,14,-1,-1,-1,-1,-1,-1,-1,-1],"split_conditions":[3.977E1,1.503E1,3.46E0,5.276E1,2.7478214E1,3.43E1,-7.818315E-1,-4.4644713E-1,-3.515144E-3,6.6896886E-1,8.2087174E-2,3.2335505E-1,-2.4438888E-1,7.004462E-4,-5.841994E-1],"split_indices":[46,35,35,28,31,15,7,0,0,0,0,0,0,0,0],"split_type":[0,0,0,0,0,0,0,0,0,0,0,0,0,0,0],"sum_hessian":[3.63E2,3.36E2,2.7E1,1.22E2,2.14E2,9E0,1.8E1,2.2E1,1E2,1.9E1,1.95E2,4E0,5E0,2E0,1.6E1],"tree_param":{"num_deleted":"0","num_feature":"53","num_nodes":"15","size_leaf_vector":"1"}},{"base_weights":[5.225258E-1,1.3035799E0,-9.074095E0,-1.0433557E0,4.8384757E0,3.090654E-1,-1.1071003E1,-6.650552E-2,5.69423E-1,5.465395E-1,-5.947278E-4,8.774139E-2,-5.199081E-1],"categories":[],"categories_nodes":[],"categories_segments":[],"categories_sizes":[],"default_left":[0,0,0,0,0,0,0,0,0,0,0,0,0],"id":58,"left_children":[1,3,5,7,9,-1,11,-1,-1,-1,-1,-1,-1],"loss_changes":[2.8366294E3,2.903837E3,1.1700149E3,2.060379E3,5.9754067E3,0E0,7.485322E2,0E0,0E0,0E0,0E0,0E0,0E0],"parents":[2147483647,0,0,1,1,2,2,3,3,4,4,6,6],"right_children":[2,4,6,8,10,-1,12,-1,-1,-1,-1,-1,-1],"split_conditions":[3.977E1,3.565E1,1.8907143E1,8.999E1,3.0738214E1,3.090654E-1,-7.818315E-1,-6.650552E-2,5.69423E-1,5.465395E-1,-5.947278E-4,8.774139E-2,-5.199081E-1],"split_indices":[46,21,27,40,31,0,7,0,0,0,0,0,0],"split_type":[0,0,0,0,0,0,0,0,0,0,0,0,0],"sum_hessian":[3.72E2,3.46E2,2.6E1,2.09E2,1.37E2,2E0,2.4E1,2.03E2,6E0,4.7E1,9E1,3E0,2.1E1],"tree_param":{"num_deleted":"0","num_feature":"53","num_nodes":"13","size_leaf_vector":"1"}},{"base_weights":[1.2823953E-2,-5.8335584E-1,8.662206E0,4.2697194E-1,-7.0006356E0,1.26854E1,-2.9431784E-1,-7.946649E-2,2.2283962E-1,-5.051365E-1,6.1409067E-2,-8.776301E-2,7.135645E-1],"categories":[],"categories_nodes":[],"categories_segments":[],"categories_sizes":[],"default_left":[0,0,0,0,0,0,0,0,0,0,0,0,0],"id":59,"left_children":[1,3,5,7,9,11,-1,-1,-1,-1,-1,-1,-1],"loss_changes":[1.9592441E3,2.312377E3,1.8124249E3,3.870353E3,2.3783086E3,1.6698843E3,0E0,0E0,0E0,0E0,0E0,0E0,0E0],"parents":[2147483647,0,0,1,1,2,2,3,3,4,4,5,5],"right_children":[2,4,6,8,10,12,-1,-1,-1,-1,-1,-1,-1],"split_conditions":[8.577E1,6.415E1,1.31379E3,3.565E1,8.577E1,1.154E1,-2.9431784E-1,-7.946649E-2,2.2283962E-1,-5.051365E-1,6.1409067E-2,-8.776301E-2,7.135645E-1],"split_indices":[19,21,33,21,21,17,0,0,0,0,0,0,0],"split_type":[0,0,0,0,0,0,0,0,0,0,0,0,0],"sum_hessian":[3.75E2,3.53E2,2.2E1,3.07E2,4.6E1,1.8E1,4E0,2.1E2,9.7E1,2.7E1,1.9E1,5E0,1.3E1],"tree_param":{"num_deleted":"0","num_feature":"53","num_nodes":"13","size_leaf_vector":"1"}},{"base_weights":[-1.8917736E-1,-2.4287682E0,2.7286465E0,-1.2815185E-2,-8.600076E0,1.0715579E0,1.113186E1,-1.3853459E-1,2.3190528E-1,-4.3545824E-1,4.3523943E-1,1.780001E-4,6.956289E-1,7.13877E-1,-2.2324537E-1],"categories":[],"categories_nodes":[],"categories_segments":[],"categories_sizes":[],"default_left":[0,0,0,0,0,0,0,0,0,0,0,0,0,0,0],"id":60,"left_children":[1,3,5,7,9,11,13,-1,-1,-1,-1,-1,-1,-1,-1],"loss_changes":[2.444221E3,3.1531023E3,2.2329702E3,3.1478054E3,2.946336E3,2.4116885E3,3.2230803E3,0E0,0E0,0E0,0E0,0E0,0E0,0E0,0E0],"parents":[2147483647,0,0,1,1,2,2,3,3,4,4,5,5,6,6],"right_children":[2,4,6,8,10,12,14,-1,-1,-1,-1,-1,-1,-1,-1],"split_conditions":[4E0,3E0,1.54E0,3.673E1,3.838E1,8.715E1,1.2422E2,-1.3853459E-1,2.3190528E-1,-4.3545824E-1,4.3523943E-1,1.780001E-4,6.956289E-1,7.13877E-1,-2.2324537E-1],"split_indices":[0,0,38,35,43,13,28,0,0,0,0,0,0,0,0],"split_type":[0,0,0,0,0,0,0,0,0,0,0,0,0,0,0],"sum_hessian":[3.69E2,2.09E2,1.6E2,1.52E2,5.7E1,1.36E2,2.4E1,9.6E1,5.6E1,5.2E1,5E0,1.3E2,6E0,1.7E1,7E0],"tree_param":{"num_deleted":"0","num_feature":"53","num_nodes":"15","size_leaf_vector":"1"}},{"base_weights":[4.947817E-1,1.2059691E0,-1.0165139E1,5.364454E-1,1.3148714E1,-6.2222385E-1,-2.3104167E0,5.4376896E-2,-3.3675906E-1,6.8327254E-1,-1.5648657E-1,-2.72851E-1,2.6125023E-1],"categories":[],"categories_nodes":[],"categories_segments":[],"categories_sizes":[],"default_left":[0,0,0,0,0,0,0,0,0,0,0,0,0],"id":61,"left_children":[1,3,5,7,9,-1,11,-1,-1,-1,-1,-1,-1],"loss_changes":[2.8470635E3,2.784947E3,9.051533E2,2.4939136E3,1.4084565E3,0E0,6.0992285E2,0E0,0E0,0E0,0E0,0E0,0E0],"parents":[2147483647,0,0,1,1,2,2,3,3,4,4,6,6],"right_children":[2,4,6,8,10,-1,12,-1,-1,-1,-1,-1,-1],"split_conditions":[2.2E1,8.577E1,5.781E1,3.977E1,4.6181427E1,-6.2222385E-1,4.561E1,5.4376896E-2,-3.3675906E-1,6.8327254E-1,-1.5648657E-1,-2.72851E-1,2.6125023E-1],"split_indices":[52,19,40,46,36,0,15,0,0,0,0,0,0],"split_type":[0,0,0,0,0,0,0,0,0,0,0,0,0],"sum_hessian":[3.69E2,3.48E2,2.1E1,3.32E2,1.6E1,1.1E1,1E1,3.06E2,2.6E1,1.3E1,3E0,7E0,3E0],"tree_param":{"num_deleted":"0","num_feature":"53","num_nodes":"13","size_leaf_vector":"1"}},{"base_weights":[-1.4514114E-2,-1.034073E0,5.509466E0,-2.4774857E0,4.700731E0,1.6478405E1,-1.9300879E0,6.42843E-1,-1.3020311E-1,4.808727E-1,-1.6823356E-1,8.9031315E-1,-2.8790855E-1,3.2335734E-1,-4.292702E-1],"categories":[],"categories_nodes":[],"categories_segments":[],"categories_sizes":[],"default_left":[0,0,0,0,0,0,0,0,0,0,0,0,0,0,0],"id":62,"left_children":[1,3,5,7,9,11,13,-1,-1,-1,-1,-1,-1,-1,-1],"loss_changes":[2.0783794E3,2.6076147E3,4.7717427E3,3.7437988E3,4.2669707E3,3.6161206E3,3.4340002E3,0E0,0E0,0E0,0E0,0E0,0E0,0E0,0E0],"parents":[2147483647,0,0,1,1,2,2,3,3,4,4,5,5,6,6],"right_children":[2,4,6,8,10,12,14,-1,-1,-1,-1,-1,-1,-1,-1],"split_conditions":[1.33E2,1.1E1,3.437E1,9.23E0,7E0,1E0,8.214286E0,6.42843E-1,-1.3020311E-1,4.808727E-1,-1.6823356E-1,8.9031315E-1,-2.8790855E-1,3.2335734E-1,-4.292702E-1],"split_indices":[32,12,11,40,14,5,30,0,0,0,0,0,0,0,0],"split_type":[0,0,0,0,0,0,0,0,0,0,0,0,0,0,0],"sum_hessian":[3.64E2,3.09E2,5.5E1,2.48E2,6.1E1,2.1E1,3.4E1,8E0,2.4E2,3.3E1,2.8E1,1.7E1,4E0,1.6E1,1.8E1],"tree_param":{"num_deleted":"0","num_feature":"53","num_nodes":"15","size_leaf_vector":"1"}},{"base_weights":[-1.9890645E-1,3.5367563E0,-1.7469835E0,-1.9929143E0,1.1914018E1,-7.9070625E0,-2.3351753E-1,-1.5658028E-1,8.5792E-1,-1.0156574E-2,8.211216E-1,-4.1974565E-1,4.306168E-1,-2.1949564E-1,6.936483E-2],"categories":[],"categories_nodes":[],"categories_segments":[],"categories_sizes":[],"default_left":[0,0,0,0,0,0,0,0,0,0,0,0,0,0,0],"id":63,"left_children":[1,3,5,7,9,11,13,-1,-1,-1,-1,-1,-1,-1,-1],"loss_changes":[2.1407336E3,5.0854585E3,2.4333665E3,3.2503586E3,4.572476E3,2.7697615E3,2.2205554E3,0E0,0E0,0E0,0E0,0E0,0E0,0E0,0E0],"parents":[2147483647,0,0,1,1,2,2,3,3,4,4,5,5,6,6],"right_children":[2,4,6,8,10,12,14,-1,-1,-1,-1,-1,-1,-1,-1],"split_conditions":[7.5501E2,3.145E1,8E0,4.7717144E1,1.7E1,7.616E1,4E0,-1.5658028E-1,8.5792E-1,-1.0156574E-2,8.211216E-1,-4.1974565E-1,4.306168E-1,-2.1949564E-1,6.936483E-2],"split_indices":[37,21,19,36,2,11,12,0,0,0,0,0,0,0,0],"split_type":[0,0,0,0,0,0,0,0,0,0,0,0,0,0,0],"sum_hessian":[3.65E2,1.06E2,2.59E2,6.5E1,4.1E1,4.9E1,2.1E2,6.2E1,3E0,1.8E1,2.3E1,4.4E1,5E0,5.6E1,1.54E2],"tree_param":{"num_deleted":"0","num_feature":"53","num_nodes":"15","size_leaf_vector":"1"}},{"base_weights":[9.460213E-2,6.1034594E0,-9.402136E-1,1.1357551E1,-5.052498E0,-1.3620678E0,1.5044185E1,-3.2444927E-1,5.947462E-1,-5.3553563E-1,5.0990915E-1,7.972944E-2,-1.4312941E-1,-1.588032E-1,1.0888072E0],"categories":[],"categories_nodes":[],"categories_segments":[],"categories_sizes":[],"default_left":[0,0,0,0,0,0,0,0,0,0,0,0,0,0,0],"id":64,"left_children":[1,3,5,7,9,11,13,-1,-1,-1,-1,-1,-1,-1,-1],"loss_changes":[2.3492278E3,3.3965598E3,2.2258728E3,2.9332495E3,3.320105E3,2.3712976E3,2.2380654E3,0E0,0E0,0E0,0E0,0E0,0E0,0E0,0E0],"parents":[2147483647,0,0,1,1,2,2,3,3,4,4,5,5,6,6],"right_children":[2,4,6,8,10,12,14,-1,-1,-1,-1,-1,-1,-1,-1],"split_conditions":[-7.818315E-1,1.731E1,1.1052E2,1.4786E2,3.474643E1,3.0298214E1,2.73E1,-3.2444927E-1,5.947462E-1,-5.3553563E-1,5.0990915E-1,7.972944E-2,-1.4312941E-1,-1.588032E-1,1.0888072E0],"split_indices":[7,13,15,25,31,31,17,0,0,0,0,0,0,0,0],"split_type":[0,0,0,0,0,0,0,0,0,0,0,0,0,0,0],"sum_hessian":[3.73E2,5.3E1,3.2E2,3.6E1,1.7E1,3.14E2,6E0,5E0,3.1E1,1.2E1,5E0,1.25E2,1.89E2,3E0,3E0],"tree_param":{"num_deleted":"0","num_feature":"53","num_nodes":"15","size_leaf_vector":"1"}},{"base_weights":[2.594715E-1,1.1569095E0,-5.3779106E0,-6.745355E-1,5.4127803E0,-1.5704421E1,2.0971613E0,7.338896E-2,-1.911286E-1,4.6401665E-1,-5.802145E-2,-6.878799E-1,-1.4182244E-1,-2.312947E-1,3.6907348E-1],"categories":[],"categories_nodes":[],"categories_segments":[],"categories_sizes":[],"default_left":[0,0,0,0,0,0,0,0,0,0,0,0,0,0,0],"id":65,"left_children":[1,3,5,7,9,11,13,-1,-1,-1,-1,-1,-1,-1,-1],"loss_changes":[1.859633E3,2.4760535E3,3.980503E3,2.32334E3,4.0977324E3,2.3775E2,1.9030048E3,0E0,0E0,0E0,0E0,0E0,0E0,0E0,0E0],"parents":[2147483647,0,0,1,1,2,2,3,3,4,4,5,5,6,6],"right_children":[2,4,6,8,10,12,14,-1,-1,-1,-1,-1,-1,-1,-1],"split_conditions":[6.415E1,3.565E1,2.115E1,1.9E1,3.015E1,1.1E1,2.5821428E1,7.338896E-2,-1.911286E-1,4.6401665E-1,-5.802145E-2,-6.878799E-1,-1.4182244E-1,-2.312947E-1,3.6907348E-1],"split_indices":[21,21,19,21,19,16,36,0,0,0,0,0,0,0,0],"split_type":[0,0,0,0,0,0,0,0,0,0,0,0,0,0,0],"sum_hessian":[3.62E2,3.14E2,4.8E1,2.21E2,9.3E1,1.9E1,2.9E1,1.38E2,8.3E1,4.8E1,4.5E1,1.6E1,3E0,1.4E1,1.5E1],"tree_param":{"num_deleted":"0","num_feature":"53","num_nodes":"15","size_leaf_vector":"1"}},{"base_weights":[3.304992E-2,-4.6617183E-1,1.4304182E1,3.542996E0,-2.0358627E0,2.1177519E1,-3.872148E-1,-2.9304737E-2,5.6161916E-1,-3.1249052E-1,-2.2278499E-2,1.9391552E-1,1.0437363E0],"categories":[],"categories_nodes":[],"categories_segments":[],"categories_sizes":[],"default_left":[0,0,0,0,0,0,0,0,0,0,0,0,0],"id":66,"left_children":[1,3,5,7,9,11,-1,-1,-1,-1,-1,-1,-1],"loss_changes":[2.6349094E3,2.2678354E3,2.5731887E3,4.58136E3,2.197415E3,5.2663916E2,0E0,0E0,0E0,0E0,0E0,0E0,0E0],"parents":[2147483647,0,0,1,1,2,2,3,3,4,4,5,5],"right_children":[2,4,6,8,10,12,-1,-1,-1,-1,-1,-1,-1],"split_conditions":[9.162E1,7.5501E2,1.3632E2,6.285714E0,1.038E1,2.838E1,-3.872148E-1,-2.9304737E-2,5.6161916E-1,-3.1249052E-1,-2.2278499E-2,1.9391552E-1,1.0437363E0],"split_indices":[15,37,15,26,19,11,0,0,0,0,0,0,0],"split_type":[0,0,0,0,0,0,0,0,0,0,0,0,0],"sum_hessian":[3.65E2,3.55E2,1E1,9.9E1,2.56E2,8E0,2E0,7.2E1,2.7E1,5E1,2.06E2,3E0,5E0],"tree_param":{"num_deleted":"0","num_feature":"53","num_nodes":"13","size_leaf_vector":"1"}},{"base_weights":[-1.7400505E-1,-4.6094406E-1,3.9716554E-1,1.2350318E1,-2.7088326E-1,-5.6896288E-2,8.4171736E-1,-2.2704828E-1,5.544071E-2],"categories":[],"categories_nodes":[],"categories_segments":[],"categories_sizes":[],"default_left":[0,0,0,0,0,0,0,0,0],"id":67,"left_children":[1,-1,3,5,7,-1,-1,-1,-1],"loss_changes":[2.367851E3,0E0,2.7912373E3,2.2896677E3,2.997567E3,0E0,0E0,0E0,0E0],"parents":[2147483647,0,0,2,2,3,3,4,4],"right_children":[2,-1,4,6,8,-1,-1,-1,-1],"split_conditions":[2E1,-4.6094406E-1,4.118E1,2.868E1,5.538E1,-5.6896288E-2,8.4171736E-1,-2.2704828E-1,5.544071E-2],"split_indices":[24,0,24,21,24,0,0,0,0],"split_type":[0,0,0,0,0,0,0,0,0],"sum_hessian":[3.61E2,1.5E1,3.46E2,1.6E1,3.3E2,7E0,9E0,7.6E1,2.54E2],"tree_param":{"num_deleted":"0","num_feature":"53","num_nodes":"9","size_leaf_vector":"1"}},{"base_weights":[5.8756554E-1,-4.1328457E-1,5.7143974E0,4.3299395E-1,-1.101082E1,1.3595268E-1,1.7712078E1,-9.213279E-3,4.4013217E-1,-4.8346022E-1,9.827576E-3,2.3258096E-1,-2.4249946E-1,1.1102297E0,1.8765295E-1],"categories":[],"categories_nodes":[],"categories_segments":[],"categories_sizes":[],"default_left":[0,0,0,0,0,0,0,0,0,0,0,0,0,0,0],"id":68,"left_children":[1,3,5,7,9,11,13,-1,-1,-1,-1,-1,-1,-1,-1],"loss_changes":[1.9326661E3,2.850439E3,4.1100767E3,2.0782522E3,2.919724E2,1.6544497E3,2.2246055E3,0E0,0E0,0E0,0E0,0E0,0E0,0E0,0E0],"parents":[2147483647,0,0,1,1,2,2,3,3,4,4,5,5,6,6],"right_children":[2,4,6,8,10,12,14,-1,-1,-1,-1,-1,-1,-1,-1],"split_conditions":[5.908E1,2.2E1,4.167E1,8.437E1,1.5E0,7.907E1,3.357E1,-9.213279E-3,4.4013217E-1,-4.8346022E-1,9.827576E-3,2.3258096E-1,-2.4249946E-1,1.1102297E0,1.8765295E-1],"split_indices":[15,52,27,19,38,15,19,0,0,0,0,0,0,0,0],"split_type":[0,0,0,0,0,0,0,0,0,0,0,0,0,0,0],"sum_hessian":[3.73E2,3.14E2,5.9E1,2.93E2,2.1E1,4.2E1,1.7E1,2.78E2,1.5E1,1.9E1,2E0,2.2E1,2E1,8E0,9E0],"tree_param":{"num_deleted":"0","num_feature":"53","num_nodes":"15","size_leaf_vector":"1"}},{"base_weights":[-3.286315E-1,-1.5504308E0,3.437025E0,-2.2161782E0,9.71975E0,-7.3717904E0,6.079892E0,-3.221173E-1,-4.520344E-2,8.5353565E-1,-8.00017E-2,-4.5265543E-1,1.0846768E-1,3.285686E-1,-3.7166464E-1],"categories":[],"categories_nodes":[],"categories_segments":[],"categories_sizes":[],"default_left":[0,0,0,0,0,0,0,0,0,0,0,0,0,0,0],"id":69,"left_children":[1,3,5,7,9,11,13,-1,-1,-1,-1,-1,-1,-1,-1],"loss_changes":[1.754754E3,2.2109915E3,2.7829946E3,1.7110344E3,2.3534673E3,8.52334E2,2.7006018E3,0E0,0E0,0E0,0E0,0E0,0E0,0E0,0E0],"parents":[2147483647,0,0,1,1,2,2,3,3,4,4,5,5,6,6],"right_children":[2,4,6,8,10,12,14,-1,-1,-1,-1,-1,-1,-1,-1],"split_conditions":[5.781E1,8.715E1,4E0,1.5E0,2.1428572E-1,5.361E1,7.907E1,-3.221173E-1,-4.520344E-2,8.5353565E-1,-8.00017E-2,-4.5265543E-1,1.0846768E-1,3.285686E-1,-3.7166464E-1],"split_indices":[40,13,17,11,39,15,13,0,0,0,0,0,0,0,0],"split_type":[0,0,0,0,0,0,0,0,0,0,0,0,0,0,0],"sum_hessian":[3.76E2,2.85E2,9.1E1,2.71E2,1.4E1,1.7E1,7.4E1,4E1,2.31E2,6E0,8E0,1.2E1,5E0,6.6E1,8E0],"tree_param":{"num_deleted":"0","num_feature":"53","num_nodes":"15","size_leaf_vector":"1"}},{"base_weights":[3.5315725E-1,-1.0300009E0,4.5375686E0,-7.815668E0,2.6448077E-1,1.618272E1,8.1838685E-1,-3.7729576E-1,3.291916E-1,4.4098124E-2,-3.3597347E-1,-1.7888017E-1,9.089171E-1,-1.8686408E-2,8.3158565E-1],"categories":[],"categories_nodes":[],"categories_segments":[],"categories_sizes":[],"default_left":[0,0,0,0,0,0,0,0,0,0,0,0,0,0,0],"id":70,"left_children":[1,3,5,7,9,11,13,-1,-1,-1,-1,-1,-1,-1,-1],"loss_changes":[2.1791787E3,2.4954094E3,4.0164167E3,1.3743872E3,1.7691893E3,3.2934814E3,1.9113182E3,0E0,0E0,0E0,0E0,0E0,0E0,0E0,0E0],"parents":[2147483647,0,0,1,1,2,2,3,3,4,4,5,5,6,6],"right_children":[2,4,6,8,10,12,14,-1,-1,-1,-1,-1,-1,-1,-1],"split_conditions":[4.059714E1,2E0,4.5047142E1,1.7E1,4.31E0,8.254E1,2.1E1,-3.7729576E-1,3.291916E-1,4.4098124E-2,-3.3597347E-1,-1.7888017E-1,9.089171E-1,-1.8686408E-2,8.3158565E-1],"split_indices":[23,22,23,20,46,32,16,0,0,0,0,0,0,0,0],"split_type":[0,0,0,0,0,0,0,0,0,0,0,0,0,0,0],"sum_hessian":[3.72E2,2.81E2,9.1E1,4.3E1,2.38E2,2E1,7.1E1,4E1,3E0,2.19E2,1.9E1,5E0,1.5E1,6.9E1,2E0],"tree_param":{"num_deleted":"0","num_feature":"53","num_nodes":"15","size_leaf_vector":"1"}},{"base_weights":[4.2639104E-1,-2.5942938E0,2.1930358E0,-3.5653405E0,6.170251E-1,1.2019589E1,1.0342915E0,-1.7561133E-1,5.645773E-1,7.583907E-1,-4.0125614E-1,-1.827913E-1,1.1498954E-1],"categories":[],"categories_nodes":[],"categories_segments":[],"categories_sizes":[],"default_left":[0,0,0,0,0,0,0,0,0,0,0,0,0],"id":71,"left_children":[1,3,5,7,-1,9,11,-1,-1,-1,-1,-1,-1],"loss_changes":[1.9860516E3,2.5434944E3,2.6390461E3,2.0874026E3,0E0,4.224909E3,2.2245676E3,0E0,0E0,0E0,0E0,0E0,0E0],"parents":[2147483647,0,0,1,1,2,2,3,3,5,5,6,6],"right_children":[2,4,6,8,-1,10,12,-1,-1,-1,-1,-1,-1],"split_conditions":[1.503E1,4.15E2,2.7978214E1,1.1384E2,6.170251E-1,7.707E1,-2.2252093E-1,-1.7561133E-1,5.645773E-1,7.583907E-1,-4.0125614E-1,-1.827913E-1,1.1498954E-1],"split_indices":[35,6,31,24,0,35,8,0,0,0,0,0,0],"split_type":[0,0,0,0,0,0,0,0,0,0,0,0,0],"sum_hessian":[3.67E2,1.35E2,2.32E2,1.3E2,5E0,2.2E1,2.1E2,1.26E2,4E0,1.7E1,5E0,5.1E1,1.59E2],"tree_param":{"num_deleted":"0","num_feature":"53","num_nodes":"13","size_leaf_vector":"1"}},{"base_weights":[-6.7827806E-2,-4.616562E0,1.0449978E0,-5.6825867E0,4.3810222E-1,1.2878429E1,7.261186E-2,-5.356283E-3,-3.5965374E-1,-4.082292E-2,9.680698E-1,-2.9615027E-1,5.2196335E-2],"categories":[],"categories_nodes":[],"categories_segments":[],"categories_sizes":[],"default_left":[0,0,0,0,0,0,0,0,0,0,0,0,0],"id":72,"left_children":[1,3,5,7,-1,9,11,-1,-1,-1,-1,-1,-1],"loss_changes":[1.8672645E3,1.3588846E3,3.4093875E3,1.272956E3,0E0,3.602862E3,2.5715764E3,0E0,0E0,0E0,0E0,0E0,0E0],"parents":[2147483647,0,0,1,1,2,2,3,3,5,5,6,6],"right_children":[2,4,6,8,-1,10,12,-1,-1,-1,-1,-1,-1],"split_conditions":[6.177E1,1.3E1,7.0381E2,2.323E1,4.3810222E-1,2.022E1,3.92E0,-5.356283E-3,-3.5965374E-1,-4.082292E-2,9.680698E-1,-2.9615027E-1,5.2196335E-2],"split_indices":[28,12,37,21,0,17,19,0,0,0,0,0,0],"split_type":[0,0,0,0,0,0,0,0,0,0,0,0,0],"sum_hessian":[3.64E2,7E1,2.94E2,6.7E1,3E0,2E1,2.74E2,2.6E1,4.1E1,1E1,1E1,3.7E1,2.37E2],"tree_param":{"num_deleted":"0","num_feature":"53","num_nodes":"13","size_leaf_vector":"1"}},{"base_weights":[6.2051263E-2,7.588256E-1,-8.393562E0,5.5605865E0,-1.0459113E0,-9.823751E0,1.7495735E-1,-6.354743E-2,6.57691E-1,-3.0721834E-1,2.0232625E-2,1.5916772E-2,-4.9461475E-1],"categories":[],"categories_nodes":[],"categories_segments":[],"categories_sizes":[],"default_left":[0,0,0,0,0,0,0,0,0,0,0,0,0],"id":73,"left_children":[1,3,5,7,9,11,-1,-1,-1,-1,-1,-1,-1],"loss_changes":[2.1280813E3,2.9046226E3,6.0956934E2,7.1836533E3,2.5268413E3,6.7478E2,0E0,0E0,0E0,0E0,0E0,0E0,0E0],"parents":[2147483647,0,0,1,1,2,2,3,3,4,4,5,5],"right_children":[2,4,6,8,10,12,-1,-1,-1,-1,-1,-1,-1],"split_conditions":[3.977E1,7.5501E2,2.492E1,2.93E1,1.038E1,1.5891429E1,1.7495735E-1,-6.354743E-2,6.57691E-1,-3.0721834E-1,2.0232625E-2,1.5916772E-2,-4.9461475E-1],"split_indices":[46,37,43,21,19,36,0,0,0,0,0,0,0],"split_type":[0,0,0,0,0,0,0,0,0,0,0,0,0],"sum_hessian":[3.56E2,3.31E2,2.5E1,8.9E1,2.42E2,2.3E1,2E0,5.5E1,3.4E1,4.4E1,1.98E2,5E0,1.8E1],"tree_param":{"num_deleted":"0","num_feature":"53","num_nodes":"13","size_leaf_vector":"1"}},{"base_weights":[2.3162352E-1,8.720168E-1,-8.139506E0,3.375259E-1,1.1478301E1,3.3627373E-1,-1.034807E1,-5.393626E-2,1.6128196E-1,6.17124E-1,-3.0502656E-1,-5.151733E-1,-1.5626174E-1],"categories":[],"categories_nodes":[],"categories_segments":[],"categories_sizes":[],"default_left":[0,0,0,0,0,0,0,0,0,0,0,0,0],"id":74,"left_children":[1,3,5,7,9,-1,11,-1,-1,-1,-1,-1,-1],"loss_changes":[1.9985656E3,1.9489408E3,1.1858936E3,2.0784116E3,1.5391614E3,0E0,2.7369336E2,0E0,0E0,0E0,0E0,0E0,0E0],"parents":[2147483647,0,0,1,1,2,2,3,3,4,4,6,6],"right_children":[2,4,6,8,10,-1,12,-1,-1,-1,-1,-1,-1],"split_conditions":[3.977E1,8.5714287E-1,1.8907143E1,4.493E1,1.1E1,3.3627373E-1,8E0,-5.393626E-2,1.6128196E-1,6.17124E-1,-3.0502656E-1,-5.151733E-1,-1.5626174E-1],"split_indices":[46,48,27,15,22,0,18,0,0,0,0,0,0],"split_type":[0,0,0,0,0,0,0,0,0,0,0,0,0],"sum_hessian":[3.67E2,3.43E2,2.4E1,3.29E2,1.4E1,2E0,2.2E1,2.27E2,1.02E2,1.2E1,2E0,1.4E1,8E0],"tree_param":{"num_deleted":"0","num_feature":"53","num_nodes":"13","size_leaf_vector":"1"}},{"base_weights":[3.7894046E-1,-6.363209E-1,6.4053593E0,-1.2696924E0,1.0439054E1,1.2799034E1,-2.4686882E0,7.656658E-2,-1.4603193E-1,5.484865E-1,-2.653784E-1,6.602399E-1,-8.3451115E-2,2.8405744E-1,-3.6683708E-1],"categories":[],"categories_nodes":[],"categories_segments":[],"categories_sizes":[],"default_left":[0,0,0,0,0,0,0,0,0,0,0,0,0,0,0],"id":75,"left_children":[1,3,5,7,9,11,13,-1,-1,-1,-1,-1,-1,-1,-1],"loss_changes":[2.2709348E3,2.2673584E3,3.1144631E3,2.3183345E3,1.2053925E3,1.8242383E3,1.7342778E3,0E0,0E0,0E0,0E0,0E0,0E0,0E0,0E0],"parents":[2147483647,0,0,1,1,2,2,3,3,4,4,5,5,6,6],"right_children":[2,4,6,8,10,12,14,-1,-1,-1,-1,-1,-1,-1,-1],"split_conditions":[1.33E2,8.577E1,1E1,3.037E1,4.692107E1,5E0,8.214286E0,7.656658E-2,-1.4603193E-1,5.484865E-1,-2.653784E-1,6.602399E-1,-8.3451115E-2,2.8405744E-1,-3.6683708E-1],"split_indices":[32,19,12,31,31,0,30,0,0,0,0,0,0,0,0],"split_type":[0,0,0,0,0,0,0,0,0,0,0,0,0,0,0],"sum_hessian":[3.67E2,3.16E2,5.1E1,3.01E2,1.5E1,2.9E1,2.2E1,1.29E2,1.72E2,1.3E1,2E0,2.3E1,6E0,9E0,1.3E1],"tree_param":{"num_deleted":"0","num_feature":"53","num_nodes":"15","size_leaf_vector":"1"}},{"base_weights":[1.316077E-1,5.7267747E0,-8.2384026E-1,-1.905108E0,1.2355922E1,1.7611933E0,-3.4774263E0,-6.0834205E-1,1.4303671E-1,6.879459E-1,-9.461002E-2,2.059989E-1,-1.3501784E-1,1.2941357E-1,-1.942277E-1],"categories":[],"categories_nodes":[],"categories_segments":[],"categories_sizes":[],"default_left":[0,0,0,0,0,0,0,0,0,0,0,0,0,0,0],"id":76,"left_children":[1,3,5,7,9,11,13,-1,-1,-1,-1,-1,-1,-1,-1],"loss_changes":[1.9977933E3,2.8161604E3,2.2069563E3,2.1411655E3,2.2047705E3,2.889493E3,1.505713E3,0E0,0E0,0E0,0E0,0E0,0E0,0E0,0E0],"parents":[2147483647,0,0,1,1,2,2,3,3,4,4,5,5,6,6],"right_children":[2,4,6,8,10,12,14,-1,-1,-1,-1,-1,-1,-1,-1],"split_conditions":[-7.818315E-1,2.4E1,3E0,2.8108572E1,1.731E1,9E0,2.8108572E1,-6.0834205E-1,1.4303671E-1,6.879459E-1,-9.461002E-2,2.059989E-1,-1.3501784E-1,1.2941357E-1,-1.942277E-1],"split_indices":[7,3,0,31,13,20,31,0,0,0,0,0,0,0,0],"split_type":[0,0,0,0,0,0,0,0,0,0,0,0,0,0,0],"sum_hessian":[3.69E2,5.2E1,3.17E2,2.5E1,2.7E1,1.61E2,1.56E2,6E0,1.9E1,2E1,7E0,9.7E1,6.4E1,2.6E1,1.3E2],"tree_param":{"num_deleted":"0","num_feature":"53","num_nodes":"15","size_leaf_vector":"1"}},{"base_weights":[-1.6804628E-1,-3.1044955E0,1.4897002E0,1.0166277E0,-6.5593266E0,2.938856E0,-5.776471E0,-1.2486555E-1,3.7854657E-1,-2.1418404E-2,-4.181964E-1,-2.3395121E-2,2.700643E-1,-1.1943514E-1,-6.1616135E-1],"categories":[],"categories_nodes":[],"categories_segments":[],"categories_sizes":[],"default_left":[0,0,0,0,0,0,0,0,0,0,0,0,0,0,0],"id":77,"left_children":[1,3,5,7,9,11,13,-1,-1,-1,-1,-1,-1,-1,-1],"loss_changes":[1.8151146E3,1.9316531E3,2.553801E3,2.293567E3,1.710791E3,2.703614E3,9.731111E2,0E0,0E0,0E0,0E0,0E0,0E0,0E0,0E0],"parents":[2147483647,0,0,1,1,2,2,3,3,4,4,5,5,6,6],"right_children":[2,4,6,8,10,12,14,-1,-1,-1,-1,-1,-1,-1,-1],"split_conditions":[1.546E1,2.323E1,9.428572E0,4E0,1.187E1,3.136E1,4E0,-1.2486555E-1,3.7854657E-1,-2.1418404E-2,-4.181964E-1,-2.3395121E-2,2.700643E-1,-1.1943514E-1,-6.1616135E-1],"split_indices":[35,21,26,22,13,21,38,0,0,0,0,0,0,0,0],"split_type":[0,0,0,0,0,0,0,0,0,0,0,0,0,0,0],"sum_hessian":[3.68E2,1.32E2,2.36E2,6.1E1,7.1E1,1.98E2,3.8E1,4.2E1,1.9E1,2.9E1,4.2E1,1.04E2,9.4E1,3.2E1,6E0],"tree_param":{"num_deleted":"0","num_feature":"53","num_nodes":"15","size_leaf_vector":"1"}},{"base_weights":[3.6974907E-1,-4.9359298E-1,5.8990583E0,-8.535527E-1,1.7445032E1,9.164278E0,-3.7877412E0,-1.1157241E-1,4.7763098E-2,9.065305E-1,1.01404674E-1,5.8744794E-1,-1.6938569E-2,1.6009685E-1,-3.0833519E-1],"categories":[],"categories_nodes":[],"categories_segments":[],"categories_sizes":[],"default_left":[0,0,0,0,0,0,0,0,0,0,0,0,0,0,0],"id":78,"left_children":[1,3,5,7,9,11,13,-1,-1,-1,-1,-1,-1,-1,-1],"loss_changes":[1.7854772E3,2.1325813E3,1.6840709E3,1.2786975E3,3.6208704E2,2.0538438E3,5.199954E2,0E0,0E0,0E0,0E0,0E0,0E0,0E0,0E0],"parents":[2147483647,0,0,1,1,2,2,3,3,4,4,5,5,6,6],"right_children":[2,4,6,8,10,12,14,-1,-1,-1,-1,-1,-1,-1,-1],"split_conditions":[9.706E1,8.868E1,4.3E1,7E0,1.76E2,8.642858E0,2E1,-1.1157241E-1,4.7763098E-2,9.065305E-1,1.01404674E-1,5.8744794E-1,-1.6938569E-2,1.6009685E-1,-3.0833519E-1],"split_indices":[24,13,3,22,6,30,11,0,0,0,0,0,0,0,0],"split_type":[0,0,0,0,0,0,0,0,0,0,0,0,0,0,0],"sum_hessian":[3.7E2,3.22E2,4.8E1,3.18E2,4E0,3.6E1,1.2E1,1.63E2,1.55E2,2E0,2E0,2.2E1,1.4E1,4E0,8E0],"tree_param":{"num_deleted":"0","num_feature":"53","num_nodes":"15","size_leaf_vector":"1"}},{"base_weights":[5.520969E-1,1.5794927E0,-4.574089E0,4.911744E-1,8.804628E0,-1.0508703E1,2.1003487E0,5.266052E-2,-3.1990448E-1,1.8100715E-1,8.6313236E-1,-9.7185306E-2,-5.6754047E-1,3.641019E-1,-1.9207098E-1],"categories":[],"categories_nodes":[],"categories_segments":[],"categories_sizes":[],"default_left":[0,0,0,0,0,0,0,0,0,0,0,0,0,0,0],"id":79,"left_children":[1,3,5,7,9,11,13,-1,-1,-1,-1,-1,-1,-1,-1],"loss_changes":[1.9693453E3,2.4307266E3,2.5308184E3,1.9354911E3,1.9697913E3,9.097534E2,1.6316672E3,0E0,0E0,0E0,0E0,0E0,0E0,0E0,0E0],"parents":[2147483647,0,0,1,1,2,2,3,3,4,4,5,5,6,6],"right_children":[2,4,6,8,10,12,14,-1,-1,-1,-1,-1,-1,-1,-1],"split_conditions":[2.9014285E0,6.761E1,3.8228571E0,2.2E1,2.2857144E0,5E0,1.6E1,5.266052E-2,-3.1990448E-1,1.8100715E-1,8.6313236E-1,-9.7185306E-2,-5.6754047E-1,3.641019E-1,-1.9207098E-1],"split_indices":[39,15,39,52,39,16,2,0,0,0,0,0,0,0,0],"split_type":[0,0,0,0,0,0,0,0,0,0,0,0,0,0,0],"sum_hessian":[3.68E2,3.08E2,6E1,2.7E2,3.8E1,3.1E1,2.9E1,2.48E2,2.2E1,3.1E1,7E0,1.1E1,2E1,1.4E1,1.5E1],"tree_param":{"num_deleted":"0","num_feature":"53","num_nodes":"15","size_leaf_vector":"1"}},{"base_weights":[-6.582248E-2,-1.492441E0,3.2303104E0,-8.704407E0,-4.4575974E-1,-6.4698493E-1,8.890068E0,-4.3418822E-1,8.325965E-2,5.4609966E-1,-6.1204016E-2,-2.8327587E-1,2.0578676E-1,6.925908E-1,-3.3555325E-2],"categories":[],"categories_nodes":[],"categories_segments":[],"categories_sizes":[],"default_left":[0,0,0,0,0,0,0,0,0,0,0,0,0,0,0],"id":80,"left_children":[1,3,5,7,9,11,13,-1,-1,-1,-1,-1,-1,-1,-1],"loss_changes":[1.7354546E3,1.9340717E3,2.4611968E3,8.102544E2,3.530087E3,2.643997E3,3.765652E3,0E0,0E0,0E0,0E0,0E0,0E0,0E0,0E0],"parents":[2147483647,0,0,1,1,2,2,3,3,4,4,5,5,6,6],"right_children":[2,4,6,8,10,12,14,-1,-1,-1,-1,-1,-1,-1,-1],"split_conditions":[4.493E1,5.357143E0,3.484E1,3.315E1,7.0381E2,4.059714E1,5.26E1,-4.3418822E-1,8.325965E-2,5.4609966E-1,-6.1204016E-2,-2.8327587E-1,2.0578676E-1,6.925908E-1,-3.3555325E-2],"split_indices":[15,34,21,40,37,23,21,0,0,0,0,0,0,0,0],"split_type":[0,0,0,0,0,0,0,0,0,0,0,0,0,0,0],"sum_hessian":[3.64E2,2.55E2,1.09E2,3E1,2.25E2,6.6E1,4.3E1,2.5E1,5E0,1.4E1,2.11E2,3.1E1,3.5E1,2.2E1,2.1E1],"tree_param":{"num_deleted":"0","num_feature":"53","num_nodes":"15","size_leaf_vector":"1"}},{"base_weights":[4.2838147E-1,1.9155256E-1,7.749413E-1,1.1987143E0,-4.451778E0,-2.1588741E-1,9.036982E-2,-2.5344622E-1,4.0192848E-1],"categories":[],"categories_nodes":[],"categories_segments":[],"categories_sizes":[],"default_left":[0,0,0,0,0,0,0,0,0],"id":81,"left_children":[1,3,-1,5,7,-1,-1,-1,-1],"loss_changes":[1.6351198E3,1.7179562E3,0E0,2.1395242E3,1.948854E3,0E0,0E0,0E0,0E0],"parents":[2147483647,0,0,1,1,3,3,4,4],"right_children":[2,4,-1,6,8,-1,-1,-1,-1],"split_conditions":[2.1E1,2.857143E0,7.749413E-1,1.5E0,1.38E0,-2.1588741E-1,9.036982E-2,-2.5344622E-1,4.0192848E-1],"split_indices":[16,39,0,35,41,0,0,0,0],"split_type":[0,0,0,0,0,0,0,0,0],"sum_hessian":[3.64E2,3.62E2,2E0,2.99E2,6.3E1,4E1,2.59E2,5.7E1,6E0],"tree_param":{"num_deleted":"0","num_feature":"53","num_nodes":"9","size_leaf_vector":"1"}},{"base_weights":[-1.1429251E-1,-1.0950816E0,4.715761E0,-3.4026733E-1,-9.779234E0,1.4118008E-1,1.4070856E1,1.1622604E-1,-1.1367521E-1,-4.2935768E-1,1.7088402E-2,1.6989467E-1,-2.9881737E-1,-1.7020787E-1,7.663305E-1],"categories":[],"categories_nodes":[],"categories_segments":[],"categories_sizes":[],"default_left":[0,0,0,0,0,0,0,0,0,0,0,0,0,0,0],"id":82,"left_children":[1,3,5,7,9,11,13,-1,-1,-1,-1,-1,-1,-1,-1],"loss_changes":[1.7538547E3,2.0073193E3,2.6697612E3,2.3389128E3,2.5019629E2,1.4701588E3,2.115063E3,0E0,0E0,0E0,0E0,0E0,0E0,0E0,0E0],"parents":[2147483647,0,0,1,1,2,2,3,3,4,4,5,5,6,6],"right_children":[2,4,6,8,10,12,14,-1,-1,-1,-1,-1,-1,-1,-1],"split_conditions":[5.908E1,2.2E1,4.167E1,2.115E1,1.5E0,3.4748573E1,1.923E1,1.1622604E-1,-1.1367521E-1,-4.2935768E-1,1.7088402E-2,1.6989467E-1,-2.9881737E-1,-1.7020787E-1,7.663305E-1],"split_indices":[15,52,27,13,38,27,17,0,0,0,0,0,0,0,0],"split_type":[0,0,0,0,0,0,0,0,0,0,0,0,0,0,0],"sum_hessian":[3.65E2,3.05E2,6E1,2.83E2,2.2E1,4.2E1,1.8E1,1.23E2,1.6E2,2E1,2E0,2.8E1,1.4E1,4E0,1.4E1],"tree_param":{"num_deleted":"0","num_feature":"53","num_nodes":"15","size_leaf_vector":"1"}},{"base_weights":[2.8711127E-2,-1.6596837E0,2.5415869E0,8.050164E-1,-5.5813847E0,7.2748456E0,-1.2364951E0,-2.8640702E-3,6.643204E-1,8.535108E-3,-3.9019883E-1,3.6357924E-1,-5.4119766E-1,2.8096424E-2,-4.7978586E-1],"categories":[],"categories_nodes":[],"categories_segments":[],"categories_sizes":[],"default_left":[0,0,0,0,0,0,0,0,0,0,0,0,0,0,0],"id":83,"left_children":[1,3,5,7,9,11,13,-1,-1,-1,-1,-1,-1,-1,-1],"loss_changes":[1.6206603E3,2.219872E3,2.7674736E3,1.9770526E3,2.1455708E3,2.8935386E3,1.8462292E3,0E0,0E0,0E0,0E0,0E0,0E0,0E0,0E0],"parents":[2147483647,0,0,1,1,2,2,3,3,4,4,5,5,6,6],"right_children":[2,4,6,8,10,12,14,-1,-1,-1,-1,-1,-1,-1,-1],"split_conditions":[3.565E1,1.9E1,5.26E1,1.761E1,2.045E1,8.563E1,5.26E1,-2.8640702E-3,6.643204E-1,8.535108E-3,-3.9019883E-1,3.6357924E-1,-5.4119766E-1,2.8096424E-2,-4.7978586E-1],"split_indices":[21,21,21,21,15,40,11,0,0,0,0,0,0,0,0],"split_type":[0,0,0,0,0,0,0,0,0,0,0,0,0,0,0],"sum_hessian":[3.77E2,2.26E2,1.51E2,1.4E2,8.6E1,6.6E1,8.5E1,1.35E2,5E0,3.7E1,4.9E1,6.2E1,4E0,7.4E1,1.1E1],"tree_param":{"num_deleted":"0","num_feature":"53","num_nodes":"15","size_leaf_vector":"1"}},{"base_weights":[-4.8667368E-2,1.7527798E0,-2.3795395E0,3.1427002E0,-6.9354835E0,3.934905E-1,-7.515795E0,2.666359E-1,-2.003679E-2,-3.0913519E-2,-5.440958E-1,-6.2140524E-2,4.6883568E-1,-3.7641418E-1,4.504021E-1],"categories":[],"categories_nodes":[],"categories_segments":[],"categories_sizes":[],"default_left":[0,0,0,0,0,0,0,0,0,0,0,0,0,0,0],"id":84,"left_children":[1,3,5,7,9,11,13,-1,-1,-1,-1,-1,-1,-1,-1],"loss_changes":[1.6039259E3,2.6568672E3,2.3788513E3,2.4153208E3,1.2268363E3,2.482543E3,2.345863E3,0E0,0E0,0E0,0E0,0E0,0E0,0E0,0E0],"parents":[2147483647,0,0,1,1,2,2,3,3,4,4,5,5,6,6],"right_children":[2,4,6,8,10,12,14,-1,-1,-1,-1,-1,-1,-1,-1],"split_conditions":[4.3388373E-1,9.428572E0,3E0,3.469E1,4.0890713E1,6.177E1,3.838E1,2.666359E-1,-2.003679E-2,-3.0913519E-2,-5.440958E-1,-6.2140524E-2,4.6883568E-1,-3.7641418E-1,4.504021E-1],"split_indices":[7,26,0,19,27,13,43,0,0,0,0,0,0,0,0],"split_type":[0,0,0,0,0,0,0,0,0,0,0,0,0,0,0],"sum_hessian":[3.77E2,2.13E2,1.64E2,1.85E2,2.8E1,1.08E2,5.6E1,9.3E1,9.2E1,1.6E1,1.2E1,9.4E1,1.4E1,5.2E1,4E0],"tree_param":{"num_deleted":"0","num_feature":"53","num_nodes":"15","size_leaf_vector":"1"}},{"base_weights":[-7.613307E-1,-1.3258133E0,7.138588E0,-2.1054344E0,3.9345582E0,7.835795E-1,2.5442939E0,-1.2594424E-1,1.360226E-1,5.949853E-1,-1.2094918E-1,2.8729504E-1,-3.4030336E-1],"categories":[],"categories_nodes":[],"categories_segments":[],"categories_sizes":[],"default_left":[0,0,0,0,0,0,0,0,0,0,0,0,0],"id":85,"left_children":[1,3,5,7,9,-1,11,-1,-1,-1,-1,-1,-1],"loss_changes":[1.7026127E3,1.4704478E3,1.3340753E3,1.8044435E3,3.6522168E3,0E0,1.2548413E3,0E0,0E0,0E0,0E0,0E0,0E0],"parents":[2147483647,0,0,1,1,2,2,3,3,4,4,6,6],"right_children":[2,4,6,8,10,-1,12,-1,-1,-1,-1,-1,-1],"split_conditions":[8.577E1,1.3632E2,6.214286E0,1.2E1,3.385E1,7.835795E-1,2.408E1,-1.2594424E-1,1.360226E-1,5.949853E-1,-1.2094918E-1,2.8729504E-1,-3.4030336E-1],"split_indices":[19,32,30,12,11,0,21,0,0,0,0,0,0],"split_type":[0,0,0,0,0,0,0,0,0,0,0,0,0],"sum_hessian":[3.74E2,3.51E2,2.3E1,3.07E2,4.4E1,4E0,1.9E1,2.59E2,4.8E1,1.6E1,2.8E1,1.4E1,5E0],"tree_param":{"num_deleted":"0","num_feature":"53","num_nodes":"13","size_leaf_vector":"1"}},{"base_weights":[4.3696594E-1,-1.5652213E-1,1.0652854E1,5.6269455E-1,-7.441973E0,1.8796036E1,9.019368E-1,-5.0166905E-2,1.8181497E-1,-3.7060323E-1,3.2955217E-1,9.757459E-2,8.770881E-1,3.819108E-1,-2.756706E-1],"categories":[],"categories_nodes":[],"categories_segments":[],"categories_sizes":[],"default_left":[0,0,0,0,0,0,0,0,0,0,0,0,0,0,0],"id":86,"left_children":[1,3,5,7,9,11,13,-1,-1,-1,-1,-1,-1,-1,-1],"loss_changes":[2.153505E3,1.7789076E3,1.5059861E3,2.2537937E3,1.0627594E3,4.040415E2,9.394075E2,0E0,0E0,0E0,0E0,0E0,0E0,0E0,0E0],"parents":[2147483647,0,0,1,1,2,2,3,3,4,4,5,5,6,6],"right_children":[2,4,6,8,10,12,14,-1,-1,-1,-1,-1,-1,-1,-1],"split_conditions":[8.577E1,6.415E1,3.227E1,3.673E1,9.428572E0,2.2341429E1,2.7722857E1,-5.0166905E-2,1.8181497E-1,-3.7060323E-1,3.2955217E-1,9.757459E-2,8.770881E-1,3.819108E-1,-2.756706E-1],"split_indices":[19,19,40,35,26,23,23,0,0,0,0,0,0,0,0],"split_type":[0,0,0,0,0,0,0,0,0,0,0,0,0,0,0],"sum_hessian":[3.52E2,3.35E2,1.7E1,3.07E2,2.8E1,8E0,9E0,2.12E2,9.5E1,2.6E1,2E0,2E0,6E0,4E0,5E0],"tree_param":{"num_deleted":"0","num_feature":"53","num_nodes":"15","size_leaf_vector":"1"}},{"base_weights":[1.5895776E-1,-4.0779823E-1,8.793771E0,2.5259355E-1,-7.7290225E0,1.324062E1,-2.424751E0,-1.3440923E-1,7.146557E-2,-4.892326E-1,2.584291E-1,6.5652174E-1,-1.7350142E-1,2.790614E-1,-3.2002947E-1],"categories":[],"categories_nodes":[],"categories_segments":[],"categories_sizes":[],"default_left":[0,0,0,0,0,0,0,0,0,0,0,0,0,0,0],"id":87,"left_children":[1,3,5,7,9,11,13,-1,-1,-1,-1,-1,-1,-1,-1],"loss_changes":[1.787873E3,1.6656606E3,1.2027222E3,1.7746692E3,2.0181102E3,1.0981089E3,5.8512585E2,0E0,0E0,0E0,0E0,0E0,0E0,0E0,0E0],"parents":[2147483647,0,0,1,1,2,2,3,3,4,4,5,5,6,6],"right_children":[2,4,6,8,10,12,14,-1,-1,-1,-1,-1,-1,-1,-1],"split_conditions":[8.577E1,6.284E1,3.499E1,-2.2252093E-1,3.9897858E1,5.1530716E1,1.38E0,-1.3440923E-1,7.146557E-2,-4.892326E-1,2.584291E-1,6.5652174E-1,-1.7350142E-1,2.790614E-1,-3.2002947E-1],"split_indices":[19,19,