{"learner":{"attributes":{},"feature_names":["dia_semana","mes","dia_mes","semana_anio","trimestre","es_fin_semana","dias_desde_inicio","sin_dia","cos_dia","sin_mes","cos_mes","target_lag_1d","eventos_lag_1d","target_lag_2d","eventos_lag_2d","target_lag_3d","eventos_lag_3d","target_lag_7d","eventos_lag_7d","target_lag_14d","eventos_lag_14d","target_lag_28d","eventos_lag_28d","target_media_7d","target_max_7d","target_suma_7d","eventos_media_7d","target_media_14d","target_max_14d","target_suma_14d","eventos_media_14d","target_media_28d","target_max_28d","target_suma_28d","eventos_media_28d","subclave_1_min_lag_1d","subclave_1_min_media_7d","subclave_1_min_suma_28d","subclave_2_min_lag_1d","subclave_2_min_media_7d","subclave_2_min_suma_28d","subclave_3_min_lag_1d","subclave_3_min_media_7d","subclave_3_min_suma_28d","subclave_4_min_lag_1d","subclave_4_min_media_7d","subclave_4_min_suma_28d","subclave_5_min_lag_1d","subclave_5_min_media_7d","subclave_5_min_suma_28d","subclave_6_min_lag_1d","subclave_6_min_media_7d","subclave_6_min_suma_28d"],"feature_types":["int","int","int","int","int","int","int","float","float","float","float","float","float","float","float","float","float","float","float","float","float","float","float","float","float","float","float","float","float","float","float","float","float","float","float","float","float","float","float","float","float","float","float","float","float","float","float","float","float","float","float","float","float"],"gradient_booster":{"model":{"cats":{"enc":[],"feature_segments":[],"sorted_idx":[]},"gbtree_model_param":{"num_parallel_tree":"1","num_trees":"420"},"iteration_indptr":[0,1,2,3,4,5,6,7,8,9,10,11,12,13,14,15,16,17,18,19,20,21,22,23,24,25,26,27,28,29,30,31,32,33,34,35,36,37,38,39,40,41,42,43,44,45,46,47,48,49,50,51,52,53,54,55,56,57,58,59,60,61,62,63,64,65,66,67,68,69,70,71,72,73,74,75,76,77,78,79,80,81,82,83,84,85,86,87,88,89,90,91,92,93,94,95,96,97,98,99,100,101,102,103,104,105,106,107,108,109,110,111,112,113,114,115,116,117,118,119,120,121,122,123,124,125,126,127,128,129,130,131,132,133,134,135,136,137,138,139,140,141,142,143,144,145,146,147,148,149,150,151,152,153,154,155,156,157,158,159,160,161,162,163,164,165,166,167,168,169,170,171,172,173,174,175,176,177,178,179,180,181,182,183,184,185,186,187,188,189,190,191,192,193,194,195,196,197,198,199,200,201,202,203,204,205,206,207,208,209,210,211,212,213,214,215,216,217,218,219,220,221,222,223,224,225,226,227,228,229,230,231,232,233,234,235,236,237,238,239,240,241,242,243,244,245,246,247,248,249,250,251,252,253,254,255,256,257,258,259,260,261,262,263,264,265,266,267,268,269,270,271,272,273,274,275,276,277,278,279,280,281,282,283,284,285,286,287,288,289,290,291,292,293,294,295,296,297,298,299,300,301,302,303,304,305,306,307,308,309,310,311,312,313,314,315,316,317,318,319,320,321,322,323,324,325,326,327,328,329,330,331,332,333,334,335,336,337,338,339,340,341,342,343,344,345,346,347,348,349,350,351,352,353,354,355,356,357,358,359,360,361,362,363,364,365,366,367,368,369,370,371,372,373,374,375,376,377,378,379,380,381,382,383,384,385,386,387,388,389,390,391,392,393,394,395,396,397,398,399,400,401,402,403,404,405,406,407,408,409,410,411,412,413,414,415,416,417,418,419,420],"tree_info":[0,0,0,0,0,0,0,0,0,0,0,0,0,0,0,0,0,0,0,0,0,0,0,0,0,0,0,0,0,0,0,0,0,0,0,0,0,0,0,0,0,0,0,0,0,0,0,0,0,0,0,0,0,0,0,0,0,0,0,0,0,0,0,0,0,0,0,0,0,0,0,0,0,0,0,0,0,0,0,0,0,0,0,0,0,0,0,0,0,0,0,0,0,0,0,0,0,0,0,0,0,0,0,0,0,0,0,0,0,0,0,0,0,0,0,0,0,0,0,0,0,0,0,0,0,0,0,0,0,0,0,0,0,0,0,0,0,0,0,0,0,0,0,0,0,0,0,0,0,0,0,0,0,0,0,0,0,0,0,0,0,0,0,0,0,0,0,0,0,0,0,0,0,0,0,0,0,0,0,0,0,0,0,0,0,0,0,0,0,0,0,0,0,0,0,0,0,0,0,0,0,0,0,0,0,0,0,0,0,0,0,0,0,0,0,0,0,0,0,0,0,0,0,0,0,0,0,0,0,0,0,0,0,0,0,0,0,0,0,0,0,0,0,0,0,0,0,0,0,0,0,0,0,0,0,0,0,0,0,0,0,0,0,0,0,0,0,0,0,0,0,0,0,0,0,0,0,0,0,0,0,0,0,0,0,0,0,0,0,0,0,0,0,0,0,0,0,0,0,0,0,0,0,0,0,0,0,0,0,0,0,0,0,0,0,0,0,0,0,0,0,0,0,0,0,0,0,0,0,0,0,0,0,0,0,0,0,0,0,0,0,0,0,0,0,0,0,0,0,0,0,0,0,0,0,0,0,0,0,0,0,0,0,0,0,0,0,0,0,0,0,0,0,0,0,0,0,0,0,0,0,0,0,0,0,0,0,0,0,0,0,0,0,0,0,0,0,0,0,0,0,0,0,0,0,0,0,0,0,0,0,0,0,0,0,0,0,0,0,0],"trees":[{"base_weights":[7.7664657E-3,-2.2217345E0,1.9597791E-1,-1.2981065E-1,-8.3985865E-1,-1.202912E-1,5.038578E-1,-6.1509777E-3,-5.4385655E-2,-1.792395E-2,1.1933436E-2,-4.702784E-3,2.8824657E-2],"categories":[],"categories_nodes":[],"categories_segments":[],"categories_sizes":[],"default_left":[0,0,0,0,0,0,0,0,0,0,0,0,0],"id":0,"left_children":[1,3,5,-1,7,9,11,-1,-1,-1,-1,-1,-1],"loss_changes":[1.5361952E2,3.3496323E1,3.3014877E1,0E0,5.004834E0,2.3457317E1,2.3312817E1,0E0,0E0,0E0,0E0,0E0,0E0],"parents":[2147483647,0,0,1,1,2,2,4,4,5,5,6,6],"right_children":[2,4,6,-1,8,10,12,-1,-1,-1,-1,-1,-1],"split_conditions":[1E0,1.9306E2,1.4925E2,-1.2981065E-1,1.0834286E1,4E0,-2.2252093E-1,-6.1509777E-3,-5.4385655E-2,-1.792395E-2,1.1933436E-2,-4.702784E-3,2.8824657E-2],"split_indices":[12,37,24,0,42,0,8,0,0,0,0,0,0],"split_type":[0,0,0,0,0,0,0,0,0,0,0,0,0],"sum_hessian":[3.61E2,2.6E1,3.35E2,1.3E1,1.3E1,1.66E2,1.69E2,7E0,6E0,9.3E1,7.3E1,4.4E1,1.25E2],"tree_param":{"num_deleted":"0","num_feature":"53","num_nodes":"13","size_leaf_vector":"1"}},{"base_weights":[5.682888E-3,-1.3576913E0,2.5452435E-1,-2.7824826E0,-6.750871E-1,-2.8807765E-2,5.0148416E-1,-2.2373179E-2,-1.1916506E-1,-4.9557608E-2,-2.4513756E-3,2.2911396E-2,-5.635309E-3,-6.487057E-3,2.837184E-2],"categories":[],"categories_nodes":[],"categories_segments":[],"categories_sizes":[],"default_left":[0,0,0,0,0,0,0,0,0,0,0,0,0,0,0],"id":1,"left_children":[1,3,5,7,9,11,13,-1,-1,-1,-1,-1,-1,-1,-1],"loss_changes":[1.2418639E2,5.0254074E1,2.1692339E1,3.4846802E0,1.4173103E1,1.0079278E1,2.3112774E1,0E0,0E0,0E0,0E0,0E0,0E0,0E0,0E0],"parents":[2147483647,0,0,1,1,2,2,3,3,4,4,5,5,6,6],"right_children":[2,4,6,8,10,12,14,-1,-1,-1,-1,-1,-1,-1,-1],"split_conditions":[1.646E1,2.985E2,1.8552E2,1.54E0,4E0,2.208E1,-2.2252093E-1,-2.2373179E-2,-1.1916506E-1,-4.9557608E-2,-2.4513756E-3,2.2911396E-2,-5.635309E-3,-6.487057E-3,2.837184E-2],"split_indices":[11,37,28,19,0,13,8,0,0,0,0,0,0,0,0],"split_type":[0,0,0,0,0,0,0,0,0,0,0,0,0,0,0],"sum_hessian":[3.61E2,5.4E1,3.07E2,1.5E1,3.9E1,1.44E2,1.63E2,2E0,1.3E1,1.9E1,2E1,2.1E1,1.23E2,3.9E1,1.24E2],"tree_param":{"num_deleted":"0","num_feature":"53","num_nodes":"15","size_leaf_vector":"1"}},{"base_weights":[7.283258E-3,-2.080956E0,1.755905E-1,-1.217077E-1,-7.835811E-1,-8.991327E-2,4.5866027E-1,-3.8797896E-2,8.433632E-3,-3.1292655E-2,2.0717604E-3,-6.182126E-3,2.7194154E-2],"categories":[],"categories_nodes":[],"categories_segments":[],"categories_sizes":[],"default_left":[0,0,0,0,0,0,0,0,0,0,0,0,0],"id":2,"left_children":[1,3,5,-1,7,9,11,-1,-1,-1,-1,-1,-1],"loss_changes":[1.3429475E2,2.9599884E1,2.6670776E1,0E0,3.3838272E0,1.8204172E1,2.352475E1,0E0,0E0,0E0,0E0,0E0,0E0],"parents":[2147483647,0,0,1,1,2,2,4,4,5,5,6,6],"right_children":[2,4,6,-1,8,10,12,-1,-1,-1,-1,-1,-1],"split_conditions":[1.54E0,1.9306E2,1.9684E2,-1.217077E-1,2.9E1,2.095E1,-2.2252093E-1,-3.8797896E-2,8.433632E-3,-3.1292655E-2,2.0717604E-3,-6.182126E-3,2.7194154E-2],"split_indices":[11,37,28,0,16,11,8,0,0,0,0,0,0],"split_type":[0,0,0,0,0,0,0,0,0,0,0,0,0],"sum_hessian":[3.77E2,2.6E1,3.51E2,1.3E1,1.3E1,1.82E2,1.69E2,1.1E1,2E0,2.9E1,1.53E2,4.5E1,1.24E2],"tree_param":{"num_deleted":"0","num_feature":"53","num_nodes":"13","size_leaf_vector":"1"}},{"base_weights":[1.75039E-2,-1.0377373E0,2.600838E-1,-2.6362286E0,-5.971822E-1,-2.341414E-1,4.2845282E-1,-1.1489944E-1,-2.0615434E-2,-5.836921E-2,6.2014E-3,5.846309E-3,-2.7687032E-2,5.097919E-3,2.7190125E-2],"categories":[],"categories_nodes":[],"categories_segments":[],"categories_sizes":[],"default_left":[0,0,0,0,0,0,0,0,0,0,0,0,0,0,0],"id":3,"left_children":[1,3,5,7,9,11,13,-1,-1,-1,-1,-1,-1,-1,-1],"loss_changes":[9.653936E1,4.5711975E1,2.5755344E1,3.564354E0,3.8499752E1,1.410103E1,1.7143394E1,0E0,0E0,0E0,0E0,0E0,0E0,0E0,0E0],"parents":[2147483647,0,0,1,1,2,2,3,3,4,4,5,5,6,6],"right_children":[2,4,6,8,10,12,14,-1,-1,-1,-1,-1,-1,-1,-1],"split_conditions":[2.224E1,2.1718E2,-2.2252093E-1,1.9E1,4E0,2.5E1,1.9684E2,-1.1489944E-1,-2.0615434E-2,-5.836921E-2,6.2014E-3,5.846309E-3,-2.7687032E-2,5.097919E-3,2.7190125E-2],"split_indices":[11,37,8,2,0,3,28,0,0,0,0,0,0,0,0],"split_type":[0,0,0,0,0,0,0,0,0,0,0,0,0,0,0],"sum_hessian":[3.72E2,6.8E1,3.04E2,1.2E1,5.6E1,7.7E1,2.27E2,1E1,2E0,2.5E1,3.1E1,4.3E1,3.4E1,1.05E2,1.22E2],"tree_param":{"num_deleted":"0","num_feature":"53","num_nodes":"15","size_leaf_vector":"1"}},{"base_weights":[-1.5791932E-2,-1.7238033E0,1.6345145E-1,-1.1401323E-1,-7.562173E-1,-8.678438E-2,4.2021137E-1,-1.1992918E-3,-4.606917E-2,-1.5672905E-2,1.2148357E-2,-4.9539455E-3,2.4424262E-2],"categories":[],"categories_nodes":[],"categories_segments":[],"categories_sizes":[],"default_left":[0,0,0,0,0,0,0,0,0,0,0,0,0],"id":4,"left_children":[1,3,5,-1,7,9,11,-1,-1,-1,-1,-1,-1],"loss_changes":[1.14439026E2,3.3306763E1,2.1839973E1,0E0,6.3764524E0,2.0964022E1,1.7539785E1,0E0,0E0,0E0,0E0,0E0,0E0],"parents":[2147483647,0,0,1,1,2,2,4,4,5,5,6,6],"right_children":[2,4,6,-1,8,10,12,-1,-1,-1,-1,-1,-1],"split_conditions":[6.51E0,1.9306E2,1.5089E2,-1.1401323E-1,2.046E1,4E0,-2.2252093E-1,-1.1992918E-3,-4.606917E-2,-1.5672905E-2,1.2148357E-2,-4.9539455E-3,2.4424262E-2],"split_indices":[11,37,24,0,13,0,8,0,0,0,0,0,0],"split_type":[0,0,0,0,0,0,0,0,0,0,0,0,0],"sum_hessian":[3.69E2,3.3E1,3.36E2,1.3E1,2E1,1.71E2,1.65E2,8E0,1.2E1,9.6E1,7.5E1,4.3E1,1.22E2],"tree_param":{"num_deleted":"0","num_feature":"53","num_nodes":"13","size_leaf_vector":"1"}},{"base_weights":[-2.3022229E-2,-1.9136206E0,1.3219966E-1,-1.10188276E-1,-7.6388574E-1,4.3306842E-1,-1.5216464E-1,-9.846539E-3,-6.373226E-2,-9.152979E-3,2.00413E-2,1.6361173E-2,-1.1962172E-2],"categories":[],"categories_nodes":[],"categories_segments":[],"categories_sizes":[],"default_left":[0,0,0,0,0,0,0,0,0,0,0,0,0],"id":5,"left_children":[1,3,5,-1,7,9,11,-1,-1,-1,-1,-1,-1],"loss_changes":[1.102406E2,2.2299545E1,2.989557E1,0E0,5.675313E0,7.9115696E0,1.5185069E1,0E0,0E0,0E0,0E0,0E0,0E0],"parents":[2147483647,0,0,1,1,2,2,4,4,5,5,6,6],"right_children":[2,4,6,-1,8,10,12,-1,-1,-1,-1,-1,-1],"split_conditions":[1.54E0,1.9306E2,2.3E2,-1.10188276E-1,3E1,2.095E1,2.898E1,-9.846539E-3,-6.373226E-2,-9.152979E-3,2.00413E-2,1.6361173E-2,-1.1962172E-2],"split_indices":[11,37,6,0,20,11,13,0,0,0,0,0,0],"split_type":[0,0,0,0,0,0,0,0,0,0,0,0,0],"sum_hessian":[3.71E2,2.6E1,3.45E2,1.3E1,1.3E1,1.67E2,1.78E2,1E1,3E0,1.5E1,1.52E2,3.6E1,1.42E2],"tree_param":{"num_deleted":"0","num_feature":"53","num_nodes":"13","size_leaf_vector":"1"}},{"base_weights":[1.461835E-2,-9.748719E-1,2.3202184E-1,-2.4436362E0,-5.037873E-1,-1.2618163E-1,3.5360646E-1,-1.0650584E-1,-1.7161228E-2,7.8786155E-3,-5.4133926E-2,8.660491E-3,-2.7330004E-2,8.114907E-3,2.2503793E-2],"categories":[],"categories_nodes":[],"categories_segments":[],"categories_sizes":[],"default_left":[0,0,0,0,0,0,0,0,0,0,0,0,0,0,0],"id":6,"left_children":[1,3,5,7,9,11,13,-1,-1,-1,-1,-1,-1,-1,-1],"loss_changes":[7.940645E1,4.2934483E1,1.3286036E1,3.9829865E0,3.2516666E1,1.5355794E1,6.8497753E0,0E0,0E0,0E0,0E0,0E0,0E0,0E0,0E0],"parents":[2147483647,0,0,1,1,2,2,3,3,4,4,5,5,6,6],"right_children":[2,4,6,8,10,12,14,-1,-1,-1,-1,-1,-1,-1,-1],"split_conditions":[2.224E1,2.1718E2,1.3E1,1.9E1,0E0,1.9428572E1,1.41667E3,-1.0650584E-1,-1.7161228E-2,7.8786155E-3,-5.4133926E-2,8.660491E-3,-2.7330004E-2,8.114907E-3,2.2503793E-2],"split_indices":[11,37,18,2,7,30,29,0,0,0,0,0,0,0,0],"split_type":[0,0,0,0,0,0,0,0,0,0,0,0,0,0,0],"sum_hessian":[3.64E2,6.4E1,3E2,1.3E1,5.1E1,7.6E1,2.24E2,1.1E1,2E0,2.9E1,2.2E1,4.8E1,2.8E1,1.33E2,9.1E1],"tree_param":{"num_deleted":"0","num_feature":"53","num_nodes":"15","size_leaf_vector":"1"}},{"base_weights":[-4.807089E-2,-1.7814028E0,1.03791244E-1,-1.04472846E-1,-6.1008614E-1,-1.653539E-1,3.7942144E-1,-2.8389794E-4,-5.003633E-2,-2.187562E-2,4.08855E-3,-6.3981744E-3,2.3232954E-2],"categories":[],"categories_nodes":[],"categories_segments":[],"categories_sizes":[],"default_left":[0,0,0,0,0,0,0,0,0,0,0,0,0],"id":7,"left_children":[1,3,5,-1,7,9,11,-1,-1,-1,-1,-1,-1],"loss_changes":[9.6408646E1,2.4710556E1,2.5194124E1,0E0,5.967136E0,1.774973E1,1.8428057E1,0E0,0E0,0E0,0E0,0E0,0E0],"parents":[2147483647,0,0,1,1,2,2,4,4,5,5,6,6],"right_children":[2,4,6,-1,8,10,12,-1,-1,-1,-1,-1,-1],"split_conditions":[1E0,1.9306E2,1.9684E2,-1.04472846E-1,1.0834286E1,6.93E0,-2.2252093E-1,-2.8389794E-4,-5.003633E-2,-2.187562E-2,4.08855E-3,-6.3981744E-3,2.3232954E-2],"split_indices":[12,37,28,0,42,41,8,0,0,0,0,0,0],"split_type":[0,0,0,0,0,0,0,0,0,0,0,0,0],"sum_hessian":[3.62E2,2.7E1,3.35E2,1.4E1,1.3E1,1.7E2,1.65E2,8E0,5E0,6.9E1,1.01E2,4.5E1,1.2E2],"tree_param":{"num_deleted":"0","num_feature":"53","num_nodes":"13","size_leaf_vector":"1"}},{"base_weights":[1.012165E-2,-1.4758493E0,1.7370053E-1,-2.3500614E0,-7.050356E-1,6.692301E-2,6.2801504E-1,-1.8015603E-2,-1.01377256E-1,-4.2526692E-2,-4.0083867E-3,-5.03579E-3,1.231826E-2,2.9156758E-2,-1.0046062E-2],"categories":[],"categories_nodes":[],"categories_segments":[],"categories_sizes":[],"default_left":[0,0,0,0,0,0,0,0,0,0,0,0,0,0,0],"id":8,"left_children":[1,3,5,7,9,11,13,-1,-1,-1,-1,-1,-1,-1,-1],"loss_changes":[9.191498E1,2.112735E1,1.641278E1,2.9253082E0,4.823922E0,1.3040363E1,6.179554E0,0E0,0E0,0E0,0E0,0E0,0E0,0E0,0E0],"parents":[2147483647,0,0,1,1,2,2,3,3,4,4,5,5,6,6],"right_children":[2,4,6,8,10,12,14,-1,-1,-1,-1,-1,-1,-1,-1],"split_conditions":[6.51E0,1.37E2,3.0429E2,1.962E1,7.6980354E1,4E0,3.7E1,-1.8015603E-2,-1.01377256E-1,-4.2526692E-2,-4.0083867E-3,-5.03579E-3,1.231826E-2,2.9156758E-2,-1.0046062E-2],"split_indices":[11,6,32,19,31,0,14,0,0,0,0,0,0,0,0],"split_type":[0,0,0,0,0,0,0,0,0,0,0,0,0,0,0],"sum_hessian":[3.73E2,3.5E1,3.38E2,1.4E1,2.1E1,2.76E2,6.2E1,2E0,1.2E1,1.2E1,9E0,1.54E2,1.22E2,5.6E1,6E0],"tree_param":{"num_deleted":"0","num_feature":"53","num_nodes":"15","size_leaf_vector":"1"}},{"base_weights":[-3.1024845E-2,-9.8252887E-1,2.0176059E-1,-2.3025634E0,-5.220437E-1,-2.277891E-1,3.4991187E-1,-9.9638574E-2,-1.4977011E-2,-5.4111112E-2,8.7303985E-3,1.5063265E-2,-2.2570226E-2,5.7362644E-3,2.5688065E-2],"categories":[],"categories_nodes":[],"categories_segments":[],"categories_sizes":[],"default_left":[0,0,0,0,0,0,0,0,0,0,0,0,0,0,0],"id":9,"left_children":[1,3,5,7,9,11,13,-1,-1,-1,-1,-1,-1,-1,-1],"loss_changes":[7.945901E1,3.9848778E1,1.8558926E1,4.025406E0,3.48704E1,1.5884187E1,1.2777206E1,0E0,0E0,0E0,0E0,0E0,0E0,0E0,0E0],"parents":[2147483647,0,0,1,1,2,2,3,3,4,4,5,5,6,6],"right_children":[2,4,6,8,10,12,14,-1,-1,-1,-1,-1,-1,-1,-1],"split_conditions":[2.224E1,2.1718E2,-2.2252093E-1,1.9E1,4E0,1.7E1,1.8004E2,-9.9638574E-2,-1.4977011E-2,-5.4111112E-2,8.7303985E-3,1.5063265E-2,-2.2570226E-2,5.7362644E-3,2.5688065E-2],"split_indices":[11,37,8,2,0,16,24,0,0,0,0,0,0,0,0],"split_type":[0,0,0,0,0,0,0,0,0,0,0,0,0,0,0],"sum_hessian":[3.54E2,6.8E1,2.86E2,1.5E1,5.3E1,7.3E1,2.13E2,1.3E1,2E0,2.4E1,2.9E1,2.6E1,4.7E1,1.27E2,8.6E1],"tree_param":{"num_deleted":"0","num_feature":"53","num_nodes":"15","size_leaf_vector":"1"}},{"base_weights":[-1.3835385E-2,-9.0315986E-1,1.9334263E-1,-2.1858766E0,-4.8112875E-1,-2.4410442E-1,3.3254704E-1,-9.4929665E-2,-1.4710755E-2,7.501341E-3,-4.922257E-2,9.908412E-3,-2.3900928E-2,-1.2831418E-2,1.6541574E-2],"categories":[],"categories_nodes":[],"categories_segments":[],"categories_sizes":[],"default_left":[0,0,0,0,0,0,0,0,0,0,0,0,0,0,0],"id":10,"left_children":[1,3,5,7,9,11,13,-1,-1,-1,-1,-1,-1,-1,-1],"loss_changes":[6.7779366E1,3.4994354E1,1.8379967E1,3.4387054E0,2.8389048E1,1.3145548E1,1.2369787E1,0E0,0E0,0E0,0E0,0E0,0E0,0E0,0E0],"parents":[2147483647,0,0,1,1,2,2,3,3,4,4,5,5,6,6],"right_children":[2,4,6,8,10,12,14,-1,-1,-1,-1,-1,-1,-1,-1],"split_conditions":[2.224E1,2.1718E2,-2.2252093E-1,1.8E1,0E0,1.63E2,1.0582E2,-9.4929665E-2,-1.4710755E-2,7.501341E-3,-4.922257E-2,9.908412E-3,-2.3900928E-2,-1.2831418E-2,1.6541574E-2],"split_indices":[11,37,8,2,7,6,24,0,0,0,0,0,0,0,0],"split_type":[0,0,0,0,0,0,0,0,0,0,0,0,0,0,0],"sum_hessian":[3.63E2,6.7E1,2.96E2,1.4E1,5.3E1,7.1E1,2.25E2,1.2E1,2E0,2.9E1,2.4E1,3E1,4.1E1,2.4E1,2.01E2],"tree_param":{"num_deleted":"0","num_feature":"53","num_nodes":"15","size_leaf_vector":"1"}},{"base_weights":[-9.121223E-3,-9.351478E-1,1.9758819E-1,-2.0880413E0,-4.7560608E-1,-1.6303767E-1,3.1826746E-1,-9.221359E-2,-2.1061791E-2,-4.416277E-2,5.1369173E-3,8.5167885E-3,-2.399718E-2,-8.521991E-4,1.9558623E-2],"categories":[],"categories_nodes":[],"categories_segments":[],"categories_sizes":[],"default_left":[0,0,0,0,0,0,0,0,0,0,0,0,0,0,0],"id":11,"left_children":[1,3,5,7,9,11,13,-1,-1,-1,-1,-1,-1,-1,-1],"loss_changes":[7.0808205E1,3.3278973E1,1.3294543E1,3.2425919E0,1.9904383E1,1.3048927E1,1.3212942E1,0E0,0E0,0E0,0E0,0E0,0E0,0E0,0E0],"parents":[2147483647,0,0,1,1,2,2,3,3,4,4,5,5,6,6],"right_children":[2,4,6,8,10,12,14,-1,-1,-1,-1,-1,-1,-1,-1],"split_conditions":[2.224E1,2.985E2,-2.2252093E-1,2E1,4E0,6E0,1.5851E2,-9.221359E-2,-2.1061791E-2,-4.416277E-2,5.1369173E-3,8.5167885E-3,-2.399718E-2,-8.521991E-4,1.9558623E-2],"split_indices":[11,37,8,2,0,1,28,0,0,0,0,0,0,0,0],"split_type":[0,0,0,0,0,0,0,0,0,0,0,0,0,0,0],"sum_hessian":[3.65E2,6.5E1,3E2,1.6E1,4.9E1,7.5E1,2.25E2,1.3E1,3E0,2.3E1,2.6E1,4.1E1,3.4E1,7.6E1,1.49E2],"tree_param":{"num_deleted":"0","num_feature":"53","num_nodes":"15","size_leaf_vector":"1"}},{"base_weights":[-1.6852213E-2,-1.3179761E0,1.2136014E-1,-1.8771604E0,-4.746494E-1,-1.13368355E-1,3.5428804E-1,-9.086219E-2,-1.7454332E-2,-2.1353494E-4,-3.4738153E-2,8.961684E-3,-1.4836768E-2,-3.0352192E-3,1.9070664E-2],"categories":[],"categories_nodes":[],"categories_segments":[],"categories_sizes":[],"default_left":[0,0,0,0,0,0,0,0,0,0,0,0,0,0,0],"id":12,"left_children":[1,3,5,7,9,11,13,-1,-1,-1,-1,-1,-1,-1,-1],"loss_changes":[6.6487915E1,1.4513435E1,1.8389137E1,9.170982E0,3.2227035E0,1.4850464E1,8.968107E0,0E0,0E0,0E0,0E0,0E0,0E0,0E0,0E0],"parents":[2147483647,0,0,1,1,2,2,3,3,4,4,5,5,6,6],"right_children":[2,4,6,8,10,12,14,-1,-1,-1,-1,-1,-1,-1,-1],"split_conditions":[6.51E0,2.1E1,1.5089E2,5.542857E0,5.7895714E1,0E0,-2.2252093E-1,-9.086219E-2,-1.7454332E-2,-2.1353494E-4,-3.4738153E-2,8.961684E-3,-1.4836768E-2,-3.0352192E-3,1.9070664E-2],"split_indices":[11,3,24,45,23,7,8,0,0,0,0,0,0,0,0],"split_type":[0,0,0,0,0,0,0,0,0,0,0,0,0,0,0],"sum_hessian":[3.65E2,3.3E1,3.32E2,1.8E1,1.5E1,1.66E2,1.66E2,1.3E1,5E0,8E0,7E0,7.2E1,9.4E1,3.7E1,1.29E2],"tree_param":{"num_deleted":"0","num_feature":"53","num_nodes":"15","size_leaf_vector":"1"}},{"base_weights":[-1.6001439E-2,-6.73066E-1,1.8781719E-1,-1.2864046E0,6.645366E-2,-1.3890034E-1,2.955549E-1,-6.3123606E-2,-9.517744E-3,-3.8095675E-2,1.1966698E-2,3.8007242E-3,-2.8193008E-2,-3.4476712E-3,1.4932694E-2],"categories":[],"categories_nodes":[],"categories_segments":[],"categories_sizes":[],"default_left":[0,0,0,0,0,0,0,0,0,0,0,0,0,0,0],"id":13,"left_children":[1,3,5,7,9,11,13,-1,-1,-1,-1,-1,-1,-1,-1],"loss_changes":[5.0068058E1,4.0355186E1,1.0152174E1,1.389357E1,1.0789036E1,9.7649975E0,6.4776783E0,0E0,0E0,0E0,0E0,0E0,0E0,0E0,0E0],"parents":[2147483647,0,0,1,1,2,2,3,3,4,4,5,5,6,6],"right_children":[2,4,6,8,10,12,14,-1,-1,-1,-1,-1,-1,-1,-1],"split_conditions":[1.5E0,1.615E1,1.3E1,7.8228574E0,1.2376E2,2.807E1,1.8815E2,-6.3123606E-2,-9.517744E-3,-3.8095675E-2,1.1966698E-2,3.8007242E-3,-2.8193008E-2,-3.4476712E-3,1.4932694E-2],"split_indices":[35,52,18,48,28,35,32,0,0,0,0,0,0,0,0],"split_type":[0,0,0,0,0,0,0,0,0,0,0,0,0,0,0],"sum_hessian":[3.69E2,8.6E1,2.83E2,4.6E1,4E1,7E1,2.13E2,3.5E1,1.1E1,6E0,3.4E1,5.1E1,1.9E1,3.6E1,1.77E2],"tree_param":{"num_deleted":"0","num_feature":"53","num_nodes":"15","size_leaf_vector":"1"}},{"base_weights":[9.437069E-3,-1.3256227E0,1.2503375E-1,-1.8635213E0,-7.858115E-2,-2.2561046E-1,2.5136122E-1,-8.073699E-2,-7.6562664E-3,-2.085428E-2,1.3254066E-2,1.2616113E-2,-2.0093624E-2,2.747671E-3,2.1524958E-2],"categories":[],"categories_nodes":[],"categories_segments":[],"categories_sizes":[],"default_left":[0,0,0,0,0,0,0,0,0,0,0,0,0,0,0],"id":14,"left_children":[1,3,5,7,9,11,13,-1,-1,-1,-1,-1,-1,-1,-1],"loss_changes":[5.7130085E1,1.9421967E1,1.5224563E1,4.3439865E0,2.5192273E0,1.4094995E1,1.3081861E1,0E0,0E0,0E0,0E0,0E0,0E0,0E0,0E0],"parents":[2147483647,0,0,1,1,2,2,3,3,4,4,5,5,6,6],"right_children":[2,4,6,8,10,12,14,-1,-1,-1,-1,-1,-1,-1,-1],"split_conditions":[1.54E0,2.59E2,-2.2252093E-1,2E1,4.4462E2,1.71E2,1.8004E2,-8.073699E-2,-7.6562664E-3,-2.085428E-2,1.3254066E-2,1.2616113E-2,-2.0093624E-2,2.747671E-3,2.1524958E-2],"split_indices":[11,6,8,2,37,6,24,0,0,0,0,0,0,0,0],"split_type":[0,0,0,0,0,0,0,0,0,0,0,0,0,0,0],"sum_hessian":[3.65E2,2.7E1,3.38E2,1.8E1,9E0,8.9E1,2.49E2,1.6E1,2E0,4E0,5E0,3E1,5.9E1,1.54E2,9.5E1],"tree_param":{"num_deleted":"0","num_feature":"53","num_nodes":"15","size_leaf_vector":"1"}},{"base_weights":[-2.9643174E-2,-1.1613511E0,9.448283E-2,-7.955883E-2,-5.1924986E-1,-1.0435078E-1,2.8296587E-1,6.0136486E-3,-3.466716E-2,1.4236608E-2,-9.624869E-3,-5.9394795E-3,1.7515738E-2],"categories":[],"categories_nodes":[],"categories_segments":[],"categories_sizes":[],"default_left":[0,0,0,0,0,0,0,0,0,0,0,0,0],"id":15,"left_children":[1,3,5,-1,7,9,11,-1,-1,-1,-1,-1,-1],"loss_changes":[5.3303402E1,1.734615E1,1.2909612E1,0E0,6.025313E0,1.078257E1,1.1960512E1,0E0,0E0,0E0,0E0,0E0,0E0],"parents":[2147483647,0,0,1,1,2,2,4,4,5,5,6,6],"right_children":[2,4,6,-1,8,10,12,-1,-1,-1,-1,-1,-1],"split_conditions":[6.51E0,1.9306E2,1.9684E2,-7.955883E-2,2.046E1,5.582857E0,-2.2252093E-1,6.0136486E-3,-3.466716E-2,1.4236608E-2,-9.624869E-3,-5.9394795E-3,1.7515738E-2],"split_indices":[11,37,28,0,13,45,8,0,0,0,0,0,0],"split_type":[0,0,0,0,0,0,0,0,0,0,0,0,0],"sum_hessian":[3.75E2,3.5E1,3.4E2,1.3E1,2.2E1,1.66E2,1.74E2,8E0,1.4E1,3.7E1,1.29E2,4.6E1,1.28E2],"tree_param":{"num_deleted":"0","num_feature":"53","num_nodes":"13","size_leaf_vector":"1"}},{"base_weights":[2.1159494E-2,-1.1221437E0,1.3186213E-1,-1.6893457E0,-1.9098254E-1,4.408878E-2,5.1254565E-1,-7.689484E-2,-7.200676E-3,1.4324922E-2,-3.5842784E-2,2.911294E-3,-4.1443814E-2,2.2612797E-2,-2.020711E-2],"categories":[],"categories_nodes":[],"categories_segments":[],"categories_sizes":[],"default_left":[0,0,0,0,0,0,0,0,0,0,0,0,0,0,0],"id":16,"left_children":[1,3,5,7,9,11,13,-1,-1,-1,-1,-1,-1,-1,-1],"loss_changes":[4.8022278E1,1.6886654E1,1.1487997E1,6.34494E0,6.803351E0,8.975418E0,4.178238E0,0E0,0E0,0E0,0E0,0E0,0E0,0E0,0E0],"parents":[2147483647,0,0,1,1,2,2,3,3,4,4,5,5,6,6],"right_children":[2,4,6,8,10,12,14,-1,-1,-1,-1,-1,-1,-1,-1],"split_conditions":[6.51E0,2.1E1,3.0429E2,7.572107E1,7.6531425E1,5.2E1,1.00497E3,-7.689484E-2,-7.200676E-3,1.4324922E-2,-3.5842784E-2,2.911294E-3,-4.1443814E-2,2.2612797E-2,-2.020711E-2],"split_indices":[11,3,32,31,27,3,37,0,0,0,0,0,0,0,0],"split_type":[0,0,0,0,0,0,0,0,0,0,0,0,0,0,0],"sum_hessian":[3.74E2,3.1E1,3.43E2,1.8E1,1.3E1,2.81E2,6.2E1,1.5E1,3E0,8E0,5E0,2.76E2,5E0,6E1,2E0],"tree_param":{"num_deleted":"0","num_feature":"53","num_nodes":"15","size_leaf_vector":"1"}},{"base_weights":[6.21808E-3,-6.4952135E-1,1.4815325E-1,-9.0828687E-1,4.1722077E-1,-1.669447E-1,2.575985E-1,-4.6708662E-2,-5.9843455E-3,2.1792615E-2,-6.7599188E-3,1.2861447E-2,-1.8535044E-2,-1.3712259E-2,1.2937782E-2],"categories":[],"categories_nodes":[],"categories_segments":[],"categories_sizes":[],"default_left":[0,0,0,0,0,0,0,0,0,0,0,0,0,0,0],"id":17,"left_children":[1,3,5,7,9,11,13,-1,-1,-1,-1,-1,-1,-1,-1],"loss_changes":[3.4258564E1,1.902775E1,1.0539518E1,1.0093319E1,1.3147576E0,1.1884165E1,9.1921835E0,0E0,0E0,0E0,0E0,0E0,0E0,0E0,0E0],"parents":[2147483647,0,0,1,1,2,2,3,3,4,4,5,5,6,6],"right_children":[2,4,6,8,10,12,14,-1,-1,-1,-1,-1,-1,-1,-1],"split_conditions":[2.224E1,2.9839E2,-2.2252093E-1,1.0344E2,1.2778571E1,1.7E1,6.6614285E0,-4.6708662E-2,-5.9843455E-3,2.1792615E-2,-6.7599188E-3,1.2861447E-2,-1.8535044E-2,-1.3712259E-2,1.2937782E-2],"split_indices":[11,49,8,21,48,16,42,0,0,0,0,0,0,0,0],"split_type":[0,0,0,0,0,0,0,0,0,0,0,0,0,0,0],"sum_hessian":[3.63E2,6.3E1,3E2,5.1E1,1.2E1,7.7E1,2.23E2,3.7E1,1.4E1,1E1,2E0,2.9E1,4.8E1,2.1E1,2.02E2],"tree_param":{"num_deleted":"0","num_feature":"53","num_nodes":"15","size_leaf_vector":"1"}},{"base_weights":[-4.1052587E-3,-1.2909856E0,9.349873E-2,-1.6152667E0,-1.291944E-1,-1.8938844E-1,2.0718855E-1,-7.674406E-2,-1.7998107E-2,1.7781598E-2,-3.5445888E-2,1.9950697E-2,-1.4106663E-2,1.3165323E-3,1.566177E-2],"categories":[],"categories_nodes":[],"categories_segments":[],"categories_sizes":[],"default_left":[0,0,0,0,0,0,0,0,0,0,0,0,0,0,0],"id":18,"left_children":[1,3,5,7,9,11,13,-1,-1,-1,-1,-1,-1,-1,-1],"loss_changes":[4.72151E1,9.46209E0,1.1338505E1,5.0881424E0,4.6762834E0,1.1844368E1,8.016007E0,0E0,0E0,0E0,0E0,0E0,0E0,0E0,0E0],"parents":[2147483647,0,0,1,1,2,2,3,3,4,4,5,5,6,6],"right_children":[2,4,6,8,10,12,14,-1,-1,-1,-1,-1,-1,-1,-1],"split_conditions":[1.54E0,7.6980354E1,1.3E1,2.59E2,5.6636E2,1.5422E2,8.315E1,-7.674406E-2,-1.7998107E-2,1.7781598E-2,-3.5445888E-2,1.9950697E-2,-1.4106663E-2,1.3165323E-3,1.566177E-2],"split_indices":[11,31,18,6,43,46,11,0,0,0,0,0,0,0,0],"split_type":[0,0,0,0,0,0,0,0,0,0,0,0,0,0,0],"sum_hessian":[3.71E2,2.4E1,3.47E2,1.8E1,6E0,9.9E1,2.48E2,1.3E1,5E0,4E0,2E0,1.8E1,8.1E1,1.29E2,1.19E2],"tree_param":{"num_deleted":"0","num_feature":"53","num_nodes":"15","size_leaf_vector":"1"}},{"base_weights":[-4.3459865E-3,-1.2004539E0,9.257252E-2,-1.7048233E0,2.20544E-2,2.8044E-1,-9.554898E-2,-7.421094E-2,-1.9142102E-2,-1.1613835E-2,1.7521203E-2,-9.209224E-3,1.4885597E-2,1.8357664E-2,-1.0053403E-2],"categories":[],"categories_nodes":[],"categories_segments":[],"categories_sizes":[],"default_left":[0,0,0,0,0,0,0,0,0,0,0,0,0,0,0],"id":19,"left_children":[1,3,5,7,9,11,13,-1,-1,-1,-1,-1,-1,-1,-1],"loss_changes":[4.2532482E1,1.705038E1,1.2065568E1,1.3779945E0,1.6824353E0,8.198448E0,1.5102871E1,0E0,0E0,0E0,0E0,0E0,0E0,0E0,0E0],"parents":[2147483647,0,0,1,1,2,2,3,3,4,4,5,5,6,6],"right_children":[2,4,6,8,10,12,14,-1,-1,-1,-1,-1,-1,-1,-1],"split_conditions":[1.54E0,2.59E2,2.3E2,7.6980354E1,7.61175E1,8E0,2.898E1,-7.421094E-2,-1.9142102E-2,-1.1613835E-2,1.7521203E-2,-9.209224E-3,1.4885597E-2,1.8357664E-2,-1.0053403E-2],"split_indices":[11,6,6,31,31,22,13,0,0,0,0,0,0,0,0],"split_type":[0,0,0,0,0,0,0,0,0,0,0,0,0,0,0],"sum_hessian":[3.62E2,2.5E1,3.37E2,1.7E1,8E0,1.68E2,1.69E2,1.4E1,3E0,5E0,3E0,2.5E1,1.43E2,3.6E1,1.33E2],"tree_param":{"num_deleted":"0","num_feature":"53","num_nodes":"15","size_leaf_vector":"1"}},{"base_weights":[-3.971956E-2,-1.2946934E0,5.8242563E-2,-7.2327666E-2,-8.169753E-2,-1.424118E-1,2.627731E-1,-1.7840754E-2,1.2561837E-2,3.6880188E-3,-1.8290898E-2,1.3411475E-2,-1.6598364E-2],"categories":[],"categories_nodes":[],"categories_segments":[],"categories_sizes":[],"default_left":[0,0,0,0,0,0,0,0,0,0,0,0,0],"id":20,"left_children":[1,3,5,-1,7,9,11,-1,-1,-1,-1,-1,-1],"loss_changes":[4.500011E1,1.6136784E1,1.4067657E1,0E0,1.864043E0,1.2921877E1,8.677892E0,0E0,0E0,0E0,0E0,0E0,0E0],"parents":[2147483647,0,0,1,1,2,2,4,4,5,5,6,6],"right_children":[2,4,6,-1,8,10,12,-1,-1,-1,-1,-1,-1],"split_conditions":[1.54E0,2.59E2,1.9684E2,-7.2327666E-2,4.4462E2,7.345E1,3.7E1,-1.7840754E-2,1.2561837E-2,3.6880188E-3,-1.8290898E-2,1.3411475E-2,-1.6598364E-2],"split_indices":[11,6,28,0,37,13,14,0,0,0,0,0,0],"split_type":[0,0,0,0,0,0,0,0,0,0,0,0,0],"sum_hessian":[3.62E2,2.4E1,3.38E2,1.6E1,8E0,1.71E2,1.67E2,4E0,4E0,9.9E1,7.2E1,1.52E2,1.5E1],"tree_param":{"num_deleted":"0","num_feature":"53","num_nodes":"13","size_leaf_vector":"1"}},{"base_weights":[4.026962E-3,-9.455258E-1,9.852905E-2,-1.3037709E0,1.4962304E-1,1.4724459E-2,4.9615064E-1,-1.6520148E-3,-6.135387E-2,1.6827824E-2,-7.1598743E-3,-5.8409427E-3,9.123627E-3,3.2201592E-2,1.236691E-2],"categories":[],"categories_nodes":[],"categories_segments":[],"categories_sizes":[],"default_left":[0,0,0,0,0,0,0,0,0,0,0,0,0,0,0],"id":21,"left_children":[1,3,5,7,9,11,13,-1,-1,-1,-1,-1,-1,-1,-1],"loss_changes":[3.3210415E1,1.3630796E1,1.1194761E1,7.2484627E0,1.1235963E0,9.703912E0,2.7564516E0,0E0,0E0,0E0,0E0,0E0,0E0,0E0,0E0],"parents":[2147483647,0,0,1,1,2,2,3,3,4,4,5,5,6,6],"right_children":[2,4,6,8,10,12,14,-1,-1,-1,-1,-1,-1,-1,-1],"split_conditions":[4.97E0,1.3632857E1,3.0429E2,3.0149E2,3E0,4E0,2.1071428E1,-1.6520148E-3,-6.135387E-2,1.6827824E-2,-7.1598743E-3,-5.8409427E-3,9.123627E-3,3.2201592E-2,1.236691E-2],"split_indices":[11,36,32,43,0,0,30,0,0,0,0,0,0,0,0],"split_type":[0,0,0,0,0,0,0,0,0,0,0,0,0,0,0],"sum_hessian":[3.65E2,3.1E1,3.34E2,2.3E1,8E0,2.78E2,5.6E1,4E0,1.9E1,4E0,4E0,1.59E2,1.19E2,1.8E1,3.8E1],"tree_param":{"num_deleted":"0","num_feature":"53","num_nodes":"15","size_leaf_vector":"1"}},{"base_weights":[-1.9681185E-2,-1.0634825E0,6.731893E-2,-1.4304471E0,4.6879996E-2,-1.0722766E-1,2.9989287E-1,-6.734473E-2,-1.5866183E-2,2.1923611E-2,-3.2580595E-2,-4.784892E-2,4.76207E-4,1.5747704E-2,1.4636634E-3],"categories":[],"categories_nodes":[],"categories_segments":[],"categories_sizes":[],"default_left":[0,0,0,0,0,0,0,0,0,0,0,0,0,0,0],"id":22,"left_children":[1,3,5,7,9,11,13,-1,-1,-1,-1,-1,-1,-1,-1],"loss_changes":[3.3642776E1,1.1780361E1,1.3984177E1,3.9575844E0,5.2175994E0,2.5658289E1,3.6068811E0,0E0,0E0,0E0,0E0,0E0,0E0,0E0,0E0],"parents":[2147483647,0,0,1,1,2,2,3,3,4,4,5,5,6,6],"right_children":[2,4,6,8,10,12,14,-1,-1,-1,-1,-1,-1,-1,-1],"split_conditions":[1.54E0,2.15545E3,4E0,2.59E2,5.6636E2,2.224E1,3.8E1,-6.734473E-2,-1.5866183E-2,2.1923611E-2,-3.2580595E-2,-4.784892E-2,4.76207E-4,1.5747704E-2,1.4636634E-3],"split_indices":[11,33,0,6,43,11,3,0,0,0,0,0,0,0,0],"split_type":[0,0,0,0,0,0,0,0,0,0,0,0,0,0,0],"sum_hessian":[3.66E2,2.6E1,3.4E2,1.9E1,7E0,1.95E2,1.45E2,1.4E1,5E0,5E0,2E0,1.7E1,1.78E2,1.06E2,3.9E1],"tree_param":{"num_deleted":"0","num_feature":"53","num_nodes":"15","size_leaf_vector":"1"}},{"base_weights":[-3.4666874E-2,-9.877618E-1,5.7642937E-2,-1.309583E0,-1.15396395E-1,8.130815E-2,-1.1750941E0,-6.0341824E-2,1.090804E-3,1.5811484E-2,-3.4087267E-2,-1.1004858E-2,6.177217E-3,-5.423152E-3,-6.2471177E-2],"categories":[],"categories_nodes":[],"categories_segments":[],"categories_sizes":[],"default_left":[0,0,0,0,0,0,0,0,0,0,0,0,0,0,0],"id":23,"left_children":[1,3,5,7,9,11,13,-1,-1,-1,-1,-1,-1,-1,-1],"loss_changes":[3.2387016E1,8.746428E0,1.00555725E1,6.35347E0,5.1691785E0,8.772146E0,2.083414E0,0E0,0E0,0E0,0E0,0E0,0E0,0E0,0E0],"parents":[2147483647,0,0,1,1,2,2,3,3,4,4,5,5,6,6],"right_children":[2,4,6,8,10,12,14,-1,-1,-1,-1,-1,-1,-1,-1],"split_conditions":[6.51E0,2.15545E3,5.2E1,1E1,4.3183E2,2.002E1,4.332E1,-6.0341824E-2,1.090804E-3,1.5811484E-2,-3.4087267E-2,-1.1004858E-2,6.177217E-3,-5.423152E-3,-6.2471177E-2],"split_indices":[11,33,3,1,25,21,17,0,0,0,0,0,0,0,0],"split_type":[0,0,0,0,0,0,0,0,0,0,0,0,0,0,0],"sum_hessian":[3.64E2,3E1,3.34E2,2.1E1,9E0,3.3E2,4E0,1.8E1,3E0,6E0,3E0,5.5E1,2.75E2,2E0,2E0],"tree_param":{"num_deleted":"0","num_feature":"53","num_nodes":"15","size_leaf_vector":"1"}},{"base_weights":[-4.4908293E-2,-6.4037913E-1,9.012203E-2,-1.1355103E0,-8.4491976E-2,2.8860736E-1,-5.505676E-2,-2.3813503E-2,-7.6221764E-2,-3.0583838E-2,1.6625607E-2,1.3482895E-2,-8.832323E-3,-3.6446186E-4,-4.3002654E-2],"categories":[],"categories_nodes":[],"categories_segments":[],"categories_sizes":[],"default_left":[0,0,0,0,0,0,0,0,0,0,0,0,0,0,0],"id":24,"left_children":[1,3,5,7,9,11,13,-1,-1,-1,-1,-1,-1,-1,-1],"loss_changes":[2.9372087E1,1.8338648E1,8.641258E0,1.1930168E1,1.2529388E1,3.309208E0,8.153376E0,0E0,0E0,0E0,0E0,0E0,0E0,0E0,0E0],"parents":[2147483647,0,0,1,1,2,2,3,3,4,4,5,5,6,6],"right_children":[2,4,6,8,10,12,14,-1,-1,-1,-1,-1,-1,-1,-1],"split_conditions":[2.224E1,4E0,1.96E2,5.9665714E1,6.51E0,3.7E1,7.3259E2,-2.3813503E-2,-7.6221764E-2,-3.0583838E-2,1.6625607E-2,1.3482895E-2,-8.832323E-3,-3.6446186E-4,-4.3002654E-2],"split_indices":[11,0,6,23,11,14,43,0,0,0,0,0,0,0,0],"split_type":[0,0,0,0,0,0,0,0,0,0,0,0,0,0,0],"sum_hessian":[3.61E2,6.5E1,2.96E2,3.3E1,3.2E1,1.24E2,1.72E2,2.2E1,1.1E1,1.3E1,1.9E1,1.14E2,1E1,1.67E2,5E0],"tree_param":{"num_deleted":"0","num_feature":"53","num_nodes":"15","size_leaf_vector":"1"}},{"base_weights":[-1.5325899E-2,-5.9767944E-1,1.0992394E-1,-9.4799054E-1,-1.4693572E-2,-5.797546E-2,2.607389E-1,-5.7579372E-2,-1.0758486E-2,-3.2269873E-2,1.2006093E-2,-9.838116E-3,8.133245E-3,1.3097031E-2,-7.74184E-3],"categories":[],"categories_nodes":[],"categories_segments":[],"categories_sizes":[],"default_left":[0,0,0,0,0,0,0,0,0,0,0,0,0,0,0],"id":25,"left_children":[1,3,5,7,9,11,13,-1,-1,-1,-1,-1,-1,-1,-1],"loss_changes":[2.7407219E1,1.3546232E1,7.8748703E0,1.2882221E1,7.4631724E0,7.419307E0,5.111636E0,0E0,0E0,0E0,0E0,0E0,0E0,0E0,0E0],"parents":[2147483647,0,0,1,1,2,2,3,3,4,4,5,5,6,6],"right_children":[2,4,6,8,10,12,14,-1,-1,-1,-1,-1,-1,-1,-1],"split_conditions":[2.224E1,1.7244286E1,7.345E1,1.8E1,3.593E1,2.7327E2,1.1E1,-5.7579372E-2,-1.0758486E-2,-3.2269873E-2,1.2006093E-2,-9.838116E-3,8.133245E-3,1.3097031E-2,-7.74184E-3],"split_indices":[11,36,21,2,21,32,1,0,0,0,0,0,0,0,0],"split_type":[0,0,0,0,0,0,0,0,0,0,0,0,0,0,0],"sum_hessian":[3.71E2,6.4E1,3.07E2,3.9E1,2.5E1,1.46E2,1.61E2,2.1E1,1.8E1,6E0,1.9E1,8.5E1,6.1E1,1.41E2,2E1],"tree_param":{"num_deleted":"0","num_feature":"53","num_nodes":"15","size_leaf_vector":"1"}},{"base_weights":[7.4211727E-3,-3.6292303E-1,1.343487E-1,-1.3136436E0,-1.7330512E-1,-2.3370808E-1,2.3809093E-1,-5.745303E-3,-5.8415197E-2,-8.75638E-4,-4.413457E-2,9.951001E-3,-2.5732629E-2,-5.6514055E-3,1.25944875E-2],"categories":[],"categories_nodes":[],"categories_segments":[],"categories_sizes":[],"default_left":[0,0,0,0,0,0,0,0,0,0,0,0,0,0,0],"id":26,"left_children":[1,3,5,7,9,11,13,-1,-1,-1,-1,-1,-1,-1,-1],"loss_changes":[1.758495E1,1.664698E1,1.0773085E1,2.136692E0,1.1557606E1,1.27519E1,6.4750633E0,0E0,0E0,0E0,0E0,0E0,0E0,0E0,0E0],"parents":[2147483647,0,0,1,1,2,2,3,3,4,4,5,5,6,6],"right_children":[2,4,6,8,10,12,14,-1,-1,-1,-1,-1,-1,-1,-1],"split_conditions":[1.8815E2,1.37E2,1.3E1,4E0,5.1826E2,1.9357143E1,6E0,-5.745303E-3,-5.8415197E-2,-8.75638E-4,-4.413457E-2,9.951001E-3,-2.5732629E-2,-5.6514055E-3,1.25944875E-2],"split_indices":[32,6,18,2,43,30,2,0,0,0,0,0,0,0,0],"split_type":[0,0,0,0,0,0,0,0,0,0,0,0,0,0,0],"sum_hessian":[3.69E2,9.3E1,2.76E2,1.3E1,8E1,6E1,2.16E2,2E0,1.1E1,7.1E1,9E0,2.8E1,3.2E1,3.6E1,1.8E2],"tree_param":{"num_deleted":"0","num_feature":"53","num_nodes":"15","size_leaf_vector":"1"}},{"base_weights":[-2.335218E-3,-6.0505855E-1,1.3062312E-1,-1.1217313E0,2.1747684E-2,3.47135E-1,-2.9766263E-2,-2.1829758E-2,-7.606197E-2,-4.1045833E-2,1.222239E-2,2.5916494E-2,9.049616E-3,5.250312E-3,-1.3968423E-2],"categories":[],"categories_nodes":[],"categories_segments":[],"categories_sizes":[],"default_left":[0,0,0,0,0,0,0,0,0,0,0,0,0,0,0],"id":27,"left_children":[1,3,5,7,9,11,13,-1,-1,-1,-1,-1,-1,-1,-1],"loss_changes":[2.9487694E1,2.1597258E1,1.0495785E1,1.380014E1,1.0449529E1,4.3061028E0,9.142E0,0E0,0E0,0E0,0E0,0E0,0E0,0E0,0E0],"parents":[2147483647,0,0,1,1,2,2,3,3,4,4,5,5,6,6],"right_children":[2,4,6,8,10,12,14,-1,-1,-1,-1,-1,-1,-1,-1],"split_conditions":[2.224E1,4E0,1.96E2,1.5857142E1,3.5907143E1,2.0714285E1,8.864E1,-2.1829758E-2,-7.606197E-2,-4.1045833E-2,1.222239E-2,2.5916494E-2,9.049616E-3,5.250312E-3,-1.3968423E-2],"split_indices":[11,0,6,26,23,30,13,0,0,0,0,0,0,0,0],"split_type":[0,0,0,0,0,0,0,0,0,0,0,0,0,0,0],"sum_hessian":[3.63E2,6.4E1,2.99E2,3.4E1,3E1,1.26E2,1.73E2,2.2E1,1.2E1,5E0,2.5E1,3.3E1,9.3E1,1.16E2,5.7E1],"tree_param":{"num_deleted":"0","num_feature":"53","num_nodes":"15","size_leaf_vector":"1"}},{"base_weights":[-2.918351E-2,-5.5432326E-1,9.028608E-2,-9.96079E-2,-9.956195E-1,-8.019481E-2,2.3514529E-1,-2.6697066E-2,1.2386797E-2,-1.9517718E-2,-6.930337E-2,-9.537941E-3,6.5056705E-3,1.422236E-2,-6.1907596E-3],"categories":[],"categories_nodes":[],"categories_segments":[],"categories_sizes":[],"default_left":[0,0,0,0,0,0,0,0,0,0,0,0,0,0,0],"id":28,"left_children":[1,3,5,7,9,11,13,-1,-1,-1,-1,-1,-1,-1,-1],"loss_changes":[2.387154E1,1.3898899E1,7.715166E0,9.231541E0,1.1168453E1,5.6500583E0,8.048822E0,0E0,0E0,0E0,0E0,0E0,0E0,0E0,0E0],"parents":[2147483647,0,0,1,1,2,2,3,3,4,4,5,5,6,6],"right_children":[2,4,6,8,10,12,14,-1,-1,-1,-1,-1,-1,-1,-1],"split_conditions":[2.224E1,0E0,7.345E1,6.51E0,5.9665714E1,2.7327E2,3.02E2,-2.6697066E-2,1.2386797E-2,-1.9517718E-2,-6.930337E-2,-9.537941E-3,6.5056705E-3,1.422236E-2,-6.1907596E-3],"split_indices":[11,7,21,11,23,32,6,0,0,0,0,0,0,0,0],"split_type":[0,0,0,0,0,0,0,0,0,0,0,0,0,0,0],"sum_hessian":[3.76E2,6.8E1,3.08E2,3.5E1,3.3E1,1.42E2,1.66E2,1.4E1,2.1E1,2.2E1,1.1E1,8.6E1,5.6E1,1.27E2,3.9E1],"tree_param":{"num_deleted":"0","num_feature":"53","num_nodes":"15","size_leaf_vector":"1"}},{"base_weights":[1.2872894E-2,-7.505218E-1,9.4371356E-2,-1.0870533E0,-5.249918E-2,-2.4160009E-2,3.460579E-1,-4.8506822E-2,5.79806E-3,1.4642562E-2,-1.476513E-2,-1.700052E-2,1.8704595E-3,2.3012387E-2,7.953468E-3],"categories":[],"categories_nodes":[],"categories_segments":[],"categories_sizes":[],"default_left":[0,0,0,0,0,0,0,0,0,0,0,0,0,0,0],"id":29,"left_children":[1,3,5,7,9,11,13,-1,-1,-1,-1,-1,-1,-1,-1],"loss_changes":[2.3538986E1,8.431417E0,1.0208785E1,4.2310963E0,2.259486E0,6.716309E0,3.4097214E0,0E0,0E0,0E0,0E0,0E0,0E0,0E0,0E0],"parents":[2147483647,0,0,1,1,2,2,3,3,4,4,5,5,6,6],"right_children":[2,4,6,8,10,12,14,-1,-1,-1,-1,-1,-1,-1,-1],"split_conditions":[6.51E0,7.545E1,2.7327E2,4.4E1,9.811429E0,9E0,2.0857143E1,-4.8506822E-2,5.79806E-3,1.4642562E-2,-1.476513E-2,-1.700052E-2,1.8704595E-3,2.3012387E-2,7.953468E-3],"split_indices":[11,15,32,3,42,22,30,0,0,0,0,0,0,0,0],"split_type":[0,0,0,0,0,0,0,0,0,0,0,0,0,0,0],"sum_hessian":[3.73E2,3.4E1,3.39E2,2.2E1,1.2E1,2.32E2,1.07E2,2E1,2E0,5E0,7E0,3.3E1,1.99E2,3.9E1,6.8E1],"tree_param":{"num_deleted":"0","num_feature":"53","num_nodes":"15","size_leaf_vector":"1"}},{"base_weights":[-4.123385E-2,-4.7685814E-1,9.01908E-2,-7.0035666E-1,2.8027186E-1,-4.888779E-2,2.6323137E-1,-1.44241555E-2,-4.6470407E-2,1.5001685E-2,-8.658688E-4,3.507468E-3,-1.4864488E-2,1.1822536E-2,-3.1675883E-2],"categories":[],"categories_nodes":[],"categories_segments":[],"categories_sizes":[],"default_left":[0,0,0,0,0,0,0,0,0,0,0,0,0,0,0],"id":30,"left_children":[1,3,5,7,9,11,13,-1,-1,-1,-1,-1,-1,-1,-1],"loss_changes":[2.1376553E1,1.5128031E1,6.951216E0,9.534172E0,6.354736E-1,7.1997247E0,4.9688435E0,0E0,0E0,0E0,0E0,0E0,0E0,0E0,0E0],"parents":[2147483647,0,0,1,1,2,2,3,3,4,4,5,5,6,6],"right_children":[2,4,6,8,10,12,14,-1,-1,-1,-1,-1,-1,-1,-1],"split_conditions":[1.5E0,2.0515715E1,4E0,1.6E1,2.215E1,3E0,4.1E1,-1.44241555E-2,-4.6470407E-2,1.5001685E-2,-8.658688E-4,3.507468E-3,-1.4864488E-2,1.1822536E-2,-3.1675883E-2],"split_indices":[35,42,0,26,44,0,47,0,0,0,0,0,0,0,0],"split_type":[0,0,0,0,0,0,0,0,0,0,0,0,0,0,0],"sum_hessian":[3.69E2,8.4E1,2.85E2,6.5E1,1.9E1,1.59E2,1.26E2,4E1,2.5E1,1.4E1,5E0,1.13E2,4.6E1,1.24E2,2E0],"tree_param":{"num_deleted":"0","num_feature":"53","num_nodes":"15","size_leaf_vector":"1"}},{"base_weights":[-1.1523124E-2,-4.9204928E-1,9.579695E-2,-9.0531576E-1,-7.904789E-2,-2.2997355E-1,2.0381425E-1,-1.2647669E-2,-7.327223E-2,-4.12469E-2,6.156884E-3,5.4122144E-3,-2.0594316E-2,2.849391E-3,1.63092E-2],"categories":[],"categories_nodes":[],"categories_segments":[],"categories_sizes":[],"default_left":[0,0,0,0,0,0,0,0,0,0,0,0,0,0,0],"id":31,"left_children":[1,3,5,7,9,11,13,-1,-1,-1,-1,-1,-1,-1,-1],"loss_changes":[1.9069855E1,1.1341969E1,1.0761807E1,1.6836882E1,8.493101E0,8.134918E0,6.1048946E0,0E0,0E0,0E0,0E0,0E0,0E0,0E0,0E0],"parents":[2147483647,0,0,1,1,2,2,3,3,4,4,5,5,6,6],"right_children":[2,4,6,8,10,12,14,-1,-1,-1,-1,-1,-1,-1,-1],"split_conditions":[2.224E1,4E0,-2.2252093E-1,1.6E1,1.789E1,6.708E1,1.1276E2,-1.2647669E-2,-7.327223E-2,-4.12469E-2,6.156884E-3,5.4122144E-3,-2.0594316E-2,2.849391E-3,1.63092E-2],"split_indices":[11,0,8,26,23,15,11,0,0,0,0,0,0,0,0],"split_type":[0,0,0,0,0,0,0,0,0,0,0,0,0,0,0],"sum_hessian":[3.65E2,6.5E1,3E2,3.1E1,3.4E1,7.4E1,2.26E2,2.1E1,1E1,5E0,2.9E1,3.3E1,4.1E1,1.39E2,8.7E1],"tree_param":{"num_deleted":"0","num_feature":"53","num_nodes":"15","size_leaf_vector":"1"}},{"base_weights":[1.0832058E-2,-4.9886045E-1,1.2981205E-1,-9.1513175E-1,-5.9825286E-2,-1.2476921E-1,2.2012806E-1,-1.4702863E-2,-6.957533E-2,-4.2310547E-2,8.927696E-3,6.864913E-3,-2.0168578E-2,-1.0341675E-2,1.09501695E-2],"categories":[],"categories_nodes":[],"categories_segments":[],"categories_sizes":[],"default_left":[0,0,0,0,0,0,0,0,0,0,0,0,0,0,0],"id":32,"left_children":[1,3,5,7,9,11,13,-1,-1,-1,-1,-1,-1,-1,-1],"loss_changes":[2.2266346E1,1.2564795E1,6.9090114E0,1.4423752E1,1.089906E1,9.1572695E0,5.8370094E0,0E0,0E0,0E0,0E0,0E0,0E0,0E0,0E0],"parents":[2147483647,0,0,1,1,2,2,3,3,4,4,5,5,6,6],"right_children":[2,4,6,8,10,12,14,-1,-1,-1,-1,-1,-1,-1,-1],"split_conditions":[2.224E1,4E0,-2.2252093E-1,1.6E1,1.789E1,2.5E1,1.0344E2,-1.4702863E-2,-6.957533E-2,-4.2310547E-2,8.927696E-3,6.864913E-3,-2.0168578E-2,-1.0341675E-2,1.09501695E-2],"split_indices":[11,0,8,26,23,3,24,0,0,0,0,0,0,0,0],"split_type":[0,0,0,0,0,0,0,0,0,0,0,0,0,0,0],"sum_hessian":[3.62E2,6.7E1,2.95E2,3.3E1,3.4E1,7.7E1,2.18E2,2.2E1,1.1E1,6E0,2.8E1,4.4E1,3.3E1,2.1E1,1.97E2],"tree_param":{"num_deleted":"0","num_feature":"53","num_nodes":"15","size_leaf_vector":"1"}},{"base_weights":[8.997303E-3,-7.3635685E-1,9.001946E-2,-5.1381927E-2,-2.9644796E-1,6.077008E-1,4.525668E-2,2.51376E-3,-3.369875E-2,2.6313186E-2,4.691453E-3,-1.1631946E-2,5.000517E-3],"categories":[],"categories_nodes":[],"categories_segments":[],"categories_sizes":[],"default_left":[0,0,0,0,0,0,0,0,0,0,0,0,0],"id":33,"left_children":[1,3,5,-1,7,9,11,-1,-1,-1,-1,-1,-1],"loss_changes":[2.2479895E1,7.8501244E0,7.705737E0,0E0,4.742611E0,4.5858765E-1,8.439865E0,0E0,0E0,0E0,0E0,0E0,0E0],"parents":[2147483647,0,0,1,1,2,2,4,4,5,5,6,6],"right_children":[2,4,6,-1,8,10,12,-1,-1,-1,-1,-1,-1],"split_conditions":[6.51E0,7.549E1,1.2785714E1,-5.1381927E-2,6.169E1,2.569E1,1E1,2.51376E-3,-3.369875E-2,2.6313186E-2,4.691453E-3,-1.1631946E-2,5.000517E-3],"split_indices":[11,24,34,0,23,44,20,0,0,0,0,0,0],"split_type":[0,0,0,0,0,0,0,0,0,0,0,0,0],"sum_hessian":[3.67E2,3.4E1,3.33E2,1.3E1,2.1E1,2.4E1,3.09E2,1.4E1,7E0,2.1E1,3E0,5.8E1,2.51E2],"tree_param":{"num_deleted":"0","num_feature":"53","num_nodes":"13","size_leaf_vector":"1"}},{"base_weights":[-2.514225E-2,-4.465585E-1,8.448125E-2,2.1866653E-2,-6.9808614E-1,-2.7191684E-1,1.641916E-1,-2.6212184E-2,1.0578987E-2,-3.8734518E-2,-2.003347E-3,7.412372E-3,-1.8754032E-2,2.8566583E-3,1.482898E-2],"categories":[],"categories_nodes":[],"categories_segments":[],"categories_sizes":[],"default_left":[0,0,0,0,0,0,0,0,0,0,0,0,0,0,0],"id":34,"left_children":[1,3,5,7,9,11,13,-1,-1,-1,-1,-1,-1,-1,-1],"loss_changes":[1.734894E1,9.169356E0,8.591589E0,5.279751E0,8.723324E0,5.2146125E0,4.637865E0,0E0,0E0,0E0,0E0,0E0,0E0,0E0,0E0],"parents":[2147483647,0,0,1,1,2,2,3,3,4,4,5,5,6,6],"right_children":[2,4,6,8,10,12,14,-1,-1,-1,-1,-1,-1,-1,-1],"split_conditions":[1.1107E2,2.8753E2,8E0,4.46E0,1.0344E2,1.6E1,2.1046E2,-2.6212184E-2,1.0578987E-2,-3.8734518E-2,-2.003347E-3,7.412372E-3,-1.8754032E-2,2.8566583E-3,1.482898E-2],"split_indices":[24,43,22,19,21,16,24,0,0,0,0,0,0,0,0],"split_type":[0,0,0,0,0,0,0,0,0,0,0,0,0,0,0],"sum_hessian":[3.71E2,7.5E1,2.96E2,2.7E1,4.8E1,5.3E1,2.43E2,6E0,2.1E1,3.3E1,1.5E1,1.6E1,3.7E1,1.7E2,7.3E1],"tree_param":{"num_deleted":"0","num_feature":"53","num_nodes":"15","size_leaf_vector":"1"}},{"base_weights":[9.370027E-3,-4.4059128E-1,1.12073794E-1,-6.8441534E-1,1.6066203E-1,2.7123603E-1,-1.024203E-2,-1.2562051E-2,-4.970265E-2,-2.5436422E-2,1.5030793E-2,2.3006953E-2,6.04614E-3,1.3461817E-3,-3.4063727E-2],"categories":[],"categories_nodes":[],"categories_segments":[],"categories_sizes":[],"default_left":[0,0,0,0,0,0,0,0,0,0,0,0,0,0,0],"id":35,"left_children":[1,3,5,7,9,11,13,-1,-1,-1,-1,-1,-1,-1,-1],"loss_changes":[1.6783133E1,1.0170403E1,5.759756E0,9.050301E0,4.281393E0,4.472595E0,6.3316984E0,0E0,0E0,0E0,0E0,0E0,0E0,0E0,0E0],"parents":[2147483647,0,0,1,1,2,2,3,3,4,4,5,5,6,6],"right_children":[2,4,6,8,10,12,14,-1,-1,-1,-1,-1,-1,-1,-1],"split_conditions":[2.224E1,4.6E-1,1.96E2,1.6E1,1.7214E2,2.0714285E1,7.3259E2,-1.2562051E-2,-4.970265E-2,-2.5436422E-2,1.5030793E-2,2.3006953E-2,6.04614E-3,1.3461817E-3,-3.4063727E-2],"split_indices":[11,35,6,26,46,30,43,0,0,0,0,0,0,0,0],"split_type":[0,0,0,0,0,0,0,0,0,0,0,0,0,0,0],"sum_hessian":[3.58E2,6.5E1,2.93E2,4.6E1,1.9E1,1.26E2,1.67E2,3E1,1.6E1,3E0,1.6E1,3.3E1,9.3E1,1.61E2,6E0],"tree_param":{"num_deleted":"0","num_feature":"53","num_nodes":"15","size_leaf_vector":"1"}},{"base_weights":[-2.2917213E-2,-4.4635466E-1,7.360061E-2,-7.91827E-1,2.2738458E-1,-1.6115738E-1,1.5447265E-1,-3.5944786E-2,1.65091E-2,1.4012341E-2,-2.1635057E-2,9.269742E-3,-1.6439335E-2,-9.745763E-3,8.0797905E-3],"categories":[],"categories_nodes":[],"categories_segments":[],"categories_sizes":[],"default_left":[0,0,0,0,0,0,0,0,0,0,0,0,0,0,0],"id":36,"left_children":[1,3,5,7,9,11,13,-1,-1,-1,-1,-1,-1,-1,-1],"loss_changes":[1.530593E1,1.6626823E1,5.8622622E0,6.908865E0,2.881845E0,8.041579E0,4.4461083E0,0E0,0E0,0E0,0E0,0E0,0E0,0E0,0E0],"parents":[2147483647,0,0,1,1,2,2,3,3,4,4,5,5,6,6],"right_children":[2,4,6,8,10,12,14,-1,-1,-1,-1,-1,-1,-1,-1],"split_conditions":[2.224E1,7.2114286E0,-2.2252093E-1,1.7495E2,1.2811429E1,1.7E1,1.0582E2,-3.5944786E-2,1.65091E-2,1.4012341E-2,-2.1635057E-2,9.269742E-3,-1.6439335E-2,-9.745763E-3,8.0797905E-3],"split_indices":[11,45,8,21,45,16,24,0,0,0,0,0,0,0,0],"split_type":[0,0,0,0,0,0,0,0,0,0,0,0,0,0,0],"sum_hessian":[3.7E2,6.7E1,3.03E2,4.4E1,2.3E1,7.7E1,2.26E2,4.1E1,3E0,2.1E1,2E0,3E1,4.7E1,2.3E1,2.03E2],"tree_param":{"num_deleted":"0","num_feature":"53","num_nodes":"15","size_leaf_vector":"1"}},{"base_weights":[-8.813236E-3,-5.453233E-1,8.110323E-2,-8.573286E-1,1.4394704E-1,-7.479468E-2,2.1636842E-1,-4.2474087E-2,5.14822E-3,1.6270244E-2,-2.648509E-2,1.922294E-3,-1.8067641E-2,1.3582513E-2,-5.0042975E-3],"categories":[],"categories_nodes":[],"categories_segments":[],"categories_sizes":[],"default_left":[0,0,0,0,0,0,0,0,0,0,0,0,0,0,0],"id":37,"left_children":[1,3,5,7,9,11,13,-1,-1,-1,-1,-1,-1,-1,-1],"loss_changes":[1.7646204E1,1.1598965E1,6.651408E0,7.7025166E0,4.592419E0,6.8838844E0,7.1946497E0,0E0,0E0,0E0,0E0,0E0,0E0,0E0,0E0],"parents":[2147483647,0,0,1,1,2,2,3,3,4,4,5,5,6,6],"right_children":[2,4,6,8,10,12,14,-1,-1,-1,-1,-1,-1,-1,-1],"split_conditions":[1.646E1,7.2114286E0,7.345E1,1.615E1,1.2811429E1,7.5182E2,3.02E2,-4.2474087E-2,5.14822E-3,1.6270244E-2,-2.648509E-2,1.922294E-3,-1.8067641E-2,1.3582513E-2,-5.0042975E-3],"split_indices":[11,45,21,52,45,37,6,0,0,0,0,0,0,0,0],"split_type":[0,0,0,0,0,0,0,0,0,0,0,0,0,0,0],"sum_hessian":[3.61E2,5E1,3.11E2,3.4E1,1.6E1,1.45E2,1.66E2,2.8E1,6E0,1.3E1,3E0,1.11E2,3.4E1,1.22E2,4.4E1],"tree_param":{"num_deleted":"0","num_feature":"53","num_nodes":"15","size_leaf_vector":"1"}},{"base_weights":[-8.998427E-3,-4.0611114E-2,2.2898985E-2,5.250026E-1,-1.0156558E-2,1.0635884E-2,2.8601555E-2,-1.0434074E-2,2.787406E-3],"categories":[],"categories_nodes":[],"categories_segments":[],"categories_sizes":[],"default_left":[0,0,0,0,0,0,0,0,0],"id":38,"left_children":[1,-1,3,5,7,-1,-1,-1,-1],"loss_changes":[1.2014519E1,0E0,6.046451E0,6.3257074E-1,6.9209204E0,0E0,0E0,0E0,0E0],"parents":[2147483647,0,0,2,2,3,3,4,4],"right_children":[2,-1,4,6,8,-1,-1,-1,-1],"split_conditions":[2.2E-1,-4.0611114E-2,1.1964286E1,6.154E1,1.8815E2,1.0635884E-2,2.8601555E-2,-1.0434074E-2,2.787406E-3],"split_indices":[42,0,34,21,32,0,0,0,0],"split_type":[0,0,0,0,0,0,0,0,0],"sum_hessian":[3.7E2,9E0,3.61E2,2E1,3.41E2,1.1E1,9E0,8.1E1,2.6E2],"tree_param":{"num_deleted":"0","num_feature":"53","num_nodes":"9","size_leaf_vector":"1"}},{"base_weights":[-3.546983E-2,-4.6663043E-1,5.9120137E-2,-8.0364907E-1,4.1398063E-2,-5.7125416E-2,2.403925E-1,-4.3619383E-2,-1.9713393E-3,1.6888203E-2,-1.1980918E-2,5.7643005E-3,-1.0623784E-2,1.234035E-2,-1.8181149E-2],"categories":[],"categories_nodes":[],"categories_segments":[],"categories_sizes":[],"default_left":[0,0,0,0,0,0,0,0,0,0,0,0,0,0,0],"id":39,"left_children":[1,3,5,7,9,11,13,-1,-1,-1,-1,-1,-1,-1,-1],"loss_changes":[1.4852974E1,1.1297761E1,6.3454275E0,8.412609E0,4.0161667E0,7.835621E0,5.912479E0,0E0,0E0,0E0,0E0,0E0,0E0,0E0,0E0],"parents":[2147483647,0,0,1,1,2,2,3,3,4,4,5,5,6,6],"right_children":[2,4,6,8,10,12,14,-1,-1,-1,-1,-1,-1,-1,-1],"split_conditions":[2.224E1,7.545E1,2.7274E2,2E1,1.3E1,1.4E1,2.8285715E1,-4.3619383E-2,-1.9713393E-3,1.6888203E-2,-1.1980918E-2,5.7643005E-3,-1.0623784E-2,1.234035E-2,-1.8181149E-2],"split_indices":[11,15,32,2,42,2,26,0,0,0,0,0,0,0,0],"split_type":[0,0,0,0,0,0,0,0,0,0,0,0,0,0,0],"sum_hessian":[3.6E2,6.3E1,2.97E2,3.7E1,2.6E1,1.82E2,1.15E2,2.6E1,1.1E1,1.2E1,1.4E1,9.3E1,8.9E1,1.06E2,9E0],"tree_param":{"num_deleted":"0","num_feature":"53","num_nodes":"15","size_leaf_vector":"1"}},{"base_weights":[-7.912561E-3,-4.4369447E-1,8.798099E-2,-7.0036805E-1,8.873643E-2,-1.5377663E-1,1.6627386E-1,1.134261E-2,-3.570732E-2,-2.2378499E-2,1.4982645E-2,1.0104782E-2,-1.6949747E-2,-1.1130967E-2,8.42216E-3],"categories":[],"categories_nodes":[],"categories_segments":[],"categories_sizes":[],"default_left":[0,0,0,0,0,0,0,0,0,0,0,0,0,0,0],"id":40,"left_children":[1,3,5,7,9,11,13,-1,-1,-1,-1,-1,-1,-1,-1],"loss_changes":[1.5872816E1,9.516644E0,5.959964E0,9.431808E0,5.063115E0,8.770418E0,4.801897E0,0E0,0E0,0E0,0E0,0E0,0E0,0E0,0E0],"parents":[2147483647,0,0,1,1,2,2,3,3,4,4,5,5,6,6],"right_children":[2,4,6,8,10,12,14,-1,-1,-1,-1,-1,-1,-1,-1],"split_conditions":[2.224E1,9.838E1,-2.2252093E-1,2.8996E2,3.593E1,1.7E1,1.2756E2,1.134261E-2,-3.570732E-2,-2.2378499E-2,1.4982645E-2,1.0104782E-2,-1.6949747E-2,-1.1130967E-2,8.42216E-3],"split_indices":[11,15,8,40,21,16,28,0,0,0,0,0,0,0,0],"split_type":[0,0,0,0,0,0,0,0,0,0,0,0,0,0,0],"sum_hessian":[3.75E2,6.6E1,3.09E2,4.4E1,2.2E1,7.5E1,2.34E2,7E0,3.7E1,6E0,1.6E1,3E1,4.5E1,2E1,2.14E2],"tree_param":{"num_deleted":"0","num_feature":"53","num_nodes":"15","size_leaf_vector":"1"}},{"base_weights":[-1.3763275E-2,-3.6856532E-2,1.4733009E-2,3.6591217E-1,-4.345199E-2,2.3606535E-2,7.7873133E-3,-7.924575E-3,5.435854E-3],"categories":[],"categories_nodes":[],"categories_segments":[],"categories_sizes":[],"default_left":[0,0,0,0,0,0,0,0,0],"id":41,"left_children":[1,-1,3,5,7,-1,-1,-1,-1],"loss_changes":[9.771981E0,0E0,7.5490084E0,1.7286782E0,8.874263E0,0E0,0E0,0E0,0E0],"parents":[2147483647,0,0,2,2,3,3,4,4],"right_children":[2,-1,4,6,8,-1,-1,-1,-1],"split_conditions":[2.2E-1,-3.6856532E-2,-7.818315E-1,7.196E1,1.9684E2,2.3606535E-2,7.7873133E-3,-7.924575E-3,5.435854E-3],"split_indices":[42,0,7,23,28,0,0,0,0],"split_type":[0,0,0,0,0,0,0,0,0],"sum_hessian":[3.74E2,9E0,3.65E2,5E1,3.15E2,1.9E1,3.1E1,1.69E2,1.46E2],"tree_param":{"num_deleted":"0","num_feature":"53","num_nodes":"9","size_leaf_vector":"1"}},{"base_weights":[-4.727446E-3,-2.0428106E-1,1.13896824E-1,8.43254E-3,-5.2279323E-1,3.2947743E-1,1.5611503E-2,-2.9836163E-2,8.554635E-3,-5.3473987E-2,-7.3587047E-3,5.5400515E-3,2.3995718E-2,-5.4579377E-2,2.7962765E-3],"categories":[],"categories_nodes":[],"categories_segments":[],"categories_sizes":[],"default_left":[0,0,0,0,0,0,0,0,0,0,0,0,0,0,0],"id":42,"left_children":[1,3,5,7,9,11,13,-1,-1,-1,-1,-1,-1,-1,-1],"loss_changes":[9.11267E0,9.733416E0,5.104142E0,1.4113289E1,1.5244989E1,3.6913252E0,1.28646555E1,0E0,0E0,0E0,0E0,0E0,0E0,0E0,0E0],"parents":[2147483647,0,0,1,1,2,2,3,3,4,4,5,5,6,6],"right_children":[2,4,6,8,10,12,14,-1,-1,-1,-1,-1,-1,-1,-1],"split_conditions":[7.2114286E0,5.6728573E0,1.8642857E1,1E0,4.338E1,2.3772E2,1.7428572E1,-2.9836163E-2,8.554635E-3,-5.3473987E-2,-7.3587047E-3,5.5400515E-3,2.3995718E-2,-5.4579377E-2,2.7962765E-3],"split_indices":[45,45,30,12,19,49,26,0,0,0,0,0,0,0,0],"split_type":[0,0,0,0,0,0,0,0,0,0,0,0,0,0,0],"sum_hessian":[3.8E2,1.41E2,2.39E2,8.6E1,5.5E1,7.3E1,1.66E2,1.7E1,6.9E1,1.4E1,4.1E1,4.5E1,2.8E1,4E0,1.62E2],"tree_param":{"num_deleted":"0","num_feature":"53","num_nodes":"15","size_leaf_vector":"1"}},{"base_weights":[-1.0276921E-2,-4.5562968E-1,6.779858E-2,-7.2543645E-1,1.07807234E-1,-8.4545806E-2,1.9457404E-1,-3.577537E-2,3.766072E-3,1.34424055E-2,-2.5038192E-2,-1.4798017E-2,2.2068433E-3,1.0883276E-2,-1.3406094E-2],"categories":[],"categories_nodes":[],"categories_segments":[],"categories_sizes":[],"default_left":[0,0,0,0,0,0,0,0,0,0,0,0,0,0,0],"id":43,"left_children":[1,3,5,7,9,11,13,-1,-1,-1,-1,-1,-1,-1,-1],"loss_changes":[1.2473139E1,8.32854E0,5.9414096E0,5.2645874E0,3.7918205E0,5.6535826E0,7.10518E0,0E0,0E0,0E0,0E0,0E0,0E0,0E0,0E0],"parents":[2147483647,0,0,1,1,2,2,3,3,4,4,5,5,6,6],"right_children":[2,4,6,8,10,12,14,-1,-1,-1,-1,-1,-1,-1,-1],"split_conditions":[1.646E1,7.2114286E0,7.345E1,1.615E1,1.2811429E1,1.2E1,1.1E1,-3.577537E-2,3.766072E-3,1.34424055E-2,-2.5038192E-2,-1.4798017E-2,2.2068433E-3,1.0883276E-2,-1.3406094E-2],"split_indices":[11,45,21,52,45,18,1,0,0,0,0,0,0,0,0],"split_type":[0,0,0,0,0,0,0,0,0,0,0,0,0,0,0],"sum_hessian":[3.54E2,5.1E1,3.03E2,3.4E1,1.7E1,1.38E2,1.65E2,2.8E1,6E0,1.4E1,3E0,4.4E1,9.4E1,1.45E2,2E1],"tree_param":{"num_deleted":"0","num_feature":"53","num_nodes":"15","size_leaf_vector":"1"}},{"base_weights":[-7.2122407E-3,-3.4200647E-1,6.706601E-2,-7.291406E-1,5.7946336E-2,4.6167555E-1,2.8870413E-2,-8.767035E-3,-6.0784243E-2,-1.5947165E-2,1.2891246E-2,2.0637443E-2,-4.0914896E-3,-9.294188E-3,3.660069E-3],"categories":[],"categories_nodes":[],"categories_segments":[],"categories_sizes":[],"default_left":[0,0,0,0,0,0,0,0,0,0,0,0,0,0,0],"id":44,"left_children":[1,3,5,7,9,11,13,-1,-1,-1,-1,-1,-1,-1,-1],"loss_changes":[9.519588E0,1.0866687E1,4.691859E0,1.34777355E1,4.72684E0,9.7345924E-1,4.7732635E0,0E0,0E0,0E0,0E0,0E0,0E0,0E0,0E0],"parents":[2147483647,0,0,1,1,2,2,3,3,4,4,5,5,6,6],"right_children":[2,4,6,8,10,12,14,-1,-1,-1,-1,-1,-1,-1,-1],"split_conditions":[2.224E1,4E0,9.3E-1,1.6E1,6.51E0,3.7048573E1,1.8552E2,-8.767035E-3,-6.0784243E-2,-1.5947165E-2,1.2891246E-2,2.0637443E-2,-4.0914896E-3,-9.294188E-3,3.660069E-3],"split_indices":[11,0,47,26,11,36,32,0,0,0,0,0,0,0,0],"split_type":[0,0,0,0,0,0,0,0,0,0,0,0,0,0,0],"sum_hessian":[3.78E2,6.7E1,3.11E2,3.3E1,3.4E1,2.5E1,2.86E2,2.2E1,1.1E1,1.2E1,2.2E1,2.3E1,2E0,5.4E1,2.32E2],"tree_param":{"num_deleted":"0","num_feature":"53","num_nodes":"15","size_leaf_vector":"1"}},{"base_weights":[-1.7038435E-2,-2.7156958E-1,7.7367894E-2,-8.366E-1,-5.5023868E-2,-2.2546598E-1,1.5071827E-1,2.1519165E-3,-4.127078E-2,2.0904446E-2,-6.808782E-3,1.20960735E-2,-1.9960105E-2,9.786165E-3,-4.5388704E-4],"categories":[],"categories_nodes":[],"categories_segments":[],"categories_sizes":[],"default_left":[0,0,0,0,0,0,0,0,0,0,0,0,0,0,0],"id":45,"left_children":[1,3,5,7,9,11,13,-1,-1,-1,-1,-1,-1,-1,-1],"loss_changes":[9.195694E0,1.2548652E1,6.2934823E0,5.0914555E0,5.3793287E0,8.39096E0,3.455123E0,0E0,0E0,0E0,0E0,0E0,0E0,0E0,0E0],"parents":[2147483647,0,0,1,1,2,2,3,3,4,4,5,5,6,6],"right_children":[2,4,6,8,10,12,14,-1,-1,-1,-1,-1,-1,-1,-1],"split_conditions":[1.8815E2,2.63E2,8E0,6E0,-7.818315E-1,1.6E1,2.3E2,2.1519165E-3,-4.127078E-2,2.0904446E-2,-6.808782E-3,1.20960735E-2,-1.9960105E-2,9.786165E-3,-4.5388704E-4],"split_indices":[32,6,22,20,7,16,6,0,0,0,0,0,0,0,0],"split_type":[0,0,0,0,0,0,0,0,0,0,0,0,0,0,0],"sum_hessian":[3.78E2,1.01E2,2.77E2,2.6E1,7.5E1,5.3E1,2.24E2,5E0,2.1E1,1.1E1,6.4E1,1.8E1,3.5E1,1.41E2,8.3E1],"tree_param":{"num_deleted":"0","num_feature":"53","num_nodes":"15","size_leaf_vector":"1"}},{"base_weights":[-1.8051755E-2,-3.2133576E-2,6.5109986E-3,3.0939308E-1,-4.8916657E-2,2.0496584E-2,6.678158E-3,-6.3395086E-3,4.1831536E-3],"categories":[],"categories_nodes":[],"categories_segments":[],"categories_sizes":[],"default_left":[0,0,0,0,0,0,0,0,0],"id":46,"left_children":[1,-1,3,5,7,-1,-1,-1,-1],"loss_changes":[7.3138967E0,0E0,6.2410183E0,1.4489231E0,5.330907E0,0E0,0E0,0E0,0E0],"parents":[2147483647,0,0,2,2,3,3,4,4],"right_children":[2,-1,4,6,8,-1,-1,-1,-1],"split_conditions":[2.2E-1,-3.2133576E-2,-7.818315E-1,1.8428572E1,1.5929E2,2.0496584E-2,6.678158E-3,-6.3395086E-3,4.1831536E-3],"split_indices":[42,0,7,26,24,0,0,0,0],"split_type":[0,0,0,0,0,0,0,0,0],"sum_hessian":[3.76E2,9E0,3.67E2,5.5E1,3.12E2,2E1,3.5E1,1.82E2,1.3E2],"tree_param":{"num_deleted":"0","num_feature":"53","num_nodes":"9","size_leaf_vector":"1"}},{"base_weights":[5.1383893E-3,-2.1575795E-1,1.2960546E-1,-4.6818772E-1,1.1493287E-1,-6.927876E-2,2.0337547E-1,1.4895921E-2,-2.5779044E-2,-1.5092956E-2,1.5023834E-2,-4.091011E-2,2.1527163E-3,-7.991973E-3,1.0803283E-2],"categories":[],"categories_nodes":[],"categories_segments":[],"categories_sizes":[],"default_left":[0,0,0,0,0,0,0,0,0,0,0,0,0,0,0],"id":47,"left_children":[1,3,5,7,9,11,13,-1,-1,-1,-1,-1,-1,-1,-1],"loss_changes":[9.954116E0,1.1028172E1,3.4317207E0,1.1639822E1,7.8606215E0,7.7079377E0,4.6935105E0,0E0,0E0,0E0,0E0,0E0,0E0,0E0,0E0],"parents":[2147483647,0,0,1,1,2,2,3,3,4,4,5,5,6,6],"right_children":[2,4,6,8,10,12,14,-1,-1,-1,-1,-1,-1,-1,-1],"split_conditions":[7.54E0,4E0,1.3056E2,1.7119E2,4.116E1,4.97E0,2.354E1,1.4895921E-2,-2.5779044E-2,-1.5092956E-2,1.5023834E-2,-4.091011E-2,2.1527163E-3,-7.991973E-3,1.0803283E-2],"split_indices":[41,0,24,49,15,19,17,0,0,0,0,0,0,0,0],"split_type":[0,0,0,0,0,0,0,0,0,0,0,0,0,0,0],"sum_hessian":[3.57E2,1.28E2,2.29E2,7.2E1,5.6E1,6.2E1,1.67E2,1.2E1,6E1,1.9E1,3.7E1,5E0,5.7E1,2.3E1,1.44E2],"tree_param":{"num_deleted":"0","num_feature":"53","num_nodes":"15","size_leaf_vector":"1"}},{"base_weights":[-1.9776244E-2,-3.0764192E-1,4.9111355E-2,-6.2168896E-1,3.6080554E-2,-1.7508467E-1,1.2595952E-1,-1.1057834E-2,-6.265995E-2,-1.889382E-2,9.816601E-3,9.327101E-3,-1.5700676E-2,1.7755876E-3,1.3241069E-2],"categories":[],"categories_nodes":[],"categories_segments":[],"categories_sizes":[],"default_left":[0,0,0,0,0,0,0,0,0,0,0,0,0,0,0],"id":48,"left_children":[1,3,5,7,9,11,13,-1,-1,-1,-1,-1,-1,-1,-1],"loss_changes":[7.345265E0,7.774146E0,5.2152357E0,1.1149461E1,4.174537E0,7.108441E0,3.718543E0,0E0,0E0,0E0,0E0,0E0,0E0,0E0,0E0],"parents":[2147483647,0,0,1,1,2,2,3,3,4,4,5,5,6,6],"right_children":[2,4,6,8,10,12,14,-1,-1,-1,-1,-1,-1,-1,-1],"split_conditions":[2.224E1,4E0,-2.2252093E-1,4.15E0,4.084E1,1.7E1,2.1046E2,-1.1057834E-2,-6.265995E-2,-1.889382E-2,9.816601E-3,9.327101E-3,-1.5700676E-2,1.7755876E-3,1.3241069E-2],"split_indices":[11,0,8,38,17,16,24,0,0,0,0,0,0,0,0],"split_type":[0,0,0,0,0,0,0,0,0,0,0,0,0,0,0],"sum_hessian":[3.66E2,6.9E1,2.97E2,3.5E1,3.4E1,7.5E1,2.22E2,2.8E1,7E0,9E0,2.5E1,2.6E1,4.9E1,1.61E2,6.1E1],"tree_param":{"num_deleted":"0","num_feature":"53","num_nodes":"15","size_leaf_vector":"1"}},{"base_weights":[-1.2893771E-2,-2.9680553E-1,5.328869E-2,-7.0261073E-1,-8.523641E-2,-1.7093785E-1,1.2873769E-1,-3.460276E-2,1.007288E-2,7.379702E-4,-4.621535E-2,4.053438E-3,-2.1336831E-2,-9.306901E-3,7.0638186E-3],"categories":[],"categories_nodes":[],"categories_segments":[],"categories_sizes":[],"default_left":[0,0,0,0,0,0,0,0,0,0,0,0,0,0,0],"id":49,"left_children":[1,3,5,7,9,11,13,-1,-1,-1,-1,-1,-1,-1,-1],"loss_changes":[7.207918E0,6.074829E0,5.324868E0,4.3434696E0,5.656717E0,7.981358E0,4.158703E0,0E0,0E0,0E0,0E0,0E0,0E0,0E0,0E0],"parents":[2147483647,0,0,1,1,2,2,3,3,4,4,5,5,6,6],"right_children":[2,4,6,8,10,12,14,-1,-1,-1,-1,-1,-1,-1,-1],"split_conditions":[2.224E1,1.37E2,-2.2252093E-1,1.54E0,8.23E0,2.5E1,1.0582E2,-3.460276E-2,1.007288E-2,7.379702E-4,-4.621535E-2,4.053438E-3,-2.1336831E-2,-9.306901E-3,7.0638186E-3],"split_indices":[11,6,8,41,38,3,24,0,0,0,0,0,0,0,0],"split_type":[0,0,0,0,0,0,0,0,0,0,0,0,0,0,0],"sum_hessian":[3.79E2,7E1,3.09E2,2.2E1,4.8E1,7.7E1,2.32E2,1.9E1,3E0,4.6E1,2E0,4.5E1,3.2E1,2.6E1,2.06E2],"tree_param":{"num_deleted":"0","num_feature":"53","num_nodes":"15","size_leaf_vector":"1"}},{"base_weights":[2.186122E-2,-2.1336427E-1,1.031704E-1,-7.92629E-3,-7.552829E-1,-1.8912068E-1,1.7236218E-1,-1.4531697E-2,1.0571621E-2,-6.4085326E-3,-4.880525E-2,9.956704E-4,-3.9790094E-2,2.593407E-2,5.5270735E-3],"categories":[],"categories_nodes":[],"categories_segments":[],"categories_sizes":[],"default_left":[0,0,0,0,0,0,0,0,0,0,0,0,0,0,0],"id":50,"left_children":[1,3,5,7,9,11,13,-1,-1,-1,-1,-1,-1,-1,-1],"loss_changes":[7.1794643E0,1.0728442E1,5.713916E0,7.253444E0,6.841652E0,9.458531E0,3.4616103E0,0E0,0E0,0E0,0E0,0E0,0E0,0E0,0E0],"parents":[2147483647,0,0,1,1,2,2,3,3,4,4,5,5,6,6],"right_children":[2,4,6,8,10,12,14,-1,-1,-1,-1,-1,-1,-1,-1],"split_conditions":[1.8552E2,4.4617E2,8E0,3.23E0,9E0,2.1642857E1,1.6714285E1,-1.4531697E-2,1.0571621E-2,-6.4085326E-3,-4.880525E-2,9.956704E-4,-3.9790094E-2,2.593407E-2,5.5270735E-3],"split_indices":[32,43,22,44,12,34,34,0,0,0,0,0,0,0,0],"split_type":[0,0,0,0,0,0,0,0,0,0,0,0,0,0,0],"sum_hessian":[3.7E2,9.4E1,2.76E2,7E1,2.4E1,5.2E1,2.24E2,3E1,4E1,1.2E1,1.2E1,4.3E1,9E0,1.2E1,2.12E2],"tree_param":{"num_deleted":"0","num_feature":"53","num_nodes":"15","size_leaf_vector":"1"}},{"base_weights":[-3.9065268E-2,-3.6697412E-1,3.6680933E-2,-6.2377393E-1,2.5498995E-1,3.4369346E-1,-6.8553286E-3,-3.945353E-2,-6.7184884E-3,2.0976534E-2,-6.0849404E-3,1.8262394E-2,-3.8892846E-3,-5.0071375E-3,6.4279935E-3],"categories":[],"categories_nodes":[],"categories_segments":[],"categories_sizes":[],"default_left":[0,0,0,0,0,0,0,0,0,0,0,0,0,0,0],"id":51,"left_children":[1,3,5,7,9,11,13,-1,-1,-1,-1,-1,-1,-1,-1],"loss_changes":[8.938021E0,1.1178758E1,3.9288628E0,7.600992E0,2.5576859E0,1.9274287E0,5.195047E0,0E0,0E0,0E0,0E0,0E0,0E0,0E0,0E0],"parents":[2147483647,0,0,1,1,2,2,3,3,4,4,5,5,6,6],"right_children":[2,4,6,8,10,12,14,-1,-1,-1,-1,-1,-1,-1,-1],"split_conditions":[2.224E1,1.0344E2,2.208E1,4E0,2.7492E2,3.1E1,2.7274E2,-3.945353E-2,-6.7184884E-3,2.0976534E-2,-6.0849404E-3,1.8262394E-2,-3.8892846E-3,-5.0071375E-3,6.4279935E-3],"split_indices":[11,21,13,0,46,22,32,0,0,0,0,0,0,0,0],"split_type":[0,0,0,0,0,0,0,0,0,0,0,0,0,0,0],"sum_hessian":[3.56E2,6.5E1,2.91E2,4.6E1,1.9E1,3.4E1,2.57E2,2.4E1,2.2E1,1.1E1,8E0,2.7E1,7E0,1.51E2,1.06E2],"tree_param":{"num_deleted":"0","num_feature":"53","num_nodes":"15","size_leaf_vector":"1"}},{"base_weights":[-2.995667E-2,-2.7696687E-1,4.2803414E-2,-5.162397E-1,1.0027859E-1,-6.3508436E-2,1.7875843E-1,-3.4890454E-2,-1.3953232E-3,9.638296E-3,-1.6036116E-2,-7.432588E-4,-2.8207073E-2,-3.8077356E-3,1.0394906E-2],"categories":[],"categories_nodes":[],"categories_segments":[],"categories_sizes":[],"default_left":[0,0,0,0,0,0,0,0,0,0,0,0,0,0,0],"id":52,"left_children":[1,3,5,7,9,11,13,-1,-1,-1,-1,-1,-1,-1,-1],"loss_changes":[6.5985804E0,7.6665125E0,4.140439E0,8.749661E0,2.673945E0,4.6229978E0,2.8506293E0,0E0,0E0,0E0,0E0,0E0,0E0,0E0,0E0],"parents":[2147483647,0,0,1,1,2,2,3,3,4,4,5,5,6,6],"right_children":[2,4,6,8,10,12,14,-1,-1,-1,-1,-1,-1,-1,-1],"split_conditions":[1.5E0,7.613E1,4E0,2.31E0,7.3333E2,3.7E1,1.8815E2,-3.4890454E-2,-1.3953232E-3,9.638296E-3,-1.6036116E-2,-7.432588E-4,-2.8207073E-2,-3.8077356E-3,1.0394906E-2],"split_indices":[35,15,0,41,37,14,32,0,0,0,0,0,0,0,0],"split_type":[0,0,0,0,0,0,0,0,0,0,0,0,0,0,0],"sum_hessian":[3.63E2,8.1E1,2.82E2,4.9E1,3.2E1,1.59E2,1.23E2,2.7E1,2.2E1,2.6E1,6E0,1.51E2,8E0,2.8E1,9.5E1],"tree_param":{"num_deleted":"0","num_feature":"53","num_nodes":"15","size_leaf_vector":"1"}},{"base_weights":[-1.126903E-3,-4.9941726E-2,2.6022333E-1,-5.512663E-1,-1.3536608E-2,3.5441816E-1,-3.2880697E-1,-1.4292576E-3,-4.3313716E-2,-9.225384E-3,2.2077204E-3,1.6365867E-2,-7.6102107E-3,7.507453E-3,-3.1590015E-2],"categories":[],"categories_nodes":[],"categories_segments":[],"categories_sizes":[],"default_left":[0,0,0,0,0,0,0,0,0,0,0,0,0,0,0],"id":53,"left_children":[1,3,5,7,9,11,13,-1,-1,-1,-1,-1,-1,-1,-1],"loss_changes":[4.8230305E0,5.7942176E0,3.5926127E0,5.795266E0,4.500682E0,1.7595868E0,2.6322684E0,0E0,0E0,0E0,0E0,0E0,0E0,0E0,0E0],"parents":[2147483647,0,0,1,1,2,2,3,3,4,4,5,5,6,6],"right_children":[2,4,6,8,10,12,14,-1,-1,-1,-1,-1,-1,-1,-1],"split_conditions":[3.0429E2,8.92E0,3.7E1,8.776357E1,1.5E0,1.8837143E1,1.3372928E2,-1.4292576E-3,-4.3313716E-2,-9.225384E-3,2.2077204E-3,1.6365867E-2,-7.6102107E-3,7.507453E-3,-3.1590015E-2],"split_indices":[32,21,14,31,35,45,27,0,0,0,0,0,0,0,0],"split_type":[0,0,0,0,0,0,0,0,0,0,0,0,0,0,0],"sum_hessian":[3.73E2,3.16E2,5.7E1,1.9E1,2.97E2,5E1,7E0,1.1E1,8E0,7E1,2.27E2,4.6E1,4E0,4E0,3E0],"tree_param":{"num_deleted":"0","num_feature":"53","num_nodes":"15","size_leaf_vector":"1"}},{"base_weights":[-1.3863817E-2,-3.53796E-1,6.2205527E-2,-6.938863E-1,-8.2574785E-3,4.3512878E-1,2.91626E-2,-8.111987E-3,-5.8264803E-2,-1.623971E-2,1.0875276E-2,1.97035E-2,-4.26687E-3,-6.1484287E-3,3.5806408E-3],"categories":[],"categories_nodes":[],"categories_segments":[],"categories_sizes":[],"default_left":[0,0,0,0,0,0,0,0,0,0,0,0,0,0,0],"id":54,"left_children":[1,3,5,7,9,11,13,-1,-1,-1,-1,-1,-1,-1,-1],"loss_changes":[9.9717245E0,8.270432E0,3.8560176E0,1.2558672E1,4.454255E0,9.252076E-1,3.2627304E0,0E0,0E0,0E0,0E0,0E0,0E0,0E0,0E0],"parents":[2147483647,0,0,1,1,2,2,3,3,4,4,5,5,6,6],"right_children":[2,4,6,8,10,12,14,-1,-1,-1,-1,-1,-1,-1,-1],"split_conditions":[2.224E1,4E0,9.3E-1,5.8954285E1,6.51E0,4.753E1,-2.2252093E-1,-8.111987E-3,-5.8264803E-2,-1.623971E-2,1.0875276E-2,1.97035E-2,-4.26687E-3,-6.1484287E-3,3.5806408E-3],"split_indices":[11,0,47,23,11,35,8,0,0,0,0,0,0,0,0],"split_type":[0,0,0,0,0,0,0,0,0,0,0,0,0,0,0],"sum_hessian":[3.81E2,6.8E1,3.13E2,3.3E1,3.5E1,2.3E1,2.9E2,2.2E1,1.1E1,1.4E1,2.1E1,2.1E1,2E0,7.1E1,2.19E2],"tree_param":{"num_deleted":"0","num_feature":"53","num_nodes":"15","size_leaf_vector":"1"}},{"base_weights":[-1.2907403E-2,-2.0734616E-1,6.3483E-2,2.1305747E-1,-4.682302E-1,4.6784496E-1,1.03031695E-2,1.2605512E-2,-3.296123E-2,8.715966E-3,-2.8595023E-2,2.1537095E-2,-1.0191034E-2,-4.2186897E-2,1.753021E-3],"categories":[],"categories_nodes":[],"categories_segments":[],"categories_sizes":[],"default_left":[0,0,0,0,0,0,0,0,0,0,0,0,0,0,0],"id":55,"left_children":[1,3,5,7,9,11,13,-1,-1,-1,-1,-1,-1,-1,-1],"loss_changes":[5.610305E0,1.1929958E1,5.826258E0,5.148526E0,1.1643265E1,1.9495821E0,8.772923E0,0E0,0E0,0E0,0E0,0E0,0E0,0E0,0E0],"parents":[2147483647,0,0,1,1,2,2,3,3,4,4,5,5,6,6],"right_children":[2,4,6,8,10,12,14,-1,-1,-1,-1,-1,-1,-1,-1],"split_conditions":[1.8815E2,3.0149E2,6.0467144E1,2.6598572E1,2.37E2,2.434E1,6.1054287E1,1.2605512E-2,-3.296123E-2,8.715966E-3,-2.8595023E-2,2.1537095E-2,-1.0191034E-2,-4.2186897E-2,1.753021E-3],"split_indices":[32,43,23,39,40,41,23,0,0,0,0,0,0,0,0],"split_type":[0,0,0,0,0,0,0,0,0,0,0,0,0,0,0],"sum_hessian":[3.73E2,1.04E2,2.69E2,4E1,6.4E1,2.9E1,2.4E2,3.8E1,2E0,1.7E1,4.7E1,2.7E1,2E0,5E0,2.35E2],"tree_param":{"num_deleted":"0","num_feature":"53","num_nodes":"15","size_leaf_vector":"1"}},{"base_weights":[7.717906E-4,-1.829247E-1,7.681277E-2,-3.7073988E-1,2.3619948E-2,-4.4783682E-1,1.1509842E-1,-1.9765656E-2,9.211532E-3,-2.1757903E-2,4.874921E-3,-3.279198E-2,2.2166839E-2,1.8950764E-2,2.567256E-3],"categories":[],"categories_nodes":[],"categories_segments":[],"categories_sizes":[],"default_left":[0,0,0,0,0,0,0,0,0,0,0,0,0,0,0],"id":56,"left_children":[1,3,5,7,9,11,13,-1,-1,-1,-1,-1,-1,-1,-1],"loss_changes":[5.2244105E0,4.26964E0,5.4417567E0,4.549135E0,3.2049377E0,8.030898E0,4.462199E0,0E0,0E0,0E0,0E0,0E0,0E0,0E0,0E0],"parents":[2147483647,0,0,1,1,2,2,3,3,4,4,5,5,6,6],"right_children":[2,4,6,8,10,12,14,-1,-1,-1,-1,-1,-1,-1,-1],"split_conditions":[-2.2252093E-1,4E0,1.54E0,2.7E1,6E0,2.59E2,4.08E0,-1.9765656E-2,9.211532E-3,-2.1757903E-2,4.874921E-3,-3.279198E-2,2.2166839E-2,1.8950764E-2,2.567256E-3],"split_indices":[8,0,11,2,2,6,38,0,0,0,0,0,0,0,0],"split_type":[0,0,0,0,0,0,0,0,0,0,0,0,0,0,0],"sum_hessian":[3.69E2,1.07E2,2.62E2,5.5E1,5.2E1,1.6E1,2.46E2,4.6E1,9E0,6E0,4.6E1,1.2E1,4E0,2.8E1,2.18E2],"tree_param":{"num_deleted":"0","num_feature":"53","num_nodes":"15","size_leaf_vector":"1"}},{"base_weights":[-2.0205636E-2,-2.3950376E-1,4.7360267E-2,-1.3023165E-1,-9.994181E-1,3.1464738E-1,-9.56559E-3,-1.6056737E-2,8.37253E-3,5.4998165E-3,-5.229468E-2,4.105834E-3,1.84742E-2,-2.4659114E-2,2.2939763E-3],"categories":[],"categories_nodes":[],"categories_segments":[],"categories_sizes":[],"default_left":[0,0,0,0,0,0,0,0,0,0,0,0,0,0,0],"id":57,"left_children":[1,3,5,7,9,11,13,-1,-1,-1,-1,-1,-1,-1,-1],"loss_changes":[5.4439983E0,6.857349E0,4.2907014E0,7.4383426E0,4.12556E0,1.4262896E0,9.611791E0,0E0,0E0,0E0,0E0,0E0,0E0,0E0,0E0],"parents":[2147483647,0,0,1,1,2,2,3,3,4,4,5,5,6,6],"right_children":[2,4,6,8,10,12,14,-1,-1,-1,-1,-1,-1,-1,-1],"split_conditions":[1.5E0,3.0695715E1,3.3884E2,8.187143E0,3E0,1.7142857E1,1.185E1,-1.6056737E-2,8.37253E-3,5.4998165E-3,-5.229468E-2,4.105834E-3,1.84742E-2,-2.4659114E-2,2.2939763E-3],"split_indices":[35,36,37,48,4,26,19,0,0,0,0,0,0,0,0],"split_type":[0,0,0,0,0,0,0,0,0,0,0,0,0,0,0],"sum_hessian":[3.63E2,8.4E1,2.79E2,7.6E1,8E0,4.7E1,2.32E2,4.2E1,3.4E1,2E0,6E0,2.1E1,2.6E1,2.1E1,2.11E2],"tree_param":{"num_deleted":"0","num_feature":"53","num_nodes":"15","size_leaf_vector":"1"}},{"base_weights":[-1.7106893E-2,-1.8715744E-1,4.740133E-2,-8.409595E-3,-1.0643741E0,4.5076707E-1,-5.050711E-3,-8.793371E-3,1.1751343E-2,1.0108204E-2,-5.1003143E-2,2.5903704E-2,4.3340875E-3,-3.33822E-2,1.2732227E-3],"categories":[],"categories_nodes":[],"categories_segments":[],"categories_sizes":[],"default_left":[0,0,0,0,0,0,0,0,0,0,0,0,0,0,0],"id":58,"left_children":[1,3,5,7,9,11,13,-1,-1,-1,-1,-1,-1,-1,-1],"loss_changes":[4.1303163E0,1.6206482E1,5.7922287E0,5.815821E0,5.662052E0,1.9475541E0,7.5464435E0,0E0,0E0,0E0,0E0,0E0,0E0,0E0,0E0],"parents":[2147483647,0,0,1,1,2,2,3,3,4,4,5,5,6,6],"right_children":[2,4,6,8,10,12,14,-1,-1,-1,-1,-1,-1,-1,-1],"split_conditions":[1.8815E2,5.1826E2,6.0467144E1,5.504E1,3.593E1,1.7E1,6.6614285E0,-8.793371E-3,1.1751343E-2,1.0108204E-2,-5.1003143E-2,2.5903704E-2,4.3340875E-3,-3.33822E-2,1.2732227E-3],"split_indices":[32,43,23,15,17,2,42,0,0,0,0,0,0,0,0],"split_type":[0,0,0,0,0,0,0,0,0,0,0,0,0,0,0],"sum_hessian":[3.72E2,1.01E2,2.71E2,8.6E1,1.5E1,2.9E1,2.42E2,5.1E1,3.5E1,2E0,1.3E1,1.7E1,1.2E1,8E0,2.34E2],"tree_param":{"num_deleted":"0","num_feature":"53","num_nodes":"15","size_leaf_vector":"1"}},{"base_weights":[-1.3409719E-2,-1.739462E-1,6.971603E-2,-3.4163782E-1,2.0222144E-1,4.6148023E-1,3.8066015E-2,1.0344494E-2,-1.95707E-2,1.1312915E-2,-1.36225745E-2,6.1890255E-3,2.8454902E-2,-7.3247305E-3,4.207062E-3],"categories":[],"categories_nodes":[],"categories_segments":[],"categories_sizes":[],"default_left":[0,0,0,0,0,0,0,0,0,0,0,0,0,0,0],"id":59,"left_children":[1,3,5,7,9,11,13,-1,-1,-1,-1,-1,-1,-1,-1],"loss_changes":[5.0679474E0,8.341598E0,3.0621185E0,8.335961E0,2.056395E0,1.1429596E0,3.5290196E0,0E0,0E0,0E0,0E0,0E0,0E0,0E0,0E0],"parents":[2147483647,0,0,1,1,2,2,3,3,4,4,5,5,6,6],"right_children":[2,4,6,8,10,12,14,-1,-1,-1,-1,-1,-1,-1,-1],"split_conditions":[6.93E0,1.0344E2,1.2785714E1,1.7119E2,1.36999E3,7.275E1,-2.2252093E-1,1.0344494E-2,-1.95707E-2,1.1312915E-2,-1.36225745E-2,6.1890255E-3,2.8454902E-2,-7.3247305E-3,4.207062E-3],"split_indices":[41,21,34,49,37,21,8,0,0,0,0,0,0,0,0],"split_type":[0,0,0,0,0,0,0,0,0,0,0,0,0,0,0],"sum_hessian":[3.75E2,1.27E2,2.48E2,8.8E1,3.9E1,1.6E1,2.32E2,1.7E1,7.1E1,3.5E1,4E0,9E0,7E0,5.3E1,1.79E2],"tree_param":{"num_deleted":"0","num_feature":"53","num_nodes":"15","size_leaf_vector":"1"}},{"base_weights":[2.237424E-3,-2.0677713E-1,6.700868E-2,-1.0243958E-1,-9.5746565E-1,2.4593627E-1,-1.0632797E-2,2.0051023E-2,-8.640925E-3,5.452811E-3,-5.0196845E-2,1.7042542E-2,6.0188293E-4,3.1065163E-3,-1.4229138E-2],"categories":[],"categories_nodes":[],"categories_segments":[],"categories_sizes":[],"default_left":[0,0,0,0,0,0,0,0,0,0,0,0,0,0,0],"id":60,"left_children":[1,3,5,7,9,11,13,-1,-1,-1,-1,-1,-1,-1,-1],"loss_changes":[5.0640574E0,6.6865554E0,3.9727614E0,5.790773E0,3.8438816E0,3.581459E0,6.2088656E0,0E0,0E0,0E0,0E0,0E0,0E0,0E0,0E0],"parents":[2147483647,0,0,1,1,2,2,3,3,4,4,5,5,6,6],"right_children":[2,4,6,8,10,12,14,-1,-1,-1,-1,-1,-1,-1,-1],"split_conditions":[1.5E0,3.0695715E1,1E1,3.2233E2,7E0,2.05E1,3E1,2.0051023E-2,-8.640925E-3,5.452811E-3,-5.0196845E-2,1.7042542E-2,6.0188293E-4,3.1065163E-3,-1.4229138E-2],"split_indices":[35,36,2,40,1,30,14,0,0,0,0,0,0,0,0],"split_type":[0,0,0,0,0,0,0,0,0,0,0,0,0,0,0],"sum_hessian":[3.69E2,8.6E1,2.83E2,7.8E1,8E0,8.4E1,1.99E2,1.1E1,6.7E1,2E0,6E0,4.6E1,3.8E1,1.6E2,3.9E1],"tree_param":{"num_deleted":"0","num_feature":"53","num_nodes":"15","size_leaf_vector":"1"}},{"base_weights":[-1.922255E-2,-1.2470246E-1,1.1540418E-1,-3.4132656E-1,4.558611E-2,6.615429E-2,4.951392E-1,1.4073597E-2,-1.669445E-2,6.477126E-3,-1.4334064E-2,3.5730554E-3,-2.8999137E-2,2.3483822E-2,4.3704986E-4],"categories":[],"categories_nodes":[],"categories_segments":[],"categories_sizes":[],"default_left":[0,0,0,0,0,0,0,0,0,0,0,0,0,0,0],"id":61,"left_children":[1,3,5,7,9,11,13,-1,-1,-1,-1,-1,-1,-1,-1],"loss_changes":[5.311433E0,7.767062E0,2.994575E0,5.2422953E0,5.760963E0,2.8842313E0,8.07703E-1,0E0,0E0,0E0,0E0,0E0,0E0,0E0,0E0],"parents":[2147483647,0,0,1,1,2,2,3,3,4,4,5,5,6,6],"right_children":[2,4,6,8,10,12,14,-1,-1,-1,-1,-1,-1,-1,-1],"split_conditions":[4E0,6.58E0,3.0429E2,1.5422E2,3E1,3.346E1,5.2739E2,1.4073597E-2,-1.669445E-2,6.477126E-3,-1.4334064E-2,3.5730554E-3,-2.8999137E-2,2.3483822E-2,4.3704986E-4],"split_indices":[0,47,28,46,14,47,24,0,0,0,0,0,0,0,0],"split_type":[0,0,0,0,0,0,0,0,0,0,0,0,0,0,0],"sum_hessian":[3.69E2,2.07E2,1.62E2,9E1,1.17E2,1.46E2,1.6E1,8E0,8.2E1,9.2E1,2.5E1,1.44E2,2E0,1.3E1,3E0],"tree_param":{"num_deleted":"0","num_feature":"53","num_nodes":"15","size_leaf_vector":"1"}},{"base_weights":[-2.1744119E-2,-1.250947E-1,1.11380376E-1,3.674305E-2,-3.6175624E-1,1.7356002E-1,-8.51045E-2,-4.5518074E-3,1.9799985E-2,-3.1638276E-2,-3.568663E-3,2.1797153E-3,1.4195022E-2,2.927494E-3,-2.21917E-2],"categories":[],"categories_nodes":[],"categories_segments":[],"categories_sizes":[],"default_left":[0,0,0,0,0,0,0,0,0,0,0,0,0,0,0],"id":62,"left_children":[1,3,5,7,9,11,13,-1,-1,-1,-1,-1,-1,-1,-1],"loss_changes":[5.0773206E0,7.9806404E0,2.0100307E0,8.798455E0,9.707904E0,2.6178617E0,3.1125948E0,0E0,0E0,0E0,0E0,0E0,0E0,0E0,0E0],"parents":[2147483647,0,0,1,1,2,2,3,3,4,4,5,5,6,6],"right_children":[2,4,6,8,10,12,14,-1,-1,-1,-1,-1,-1,-1,-1],"split_conditions":[1.7778572E1,1.8571428E1,3.051E1,2.2887E2,5E-1,1.0984857E2,2.8E1,-4.5518074E-3,1.9799985E-2,-3.1638276E-2,-3.568663E-3,2.1797153E-3,1.4195022E-2,2.927494E-3,-2.21917E-2],"split_indices":[42,30,38,49,10,23,3,0,0,0,0,0,0,0,0],"split_type":[0,0,0,0,0,0,0,0,0,0,0,0,0,0,0],"sum_hessian":[3.64E2,2.05E2,1.59E2,1.23E2,8.2E1,1.21E2,3.8E1,9.4E1,2.9E1,3E1,5.2E1,7.5E1,4.6E1,3E1,8E0],"tree_param":{"num_deleted":"0","num_feature":"53","num_nodes":"15","size_leaf_vector":"1"}},{"base_weights":[1.0847581E-2,-4.615874E-2,2.1231021E-1,-9.276685E-2,3.037073E-1,2.5078943E-1,-1.7335925E-2,1.9223165E-2,-4.9340148E-3,-3.714485E-3,1.7287476E-2,1.6029665E-2,3.094879E-3],"categories":[],"categories_nodes":[],"categories_segments":[],"categories_sizes":[],"default_left":[0,0,0,0,0,0,0,0,0,0,0,0,0],"id":63,"left_children":[1,3,5,7,9,11,-1,-1,-1,-1,-1,-1,-1],"loss_changes":[4.245106E0,4.7748876E0,2.2967079E0,4.6459103E0,1.8581476E0,1.9638247E0,0E0,0E0,0E0,0E0,0E0,0E0,0E0],"parents":[2147483647,0,0,1,1,2,2,3,3,4,4,5,5],"right_children":[2,4,6,8,10,12,-1,-1,-1,-1,-1,-1,-1],"split_conditions":[1.3016E2,2.7327E2,8.5435E2,2.3137E2,7E0,1.1462E2,-1.7335925E-2,1.9223165E-2,-4.9340148E-3,-3.714485E-3,1.7287476E-2,1.6029665E-2,3.094879E-3],"split_indices":[19,24,40,40,21,52,0,0,0,0,0,0,0],"split_type":[0,0,0,0,0,0,0,0,0,0,0,0,0],"sum_hessian":[3.65E2,2.86E2,7.9E1,2.54E2,3.2E1,7.6E1,3E0,1.1E1,2.43E2,8E0,2.4E1,3.9E1,3.7E1],"tree_param":{"num_deleted":"0","num_feature":"53","num_nodes":"13","size_leaf_vector":"1"}},{"base_weights":[-1.9376226E-2,-1.1479693E-1,1.1164487E-1,-2.673905E-1,8.5046515E-2,3.9338325E-3,3.0782896E-1,-6.7559904E-3,-3.941764E-2,-3.4784146E-3,1.0682482E-2,1.7037599E-3,-3.5497416E-2,1.3727683E-2,-1.1658946E-2],"categories":[],"categories_nodes":[],"categories_segments":[],"categories_sizes":[],"default_left":[0,0,0,0,0,0,0,0,0,0,0,0,0,0,0],"id":64,"left_children":[1,3,5,7,9,11,13,-1,-1,-1,-1,-1,-1,-1,-1],"loss_changes":[4.726589E0,6.7199717E0,3.367398E0,8.388703E0,3.0792742E0,3.7300794E0,1.447495E0,0E0,0E0,0E0,0E0,0E0,0E0,0E0,0E0],"parents":[2147483647,0,0,1,1,2,2,3,3,4,4,5,5,6,6],"right_children":[2,4,6,8,10,12,14,-1,-1,-1,-1,-1,-1,-1,-1],"split_conditions":[4E0,1.7778572E1,2.7274E2,1.6251429E1,8.398E1,4.0163E2,8.5435E2,-6.7559904E-3,-3.941764E-2,-3.4784146E-3,1.0682482E-2,1.7037599E-3,-3.5497416E-2,1.3727683E-2,-1.1658946E-2],"split_indices":[0,42,32,42,21,49,40,0,0,0,0,0,0,0,0],"split_type":[0,0,0,0,0,0,0,0,0,0,0,0,0,0,0],"sum_hessian":[3.73E2,2.16E2,1.57E2,1.22E2,9.4E1,1.03E2,5.4E1,1.1E2,1.2E1,4.9E1,4.5E1,1.01E2,2E0,5.2E1,2E0],"tree_param":{"num_deleted":"0","num_feature":"53","num_nodes":"15","size_leaf_vector":"1"}},{"base_weights":[-1.1232831E-2,-3.5744768E-2,3.8397443E-1,-1.1971213E-2,-4.5434067E-1,5.712988E-1,-7.0550665E-2,-2.058958E-3,9.756626E-3,-3.13593E-4,-3.5011135E-2,2.9036717E-2,6.5759635E-3,6.3565997E-3,-1.07179135E-2],"categories":[],"categories_nodes":[],"categories_segments":[],"categories_sizes":[],"default_left":[0,0,0,0,0,0,0,0,0,0,0,0,0,0,0],"id":65,"left_children":[1,3,5,7,9,11,13,-1,-1,-1,-1,-1,-1,-1,-1],"loss_changes":[3.565332E0,3.4246502E0,1.9313514E0,3.3620505E0,3.4599025E0,6.768241E-1,4.9146727E-1,0E0,0E0,0E0,0E0,0E0,0E0,0E0,0E0],"parents":[2147483647,0,0,1,1,2,2,3,3,4,4,5,5,6,6],"right_children":[2,4,6,8,10,12,14,-1,-1,-1,-1,-1,-1,-1,-1],"split_conditions":[3.7094284E1,1.8552E2,4.7984E2,3.7477142E1,3.1E1,1.9745285E2,1.36E2,-2.058958E-3,9.756626E-3,-3.13593E-4,-3.5011135E-2,2.9036717E-2,6.5759635E-3,6.3565997E-3,-1.07179135E-2],"split_indices":[39,11,37,36,14,23,11,0,0,0,0,0,0,0,0],"split_type":[0,0,0,0,0,0,0,0,0,0,0,0,0,0,0],"sum_hessian":[3.62E2,3.43E2,1.9E1,3.27E2,1.6E1,1.3E1,6E0,2.85E2,4.2E1,9E0,7E0,8E0,5E0,3E0,3E0],"tree_param":{"num_deleted":"0","num_feature":"53","num_nodes":"15","size_leaf_vector":"1"}},{"base_weights":[-1.3767589E-2,-1.0754262E-1,1.1438186E-1,-2.6460806E-1,9.345466E-2,5.7063305E-1,8.019605E-2,-2.0500164E-2,-2.8248534E-3,6.5232962E-3,-3.1114867E-2,2.7061567E-2,2.1427916E-3,4.15172E-3,-2.9302761E-2],"categories":[],"categories_nodes":[],"categories_segments":[],"categories_sizes":[],"default_left":[0,0,0,0,0,0,0,0,0,0,0,0,0,0,0],"id":66,"left_children":[1,3,5,7,9,11,13,-1,-1,-1,-1,-1,-1,-1,-1],"loss_changes":[4.4470806E0,6.801957E0,2.3265736E0,5.7041855E0,6.1109834E0,4.843762E-1,3.038137E0,0E0,0E0,0E0,0E0,0E0,0E0,0E0,0E0],"parents":[2147483647,0,0,1,1,2,2,3,3,4,4,5,5,6,6],"right_children":[2,4,6,8,10,12,14,-1,-1,-1,-1,-1,-1,-1,-1],"split_conditions":[4E0,9.712857E0,4.46E0,6.3E0,3.7E1,3.1E1,4.1E1,-2.0500164E-2,-2.8248534E-3,6.5232962E-3,-3.1114867E-2,2.7061567E-2,2.1427916E-3,4.15172E-3,-2.9302761E-2],"split_indices":[0,45,19,47,14,12,47,0,0,0,0,0,0,0,0],"split_type":[0,0,0,0,0,0,0,0,0,0,0,0,0,0,0],"sum_hessian":[3.65E2,2.11E2,1.54E2,1.18E2,9.3E1,8E0,1.46E2,5E1,6.8E1,8.8E1,5E0,6E0,2E0,1.44E2,2E0],"tree_param":{"num_deleted":"0","num_feature":"53","num_nodes":"15","size_leaf_vector":"1"}},{"base_weights":[-1.0648122E-3,-2.0850375E-1,7.639424E-2,1.7387456E-1,-4.2273518E-1,4.2466962E-1,3.1055102E-2,2.0318827E-2,-1.1220672E-2,9.271773E-3,-2.6767502E-2,2.091481E-2,-1.0374614E-2,-3.485906E-2,2.8732573E-3],"categories":[],"categories_nodes":[],"categories_segments":[],"categories_sizes":[],"default_left":[0,0,0,0,0,0,0,0,0,0,0,0,0,0,0],"id":67,"left_children":[1,3,5,7,9,11,13,-1,-1,-1,-1,-1,-1,-1,-1],"loss_changes":[5.8805485E0,8.334545E0,4.1751986E0,6.0491257E0,1.0792303E1,2.387803E0,8.933759E0,0E0,0E0,0E0,0E0,0E0,0E0,0E0,0E0],"parents":[2147483647,0,0,1,1,2,2,3,3,4,4,5,5,6,6],"right_children":[2,4,6,8,10,12,14,-1,-1,-1,-1,-1,-1,-1,-1],"split_conditions":[1.8815E2,3.0149E2,6.0467144E1,1.4E1,2.37E2,2.434E1,6.6614285E0,2.0318827E-2,-1.1220672E-2,9.271773E-3,-2.6767502E-2,2.091481E-2,-1.0374614E-2,-3.485906E-2,2.8732573E-3],"split_indices":[32,43,23,14,40,41,42,0,0,0,0,0,0,0,0],"split_type":[0,0,0,0,0,0,0,0,0,0,0,0,0,0,0],"sum_hessian":[3.61E2,9.7E1,2.64E2,3.5E1,6.2E1,2.8E1,2.36E2,2E1,1.5E1,1.7E1,4.5E1,2.5E1,3E0,8E0,2.28E2],"tree_param":{"num_deleted":"0","num_feature":"53","num_nodes":"15","size_leaf_vector":"1"}},{"base_weights":[1.4899911E-2,-1.7500112E-2,3.5819092E-1,4.6480793E-1,-3.6834665E-2,-1.1269289E-1,4.7543755E-1,2.2022495E-2,-5.0275587E-4,-9.204136E-3,8.1101205E-4,-1.0671322E-4,-8.360432E-3,5.5316577E-5,2.1432322E-2],"categories":[],"categories_nodes":[],"categories_segments":[],"categories_sizes":[],"default_left":[0,0,0,0,0,0,0,0,0,0,0,0,0,0,0],"id":68,"left_children":[1,3,5,7,9,11,13,-1,-1,-1,-1,-1,-1,-1,-1],"loss_changes":[4.1922207E0,3.264663E0,1.928256E0,5.699518E-1,3.7037313E0,8.868376E-2,7.565489E-1,0E0,0E0,0E0,0E0,0E0,0E0,0E0,0E0],"parents":[2147483647,0,0,1,1,2,2,3,3,4,4,5,5,6,6],"right_children":[2,4,6,8,10,12,14,-1,-1,-1,-1,-1,-1,-1,-1],"split_conditions":[2.768E1,1.0357142E1,2.2643E2,2.9854E2,1.5E0,1.2376E2,3.13E0,2.2022495E-2,-5.0275587E-4,-9.204136E-3,8.1101205E-4,-1.0671322E-4,-8.360432E-3,5.5316577E-5,2.1432322E-2],"split_indices":[44,34,46,15,35,11,36,0,0,0,0,0,0,0,0],"split_type":[0,0,0,0,0,0,0,0,0,0,0,0,0,0,0],"sum_hessian":[3.73E2,3.43E2,3E1,1.1E1,3.32E2,6E0,2.4E1,9E0,2E0,7.4E1,2.58E2,4E0,2E0,3E0,2.1E1],"tree_param":{"num_deleted":"0","num_feature":"53","num_nodes":"15","size_leaf_vector":"1"}},{"base_weights":[-7.6520517E-3,-2.1274358E-1,5.2652016E-2,1.05918385E-2,-4.5555258E-1,1.9529732E-1,-1.8794797E-2,-1.3379582E-2,1.7247245E-2,-3.2279022E-2,5.6672487E-3,-1.55199515E-2,9.474557E-3,-3.7852857E-2,8.9620054E-4],"categories":[],"categories_nodes":[],"categories_segments":[],"categories_sizes":[],"default_left":[0,0,0,0,0,0,0,0,0,0,0,0,0,0,0],"id":69,"left_children":[1,3,5,7,9,11,13,-1,-1,-1,-1,-1,-1,-1,-1],"loss_changes":[4.709236E0,4.7027726E0,3.0105884E0,7.254597E0,8.995924E0,2.6179528E0,7.6384697E0,0E0,0E0,0E0,0E0,0E0,0E0,0E0,0E0],"parents":[2147483647,0,0,1,1,2,2,3,3,4,4,5,5,6,6],"right_children":[2,4,6,8,10,12,14,-1,-1,-1,-1,-1,-1,-1,-1],"split_conditions":[1.5E0,1.6E1,1.8357143E1,5.0322857E1,2.0515715E1,1.0642858E1,1.6E1,-1.3379582E-2,1.7247245E-2,-3.2279022E-2,5.6672487E-3,-1.55199515E-2,9.474557E-3,-3.7852857E-2,8.9620054E-4],"split_indices":[35,26,30,23,42,30,26,0,0,0,0,0,0,0,0],"split_type":[0,0,0,0,0,0,0,0,0,0,0,0,0,0,0],"sum_hessian":[3.76E2,8.4E1,2.92E2,4.5E1,3.9E1,9.6E1,1.96E2,2.5E1,2E1,2.4E1,1.5E1,5E0,9.1E1,6E0,1.9E2],"tree_param":{"num_deleted":"0","num_feature":"53","num_nodes":"15","size_leaf_vector":"1"}},{"base_weights":[-3.8742428E-3,-1.0965211E-1,1.1256483E-1,2.3488213E-1,-1.724337E-1,2.4032304E-1,-9.828711E-2,-1.1459415E-2,1.2595728E-2,-1.3353035E-2,7.410061E-5,1.8026568E-2,7.4212025E-3,-2.0885572E-2,6.15889E-3],"categories":[],"categories_nodes":[],"categories_segments":[],"categories_sizes":[],"default_left":[0,0,0,0,0,0,0,0,0,0,0,0,0,0,0],"id":70,"left_children":[1,3,5,7,9,11,13,-1,-1,-1,-1,-1,-1,-1,-1],"loss_changes":[4.6434536E0,4.37326E0,4.894435E0,1.5395588E0,4.7411866E0,1.0875578E0,7.6319747E0,0E0,0E0,0E0,0E0,0E0,0E0,0E0,0E0],"parents":[2147483647,0,0,1,1,2,2,3,3,4,4,5,5,6,6],"right_children":[2,4,6,8,10,12,14,-1,-1,-1,-1,-1,-1,-1,-1],"split_conditions":[1.5089E2,-7.818315E-1,2.8E1,2E0,6.54E0,4.62E0,1.8712856E1,-1.1459415E-2,1.2595728E-2,-1.3353035E-2,7.410061E-5,1.8026568E-2,7.4212025E-3,-2.0885572E-2,6.15889E-3],"split_indices":[24,7,14,12,47,38,42,0,0,0,0,0,0,0,0],"split_type":[0,0,0,0,0,0,0,0,0,0,0,0,0,0,0],"sum_hessian":[3.72E2,1.95E2,1.77E2,2.9E1,1.66E2,1.1E2,6.7E1,3E0,2.6E1,8.5E1,8.1E1,1.9E1,9.1E1,2.4E1,4.3E1],"tree_param":{"num_deleted":"0","num_feature":"53","num_nodes":"15","size_leaf_vector":"1"}},{"base_weights":[-3.1870655E-3,-9.623102E-2,1.194719E-1,-2.5246015E-1,6.3724E-2,-1.9973546E-2,1.515833E-1,-2.858967E-2,-5.7218684E-4,-4.987982E-3,9.6994825E-3,1.4576292E-2,2.8733218E-3],"categories":[],"categories_nodes":[],"categories_segments":[],"categories_sizes":[],"default_left":[0,0,0,0,0,0,0,0,0,0,0,0,0],"id":71,"left_children":[1,3,5,7,9,-1,11,-1,-1,-1,-1,-1,-1],"loss_changes":[4.2457256E0,5.325527E0,3.378503E0,1.180964E1,3.662853E0,0E0,2.556851E0,0E0,0E0,0E0,0E0,0E0,0E0],"parents":[2147483647,0,0,1,1,2,2,3,3,4,4,6,6],"right_children":[2,4,6,8,10,-1,12,-1,-1,-1,-1,-1,-1],"split_conditions":[4E0,7.818315E-1,1.789E1,6.4385715E0,5.6303E2,-1.9973546E-2,6.4461426E1,-2.858967E-2,-5.7218684E-4,-4.987982E-3,9.6994825E-3,1.4576292E-2,2.8733218E-3],"split_indices":[0,7,23,45,37,0,23,0,0,0,0,0,0],"split_type":[0,0,0,0,0,0,0,0,0,0,0,0,0],"sum_hessian":[3.67E2,2.09E2,1.58E2,1.05E2,1.04E2,6E0,1.52E2,3.4E1,7.1E1,5.1E1,5.3E1,3.9E1,1.13E2],"tree_param":{"num_deleted":"0","num_feature":"53","num_nodes":"13","size_leaf_vector":"1"}},{"base_weights":[-1.5391209E-2,-1.5471375E-1,3.9065894E-2,3.4110796E-2,-5.0365955E-1,-7.177696E-2,1.533806E-1,-1.1473823E-2,1.3084664E-2,-5.7762465E-3,-3.8683943E-2,8.9349604E-4,-2.0171735E-2,2.4027745E-3,1.2828801E-2],"categories":[],"categories_nodes":[],"categories_segments":[],"categories_sizes":[],"default_left":[0,0,0,0,0,0,0,0,0,0,0,0,0,0,0],"id":72,"left_children":[1,3,5,7,9,11,13,-1,-1,-1,-1,-1,-1,-1,-1],"loss_changes":[2.795783E0,6.862518E0,3.3916655E0,6.7705054E0,5.7278223E0,5.5845313E0,2.0051627E0,0E0,0E0,0E0,0E0,0E0,0E0,0E0,0E0],"parents":[2147483647,0,0,1,1,2,2,3,3,4,4,5,5,6,6],"right_children":[2,4,6,8,10,12,14,-1,-1,-1,-1,-1,-1,-1,-1],"split_conditions":[1.3E1,1.9428572E1,2.7097E2,6.93E0,8.46E0,2.95E1,3.4627144E1,-1.1473823E-2,1.3084664E-2,-5.7762465E-3,-3.8683943E-2,8.9349604E-4,-2.0171735E-2,2.4027745E-3,1.2828801E-2],"split_indices":[18,30,46,41,44,36,36,0,0,0,0,0,0,0,0],"split_type":[0,0,0,0,0,0,0,0,0,0,0,0,0,0,0],"sum_hessian":[3.64E2,1.01E2,2.63E2,6.7E1,3.4E1,1.34E2,1.29E2,3.2E1,3.5E1,2.1E1,1.3E1,1.12E2,2.2E1,8.5E1,4.4E1],"tree_param":{"num_deleted":"0","num_feature":"53","num_nodes":"15","size_leaf_vector":"1"}},{"base_weights":[-6.951072E-3,3.7668929E-1,-3.9782267E-2,-1.130899E-2,4.5312852E-1,-4.8672792E-1,5.312308E-3,2.0256307E-2,7.805529E-4,5.0858264E-3,-3.608392E-2,-3.129356E-2,1.2167823E-3],"categories":[],"categories_nodes":[],"categories_segments":[],"categories_sizes":[],"default_left":[0,0,0,0,0,0,0,0,0,0,0,0,0],"id":73,"left_children":[1,3,5,-1,7,9,11,-1,-1,-1,-1,-1,-1],"loss_changes":[4.552905E0,1.7568221E0,6.707943E0,0E0,5.875144E-1,8.06378E0,6.081214E0,0E0,0E0,0E0,0E0,0E0,0E0],"parents":[2147483647,0,0,1,1,2,2,4,4,5,5,6,6],"right_children":[2,4,6,-1,8,10,12,-1,-1,-1,-1,-1,-1],"split_conditions":[1.2428572E1,1.54E0,1.2E1,-1.130899E-2,2.569E1,1.4E1,3.8131428E1,2.0256307E-2,7.805529E-4,5.0858264E-3,-3.608392E-2,-3.129356E-2,1.2167823E-3],"split_indices":[34,11,19,0,44,2,27,0,0,0,0,0,0],"split_type":[0,0,0,0,0,0,0,0,0,0,0,0,0],"sum_hessian":[3.56E2,2.6E1,3.3E2,2E0,2.4E1,2.8E1,3.02E2,2.1E1,3E0,1.2E1,1.6E1,7E0,2.95E2],"tree_param":{"num_deleted":"0","num_feature":"53","num_nodes":"13","size_leaf_vector":"1"}},{"base_weights":[5.328844E-3,-9.338658E-2,1.1697913E-1,-4.860191E-1,-3.467257E-2,2.3343517E-1,-9.578004E-2,1.1799723E-2,-3.2856047E-2,4.5377435E-3,-7.011374E-3,5.8397595E-3,1.8376924E-2,3.595117E-3,-2.552967E-2],"categories":[],"categories_nodes":[],"categories_segments":[],"categories_sizes":[],"default_left":[0,0,0,0,0,0,0,0,0,0,0,0,0,0,0],"id":74,"left_children":[1,3,5,7,9,11,13,-1,-1,-1,-1,-1,-1,-1,-1],"loss_changes":[4.0997944E0,4.510845E0,4.3794975E0,7.2851744E0,3.6840024E0,2.0751514E0,6.538644E0,0E0,0E0,0E0,0E0,0E0,0E0,0E0,0E0],"parents":[2147483647,0,0,1,1,2,2,3,3,4,4,5,5,6,6],"right_children":[2,4,6,8,10,12,14,-1,-1,-1,-1,-1,-1,-1,-1],"split_conditions":[1.5089E2,1E0,2.9E1,4.154E1,6.345E1,1.1614E2,1.5708E2,1.1799723E-2,-3.2856047E-2,4.5377435E-3,-7.011374E-3,5.8397595E-3,1.8376924E-2,3.595117E-3,-2.552967E-2],"split_indices":[24,0,14,17,23,13,11,0,0,0,0,0,0,0,0],"split_type":[0,0,0,0,0,0,0,0,0,0,0,0,0,0,0],"sum_hessian":[3.67E2,1.95E2,1.72E2,2.3E1,1.72E2,1.11E2,6.1E1,7E0,1.6E1,8.4E1,8.8E1,8.3E1,2.8E1,4.7E1,1.4E1],"tree_param":{"num_deleted":"0","num_feature":"53","num_nodes":"15","size_leaf_vector":"1"}},{"base_weights":[-7.869891E-3,3.131637E-1,-3.9583188E-2,-1.2384811E-2,3.772786E-1,-3.6547586E-1,8.400979E-3,1.7308153E-2,-7.826555E-3,8.653293E-3,-2.2211766E-2,-7.0243683E-3,2.4693182E-3],"categories":[],"categories_nodes":[],"categories_segments":[],"categories_sizes":[],"default_left":[0,0,0,0,0,0,0,0,0,0,0,0,0],"id":75,"left_children":[1,3,5,-1,7,9,11,-1,-1,-1,-1,-1,-1],"loss_changes":[3.7928817E0,1.6296785E0,5.3010335E0,0E0,1.2119589E0,5.1043673E0,2.9466565E0,0E0,0E0,0E0,0E0,0E0,0E0],"parents":[2147483647,0,0,1,1,2,2,4,4,5,5,6,6],"right_children":[2,4,6,-1,8,10,12,-1,-1,-1,-1,-1,-1],"split_conditions":[1.7119E2,1.37E2,6.6614285E0,-1.2384811E-2,1.6857143E1,8E0,1.3E1,1.7308153E-2,-7.826555E-3,8.653293E-3,-2.2211766E-2,-7.0243683E-3,2.4693182E-3],"split_indices":[49,6,42,0,34,22,18,0,0,0,0,0,0],"split_type":[0,0,0,0,0,0,0,0,0,0,0,0,0],"sum_hessian":[3.67E2,3.1E1,3.36E2,2E0,2.9E1,4.1E1,2.95E2,2.7E1,2E0,1E1,3.1E1,6.5E1,2.3E2],"tree_param":{"num_deleted":"0","num_feature":"53","num_nodes":"13","size_leaf_vector":"1"}},{"base_weights":[1.3136776E-2,-1.3046731E-1,6.436059E-2,2.31837E-2,-7.9803705E-1,1.6565719E-1,-7.1341604E-2,-1.5213856E-2,5.0777583E-3,-2.2704188E-4,-5.1164392E-2,9.968618E-3,-1.960005E-3,-2.9709365E-2,2.772071E-4],"categories":[],"categories_nodes":[],"categories_segments":[],"categories_sizes":[],"default_left":[0,0,0,0,0,0,0,0,0,0,0,0,0,0,0],"id":76,"left_children":[1,3,5,7,9,11,13,-1,-1,-1,-1,-1,-1,-1,-1],"loss_changes":[2.7537277E0,1.0149671E1,3.8166156E0,3.5750134E0,7.03374E0,2.8734474E0,6.292723E0,0E0,0E0,0E0,0E0,0E0,0E0,0E0,0E0],"parents":[2147483647,0,0,1,1,2,2,3,3,4,4,5,5,6,6],"right_children":[2,4,6,8,10,12,14,-1,-1,-1,-1,-1,-1,-1,-1],"split_conditions":[1.8552E2,5.1826E2,2.1821428E1,1.54E0,2.208E1,3.013857E1,8E0,-1.5213856E-2,5.0777583E-3,-2.2704188E-4,-5.1164392E-2,9.968618E-3,-1.960005E-3,-2.9709365E-2,2.772071E-4],"split_indices":[32,43,34,15,13,36,22,0,0,0,0,0,0,0,0],"split_type":[0,0,0,0,0,0,0,0,0,0,0,0,0,0,0],"sum_hessian":[3.69E2,9.6E1,2.73E2,8E1,1.6E1,1.56E2,1.17E2,1.5E1,6.5E1,7E0,9E0,1.12E2,4.4E1,1E1,1.07E2],"tree_param":{"num_deleted":"0","num_feature":"53","num_nodes":"15","size_leaf_vector":"1"}},{"base_weights":[-2.6329838E-2,-1.1217869E-1,7.276336E-2,-2.2173718E-2,-3.3899775E-1,1.2627652E-1,-3.202456E-1,-6.452928E-3,5.099273E-3,-3.9223626E-2,-2.7987068E-3,1.0818585E-3,1.0126852E-2,-2.8870117E-2,-7.897147E-5],"categories":[],"categories_nodes":[],"categories_segments":[],"categories_sizes":[],"default_left":[0,0,0,0,0,0,0,0,0,0,0,0,0,0,0],"id":77,"left_children":[1,3,5,7,9,11,13,-1,-1,-1,-1,-1,-1,-1,-1],"loss_changes":[3.1722636E0,4.053969E0,3.750004E0,3.081378E0,9.580814E0,1.9283118E0,2.7438862E0,0E0,0E0,0E0,0E0,0E0,0E0,0E0,0E0],"parents":[2147483647,0,0,1,1,2,2,3,3,4,4,5,5,6,6],"right_children":[2,4,6,8,10,12,14,-1,-1,-1,-1,-1,-1,-1,-1],"split_conditions":[1.9684E2,7.687E1,3.6E1,1.7624E2,1.8571428E1,2.899E1,2.4E1,-6.452928E-3,5.099273E-3,-3.9223626E-2,-2.7987068E-3,1.0818585E-3,1.0126852E-2,-2.8870117E-2,-7.897147E-5],"split_indices":[28,27,14,32,26,36,18,0,0,0,0,0,0,0,0],"split_type":[0,0,0,0,0,0,0,0,0,0,0,0,0,0,0],"sum_hessian":[3.68E2,1.97E2,1.71E2,1.43E2,5.4E1,1.52E2,1.9E1,7.4E1,6.9E1,1.4E1,4E1,8.7E1,6.5E1,7E0,1.2E1],"tree_param":{"num_deleted":"0","num_feature":"53","num_nodes":"15","size_leaf_vector":"1"}},{"base_weights":[-1.0778862E-2,-7.186685E-1,3.7411915E-3,-4.7883624E-3,-3.5282347E-2,-3.9408624E-2,2.005324E-1,2.249356E-5,-1.642848E-2,1.2519017E-2,-1.621107E-2],"categories":[],"categories_nodes":[],"categories_segments":[],"categories_sizes":[],"default_left":[0,0,0,0,0,0,0,0,0,0,0],"id":78,"left_children":[1,3,5,-1,-1,7,9,-1,-1,-1,-1],"loss_changes":[3.8354983E0,4.700048E-1,3.140385E0,0E0,0E0,4.5049286E0,4.847019E0,0E0,0E0,0E0,0E0],"parents":[2147483647,0,0,1,1,2,2,5,5,6,6],"right_children":[2,4,6,-1,-1,8,10,-1,-1,-1,-1],"split_conditions":[2E0,1.54E0,1.36E2,-4.7883624E-3,-3.5282347E-2,1.2244E2,5.4028572E1,2.249356E-5,-1.642848E-2,1.2519017E-2,-1.621107E-2],"split_indices":[3,41,13,0,0,13,36,0,0,0,0],"split_type":[0,0,0,0,0,0,0,0,0,0,0],"sum_hessian":[3.7E2,5E0,3.65E2,2E0,3E0,3.01E2,6.4E1,2.74E2,2.7E1,5.5E1,9E0],"tree_param":{"num_deleted":"0","num_feature":"53","num_nodes":"11","size_leaf_vector":"1"}},{"base_weights":[1.0294429E-2,3.371965E-1,-1.7855054E-2,-1.22294985E-2,4.1174966E-1,-4.3264854E-1,2.528825E-2,1.840662E-2,3.5679902E-4,4.5987517E-3,-3.450392E-2,-2.836985E-2,2.013087E-3],"categories":[],"categories_nodes":[],"categories_segments":[],"categories_sizes":[],"default_left":[0,0,0,0,0,0,0,0,0,0,0,0,0],"id":79,"left_children":[1,3,5,-1,7,9,11,-1,-1,-1,-1,-1,-1],"loss_changes":[3.4244387E0,1.7287345E0,6.1744776E0,0E0,5.260806E-1,7.8999815E0,5.8551135E0,0E0,0E0,0E0,0E0,0E0,0E0],"parents":[2147483647,0,0,1,1,2,2,4,4,5,5,6,6],"right_children":[2,4,6,-1,8,10,12,-1,-1,-1,-1,-1,-1],"split_conditions":[1.2428572E1,1E0,1.2E1,-1.22294985E-2,2.569E1,1.4E1,1.0642858E1,1.840662E-2,3.5679902E-4,4.5987517E-3,-3.450392E-2,-2.836985E-2,2.013087E-3],"split_indices":[34,12,19,0,44,2,30,0,0,0,0,0,0],"split_type":[0,0,0,0,0,0,0,0,0,0,0,0,0],"sum_hessian":[3.68E2,2.7E1,3.41E2,2E0,2.5E1,3E1,3.11E2,2.2E1,3E0,1.4E1,1.6E1,8E0,3.03E2],"tree_param":{"num_deleted":"0","num_feature":"53","num_nodes":"13","size_leaf_vector":"1"}},{"base_weights":[9.656163E-3,-1.5655354E-1,7.5231865E-2,7.576387E-3,-4.9011979E-1,9.5912434E-2,-3.6087093E-1,-1.0535082E-2,1.1120989E-2,2.758248E-3,-2.9014017E-2,1.4540431E-3,1.2934034E-2,-3.0647552E-2,6.58949E-3],"categories":[],"categories_nodes":[],"categories_segments":[],"categories_sizes":[],"default_left":[0,0,0,0,0,0,0,0,0,0,0,0,0,0,0],"id":80,"left_children":[1,3,5,7,9,11,13,-1,-1,-1,-1,-1,-1,-1,-1],"loss_changes":[4.024045E0,5.7304707E0,2.472017E0,5.495784E0,4.6622E0,3.4182096E0,2.9785297E0,0E0,0E0,0E0,0E0,0E0,0E0,0E0,0E0],"parents":[2147483647,0,0,1,1,2,2,3,3,4,4,5,5,6,6],"right_children":[2,4,6,8,10,12,14,-1,-1,-1,-1,-1,-1,-1,-1],"split_conditions":[1.3E1,1.9428572E1,3.9E1,6.93E0,6.9114285E0,1.3485E2,2.615E1,-1.0535082E-2,1.1120989E-2,2.758248E-3,-2.9014017E-2,1.4540431E-3,1.2934034E-2,-3.0647552E-2,6.58949E-3],"split_indices":[18,30,20,41,48,19,41,0,0,0,0,0,0,0,0],"split_type":[0,0,0,0,0,0,0,0,0,0,0,0,0,0,0],"sum_hessian":[3.64E2,1.02E2,2.62E2,7E1,3.2E1,2.52E2,1E1,3.5E1,3.5E1,1E1,2.2E1,2.02E2,5E1,5E0,5E0],"tree_param":{"num_deleted":"0","num_feature":"53","num_nodes":"15","size_leaf_vector":"1"}},{"base_weights":[2.4132727E-2,3.6514804E-2,-2.7027516E-2,3.7317497E-1,1.20229935E-2,5.801009E-3,2.2527747E-2,-1.5891863E-2,1.5179422E-3],"categories":[],"categories_nodes":[],"categories_segments":[],"categories_sizes":[],"default_left":[0,0,0,0,0,0,0,0,0],"id":81,"left_children":[1,3,-1,5,7,-1,-1,-1,-1],"loss_changes":[3.2374887E0,2.9777467E0,0E0,8.579483E-1,3.6510239E0,0E0,0E0,0E0,0E0],"parents":[2147483647,0,0,1,1,3,3,4,4],"right_children":[2,4,-1,6,8,-1,-1,-1,-1],"split_conditions":[8.5446E2,1.1964286E1,-2.7027516E-2,1.8E1,6.16E0,5.801009E-3,2.2527747E-2,-1.5891863E-2,1.5179422E-3],"split_indices":[40,34,0,22,19,0,0,0,0],"split_type":[0,0,0,0,0,0,0,0,0],"sum_hessian":[3.64E2,3.6E2,4E0,2.2E1,3.38E2,1.2E1,1E1,1.8E1,3.2E2],"tree_param":{"num_deleted":"0","num_feature":"53","num_nodes":"9","size_leaf_vector":"1"}},{"base_weights":[-2.0406928E-2,-7.8081876E-2,1.1906788E-1,-1.2224453E-1,1.5667656E-1,-2.4881965E-1,1.847402E-1,3.4980808E-4,-1.2627215E-2,-1.11487275E-2,1.2483362E-2,-3.154167E-2,4.9911034E-3,1.0632591E-2,-5.455234E-3],"categories":[],"categories_nodes":[],"categories_segments":[],"categories_sizes":[],"default_left":[0,0,0,0,0,0,0,0,0,0,0,0,0,0,0],"id":82,"left_children":[1,3,5,7,9,11,13,-1,-1,-1,-1,-1,-1,-1,-1],"loss_changes":[2.979487E0,2.758998E0,2.7362804E0,5.6192937E0,3.0931616E0,3.774659E0,2.5248797E0,0E0,0E0,0E0,0E0,0E0,0E0,0E0,0E0],"parents":[2147483647,0,0,1,1,2,2,3,3,4,4,5,5,6,6],"right_children":[2,4,6,8,10,12,14,-1,-1,-1,-1,-1,-1,-1,-1],"split_conditions":[2.7327E2,3.7477142E1,2.224E1,7.378E1,1.5E1,-2.2252093E-1,1.5089E2,3.4980808E-4,-1.2627215E-2,-1.11487275E-2,1.2483362E-2,-3.154167E-2,4.9911034E-3,1.0632591E-2,-5.455234E-3],"split_indices":[32,36,17,27,22,8,17,0,0,0,0,0,0,0,0],"split_type":[0,0,0,0,0,0,0,0,0,0,0,0,0,0,0],"sum_hessian":[3.65E2,2.59E2,1.06E2,2.19E2,4E1,1.5E1,9.1E1,1.32E2,8.7E1,1E1,3E1,5E0,1E1,7.3E1,1.8E1],"tree_param":{"num_deleted":"0","num_feature":"53","num_nodes":"15","size_leaf_vector":"1"}},{"base_weights":[-8.683859E-3,-8.8101305E-2,9.872438E-2,-2.0906398E-1,6.861772E-2,-1.7543552E-2,1.2633047E-1,-4.393917E-3,-2.9168844E-2,-3.521962E-3,9.526571E-3,1.1457524E-2,4.3166644E-4],"categories":[],"categories_nodes":[],"categories_segments":[],"categories_sizes":[],"default_left":[0,0,0,0,0,0,0,0,0,0,0,0,0],"id":83,"left_children":[1,3,5,7,9,-1,11,-1,-1,-1,-1,-1,-1],"loss_changes":[3.258913E0,4.1969585E0,2.5488977E0,6.224929E0,2.6422508E0,0E0,2.8873107E0,0E0,0E0,0E0,0E0,0E0,0E0],"parents":[2147483647,0,0,1,1,2,2,3,3,4,4,6,6],"right_children":[2,4,6,8,10,-1,12,-1,-1,-1,-1,-1,-1],"split_conditions":[4E0,1.7778572E1,1.789E1,2.1892857E1,8.398E1,-1.7543552E-2,1.9285715E1,-4.393917E-3,-2.9168844E-2,-3.521962E-3,9.526571E-3,1.1457524E-2,4.3166644E-4],"split_indices":[0,42,23,34,21,0,26,0,0,0,0,0,0],"split_type":[0,0,0,0,0,0,0,0,0,0,0,0,0],"sum_hessian":[3.77E2,2.17E2,1.6E2,1.22E2,9.5E1,6E0,1.54E2,1.05E2,1.7E1,5E1,4.5E1,6.3E1,9.1E1],"tree_param":{"num_deleted":"0","num_feature":"53","num_nodes":"13","size_leaf_vector":"1"}},{"base_weights":[-4.3187197E-3,-8.0787115E-2,9.903888E-2,-3.523877E-1,-7.6737567E-3,4.7767025E-1,7.1704075E-2,-1.3897041E-3,-5.732738E-2,-1.1273543E-2,3.8061552E-3,2.3207076E-2,7.469686E-4,3.7006855E-3,-2.6938519E-2],"categories":[],"categories_nodes":[],"categories_segments":[],"categories_sizes":[],"default_left":[0,0,0,0,0,0,0,0,0,0,0,0,0,0,0],"id":84,"left_children":[1,3,5,7,9,11,13,-1,-1,-1,-1,-1,-1,-1,-1],"loss_changes":[3.019415E0,4.3519893E0,1.5962174E0,1.5839422E1,5.014693E0,4.6694064E-1,2.5519395E0,0E0,0E0,0E0,0E0,0E0,0E0,0E0,0E0],"parents":[2147483647,0,0,1,1,2,2,3,3,4,4,5,5,6,6],"right_children":[2,4,6,8,10,12,14,-1,-1,-1,-1,-1,-1,-1,-1],"split_conditions":[4E0,1.1107E2,4.46E0,1.2822857E1,2.354E1,3.1E1,4.1E1,-1.3897041E-3,-5.732738E-2,-1.1273543E-2,3.8061552E-3,2.3207076E-2,7.469686E-4,3.7006855E-3,-2.6938519E-2],"split_indices":[0,24,19,36,21,12,47,0,0,0,0,0,0,0,0],"split_type":[0,0,0,0,0,0,0,0,0,0,0,0,0,0,0],"sum_hessian":[3.77E2,2.17E2,1.6E2,4.4E1,1.73E2,8E0,1.52E2,3.6E1,8E0,4.6E1,1.27E2,6E0,2E0,1.5E2,2E0],"tree_param":{"num_deleted":"0","num_feature":"53","num_nodes":"15","size_leaf_vector":"1"}},{"base_weights":[-2.4804743E-2,-6.5739036E-2,1.9604431E-1,-8.270323E-2,4.531842E-1,2.7306145E-1,-2.8116727E-1,-4.937138E-3,5.563449E-3,-5.048116E-5,2.2419358E-2,1.3993899E-2,-3.0700502E-3,6.421883E-3,-2.70156E-2],"categories":[],"categories_nodes":[],"categories_segments":[],"categories_sizes":[],"default_left":[0,0,0,0,0,0,0,0,0,0,0,0,0,0,0],"id":85,"left_children":[1,3,5,7,9,11,13,-1,-1,-1,-1,-1,-1,-1,-1],"loss_changes":[3.4358928E0,2.9062948E0,2.3787715E0,2.856518E0,5.137687E-1,1.4773161E0,1.9253514E0,0E0,0E0,0E0,0E0,0E0,0E0,0E0,0E0],"parents":[2147483647,0,0,1,1,2,2,3,3,4,4,5,5,6,6],"right_children":[2,4,6,8,10,12,14,-1,-1,-1,-1,-1,-1,-1,-1],"split_conditions":[3.0429E2,4E1,3.7E1,3.7477142E1,2.441E2,1.5780142E2,1.3372928E2,-4.937138E-3,5.563449E-3,-5.048116E-5,2.2419358E-2,1.3993899E-2,-3.0700502E-3,6.421883E-3,-2.70156E-2],"split_indices":[32,22,14,36,40,27,27,0,0,0,0,0,0,0,0],"split_type":[0,0,0,0,0,0,0,0,0,0,0,0,0,0,0],"sum_hessian":[3.74E2,3.17E2,5.7E1,3.09E2,8E0,5E1,7E0,2.62E2,4.7E1,2E0,6E0,4.1E1,9E0,4E0,3E0],"tree_param":{"num_deleted":"0","num_feature":"53","num_nodes":"15","size_leaf_vector":"1"}},{"base_weights":[4.0077753E-3,3.07121E-1,-3.4810886E-2,-6.3662776E-3,4.396741E-1,-2.8691736E-1,2.942446E-2,1.32265575E-2,-1.7245965E-2,4.83708E-4,2.0329976E-2,1.0873183E-3,-2.3184236E-2,1.6206352E-2,-4.9123535E-4],"categories":[],"categories_nodes":[],"categories_segments":[],"categories_sizes":[],"default_left":[0,0,0,0,0,0,0,0,0,0,0,0,0,0,0],"id":86,"left_children":[1,3,5,7,9,11,13,-1,-1,-1,-1,-1,-1,-1,-1],"loss_changes":[4.1979346E0,1.689923E0,5.1465535E0,2.4323013E0,8.202977E-1,5.9691052E0,4.0004873E0,0E0,0E0,0E0,0E0,0E0,0E0,0E0,0E0],"parents":[2147483647,0,0,1,1,2,2,3,3,4,4,5,5,6,6],"right_children":[2,4,6,8,10,12,14,-1,-1,-1,-1,-1,-1,-1,-1],"split_conditions":[2.9058E2,1.4E1,1.1021428E1,2.3E1,2.7118E2,7.615714E0,1.37E1,1.32265575E-2,-1.7245965E-2,4.83708E-4,2.0329976E-2,1.0873183E-3,-2.3184236E-2,1.6206352E-2,-4.9123535E-4],"split_indices":[40,22,39,16,43,39,13,0,0,0,0,0,0,0,0],"split_type":[0,0,0,0,0,0,0,0,0,0,0,0,0,0,0],"sum_hessian":[3.52E2,3.8E1,3.14E2,1.2E1,2.6E1,6.2E1,2.52E2,7E0,5E0,4E0,2.2E1,3.1E1,3.1E1,2.3E1,2.29E2],"tree_param":{"num_deleted":"0","num_feature":"53","num_nodes":"15","size_leaf_vector":"1"}},{"base_weights":[-1.9444575E-3,