{"learner":{"attributes":{},"feature_names":["dia_semana","mes","dia_mes","semana_anio","trimestre","es_fin_semana","dias_desde_inicio","sin_dia","cos_dia","sin_mes","cos_mes","target_lag_1d","eventos_lag_1d","target_lag_2d","eventos_lag_2d","target_lag_3d","eventos_lag_3d","target_lag_7d","eventos_lag_7d","target_lag_14d","eventos_lag_14d","target_lag_28d","eventos_lag_28d","target_media_7d","target_max_7d","target_suma_7d","eventos_media_7d","target_media_14d","target_max_14d","target_suma_14d","eventos_media_14d","target_media_28d","target_max_28d","target_suma_28d","eventos_media_28d","subclave_1_min_lag_1d","subclave_1_min_media_7d","subclave_1_min_suma_28d","subclave_2_min_lag_1d","subclave_2_min_media_7d","subclave_2_min_suma_28d","subclave_3_min_lag_1d","subclave_3_min_media_7d","subclave_3_min_suma_28d","subclave_4_min_lag_1d","subclave_4_min_media_7d","subclave_4_min_suma_28d","subclave_5_min_lag_1d","subclave_5_min_media_7d","subclave_5_min_suma_28d","subclave_6_min_lag_1d","subclave_6_min_media_7d","subclave_6_min_suma_28d"],"feature_types":["int","int","int","int","int","int","int","float","float","float","float","float","float","float","float","float","float","float","float","float","float","float","float","float","float","float","float","float","float","float","float","float","float","float","float","float","float","float","float","float","float","float","float","float","float","float","float","float","float","float","float","float","float"],"gradient_booster":{"model":{"cats":{"enc":[],"feature_segments":[],"sorted_idx":[]},"gbtree_model_param":{"num_parallel_tree":"1","num_trees":"420"},"iteration_indptr":[0,1,2,3,4,5,6,7,8,9,10,11,12,13,14,15,16,17,18,19,20,21,22,23,24,25,26,27,28,29,30,31,32,33,34,35,36,37,38,39,40,41,42,43,44,45,46,47,48,49,50,51,52,53,54,55,56,57,58,59,60,61,62,63,64,65,66,67,68,69,70,71,72,73,74,75,76,77,78,79,80,81,82,83,84,85,86,87,88,89,90,91,92,93,94,95,96,97,98,99,100,101,102,103,104,105,106,107,108,109,110,111,112,113,114,115,116,117,118,119,120,121,122,123,124,125,126,127,128,129,130,131,132,133,134,135,136,137,138,139,140,141,142,143,144,145,146,147,148,149,150,151,152,153,154,155,156,157,158,159,160,161,162,163,164,165,166,167,168,169,170,171,172,173,174,175,176,177,178,179,180,181,182,183,184,185,186,187,188,189,190,191,192,193,194,195,196,197,198,199,200,201,202,203,204,205,206,207,208,209,210,211,212,213,214,215,216,217,218,219,220,221,222,223,224,225,226,227,228,229,230,231,232,233,234,235,236,237,238,239,240,241,242,243,244,245,246,247,248,249,250,251,252,253,254,255,256,257,258,259,260,261,262,263,264,265,266,267,268,269,270,271,272,273,274,275,276,277,278,279,280,281,282,283,284,285,286,287,288,289,290,291,292,293,294,295,296,297,298,299,300,301,302,303,304,305,306,307,308,309,310,311,312,313,314,315,316,317,318,319,320,321,322,323,324,325,326,327,328,329,330,331,332,333,334,335,336,337,338,339,340,341,342,343,344,345,346,347,348,349,350,351,352,353,354,355,356,357,358,359,360,361,362,363,364,365,366,367,368,369,370,371,372,373,374,375,376,377,378,379,380,381,382,383,384,385,386,387,388,389,390,391,392,393,394,395,396,397,398,399,400,401,402,403,404,405,406,407,408,409,410,411,412,413,414,415,416,417,418,419,420],"tree_info":[0,0,0,0,0,0,0,0,0,0,0,0,0,0,0,0,0,0,0,0,0,0,0,0,0,0,0,0,0,0,0,0,0,0,0,0,0,0,0,0,0,0,0,0,0,0,0,0,0,0,0,0,0,0,0,0,0,0,0,0,0,0,0,0,0,0,0,0,0,0,0,0,0,0,0,0,0,0,0,0,0,0,0,0,0,0,0,0,0,0,0,0,0,0,0,0,0,0,0,0,0,0,0,0,0,0,0,0,0,0,0,0,0,0,0,0,0,0,0,0,0,0,0,0,0,0,0,0,0,0,0,0,0,0,0,0,0,0,0,0,0,0,0,0,0,0,0,0,0,0,0,0,0,0,0,0,0,0,0,0,0,0,0,0,0,0,0,0,0,0,0,0,0,0,0,0,0,0,0,0,0,0,0,0,0,0,0,0,0,0,0,0,0,0,0,0,0,0,0,0,0,0,0,0,0,0,0,0,0,0,0,0,0,0,0,0,0,0,0,0,0,0,0,0,0,0,0,0,0,0,0,0,0,0,0,0,0,0,0,0,0,0,0,0,0,0,0,0,0,0,0,0,0,0,0,0,0,0,0,0,0,0,0,0,0,0,0,0,0,0,0,0,0,0,0,0,0,0,0,0,0,0,0,0,0,0,0,0,0,0,0,0,0,0,0,0,0,0,0,0,0,0,0,0,0,0,0,0,0,0,0,0,0,0,0,0,0,0,0,0,0,0,0,0,0,0,0,0,0,0,0,0,0,0,0,0,0,0,0,0,0,0,0,0,0,0,0,0,0,0,0,0,0,0,0,0,0,0,0,0,0,0,0,0,0,0,0,0,0,0,0,0,0,0,0,0,0,0,0,0,0,0,0,0,0,0,0,0,0,0,0,0,0,0,0,0,0,0,0,0,0,0,0,0,0,0,0,0,0,0,0,0,0,0,0,0,0,0,0,0],"trees":[{"base_weights":[9.4009507E-1,-1.0485805E1,6.0959133E1,-4.2375378E1,-8.1570333E-1,1.4151433E2,3.7055264E1,-2.0443974E0,8.2149094E-1,-7.432672E-1,5.9016144E-1,8.142004E0,2.098134E0,-1.4939545E-2,2.0315146E0],"categories":[],"categories_nodes":[],"categories_segments":[],"categories_sizes":[],"default_left":[0,0,0,0,0,0,0,0,0,0,0,0,0,0,0],"id":0,"left_children":[1,3,5,7,9,11,13,-1,-1,-1,-1,-1,-1,-1,-1],"loss_changes":[2.5087595E5,9.4739016E4,9.9536875E4,4.1914414E4,6.6657266E4,4.2369844E4,2.497614E4,0E0,0E0,0E0,0E0,0E0,0E0,0E0,0E0],"parents":[2147483647,0,0,1,1,2,2,3,3,4,4,5,5,6,6],"right_children":[2,4,6,8,10,12,14,-1,-1,-1,-1,-1,-1,-1,-1],"split_conditions":[3.0429E2,1.5E0,9.2806786E1,1.331E1,7.345E1,5.1471428E1,7.0267E2,-2.0443974E0,8.2149094E-1,-7.432672E-1,5.9016144E-1,8.142004E0,2.098134E0,-1.4939545E-2,2.0315146E0],"split_indices":[32,35,31,44,21,51,40,0,0,0,0,0,0,0,0],"split_type":[0,0,0,0,0,0,0,0,0,0,0,0,0,0,0],"sum_hessian":[3.61E2,3.05E2,5.6E1,6.9E1,2.36E2,1E1,4.6E1,6.1E1,8E0,1.1E2,1.26E2,4E0,6E0,1.3E1,3.3E1],"tree_param":{"num_deleted":"0","num_feature":"53","num_nodes":"15","size_leaf_vector":"1"}},{"base_weights":[1.449919E0,-1.6435535E1,3.4478485E1,-4.916739E1,-6.825653E0,9.4928276E1,1.976284E1,-2.2695749E0,-5.193361E-1,1.1639014E0,-5.1347774E-1,4.981182E0,1.0324E0,-9.2904174E-1,1.4334455E0],"categories":[],"categories_nodes":[],"categories_segments":[],"categories_sizes":[],"default_left":[0,0,0,0,0,0,0,0,0,0,0,0,0,0,0],"id":1,"left_children":[1,3,5,7,9,11,13,-1,-1,-1,-1,-1,-1,-1,-1],"loss_changes":[2.1614736E5,7.386644E4,1.0961803E5,1.2816492E4,4.120751E4,4.209147E4,7.566945E4,0E0,0E0,0E0,0E0,0E0,0E0,0E0,0E0],"parents":[2147483647,0,0,1,1,2,2,3,3,4,4,5,5,6,6],"right_children":[2,4,6,8,10,12,14,-1,-1,-1,-1,-1,-1,-1,-1],"split_conditions":[1.7495E2,2.095E1,4.7984E2,8.531428E0,-7.818315E-1,2.0642857E1,-2.2252093E-1,-2.2695749E0,-5.193361E-1,1.1639014E0,-5.1347774E-1,4.981182E0,1.0324E0,-9.2904174E-1,1.4334455E0],"split_indices":[24,11,37,48,7,30,8,0,0,0,0,0,0,0,0],"split_type":[0,0,0,0,0,0,0,0,0,0,0,0,0,0,0],"sum_hessian":[3.61E2,2.35E2,1.26E2,5.1E1,1.84E2,2.2E1,1.04E2,4.1E1,1E1,2.5E1,1.59E2,1.4E1,8E0,2.8E1,7.6E1],"tree_param":{"num_deleted":"0","num_feature":"53","num_nodes":"15","size_leaf_vector":"1"}},{"base_weights":[3.397359E-1,-9.586811E0,5.2056953E1,-4.0857975E1,3.825667E-1,1.4344833E2,2.9558987E1,-1.8967258E0,-4.6367776E-1,-8.791587E-1,4.1406673E-1,6.7848706E0,3.3999282E-1,1.5004438E0,-1.2262948E0],"categories":[],"categories_nodes":[],"categories_segments":[],"categories_sizes":[],"default_left":[0,0,0,0,0,0,0,0,0,0,0,0,0,0,0],"id":2,"left_children":[1,3,5,7,9,11,13,-1,-1,-1,-1,-1,-1,-1,-1],"loss_changes":[1.9607286E5,9.995624E4,1.1585092E5,1.350507E4,5.5296742E4,3.701436E4,2.801445E4,0E0,0E0,0E0,0E0,0E0,0E0,0E0,0E0],"parents":[2147483647,0,0,1,1,2,2,3,3,4,4,5,5,6,6],"right_children":[2,4,6,8,10,12,14,-1,-1,-1,-1,-1,-1,-1,-1],"split_conditions":[3.0429E2,6.2E-1,9.2806786E1,3.2901E2,1.5E1,2.9854E2,3.7E1,-1.8967258E0,-4.6367776E-1,-8.791587E-1,4.1406673E-1,6.7848706E0,3.3999282E-1,1.5004438E0,-1.2262948E0],"split_indices":[32,35,31,46,18,13,14,0,0,0,0,0,0,0,0],"split_type":[0,0,0,0,0,0,0,0,0,0,0,0,0,0,0],"sum_hessian":[3.77E2,3.18E2,5.9E1,7.5E1,2.43E2,9E0,5E1,6E1,1.5E1,7.4E1,1.69E2,7E0,2E0,4.5E1,5E0],"tree_param":{"num_deleted":"0","num_feature":"53","num_nodes":"15","size_leaf_vector":"1"}},{"base_weights":[1.4995753E0,-8.779559E0,5.032708E1,-3.7920296E1,3.7674016E-1,1.2952013E2,3.0223824E1,-1.7949301E0,-3.5452214E-1,-1.3366568E0,3.1110197E-1,7.65196E0,1.7673321E0,1.5818156E0,-1.317998E0],"categories":[],"categories_nodes":[],"categories_segments":[],"categories_sizes":[],"default_left":[0,0,0,0,0,0,0,0,0,0,0,0,0,0,0],"id":3,"left_children":[1,3,5,7,9,11,13,-1,-1,-1,-1,-1,-1,-1,-1],"loss_changes":[1.8906788E5,8.3150555E4,9.4492E4,1.4057234E4,6.054792E4,4.4769594E4,3.594031E4,0E0,0E0,0E0,0E0,0E0,0E0,0E0,0E0],"parents":[2147483647,0,0,1,1,2,2,3,3,4,4,5,5,6,6],"right_children":[2,4,6,8,10,12,14,-1,-1,-1,-1,-1,-1,-1,-1],"split_conditions":[3.0429E2,1.5E0,4.2447E2,3.2901E2,2.462E1,5.1471428E1,3.7E1,-1.7949301E0,-3.5452214E-1,-1.3366568E0,3.1110197E-1,7.65196E0,1.7673321E0,1.5818156E0,-1.317998E0],"split_indices":[32,35,32,46,21,51,14,0,0,0,0,0,0,0,0],"split_type":[0,0,0,0,0,0,0,0,0,0,0,0,0,0,0],"sum_hessian":[3.72E2,3.09E2,6.3E1,7.2E1,2.37E2,1E1,5.3E1,5.7E1,1.5E1,4.1E1,1.96E2,4E0,6E0,4.7E1,6E0],"tree_param":{"num_deleted":"0","num_feature":"53","num_nodes":"15","size_leaf_vector":"1"}},{"base_weights":[-9.269084E-1,-2.0832556E1,2.2590357E1,-4.465658E1,-1.2289325E1,-1.1754489E1,3.504019E1,-2.1200337E0,-5.4603153E-1,-9.7635585E-1,1.720694E-1,-1.9230183E0,2.166161E-1,1.1324242E0,3.8472624E0],"categories":[],"categories_nodes":[],"categories_segments":[],"categories_sizes":[],"default_left":[0,0,0,0,0,0,0,0,0,0,0,0,0,0,0],"id":4,"left_children":[1,3,5,7,9,11,13,-1,-1,-1,-1,-1,-1,-1,-1],"loss_changes":[1.750855E5,3.9843664E4,7.436099E4,1.17740625E4,3.0926672E4,3.0273156E4,4.5241797E4,0E0,0E0,0E0,0E0,0E0,0E0,0E0,0E0],"parents":[2147483647,0,0,1,1,2,2,3,3,4,4,5,5,6,6],"right_children":[2,4,6,8,10,12,14,-1,-1,-1,-1,-1,-1,-1,-1],"split_conditions":[1.5089E2,2.095E1,-2.2252093E-1,1.615E1,4E0,2.432E1,2.3707E2,-2.1200337E0,-5.4603153E-1,-9.7635585E-1,1.720694E-1,-1.9230183E0,2.166161E-1,1.1324242E0,3.8472624E0],"split_indices":[24,11,8,52,0,17,11,0,0,0,0,0,0,0,0],"split_type":[0,0,0,0,0,0,0,0,0,0,0,0,0,0,0],"sum_hessian":[3.69E2,2E2,1.69E2,5E1,1.5E2,4.5E1,1.24E2,3.8E1,1.2E1,8.6E1,6.4E1,1.3E1,3.2E1,1.15E2,9E0],"tree_param":{"num_deleted":"0","num_feature":"53","num_nodes":"15","size_leaf_vector":"1"}},{"base_weights":[-5.521771E-1,-9.542993E0,4.635663E1,-5.0743397E1,-4.1160927E0,1.2437156E2,2.8546183E1,-2.1905687E0,-4.449038E-1,3.47145E-1,-7.807646E-1,6.068026E0,1.4618468E-1,1.5257047E0,-1.2939166E0],"categories":[],"categories_nodes":[],"categories_segments":[],"categories_sizes":[],"default_left":[0,0,0,0,0,0,0,0,0,0,0,0,0,0,0],"id":5,"left_children":[1,3,5,7,9,11,13,-1,-1,-1,-1,-1,-1,-1,-1],"loss_changes":[1.5862898E5,7.0020625E4,7.5187734E4,4.2919375E3,5.5900766E4,3.325439E4,3.376383E4,0E0,0E0,0E0,0E0,0E0,0E0,0E0,0E0],"parents":[2147483647,0,0,1,1,2,2,3,3,4,4,5,5,6,6],"right_children":[2,4,6,8,10,12,14,-1,-1,-1,-1,-1,-1,-1,-1],"split_conditions":[3.0429E2,6.51E0,4.2447E2,2.6097E2,2.84E2,1.2376E2,3.7E1,-2.1905687E0,-4.449038E-1,3.47145E-1,-7.807646E-1,6.068026E0,1.4618468E-1,1.5257047E0,-1.2939166E0],"split_indices":[32,11,32,32,6,13,14,0,0,0,0,0,0,0,0],"split_type":[0,0,0,0,0,0,0,0,0,0,0,0,0,0,0],"sum_hessian":[3.71E2,3.13E2,5.8E1,3.4E1,2.79E2,8E0,5E1,3E1,4E0,1.53E2,1.26E2,6E0,2E0,4.4E1,6E0],"tree_param":{"num_deleted":"0","num_feature":"53","num_nodes":"15","size_leaf_vector":"1"}},{"base_weights":[3.216684E-1,-1.2942885E1,2.5141287E1,2.0064701E1,-1.8434029E1,9.510326E1,1.8523413E1,9.6685626E-2,3.0164292E0,-1.689752E0,-4.476259E-1,5.660091E0,1.1750493E0,1.006339E0,-9.649095E-1],"categories":[],"categories_nodes":[],"categories_segments":[],"categories_sizes":[],"default_left":[0,0,0,0,0,0,0,0,0,0,0,0,0,0,0],"id":6,"left_children":[1,3,5,7,9,11,13,-1,-1,-1,-1,-1,-1,-1,-1],"loss_changes":[1.2147307E5,4.4515156E4,5.5091344E4,3.421795E4,3.460428E4,2.1629523E4,3.561389E4,0E0,0E0,0E0,0E0,0E0,0E0,0E0,0E0],"parents":[2147483647,0,0,1,1,2,2,3,3,4,4,5,5,6,6],"right_children":[2,4,6,8,10,12,14,-1,-1,-1,-1,-1,-1,-1,-1],"split_conditions":[1.8004E2,-7.818315E-1,1.0964286E1,1.754E1,2.095E1,5.1471428E1,3.7E1,9.6685626E-2,3.0164292E0,-1.689752E0,-4.476259E-1,5.660091E0,1.1750493E0,1.006339E0,-9.649095E-1],"split_indices":[24,7,34,35,11,51,14,0,0,0,0,0,0,0,0],"split_type":[0,0,0,0,0,0,0,0,0,0,0,0,0,0,0],"sum_hessian":[3.64E2,2.38E2,1.26E2,3.3E1,2.05E2,8E0,1.18E2,2.7E1,6E0,4.5E1,1.6E2,3E0,5E0,1.03E2,1.5E1],"tree_param":{"num_deleted":"0","num_feature":"53","num_nodes":"15","size_leaf_vector":"1"}},{"base_weights":[-6.5931135E-1,-9.471046E0,4.3139606E1,-2.8521158E1,2.8981051E0,1.1963263E2,2.2479181E1,-1.7274694E0,-6.784238E-1,-1.6359414E-1,1.4615959E0,7.161997E0,1.5603924E0,1.2475448E0,-1.230138E0],"categories":[],"categories_nodes":[],"categories_segments":[],"categories_sizes":[],"default_left":[0,0,0,0,0,0,0,0,0,0,0,0,0,0,0],"id":7,"left_children":[1,3,5,7,9,11,13,-1,-1,-1,-1,-1,-1,-1,-1],"loss_changes":[1.416982E5,7.2192734E4,9.0470164E4,1.859868E4,4.4452508E4,4.241811E4,2.6274646E4,0E0,0E0,0E0,0E0,0E0,0E0,0E0,0E0],"parents":[2147483647,0,0,1,1,2,2,3,3,4,4,5,5,6,6],"right_children":[2,4,6,8,10,12,14,-1,-1,-1,-1,-1,-1,-1,-1],"split_conditions":[3.0429E2,6.84E0,9.2806786E1,4.994E1,3.907857E1,5.1471428E1,3.7E1,-1.7274694E0,-6.784238E-1,-1.6359414E-1,1.4615959E0,7.161997E0,1.5603924E0,1.2475448E0,-1.230138E0],"split_indices":[32,41,31,17,36,51,14,0,0,0,0,0,0,0,0],"split_type":[0,0,0,0,0,0,0,0,0,0,0,0,0,0,0],"sum_hessian":[3.62E2,3.03E2,5.9E1,1.18E2,1.85E2,1E1,4.9E1,4.9E1,6.9E1,1.55E2,3E1,4E0,6E0,4.3E1,6E0],"tree_param":{"num_deleted":"0","num_feature":"53","num_nodes":"15","size_leaf_vector":"1"}},{"base_weights":[1.2786438E0,-7.5201874E0,4.3208996E1,-4.584538E1,-2.4298103E0,1.16591805E2,2.4734987E1,-2.226528E0,-6.3450134E-1,3.2421568E-1,-5.954162E-1,6.985701E0,1.5163342E0,1.3145982E0,-1.1954046E0],"categories":[],"categories_nodes":[],"categories_segments":[],"categories_sizes":[],"default_left":[0,0,0,0,0,0,0,0,0,0,0,0,0,0,0],"id":8,"left_children":[1,3,5,7,9,11,13,-1,-1,-1,-1,-1,-1,-1,-1],"loss_changes":[1.393486E5,6.068703E4,8.158694E4,8.536969E3,3.684702E4,4.0544375E4,2.7100742E4,0E0,0E0,0E0,0E0,0E0,0E0,0E0,0E0],"parents":[2147483647,0,0,1,1,2,2,3,3,4,4,5,5,6,6],"right_children":[2,4,6,8,10,12,14,-1,-1,-1,-1,-1,-1,-1,-1],"split_conditions":[3.0429E2,6.51E0,9.2806786E1,7.6980354E1,2.84E2,5.1471428E1,3.7E1,-2.226528E0,-6.3450134E-1,3.2421568E-1,-5.954162E-1,6.985701E0,1.5163342E0,1.3145982E0,-1.1954046E0],"split_indices":[32,11,31,31,6,51,14,0,0,0,0,0,0,0,0],"split_type":[0,0,0,0,0,0,0,0,0,0,0,0,0,0,0],"sum_hessian":[3.73E2,3.1E2,6.3E1,3.4E1,2.76E2,1E1,5.3E1,2.4E1,1E1,1.5E2,1.26E2,4E0,6E0,4.7E1,6E0],"tree_param":{"num_deleted":"0","num_feature":"53","num_nodes":"15","size_leaf_vector":"1"}},{"base_weights":[-2.490207E-1,-1.4618172E1,2.5845732E1,-3.745484E1,-6.971407E0,-1.5880208E1,4.0836807E1,-1.6649328E0,8.350365E-1,-3.5820547E-1,2.95305E0,7.4829847E-1,-1.4212861E0,1.239436E0,4.2079434E0],"categories":[],"categories_nodes":[],"categories_segments":[],"categories_sizes":[],"default_left":[0,0,0,0,0,0,0,0,0,0,0,0,0,0,0],"id":9,"left_children":[1,3,5,7,9,11,13,-1,-1,-1,-1,-1,-1,-1,-1],"loss_changes":[1.346176E5,3.9773285E4,8.137462E4,1.6153469E4,2.994236E4,2.5791676E4,5.176589E4,0E0,0E0,0E0,0E0,0E0,0E0,0E0,0E0],"parents":[2147483647,0,0,1,1,2,2,3,3,4,4,5,5,6,6],"right_children":[2,4,6,8,10,12,14,-1,-1,-1,-1,-1,-1,-1,-1],"split_conditions":[1.7495E2,2.095E1,-2.2252093E-1,1.5929E2,4.1E1,2.7E1,2.3707E2,-1.6649328E0,8.350365E-1,-3.5820547E-1,2.95305E0,7.4829847E-1,-1.4212861E0,1.239436E0,4.2079434E0],"split_indices":[24,11,8,24,22,14,11,0,0,0,0,0,0,0,0],"split_type":[0,0,0,0,0,0,0,0,0,0,0,0,0,0,0],"sum_hessian":[3.54E2,2.29E2,1.25E2,5.5E1,1.74E2,3.3E1,9.2E1,5.2E1,3E0,1.72E2,2E0,1.2E1,2.1E1,8.3E1,9E0],"tree_param":{"num_deleted":"0","num_feature":"53","num_nodes":"15","size_leaf_vector":"1"}},{"base_weights":[4.8141718E-1,-7.826262E0,4.0300076E1,-2.40886E1,2.5008082E0,1.1193922E2,2.1678778E1,-1.3408194E0,-2.1001512E-1,-2.7673483E-1,1.3347808E0,6.728433E0,1.4393872E0,1.1821197E0,-1.148012E0],"categories":[],"categories_nodes":[],"categories_segments":[],"categories_sizes":[],"default_left":[0,0,0,0,0,0,0,0,0,0,0,0,0,0,0],"id":10,"left_children":[1,3,5,7,9,11,13,-1,-1,-1,-1,-1,-1,-1,-1],"loss_changes":[1.2169613E5,5.128904E4,7.86431E4,2.0615086E4,5.5385027E4,3.829353E4,2.334367E4,0E0,0E0,0E0,0E0,0E0,0E0,0E0,0E0],"parents":[2147483647,0,0,1,1,2,2,3,3,4,4,5,5,6,6],"right_children":[2,4,6,8,10,12,14,-1,-1,-1,-1,-1,-1,-1,-1],"split_conditions":[3.0429E2,6.368E1,4.2447E2,6.234898E-1,9.665714E1,5.1471428E1,3.7E1,-1.3408194E0,-2.1001512E-1,-2.7673483E-1,1.3347808E0,6.728433E0,1.4393872E0,1.1821197E0,-1.148012E0],"split_indices":[32,21,32,8,23,51,14,0,0,0,0,0,0,0,0],"split_type":[0,0,0,0,0,0,0,0,0,0,0,0,0,0,0],"sum_hessian":[3.63E2,3.02E2,6.1E1,1.16E2,1.86E2,1E1,5.1E1,7.6E1,4E1,1.44E2,4.2E1,4E0,6E0,4.5E1,6E0],"tree_param":{"num_deleted":"0","num_feature":"53","num_nodes":"15","size_leaf_vector":"1"}},{"base_weights":[-2.4658251E-1,-1.32043915E1,2.831081E1,-1.7685661E1,1.3085701E1,-1.3978832E1,3.863508E1,-8.3973205E-1,9.3215984E-1,-9.8591113E-1,8.2227796E-1,5.945918E-1,-1.9926459E0,4.9498506E0,1.2549851E0],"categories":[],"categories_nodes":[],"categories_segments":[],"categories_sizes":[],"default_left":[0,0,0,0,0,0,0,0,0,0,0,0,0,0,0],"id":11,"left_children":[1,3,5,7,9,11,13,-1,-1,-1,-1,-1,-1,-1,-1],"loss_changes":[1.3692472E5,3.0561984E4,5.177861E4,3.0847094E4,1.2120484E4,2.717638E4,4.807167E4,0E0,0E0,0E0,0E0,0E0,0E0,0E0,0E0],"parents":[2147483647,0,0,1,1,2,2,3,3,4,4,5,5,6,6],"right_children":[2,4,6,8,10,12,14,-1,-1,-1,-1,-1,-1,-1,-1],"split_conditions":[1.1276E2,1.9684E2,-2.2252093E-1,2.172E1,1.54E0,6E0,1.5142858E1,-8.3973205E-1,9.3215984E-1,-9.8591113E-1,8.2227796E-1,5.945918E-1,-1.9926459E0,4.9498506E0,1.2549851E0],"split_indices":[11,24,8,44,21,1,26,0,0,0,0,0,0,0,0],"split_type":[0,0,0,0,0,0,0,0,0,0,0,0,0,0,0],"sum_hessian":[3.65E2,2.52E2,1.13E2,2.16E2,3.6E1,2.2E1,9.1E1,2.01E2,1.5E1,5E0,3.1E1,1.3E1,9E0,4E0,8.7E1],"tree_param":{"num_deleted":"0","num_feature":"53","num_nodes":"15","size_leaf_vector":"1"}},{"base_weights":[-4.265313E-1,-1.2241023E1,2.4657106E1,-4.2728447E1,-7.4703603E0,7.194862E1,1.3228662E1,-2.024597E0,-5.3608537E-1,-4.860377E-1,7.1108425E-1,-2.8634313E-1,3.401469E0,1.7902075E-1,3.4209094E0],"categories":[],"categories_nodes":[],"categories_segments":[],"categories_sizes":[],"default_left":[0,0,0,0,0,0,0,0,0,0,0,0,0,0,0],"id":12,"left_children":[1,3,5,7,9,11,13,-1,-1,-1,-1,-1,-1,-1,-1],"loss_changes":[1.0966334E5,3.578148E4,6.1666062E4,6.0520547E3,2.6597137E4,2.4817523E4,6.1373938E4,0E0,0E0,0E0,0E0,0E0,0E0,0E0,0E0],"parents":[2147483647,0,0,1,1,2,2,3,3,4,4,5,5,6,6],"right_children":[2,4,6,8,10,12,14,-1,-1,-1,-1,-1,-1,-1,-1],"split_conditions":[1.1075E2,4.97E0,1.1971E2,7.6980354E1,1.9684E2,1.1647E2,6.593E1,-2.024597E0,-5.3608537E-1,-4.860377E-1,7.1108425E-1,-2.8634313E-1,3.401469E0,1.7902075E-1,3.4209094E0],"split_indices":[11,11,11,31,24,24,38,0,0,0,0,0,0,0,0],"split_type":[0,0,0,0,0,0,0,0,0,0,0,0,0,0,0],"sum_hessian":[3.65E2,2.49E2,1.16E2,3.1E1,2.18E2,2E1,9.6E1,2.3E1,8E0,1.85E2,3.3E1,3E0,1.7E1,8.8E1,8E0],"tree_param":{"num_deleted":"0","num_feature":"53","num_nodes":"15","size_leaf_vector":"1"}},{"base_weights":[-3.5905933E-1,-1.4223998E1,1.5160619E1,-3.2730846E1,-5.1520295E0,8.2976425E1,1.027833E1,-1.6627808E0,-5.1551574E-1,2.8571856E0,-3.0547816E-1,4.047953E0,-6.3644E-2,-6.7916685E-1,8.2551205E-1],"categories":[],"categories_nodes":[],"categories_segments":[],"categories_sizes":[],"default_left":[0,0,0,0,0,0,0,0,0,0,0,0,0,0,0],"id":13,"left_children":[1,3,5,7,9,11,13,-1,-1,-1,-1,-1,-1,-1,-1],"loss_changes":[8.047825E4,3.2737402E4,5.6306363E4,9.973E3,2.7149371E4,1.8124312E4,4.8173562E4,0E0,0E0,0E0,0E0,0E0,0E0,0E0,0E0],"parents":[2147483647,0,0,1,1,2,2,3,3,4,4,5,5,6,6],"right_children":[2,4,6,8,10,12,14,-1,-1,-1,-1,-1,-1,-1,-1],"split_conditions":[1.5089E2,1.5E0,1.0964286E1,1.615E1,2.3085713E0,2.569E1,-2.2252093E-1,-1.6627808E0,-5.1551574E-1,2.8571856E0,-3.0547816E-1,4.047953E0,-6.3644E-2,-6.7916685E-1,8.2551205E-1],"split_indices":[24,35,34,52,48,44,8,0,0,0,0,0,0,0,0],"split_type":[0,0,0,0,0,0,0,0,0,0,0,0,0,0,0],"sum_hessian":[3.69E2,1.95E2,1.74E2,6.2E1,1.33E2,9E0,1.65E2,4.1E1,2.1E1,2E0,1.31E2,7E0,2E0,4.5E1,1.2E2],"tree_param":{"num_deleted":"0","num_feature":"53","num_nodes":"15","size_leaf_vector":"1"}},{"base_weights":[1.4517038E0,-9.830359E0,2.5969933E1,-1.5347462E1,1.7685968E1,9.541536E1,1.9352066E1,-6.913872E-1,2.1078146E0,-4.7559017E-1,1.0960735E0,4.8409834E0,1.4819118E0,-1.074123E0,1.1670117E0],"categories":[],"categories_nodes":[],"categories_segments":[],"categories_sizes":[],"default_left":[0,0,0,0,0,0,0,0,0,0,0,0,0,0,0],"id":14,"left_children":[1,3,5,7,9,11,13,-1,-1,-1,-1,-1,-1,-1,-1],"loss_changes":[1.0229469E5,3.9162527E4,4.8924914E4,3.0287465E4,1.3314395E4,2.990875E3,5.165887E4,0E0,0E0,0E0,0E0,0E0,0E0,0E0,0E0],"parents":[2147483647,0,0,1,1,2,2,3,3,4,4,5,5,6,6],"right_children":[2,4,6,8,10,12,14,-1,-1,-1,-1,-1,-1,-1,-1],"split_conditions":[1.1276E2,1.9684E2,1.7533E2,4.1E1,1.5E1,5.1471428E1,3.63E1,-6.913872E-1,2.1078146E0,-4.7559017E-1,1.0960735E0,4.8409834E0,1.4819118E0,-1.074123E0,1.1670117E0],"split_indices":[11,24,37,22,18,51,17,0,0,0,0,0,0,0,0],"split_type":[0,0,0,0,0,0,0,0,0,0,0,0,0,0,0],"sum_hessian":[3.65E2,2.51E2,1.14E2,2.1E2,4.1E1,7E0,1.07E2,2.06E2,4E0,1E1,3.1E1,3E0,4E0,1.8E1,8.9E1],"tree_param":{"num_deleted":"0","num_feature":"53","num_nodes":"15","size_leaf_vector":"1"}},{"base_weights":[-6.652849E-1,-1.0717355E1,1.92548E1,2.2859926E1,-1.5329843E1,-1.9635595E1,3.2256783E1,2.5674919E-2,2.4544191E0,-6.9861174E-1,2.079717E0,-1.1340147E0,1.5046824E0,1.0011246E0,3.4201572E0],"categories":[],"categories_nodes":[],"categories_segments":[],"categories_sizes":[],"default_left":[0,0,0,0,0,0,0,0,0,0,0,0,0,0,0],"id":15,"left_children":[1,3,5,7,9,11,13,-1,-1,-1,-1,-1,-1,-1,-1],"loss_changes":[7.610577E4,3.9981984E4,6.605411E4,2.6846867E4,3.4401543E4,1.9380766E4,3.1793422E4,0E0,0E0,0E0,0E0,0E0,0E0,0E0,0E0],"parents":[2147483647,0,0,1,1,2,2,3,3,4,4,5,5,6,6],"right_children":[2,4,6,8,10,12,14,-1,-1,-1,-1,-1,-1,-1,-1],"split_conditions":[1.8004E2,-7.818315E-1,-2.2252093E-1,2.2E1,2.6428572E1,1.8491428E1,2.3707E2,2.5674919E-2,2.4544191E0,-6.9861174E-1,2.079717E0,-1.1340147E0,1.5046824E0,1.0011246E0,3.4201572E0],"split_indices":[24,7,8,12,26,48,11,0,0,0,0,0,0,0,0],"split_type":[0,0,0,0,0,0,0,0,0,0,0,0,0,0,0],"sum_hessian":[3.75E2,2.5E2,1.25E2,2.9E1,2.21E2,3.1E1,9.4E1,2E1,9E0,2.16E2,5E0,2.8E1,3E0,8.6E1,8E0],"tree_param":{"num_deleted":"0","num_feature":"53","num_nodes":"15","size_leaf_vector":"1"}},{"base_weights":[1.7322044E0,-5.2248073E0,3.4964153E1,-2.469501E1,2.6471012E0,1.0007712E2,1.872411E1,-1.2217581E0,1.6267428E-1,-1.0928016E-1,1.4904814E0,4.7813535E0,-3.68122E-2,1.1096514E0,-5.7866406E-1],"categories":[],"categories_nodes":[],"categories_segments":[],"categories_sizes":[],"default_left":[0,0,0,0,0,0,0,0,0,0,0,0,0,0,0],"id":16,"left_children":[1,3,5,7,9,11,13,-1,-1,-1,-1,-1,-1,-1,-1],"loss_changes":[8.750164E4,4.8212836E4,6.4577523E4,1.5535043E4,4.224201E4,2.4838508E4,1.7613703E4,0E0,0E0,0E0,0E0,0E0,0E0,0E0,0E0],"parents":[2147483647,0,0,1,1,2,2,3,3,4,4,5,5,6,6],"right_children":[2,4,6,8,10,12,14,-1,-1,-1,-1,-1,-1,-1,-1],"split_conditions":[3.0429E2,1.3E1,9.2806786E1,3E1,4.0091427E1,2.9854E2,2.7857143E1,-1.2217581E0,1.6267428E-1,-1.0928016E-1,1.4904814E0,4.7813535E0,-3.68122E-2,1.1096514E0,-5.7866406E-1],"split_indices":[32,18,31,22,36,13,26,0,0,0,0,0,0,0,0],"split_type":[0,0,0,0,0,0,0,0,0,0,0,0,0,0,0],"sum_hessian":[3.74E2,3.11E2,6.3E1,8.8E1,2.23E2,1E1,5.3E1,7.3E1,1.5E1,1.95E2,2.8E1,8E0,2E0,4.2E1,1.1E1],"tree_param":{"num_deleted":"0","num_feature":"53","num_nodes":"15","size_leaf_vector":"1"}},{"base_weights":[1.3885328E0,-8.728358E0,2.4630785E1,-1.1646919E1,3.0392445E1,-1.7492664E1,3.6072266E1,-1.330864E0,-2.4419774E-1,-3.999751E-2,2.7047503E0,1.1612704E0,-1.5607884E0,4.547172E0,1.1614107E0],"categories":[],"categories_nodes":[],"categories_segments":[],"categories_sizes":[],"default_left":[0,0,0,0,0,0,0,0,0,0,0,0,0,0,0],"id":17,"left_children":[1,3,5,7,9,11,13,-1,-1,-1,-1,-1,-1,-1,-1],"loss_changes":[8.648089E4,3.0171203E4,5.5315438E4,2.8314547E4,2.1788557E4,2.8371133E4,4.0079906E4,0E0,0E0,0E0,0E0,0E0,0E0,0E0,0E0],"parents":[2147483647,0,0,1,1,2,2,3,3,4,4,5,5,6,6],"right_children":[2,4,6,8,10,12,14,-1,-1,-1,-1,-1,-1,-1,-1],"split_conditions":[1.1276E2,3.6E1,-2.2252093E-1,6.6614285E0,8.851429E0,1.7E1,1.5142858E1,-1.330864E0,-2.4419774E-1,-3.999751E-2,2.7047503E0,1.1612704E0,-1.5607884E0,4.547172E0,1.1614107E0],"split_indices":[11,22,8,42,48,16,26,0,0,0,0,0,0,0,0],"split_type":[0,0,0,0,0,0,0,0,0,0,0,0,0,0,0],"sum_hessian":[3.63E2,2.54E2,1.09E2,2.38E2,1.6E1,2.3E1,8.6E1,4.6E1,1.92E2,1E1,6E0,7E0,1.6E1,4E0,8.2E1],"tree_param":{"num_deleted":"0","num_feature":"53","num_nodes":"15","size_leaf_vector":"1"}},{"base_weights":[7.8478014E-1,7.896525E1,-2.1321807E0,-7.6517057E0,1.1744915E2,-2.2999142E1,6.0361776E0,-4.395416E-2,-3.9814436E-1,9.595855E-1,5.3750052E0,-1.1307613E0,1.22236595E-1,-2.3187305E-1,8.215128E-1],"categories":[],"categories_nodes":[],"categories_segments":[],"categories_sizes":[],"default_left":[0,0,0,0,0,0,0,0,0,0,0,0,0,0,0],"id":18,"left_children":[1,3,5,7,9,11,13,-1,-1,-1,-1,-1,-1,-1,-1],"loss_changes":[8.559735E4,4.7247062E4,6.213476E4,7.070233E1,6.9689766E3,1.4289973E4,4.534211E4,0E0,0E0,0E0,0E0,0E0,0E0,0E0,0E0],"parents":[2147483647,0,0,1,1,2,2,3,3,4,4,5,5,6,6],"right_children":[2,4,6,8,10,12,14,-1,-1,-1,-1,-1,-1,-1,-1],"split_conditions":[1.0964286E1,5.207E1,1.3E1,5.257E1,3E0,3E1,8.398E1,-4.395416E-2,-3.9814436E-1,9.595855E-1,5.3750052E0,-1.1307613E0,1.22236595E-1,-2.3187305E-1,8.215128E-1],"split_indices":[34,15,18,11,0,22,11,0,0,0,0,0,0,0,0],"split_type":[0,0,0,0,0,0,0,0,0,0,0,0,0,0,0],"sum_hessian":[3.71E2,1.1E1,3.6E2,4E0,7E0,1E2,2.6E2,2E0,2E0,2E0,5E0,8.3E1,1.7E1,1.44E2,1.16E2],"tree_param":{"num_deleted":"0","num_feature":"53","num_nodes":"15","size_leaf_vector":"1"}},{"base_weights":[1.8818412E0,-9.777767E0,1.5001199E1,7.2016426E1,-1.2440328E1,-1.417548E1,2.2685726E1,-7.689687E-2,4.237846E0,-6.2789595E-1,1.8853065E0,1.1181638E0,-1.1972668E0,7.4501115E-1,3.8942318E0],"categories":[],"categories_nodes":[],"categories_segments":[],"categories_sizes":[],"default_left":[0,0,0,0,0,0,0,0,0,0,0,0,0,0,0],"id":19,"left_children":[1,3,5,7,9,11,13,-1,-1,-1,-1,-1,-1,-1,-1],"loss_changes":[5.6123008E4,4.4598367E4,3.948E4,1.6815895E4,3.8813035E4,2.698434E4,3.715597E4,0E0,0E0,0E0,0E0,0E0,0E0,0E0,0E0],"parents":[2147483647,0,0,1,1,2,2,3,3,4,4,5,5,6,6],"right_children":[2,4,6,8,10,12,14,-1,-1,-1,-1,-1,-1,-1,-1],"split_conditions":[1.408E1,1.0357142E1,-2.2252093E-1,1.41E2,1.3092072E2,1.7E1,1.0033E2,-7.689687E-2,4.237846E0,-6.2789595E-1,1.8853065E0,1.1181638E0,-1.1972668E0,7.4501115E-1,3.8942318E0],"split_indices":[41,34,8,6,31,16,35,0,0,0,0,0,0,0,0],"split_type":[0,0,0,0,0,0,0,0,0,0,0,0,0,0,0],"sum_hessian":[3.62E2,1.92E2,1.7E2,4E0,1.88E2,3.5E1,1.35E2,2E0,2E0,1.8E2,8E0,9E0,2.6E1,1.31E2,4E0],"tree_param":{"num_deleted":"0","num_feature":"53","num_nodes":"15","size_leaf_vector":"1"}},{"base_weights":[-8.499402E-1,-5.418756E0,4.1873646E1,-3.8496265E1,-1.8082552E0,8.935942E1,1.1435193E1,-1.7710487E0,-1.7884095E-1,-7.265303E-1,1.8448871E-1,4.1861033E0,2.5310261E-2,-1.6696496E-1,1.6818048E0],"categories":[],"categories_nodes":[],"categories_segments":[],"categories_sizes":[],"default_left":[0,0,0,0,0,0,0,0,0,0,0,0,0,0,0],"id":20,"left_children":[1,3,5,7,9,11,13,-1,-1,-1,-1,-1,-1,-1,-1],"loss_changes":[7.1716266E4,3.9415812E4,4.8756875E4,5.8966836E3,3.1869004E4,1.8152758E4,1.21448545E4,0E0,0E0,0E0,0E0,0E0,0E0,0E0,0E0],"parents":[2147483647,0,0,1,1,2,2,3,3,4,4,5,5,6,6],"right_children":[2,4,6,8,10,12,14,-1,-1,-1,-1,-1,-1,-1,-1],"split_conditions":[2.7327E2,4.97E0,1.9571428E1,3.9E1,1.4E1,2.9854E2,7.818315E-1,-1.7710487E0,-1.7884095E-1,-7.265303E-1,1.8448871E-1,4.1861033E0,2.5310261E-2,-1.6696496E-1,1.6818048E0],"split_indices":[24,11,30,3,22,13,7,0,0,0,0,0,0,0,0],"split_type":[0,0,0,0,0,0,0,0,0,0,0,0,0,0,0],"sum_hessian":[3.62E2,3.29E2,3.3E1,3E1,2.99E2,1.1E1,2.2E1,2.5E1,5E0,8.3E1,2.16E2,9E0,2E0,1.6E1,6E0],"tree_param":{"num_deleted":"0","num_feature":"53","num_nodes":"15","size_leaf_vector":"1"}},{"base_weights":[8.4771824E-1,-1.2961425E1,1.7348745E1,-2.2945223E1,7.0161563E-1,-8.754689E-1,2.9701334E1,3.310151E-1,-1.0051998E0,-1.2723725E0,3.409955E-1,-1.0237144E0,6.765758E-1,8.0074054E-1,2.796583E0],"categories":[],"categories_nodes":[],"categories_segments":[],"categories_sizes":[],"default_left":[0,0,0,0,0,0,0,0,0,0,0,0,0,0,0],"id":21,"left_children":[1,3,5,7,9,11,13,-1,-1,-1,-1,-1,-1,-1,-1],"loss_changes":[8.430256E4,2.7526668E4,3.7997082E4,8.466359E3,2.2932838E4,3.208241E4,3.5633477E4,0E0,0E0,0E0,0E0,0E0,0E0,0E0,0E0],"parents":[2147483647,0,0,1,1,2,2,3,3,4,4,5,5,6,6],"right_children":[2,4,6,8,10,12,14,-1,-1,-1,-1,-1,-1,-1,-1],"split_conditions":[1.5089E2,4E0,6.509E1,2.8575E2,1.86E0,-2.2252093E-1,1.7494E2,3.310151E-1,-1.0051998E0,-1.2723725E0,3.409955E-1,-1.0237144E0,6.765758E-1,8.0074054E-1,2.796583E0],"split_indices":[24,0,21,40,38,8,11,0,0,0,0,0,0,0,0],"split_type":[0,0,0,0,0,0,0,0,0,0,0,0,0,0,0],"sum_hessian":[3.65E2,1.99E2,1.66E2,1.14E2,8.5E1,6.8E1,9.8E1,7E0,1.07E2,1.5E1,7E1,2.8E1,4E1,8.2E1,1.6E1],"tree_param":{"num_deleted":"0","num_feature":"53","num_nodes":"15","size_leaf_vector":"1"}},{"base_weights":[-5.4653627E-1,-6.0459223E0,2.770017E1,-2.4087694E1,-8.3435005E-1,4.6656275E0,1.9674824E1,-1.1546756E0,2.4392936E0,-1.9595401E-1,9.657305E-1,9.6955526E-1,-1.4129504E0],"categories":[],"categories_nodes":[],"categories_segments":[],"categories_sizes":[],"default_left":[0,0,0,0,0,0,0,0,0,0,0,0,0],"id":22,"left_children":[1,3,5,7,9,-1,11,-1,-1,-1,-1,-1,-1],"loss_changes":[5.766131E4,2.9144828E4,3.7446383E4,3.2657312E4,2.5016174E4,0E0,1.6824998E4,0E0,0E0,0E0,0E0,0E0,0E0],"parents":[2147483647,0,0,1,1,2,2,3,3,4,4,6,6],"right_children":[2,4,6,8,10,-1,12,-1,-1,-1,-1,-1,-1],"split_conditions":[3.0429E2,2.432E1,3.7669E2,3.7E1,4.0091427E1,4.6656275E0,2.9285715E1,-1.1546756E0,2.4392936E0,-1.9595401E-1,9.657305E-1,9.6955526E-1,-1.4129504E0],"split_indices":[32,17,32,22,36,0,26,0,0,0,0,0,0],"split_type":[0,0,0,0,0,0,0,0,0,0,0,0,0],"sum_hessian":[3.66E2,3.08E2,5.8E1,6.7E1,2.41E2,2E0,5.6E1,6.5E1,2E0,2.09E2,3.2E1,5.3E1,3E0],"tree_param":{"num_deleted":"0","num_feature":"53","num_nodes":"13","size_leaf_vector":"1"}},{"base_weights":[-7.928256E-1,-9.520129E0,1.3579205E1,-1.1113962E1,4.9435204E1,-2.0272358E1,2.1413004E1,-7.488664E-1,-1.0713519E-2,2.7237427E0,1.3251352E-1,-1.7141747E0,2.944907E-1,6.2673736E-1,3.5377116E0],"categories":[],"categories_nodes":[],"categories_segments":[],"categories_sizes":[],"default_left":[0,0,0,0,0,0,0,0,0,0,0,0,0,0,0],"id":23,"left_children":[1,3,5,7,9,11,13,-1,-1,-1,-1,-1,-1,-1,-1],"loss_changes":[4.629295E4,2.2938508E4,3.807872E4,1.8594379E4,5.0297344E3,1.7950012E4,4.0624656E4,0E0,0E0,0E0,0E0,0E0,0E0,0E0,0E0],"parents":[2147483647,0,0,1,1,2,2,3,3,4,4,5,5,6,6],"right_children":[2,4,6,8,10,12,14,-1,-1,-1,-1,-1,-1,-1,-1],"split_conditions":[6.2933E2,4.1E1,8E0,4E0,6.123234E-17,2.7618572E1,9.439E1,-7.488664E-1,-1.0713519E-2,2.7237427E0,1.3251352E-1,-1.7141747E0,2.944907E-1,6.2673736E-1,3.5377116E0],"split_indices":[25,22,22,0,10,39,35,0,0,0,0,0,0,0,0],"split_type":[0,0,0,0,0,0,0,0,0,0,0,0,0,0,0],"sum_hessian":[3.64E2,2.27E2,1.37E2,2.23E2,4E0,2.5E1,1.12E2,1.3E2,9.3E1,2E0,2E0,1.3E1,1.2E1,1.06E2,6E0],"tree_param":{"num_deleted":"0","num_feature":"53","num_nodes":"15","size_leaf_vector":"1"}},{"base_weights":[-1.2957997E0,-6.504067E0,2.5057343E1,-8.1512575E0,4.6964E1,5.656147E0,5.9592518E1,-9.557722E-1,-1.1159741E-1,3.5890415E0,-2.912935E-1,2.1371527E0,-1.2006104E-1,4.444743E0,1.0856966E0],"categories":[],"categories_nodes":[],"categories_segments":[],"categories_sizes":[],"default_left":[0,0,0,0,0,0,0,0,0,0,0,0,0,0,0],"id":24,"left_children":[1,3,5,7,9,11,13,-1,-1,-1,-1,-1,-1,-1,-1],"loss_changes":[5.029934E4,2.786307E4,3.969377E4,2.5027803E4,2.3670537E4,1.7565328E4,2.8408492E4,0E0,0E0,0E0,0E0,0E0,0E0,0E0,0E0],"parents":[2147483647,0,0,1,1,2,2,3,3,4,4,5,5,6,6],"right_children":[2,4,6,8,10,12,14,-1,-1,-1,-1,-1,-1,-1,-1],"split_conditions":[3.0429E2,4E1,5E0,1.98E0,5.284E1,1.4E1,1.5E1,-9.557722E-1,-1.1159741E-1,3.5890415E0,-2.912935E-1,2.1371527E0,-1.2006104E-1,4.444743E0,1.0856966E0],"split_indices":[32,22,0,35,17,16,20,0,0,0,0,0,0,0,0],"split_type":[0,0,0,0,0,0,0,0,0,0,0,0,0,0,0],"sum_hessian":[3.61E2,3.03E2,5.8E1,2.96E2,7E0,3.9E1,1.9E1,7.3E1,2.23E2,3E0,4E0,4E0,3.5E1,5E0,1.4E1],"tree_param":{"num_deleted":"0","num_feature":"53","num_nodes":"15","size_leaf_vector":"1"}},{"base_weights":[3.4223804E-1,6.1986217E1,-2.1327088E0,-1.1362044E1,9.263366E1,-2.582302E1,2.6073096E0,-7.055712E-1,4.9097493E-2,4.622358E0,7.7062756E-1,-1.2873946E0,2.0173794E-1,-3.1976473E-2,1.6593516E0],"categories":[],"categories_nodes":[],"categories_segments":[],"categories_sizes":[],"default_left":[0,0,0,0,0,0,0,0,0,0,0,0,0,0,0],"id":25,"left_children":[1,3,5,7,9,11,13,-1,-1,-1,-1,-1,-1,-1,-1],"loss_changes":[5.731374E4,3.5226355E4,4.0762062E4,5.678042E2,1.2095E4,1.2286055E4,4.0278855E4,0E0,0E0,0E0,0E0,0E0,0E0,0E0,0E0],"parents":[2147483647,0,0,1,1,2,2,3,3,4,4,5,5,6,6],"right_children":[2,4,6,8,10,12,14,-1,-1,-1,-1,-1,-1,-1,-1],"split_conditions":[1.0964286E1,5.207E1,8E0,4.3388373E-1,1.4277143E1,7.818315E-1,2.768E1,-7.055712E-1,4.9097493E-2,4.622358E0,7.7062756E-1,-1.2873946E0,2.0173794E-1,-3.1976473E-2,1.6593516E0],"split_indices":[34,15,18,7,45,7,44,0,0,0,0,0,0,0,0],"split_type":[0,0,0,0,0,0,0,0,0,0,0,0,0,0,0],"sum_hessian":[3.71E2,1.2E1,3.59E2,4E0,8E0,5.8E1,3.01E2,2E0,2E0,5E0,3E0,4.8E1,1E1,2.79E2,2.2E1],"tree_param":{"num_deleted":"0","num_feature":"53","num_nodes":"15","size_leaf_vector":"1"}},{"base_weights":[5.406837E-1,-5.019687E0,2.7200886E1,-7.2633305E0,3.3454723E1,8.308111E1,1.3136576E1,-3.581423E-1,1.8319869E0,2.2504103E0,-6.2824297E-1,5.3948507E0,7.6164937E-1,1.9019018E0,1.4870027E-1],"categories":[],"categories_nodes":[],"categories_segments":[],"categories_sizes":[],"default_left":[0,0,0,0,0,0,0,0,0,0,0,0,0,0,0],"id":26,"left_children":[1,3,5,7,9,11,13,-1,-1,-1,-1,-1,-1,-1,-1],"loss_changes":[5.5412734E4,2.7324402E4,4.796314E4,2.7438445E4,2.1828986E4,3.5037656E4,1.7222605E4,0E0,0E0,0E0,0E0,0E0,0E0,0E0,0E0],"parents":[2147483647,0,0,1,1,2,2,3,3,4,4,5,5,6,6],"right_children":[2,4,6,8,10,12,14,-1,-1,-1,-1,-1,-1,-1,-1],"split_conditions":[3.0429E2,2.6428572E1,9.2806786E1,4E1,1.192E1,5.1471428E1,6.238E1,-3.581423E-1,1.8319869E0,2.2504103E0,-6.2824297E-1,5.3948507E0,7.6164937E-1,1.9019018E0,1.4870027E-1],"split_indices":[32,26,31,22,47,51,15,0,0,0,0,0,0,0,0],"split_type":[0,0,0,0,0,0,0,0,0,0,0,0,0,0,0],"sum_hessian":[3.69E2,3.07E2,6.2E1,2.92E2,1.5E1,1E1,5.2E1,2.85E2,7E0,1E1,5E0,4E0,6E0,9E0,4.3E1],"tree_param":{"num_deleted":"0","num_feature":"53","num_nodes":"15","size_leaf_vector":"1"}},{"base_weights":[1.5368357E0,-3.9083586E0,2.809147E1,-6.414086E0,4.7484875E1,8.101435E1,1.540284E1,-1.4024944E0,-1.4150375E-1,2.831386E0,-3.366659E-1,5.2620544E0,4.084328E-1,-3.0113497E-1,1.1430863E0],"categories":[],"categories_nodes":[],"categories_segments":[],"categories_sizes":[],"default_left":[0,0,0,0,0,0,0,0,0,0,0,0,0,0,0],"id":27,"left_children":[1,3,5,7,9,11,13,-1,-1,-1,-1,-1,-1,-1,-1],"loss_changes":[5.3124004E4,4.0102938E4,3.8850312E4,2.3876229E4,2.0375578E4,3.7791164E4,1.6700367E4,0E0,0E0,0E0,0E0,0E0,0E0,0E0,0E0],"parents":[2147483647,0,0,1,1,2,2,3,3,4,4,5,5,6,6],"right_children":[2,4,6,8,10,12,14,-1,-1,-1,-1,-1,-1,-1,-1],"split_conditions":[3.0429E2,2.6428572E1,9.2806786E1,1.54E0,1.078E1,5.1471428E1,4.9274E2,-1.4024944E0,-1.4150375E-1,2.831386E0,-3.366659E-1,5.2620544E0,4.084328E-1,-3.0113497E-1,1.1430863E0],"split_indices":[32,26,31,11,44,51,37,0,0,0,0,0,0,0,0],"split_type":[0,0,0,0,0,0,0,0,0,0,0,0,0,0,0],"sum_hessian":[3.63E2,3.03E2,6E1,2.91E2,1.2E1,9E0,5.1E1,2.4E1,2.67E2,8E0,4E0,4E0,5E0,1.9E1,3.2E1],"tree_param":{"num_deleted":"0","num_feature":"53","num_nodes":"15","size_leaf_vector":"1"}},{"base_weights":[-2.7217123E-1,-7.426057E0,1.6384518E1,-9.971359E0,2.2738014E1,6.0421303E1,5.4661174E0,-4.413506E-1,2.1411374E0,-1.7198668E-1,1.3559083E0,2.8324196E0,-1.5509374E-1,-7.866675E-1,8.4305805E-1],"categories":[],"categories_nodes":[],"categories_segments":[],"categories_sizes":[],"default_left":[0,0,0,0,0,0,0,0,0,0,0,0,0,0,0],"id":28,"left_children":[1,3,5,7,9,11,13,-1,-1,-1,-1,-1,-1,-1,-1],"loss_changes":[4.540626E4,2.1027809E4,5.422722E4,1.8173537E4,6.851616E3,1.5716641E4,3.8111594E4,0E0,0E0,0E0,0E0,0E0,0E0,0E0,0E0],"parents":[2147483647,0,0,1,1,2,2,3,3,4,4,5,5,6,6],"right_children":[2,4,6,8,10,12,14,-1,-1,-1,-1,-1,-1,-1,-1],"split_conditions":[1.1276E2,2.6485715E0,1.1971E2,4.1E1,3.2626E2,2.73E2,7.014E1,-4.413506E-1,2.1411374E0,-1.7198668E-1,1.3559083E0,2.8324196E0,-1.5509374E-1,-7.866675E-1,8.4305805E-1],"split_indices":[11,51,11,22,46,6,21,0,0,0,0,0,0,0,0],"split_type":[0,0,0,0,0,0,0,0,0,0,0,0,0,0,0],"sum_hessian":[3.76E2,2.64E2,1.12E2,2.45E2,1.9E1,2E1,9.2E1,2.43E2,2E0,6E0,1.3E1,1.7E1,3E0,3.5E1,5.7E1],"tree_param":{"num_deleted":"0","num_feature":"53","num_nodes":"15","size_leaf_vector":"1"}},{"base_weights":[1.7753031E0,-3.895756E0,3.0331799E1,-2.9465473E1,-6.480946E-1,8.7443344E1,1.6638111E1,-1.5015179E0,-2.8418124E-1,2.1677997E0,-6.885999E-2,5.1095614E0,9.349048E-1,1.1245096E0,-4.3931785E-1],"categories":[],"categories_nodes":[],"categories_segments":[],"categories_sizes":[],"default_left":[0,0,0,0,0,0,0,0,0,0,0,0,0,0,0],"id":29,"left_children":[1,3,5,7,9,11,13,-1,-1,-1,-1,-1,-1,-1,-1],"loss_changes":[6.1105973E4,2.6151943E4,4.5241996E4,5.7413125E3,1.6863691E4,2.2226414E4,1.7728266E4,0E0,0E0,0E0,0E0,0E0,0E0,0E0,0E0],"parents":[2147483647,0,0,1,1,2,2,3,3,4,4,5,5,6,6],"right_children":[2,4,6,8,10,12,14,-1,-1,-1,-1,-1,-1,-1,-1],"split_conditions":[3.0429E2,6.51E0,9.2806786E1,7.6980354E1,2.3085713E0,5.1471428E1,2.7E1,-1.5015179E0,-2.8418124E-1,2.1677997E0,-6.885999E-2,5.1095614E0,9.349048E-1,1.1245096E0,-4.3931785E-1],"split_indices":[32,11,31,31,48,51,26,0,0,0,0,0,0,0,0],"split_type":[0,0,0,0,0,0,0,0,0,0,0,0,0,0,0],"sum_hessian":[3.73E2,3.13E2,6E1,3.3E1,2.8E2,9E0,5.1E1,2.3E1,1E1,3E0,2.77E2,4E0,5E0,3.6E1,1.5E1],"tree_param":{"num_deleted":"0","num_feature":"53","num_nodes":"15","size_leaf_vector":"1"}},{"base_weights":[-1.273198E0,-6.9127026E0,1.6173174E1,1.6115822E1,-1.0877364E1,3.451811E1,-1.3834132E1,1.1334038E-1,2.0521734E0,-5.0324637E-1,1.589098E0,2.3069088E0,3.717323E-1,-1.0399026E0,5.8876693E-1],"categories":[],"categories_nodes":[],"categories_segments":[],"categories_sizes":[],"default_left":[0,0,0,0,0,0,0,0,0,0,0,0,0,0,0],"id":30,"left_children":[1,3,5,7,9,11,13,-1,-1,-1,-1,-1,-1,-1,-1],"loss_changes":[3.6830973E4,2.6230586E4,5.156293E4,1.9500426E4,2.215795E4,3.2244125E4,1.3633335E4,0E0,0E0,0E0,0E0,0E0,0E0,0E0,0E0],"parents":[2147483647,0,0,1,1,2,2,3,3,4,4,5,5,6,6],"right_children":[2,4,6,8,10,12,14,-1,-1,-1,-1,-1,-1,-1,-1],"split_conditions":[2.1046E2,-7.818315E-1,2.9E1,1.754E1,1.3689857E2,9.304786E1,5.2739E2,1.1334038E-1,2.0521734E0,-5.0324637E-1,1.589098E0,2.3069088E0,3.717323E-1,-1.0399026E0,5.8876693E-1],"split_indices":[24,7,14,35,31,31,32,0,0,0,0,0,0,0,0],"split_type":[0,0,0,0,0,0,0,0,0,0,0,0,0,0,0],"sum_hessian":[3.69E2,2.8E2,8.9E1,4E1,2.4E2,5.5E1,3.4E1,3.1E1,9E0,2.34E2,6E0,2.7E1,2.8E1,2.4E1,1E1],"tree_param":{"num_deleted":"0","num_feature":"53","num_nodes":"15","size_leaf_vector":"1"}},{"base_weights":[1.07870586E-1,-7.156682E0,1.6947487E1,-2.9966215E1,-3.948002E0,5.829927E1,6.8779507E0,-1.4246131E0,-4.075258E-1,6.55681E-1,-3.228159E-1,-3.412242E-1,2.991733E0,1.604911E-2,2.8306081E0],"categories":[],"categories_nodes":[],"categories_segments":[],"categories_sizes":[],"default_left":[0,0,0,0,0,0,0,0,0,0,0,0,0,0,0],"id":31,"left_children":[1,3,5,7,9,11,13,-1,-1,-1,-1,-1,-1,-1,-1],"loss_changes":[4.526033E4,1.8623457E4,4.54254E4,2.6123164E3,1.9574215E4,2.5294445E4,3.8203676E4,0E0,0E0,0E0,0E0,0E0,0E0,0E0,0E0],"parents":[2147483647,0,0,1,1,2,2,3,3,4,4,5,5,6,6],"right_children":[2,4,6,8,10,12,14,-1,-1,-1,-1,-1,-1,-1,-1],"split_conditions":[1.1276E2,2E0,1.1971E2,2E1,1.646E1,3.5745E2,2.9854E2,-1.4246131E0,-4.075258E-1,6.55681E-1,-3.228159E-1,-3.412242E-1,2.991733E0,1.604911E-2,2.8306081E0],"split_indices":[11,12,11,2,13,43,11,0,0,0,0,0,0,0,0],"split_type":[0,0,0,0,0,0,0,0,0,0,0,0,0,0,0],"sum_hessian":[3.65E2,2.56E2,1.09E2,2.9E1,2.27E2,1.9E1,9E1,2.1E1,8E0,3.7E1,1.9E2,4E0,1.5E1,8.4E1,6E0],"tree_param":{"num_deleted":"0","num_feature":"53","num_nodes":"15","size_leaf_vector":"1"}},{"base_weights":[2.4221344E0,-7.574477E0,1.3536192E1,-9.542621E0,1.7766539E0,-1.397322E1,2.1508818E1,7.689757E-1,-5.1445955E-1,4.7733247E-1,-1.7360989E0,7.2895986E-1,3.6346557E0],"categories":[],"categories_nodes":[],"categories_segments":[],"categories_sizes":[],"default_left":[0,0,0,0,0,0,0,0,0,0,0,0,0],"id":32,"left_children":[1,3,5,7,-1,9,11,-1,-1,-1,-1,-1,-1],"loss_changes":[4.075334E4,2.0859584E4,3.8803777E4,1.8614973E4,0E0,3.2172438E4,2.673071E4,0E0,0E0,0E0,0E0,0E0,0E0],"parents":[2147483647,0,0,1,1,2,2,3,3,5,5,6,6],"right_children":[2,4,6,8,-1,10,12,-1,-1,-1,-1,-1,-1],"split_conditions":[1.408E1,1.3689857E2,-2.2252093E-1,1.5467E2,1.7766539E0,1.63E2,1.0033E2,7.689757E-1,-5.1445955E-1,4.7733247E-1,-1.7360989E0,7.2895986E-1,3.6346557E0],"split_indices":[41,31,8,46,0,6,35,0,0,0,0,0,0],"split_type":[0,0,0,0,0,0,0,0,0,0,0,0,0],"sum_hessian":[3.62E2,1.91E2,1.71E2,1.86E2,5E0,3.8E1,1.33E2,1.8E1,1.68E2,2.1E1,1.7E1,1.3E2,3E0],"tree_param":{"num_deleted":"0","num_feature":"53","num_nodes":"13","size_leaf_vector":"1"}},{"base_weights":[9.6622634E-1,5.2927586E1,-1.1480541E0,-6.529571E-1,7.454188E1,-2.2032488E1,3.1643841E0,-2.0734897E-1,3.707614E0,-1.184985E0,5.1536288E-2,4.0074065E-2,2.489641E0],"categories":[],"categories_nodes":[],"categories_segments":[],"categories_sizes":[],"default_left":[0,0,0,0,0,0,0,0,0,0,0,0,0],"id":33,"left_children":[1,3,5,-1,7,9,11,-1,-1,-1,-1,-1,-1],"loss_changes":[4.0745508E4,2.4745965E4,3.2371762E4,0E0,1.7840531E4,1.0984334E4,3.7979027E4,0E0,0E0,0E0,0E0,0E0,0E0],"parents":[2147483647,0,0,1,1,2,2,4,4,5,5,6,6],"right_children":[2,4,6,-1,8,10,12,-1,-1,-1,-1,-1,-1],"split_conditions":[1.0964286E1,5.207E1,8E0,-6.529571E-1,2E0,7.818315E-1,3.73E1,-2.0734897E-1,3.707614E0,-1.184985E0,5.1536288E-2,4.0074065E-2,2.489641E0],"split_indices":[34,15,18,0,0,7,44,0,0,0,0,0,0],"split_type":[0,0,0,0,0,0,0,0,0,0,0,0,0],"sum_hessian":[3.67E2,1.2E1,3.55E2,3E0,9E0,5.9E1,2.96E2,2E0,7E0,4.4E1,1.5E1,2.88E2,8E0],"tree_param":{"num_deleted":"0","num_feature":"53","num_nodes":"13","size_leaf_vector":"1"}},{"base_weights":[-3.7190345E-1,-1.04208765E1,1.0751917E1,-2.0916437E1,-3.5681577E0,-1.5210825E1,1.9271658E1,-2.785916E-1,-1.51203E0,9.357659E-1,-4.721368E-1,1.1561489E0,-1.0043406E0,5.735706E-1,2.4476182E0],"categories":[],"categories_nodes":[],"categories_segments":[],"categories_sizes":[],"default_left":[0,0,0,0,0,0,0,0,0,0,0,0,0,0,0],"id":34,"left_children":[1,3,5,7,9,11,13,-1,-1,-1,-1,-1,-1,-1,-1],"loss_changes":[4.203105E4,1.4018236E4,4.0216305E4,1.7598023E4,2.7890432E4,2.168109E4,2.5822418E4,0E0,0E0,0E0,0E0,0E0,0E0,0E0,0E0],"parents":[2147483647,0,0,1,1,2,2,3,3,4,4,5,5,6,6],"right_children":[2,4,6,8,10,12,14,-1,-1,-1,-1,-1,-1,-1,-1],"split_conditions":[1.5089E2,1.7624E2,-2.2252093E-1,3.1626E2,1.3E1,1.6E1,3.631E1,-2.785916E-1,-1.51203E0,9.357659E-1,-4.721368E-1,1.1561489E0,-1.0043406E0,5.735706E-1,2.4476182E0],"split_indices":[24,32,8,43,16,16,39,0,0,0,0,0,0,0,0],"split_type":[0,0,0,0,0,0,0,0,0,0,0,0,0,0,0],"sum_hessian":[3.71E2,1.95E2,1.76E2,7.5E1,1.2E2,4.3E1,1.33E2,4.3E1,3.2E1,2.7E1,9.3E1,7E0,3.6E1,1.22E2,1.1E1],"tree_param":{"num_deleted":"0","num_feature":"53","num_nodes":"15","size_leaf_vector":"1"}},{"base_weights":[2.782242E0,-7.1974673E0,1.4388676E1,-8.838205E0,4.390945E1,-1.3940617E1,1.9840359E1,-8.9465874E-1,-7.718274E-2,2.4692543E0,6.773603E-2,-9.0899795E-1,1.8213648E0,1.9068226E0,4.3817076E-1],"categories":[],"categories_nodes":[],"categories_segments":[],"categories_sizes":[],"default_left":[0,0,0,0,0,0,0,0,0,0,0,0,0,0,0],"id":35,"left_children":[1,3,5,7,9,11,13,-1,-1,-1,-1,-1,-1,-1,-1],"loss_changes":[4.2015203E4,1.7363475E4,2.6560555E4,1.7790049E4,4.6290693E3,1.7476605E4,3.3687707E4,0E0,0E0,0E0,0E0,0E0,0E0,0E0,0E0],"parents":[2147483647,0,0,1,1,2,2,3,3,4,4,5,5,6,6],"right_children":[2,4,6,8,10,12,14,-1,-1,-1,-1,-1,-1,-1,-1],"split_conditions":[1.9684E2,4.1E1,2.432E1,6.2E-1,6.123234E-17,2.223E1,2.0785715E1,-8.9465874E-1,-7.718274E-2,2.4692543E0,6.773603E-2,-9.0899795E-1,1.8213648E0,1.9068226E0,4.3817076E-1],"split_indices":[28,22,17,35,10,47,30,0,0,0,0,0,0,0,0],"split_type":[0,0,0,0,0,0,0,0,0,0,0,0,0,0,0],"sum_hessian":[3.58E2,1.93E2,1.65E2,1.89E2,4E0,2.6E1,1.39E2,6.2E1,1.27E2,2E0,2E0,2.4E1,2E0,3.1E1,1.08E2],"tree_param":{"num_deleted":"0","num_feature":"53","num_nodes":"15","size_leaf_vector":"1"}},{"base_weights":[4.79313E-2,-2.691286E0,4.7410503E1,-2.0882856E1,1.0433455E0,8.5505005E1,1.1823542E1,-1.0919459E0,-1.0513076E-1,1.6998771E0,-3.0975174E-2,4.3376694E0,7.8128177E-1,8.5890114E-1,-7.761446E-1],"categories":[],"categories_nodes":[],"categories_segments":[],"categories_sizes":[],"default_left":[0,0,0,0,0,0,0,0,0,0,0,0,0,0,0],"id":36,"left_children":[1,3,5,7,9,11,13,-1,-1,-1,-1,-1,-1,-1,-1],"loss_changes":[4.8645793E4,2.4138781E4,2.5263754E4,6.906244E3,2.24239E4,9.080219E3,5.1093027E3,0E0,0E0,0E0,0E0,0E0,0E0,0E0,0E0],"parents":[2147483647,0,0,1,1,2,2,3,3,4,4,5,5,6,6],"right_children":[2,4,6,8,10,12,14,-1,-1,-1,-1,-1,-1,-1,-1],"split_conditions":[3.7094284E1,1.83E1,2.95E1,8.181429E0,4.55625E1,1.4921E2,3.7E1,-1.0919459E0,-1.0513076E-1,1.6998771E0,-3.0975174E-2,4.3376694E0,7.8128177E-1,8.5890114E-1,-7.761446E-1],"split_indices":[39,11,36,45,31,13,14,0,0,0,0,0,0,0,0],"split_type":[0,0,0,0,0,0,0,0,0,0,0,0,0,0,0],"sum_hessian":[3.7E2,3.52E2,1.8E1,5.8E1,2.94E2,7E0,1.1E1,4.2E1,1.6E1,1E1,2.84E2,4E0,3E0,9E0,2E0],"tree_param":{"num_deleted":"0","num_feature":"53","num_nodes":"15","size_leaf_vector":"1"}},{"base_weights":[8.821009E-1,-3.8466325E0,2.2146017E1,-2.0368126E1,7.6974976E-1,6.851456E1,1.0907577E1,-9.6415776E-1,1.9757938E-1,-8.617379E-1,2.3459725E-1,4.601205E0,5.116997E-1,6.623787E-1,-1.2615179E0],"categories":[],"categories_nodes":[],"categories_segments":[],"categories_sizes":[],"default_left":[0,0,0,0,0,0,0,0,0,0,0,0,0,0,0],"id":37,"left_children":[1,3,5,7,9,11,13,-1,-1,-1,-1,-1,-1,-1,-1],"loss_changes":[3.67634E4,2.2881918E4,3.2785508E4,6.490326E3,2.7203516E4,2.8720488E4,1.4859842E4,0E0,0E0,0E0,0E0,0E0,0E0,0E0,0E0],"parents":[2147483647,0,0,1,1,2,2,3,3,4,4,5,5,6,6],"right_children":[2,4,6,8,10,12,14,-1,-1,-1,-1,-1,-1,-1,-1],"split_conditions":[3.0429E2,1.6357143E1,9.2806786E1,2.5E1,2.815E1,5.1471428E1,5.289E1,-9.6415776E-1,1.9757938E-1,-8.617379E-1,2.3459725E-1,4.601205E0,5.116997E-1,6.623787E-1,-1.2615179E0],"split_indices":[32,30,31,16,21,51,41,0,0,0,0,0,0,0,0],"split_type":[0,0,0,0,0,0,0,0,0,0,0,0,0,0,0],"sum_hessian":[3.61E2,2.97E2,6.4E1,6.3E1,2.34E2,1E1,5.4E1,5.5E1,8E0,4.2E1,1.92E2,4E0,6E0,4.9E1,5E0],"tree_param":{"num_deleted":"0","num_feature":"53","num_nodes":"15","size_leaf_vector":"1"}},{"base_weights":[6.1735943E-2,-8.4871645E0,9.471846E0,-2.104146E1,-4.7392723E-1,5.7263045E0,8.269846E1,-1.2022303E-1,-1.2519602E0,-1.7101867E-1,1.2404697E0,2.9227583E0,7.096855E-2,4.3570647E0,-4.5209482E-2],"categories":[],"categories_nodes":[],"categories_segments":[],"categories_sizes":[],"default_left":[0,0,0,0,0,0,0,0,0,0,0,0,0,0,0],"id":38,"left_children":[1,3,5,7,9,11,13,-1,-1,-1,-1,-1,-1,-1,-1],"loss_changes":[3.0167143E4,1.9743078E4,4.77739E4,1.3917613E4,1.4993992E4,4.5585785E4,1.8996496E4,0E0,0E0,0E0,0E0,0E0,0E0,0E0,0E0],"parents":[2147483647,0,0,1,1,2,2,3,3,4,4,5,5,6,6],"right_children":[2,4,6,8,10,12,14,-1,-1,-1,-1,-1,-1,-1,-1],"split_conditions":[8.061E1,-2.2252093E-1,3.8E1,1.7E1,3.583E1,1.2785714E1,9.502857E0,-1.2022303E-1,-1.2519602E0,-1.7101867E-1,1.2404697E0,2.9227583E0,7.096855E-2,4.3570647E0,-4.5209482E-2],"split_indices":[21,8,12,16,42,34,48,0,0,0,0,0,0,0,0],"split_type":[0,0,0,0,0,0,0,0,0,0,0,0,0,0,0],"sum_hessian":[3.7E2,1.94E2,1.76E2,7.4E1,1.2E2,1.7E2,6E0,2.8E1,4.6E1,1.09E2,1.1E1,7E0,1.63E2,4E0,2E0],"tree_param":{"num_deleted":"0","num_feature":"53","num_nodes":"15","size_leaf_vector":"1"}},{"base_weights":[6.39191E-1,5.1199883E1,-1.4570372E0,-1.023902E1,8.623062E1,-4.3541746E0,2.455659E1,-6.097374E-1,6.263326E-2,5.780943E-1,4.0221615E0,-3.298821E-1,8.5280615E-1,2.1629884E0,5.973488E-2],"categories":[],"categories_nodes":[],"categories_segments":[],"categories_sizes":[],"default_left":[0,0,0,0,0,0,0,0,0,0,0,0,0,0,0],"id":39,"left_children":[1,3,5,7,9,11,13,-1,-1,-1,-1,-1,-1,-1,-1],"loss_changes":[3.8606695E4,3.341492E4,2.668276E4,5.0274457E2,6.1339375E3,3.217275E4,2.396591E4,0E0,0E0,0E0,0E0,0E0,0E0,0E0,0E0],"parents":[2147483647,0,0,1,1,2,2,3,3,4,4,5,5,6,6],"right_children":[2,4,6,8,10,12,14,-1,-1,-1,-1,-1,-1,-1,-1],"split_conditions":[1.0964286E1,5.207E1,2.768E1,7.818315E-1,3E0,1.5554E2,6.177E1,-6.097374E-1,6.263326E-2,5.780943E-1,4.0221615E0,-3.298821E-1,8.5280615E-1,2.1629884E0,5.973488E-2],"split_indices":[34,15,44,7,0,19,19,0,0,0,0,0,0,0,0],"split_type":[0,0,0,0,0,0,0,0,0,0,0,0,0,0,0],"sum_hessian":[3.6E2,1.2E1,3.48E2,5E0,7E0,3.15E2,3.3E1,3E0,2E0,2E0,5E0,2.75E2,4E1,1.3E1,2E1],"tree_param":{"num_deleted":"0","num_feature":"53","num_nodes":"15","size_leaf_vector":"1"}},{"base_weights":[8.861381E-1,-4.7441185E-1,6.0089546E1,-6.9396505E0,1.1318352E1,4.2948184E0,-5.80192E-1,-3.5406798E-1,1.0796773E0,-4.9987733E-1,8.49019E-1],"categories":[],"categories_nodes":[],"categories_segments":[],"categories_sizes":[],"default_left":[0,0,0,0,0,0,0,0,0,0,0],"id":40,"left_children":[1,3,5,7,9,-1,-1,-1,-1,-1,-1],"loss_changes":[3.0478588E4,2.852065E4,3.3872023E4,1.6265552E4,3.1925314E4,0E0,0E0,0E0,0E0,0E0,0E0],"parents":[2147483647,0,0,1,1,2,2,3,3,4,4],"right_children":[2,4,6,8,10,-1,-1,-1,-1,-1,-1],"split_conditions":[2.9854E2,9.307143E1,1.1971E2,3.8E1,-2.2252093E-1,4.2948184E0,-5.80192E-1,-3.5406798E-1,1.0796773E0,-4.9987733E-1,8.49019E-1],"split_indices":[11,23,13,22,8,0,0,0,0,0,0],"split_type":[0,0,0,0,0,0,0,0,0,0,0],"sum_hessian":[3.75E2,3.69E2,6E0,2.39E2,1.3E2,3E0,3E0,2.28E2,1.1E1,3.8E1,9.2E1],"tree_param":{"num_deleted":"0","num_feature":"53","num_nodes":"11","size_leaf_vector":"1"}},{"base_weights":[1.2462234E0,-8.4921974E-1,3.594415E1,1.9589228E1,-4.2542667E0,8.695307E1,7.312189E0,1.6922075E0,2.9425144E-1,-9.007503E-1,-2.690887E-2,7.4223316E-1,4.135613E0,-5.79594E-1,1.0875987E0],"categories":[],"categories_nodes":[],"categories_segments":[],"categories_sizes":[],"default_left":[0,0,0,0,0,0,0,0,0,0,0,0,0,0,0],"id":41,"left_children":[1,3,5,7,9,11,13,-1,-1,-1,-1,-1,-1,-1,-1],"loss_changes":[2.7450695E4,2.5088152E4,2.9810893E4,1.3532951E4,2.0142684E4,3.6357422E3,8.1356533E3,0E0,0E0,0E0,0E0,0E0,0E0,0E0,0E0],"parents":[2147483647,0,0,1,1,2,2,3,3,4,4,5,5,6,6],"right_children":[2,4,6,8,10,12,14,-1,-1,-1,-1,-1,-1,-1,-1],"split_conditions":[3.7094284E1,-7.818315E-1,4.1995716E1,1.5E1,1.83E1,2E0,1.3284E2,1.6922075E0,2.9425144E-1,-9.007503E-1,-2.690887E-2,7.4223316E-1,4.135613E0,-5.79594E-1,1.0875987E0],"split_indices":[39,7,39,3,11,1,15,0,0,0,0,0,0,0,0],"split_type":[0,0,0,0,0,0,0,0,0,0,0,0,0,0,0],"sum_hessian":[3.74E2,3.55E2,1.9E1,4.9E1,3.06E2,5E0,1.4E1,1.5E1,3.4E1,4.8E1,2.58E2,2E0,3E0,7E0,7E0],"tree_param":{"num_deleted":"0","num_feature":"53","num_nodes":"15","size_leaf_vector":"1"}},{"base_weights":[1.3770288E0,-8.14893E0,9.340576E0,-1.5221695E1,5.58033E0,5.7163773E0,7.666673E1,-2.3207076E-1,-1.1251981E0,-3.8838778E-2,1.8686074E0,6.561275E-1,-2.826534E-1,3.715596E0,7.878288E-1],"categories":[],"categories_nodes":[],"categories_segments":[],"categories_sizes":[],"default_left":[0,0,0,0,0,0,0,0,0,0,0,0,0,0,0],"id":42,"left_children":[1,3,5,7,9,11,13,-1,-1,-1,-1,-1,-1,-1,-1],"loss_changes":[2.9206902E4,1.7254076E4,5.0023074E4,1.3757791E4,1.6686832E4,2.7815975E4,5.130789E3,0E0,0E0,0E0,0E0,0E0,0E0,0E0,0E0],"parents":[2147483647,0,0,1,1,2,2,3,3,4,4,5,5,6,6],"right_children":[2,4,6,8,10,12,14,-1,-1,-1,-1,-1,-1,-1,-1],"split_conditions":[7.227E1,4E0,5.712E1,3E0,3.396E1,6.234898E-1,7.545E1,-2.3207076E-1,-1.1251981E0,-3.8838778E-2,1.8686074E0,6.561275E-1,-2.826534E-1,3.715596E0,7.878288E-1],"split_indices":[21,0,38,0,35,8,19,0,0,0,0,0,0,0,0],"split_type":[0,0,0,0,0,0,0,0,0,0,0,0,0,0,0],"sum_hessian":[3.8E2,1.73E2,2.07E2,1.14E2,5.9E1,1.99E2,8E0,6.8E1,4.6E1,5.3E1,6E0,1.08E2,9.1E1,5E0,3E0],"tree_param":{"num_deleted":"0","num_feature":"53","num_nodes":"15","size_leaf_vector":"1"}},{"base_weights":[1.2835909E0,-7.3668685E0,1.0209936E1,-2.0932373E1,4.0126023E-1,1.8263355E1,-1.1985861E1,-2.1530078E-1,-1.1537918E0,-2.2378935E-1,1.1241403E0,5.5359495E-1,3.1073108E0,1.6299309E0,-7.6060945E-1],"categories":[],"categories_nodes":[],"categories_segments":[],"categories_sizes":[],"default_left":[0,0,0,0,0,0,0,0,0,0,0,0,0,0,0],"id":43,"left_children":[1,3,5,7,9,11,13,-1,-1,-1,-1,-1,-1,-1,-1],"loss_changes":[2.7715895E4,1.9252592E4,3.2096994E4,7.7938145E3,2.0076225E4,3.1612906E4,1.9915465E4,0E0,0E0,0E0,0E0,0E0,0E0,0E0,0E0],"parents":[2147483647,0,0,1,1,2,2,3,3,4,4,5,5,6,6],"right_children":[2,4,6,8,10,12,14,-1,-1,-1,-1,-1,-1,-1,-1],"split_conditions":[8.061E1,1.2E1,2.86E2,3E0,6E0,3.8E1,2E1,-2.1530078E-1,-1.1537918E0,-2.2378935E-1,1.1241403E0,5.5359495E-1,3.1073108E0,1.6299309E0,-7.6060945E-1],"split_indices":[21,18,6,0,0,12,22,0,0,0,0,0,0,0,0],"split_type":[0,0,0,0,0,0,0,0,0,0,0,0,0,0,0],"sum_hessian":[3.54E2,1.8E2,1.74E2,6.4E1,1.16E2,1.28E2,4.6E1,2.3E1,4.1E1,9.7E1,1.9E1,1.22E2,6E0,4E0,4.2E1],"tree_param":{"num_deleted":"0","num_feature":"53","num_nodes":"15","size_leaf_vector":"1"}},{"base_weights":[1.0340753E0,-6.6337126E-1,4.3994343E1,1.8199469E1,-3.906235E0,-1.3614217E1,6.918194E1,2.5854387E0,4.097788E-1,-7.8538024E-1,-4.4739745E-3,-7.101135E-2,-7.1558785E-1,5.854962E-1,3.8847213E0],"categories":[],"categories_nodes":[],"categories_segments":[],"categories_sizes":[],"default_left":[0,0,0,0,0,0,0,0,0,0,0,0,0,0,0],"id":44,"left_children":[1,3,5,7,9,11,13,-1,-1,-1,-1,-1,-1,-1,-1],"loss_changes":[2.7820068E4,2.2718734E4,2.3394451E4,1.8477023E4,1.8882953E4,2.4961304E2,1.2445605E4,0E0,0E0,0E0,0E0,0E0,0E0,0E0,0E0],"parents":[2147483647,0,0,1,1,2,2,3,3,4,4,5,5,6,6],"right_children":[2,4,6,8,10,12,14,-1,-1,-1,-1,-1,-1,-1,-1],"split_conditions":[3.73E1,-7.818315E-1,7.38E0,1.2785714E1,1.6796E2,1.3284E2,1.908E1,2.5854387E0,4.097788E-1,-7.8538024E-1,-4.4739745E-3,-7.101135E-2,-7.1558785E-1,5.854962E-1,3.8847213E0],"split_indices":[44,7,35,34,32,11,52,0,0,0,0,0,0,0,0],"split_type":[0,0,0,0,0,0,0,0,0,0,0,0,0,0,0],"sum_hessian":[3.78E2,3.66E2,1.2E1,5.2E1,3.14E2,4E0,8E0,5E0,4.7E1,5.9E1,2.55E2,2E0,2E0,4E0,4E0],"tree_param":{"num_deleted":"0","num_feature":"53","num_nodes":"15","size_leaf_vector":"1"}},{"base_weights":[7.080483E-1,-1.3897622E1,4.963092E0,1.5613997E0,-1.6968105E1,-1.2330213E1,9.855982E0,-7.798226E-1,1.5293489E0,5.232305E-1,-9.585172E-1,2.9902533E-1,2.1589975E0],"categories":[],"categories_nodes":[],"categories_segments":[],"categories_sizes":[],"default_left":[0,0,0,0,0,0,0,0,0,0,0,0,0],"id":45,"left_children":[1,3,5,-1,7,9,11,-1,-1,-1,-1,-1,-1],"loss_changes":[2.381966E4,1.5714607E4,2.539194E4,0E0,1.3513422E4,2.0440945E4,2.3408055E4,0E0,0E0,0E0,0E0,0E0,0E0],"parents":[2147483647,0,0,1,1,2,2,4,4,5,5,6,6],"right_children":[2,4,6,-1,8,10,12,-1,-1,-1,-1,-1,-1],"split_conditions":[1.7624E2,1.0708E2,2.815E1,1.5613997E0,1.4921E2,1.6E1,3.676E1,-7.798226E-1,1.5293489E0,5.232305E-1,-9.585172E-1,2.9902533E-1,2.1589975E0],"split_indices":[32,49,21,0,17,16,44,0,0,0,0,0,0],"split_type":[0,0,0,0,0,0,0,0,0,0,0,0,0],"sum_hessian":[3.78E2,8.4E1,2.94E2,3E0,8.1E1,6.4E1,2.3E2,7.9E1,2E0,2E1,4.4E1,2.21E2,9E0],"tree_param":{"num_deleted":"0","num_feature":"53","num_nodes":"13","size_leaf_vector":"1"}},{"base_weights":[1.2216461E-1,-9.072783E0,7.7280307E0,-1.5681072E1,1.2848631E0,4.380996E0,6.411179E1,-6.859212E-2,-1.0399338E0,1.2544734E0,-3.0859265E-1,3.0787613E0,9.174129E-2,4.507143E-1,3.541571E0],"categories":[],"categories_nodes":[],"categories_segments":[],"categories_sizes":[],"default_left":[0,0,0,0,0,0,0,0,0,0,0,0,0,0,0],"id":46,"left_children":[1,3,5,7,9,11,13,-1,-1,-1,-1,-1,-1,-1,-1],"loss_changes":[2.664589E4,1.1857361E4,3.8645605E4,1.5090441E4,1.9417354E4,2.9787893E4,1.2350586E4,0E0,0E0,0E0,0E0,0E0,0E0,0E0,0E0],"parents":[2147483647,0,0,1,1,2,2,3,3,4,4,5,5,6,6],"right_children":[2,4,6,8,10,12,14,-1,-1,-1,-1,-1,-1,-1,-1],"split_conditions":[7.227E1,6.234898E-1,5.712E1,7.1472855E1,-2.4492937E-16,1.0964286E1,6.368E1,-6.859212E-2,-1.0399338E0,1.2544734E0,-3.0859265E-1,3.0787613E0,9.174129E-2,4.507143E-1,3.541571E0],"split_indices":[21,8,38,23,9,34,13,0,0,0,0,0,0,0,0],"split_type":[0,0,0,0,0,0,0,0,0,0,0,0,0,0,0],"sum_hessian":[3.76E2,1.7E2,2.06E2,1.03E2,6.7E1,1.97E2,9E0,4.5E1,5.8E1,1.4E1,5.3E1,3E0,1.94E2,4E0,5E0],"tree_param":{"num_deleted":"0","num_feature":"53","num_nodes":"15","size_leaf_vector":"1"}},{"base_weights":[1.267922E0,-7.1641026E0,1.1260206E1,-1.5560908E1,4.665135E0,-1.0854617E1,1.718447E1,-2.987696E-1,-1.0541631E0,-6.7108415E-2,1.6411215E0,9.443562E-1,-1.043479E0,5.6582E-1,3.214988E0],"categories":[],"categories_nodes":[],"categories_segments":[],"categories_sizes":[],"default_left":[0,0,0,0,0,0,0,0,0,0,0,0,0,0,0],"id":47,"left_children":[1,3,5,7,9,11,13,-1,-1,-1,-1,-1,-1,-1,-1],"loss_changes":[3.0491414E4,1.9699398E4,2.2149148E4,9.595051E3,1.9430879E4,2.070078E4,2.2410004E4,0E0,0E0,0E0,0E0,0E0,0E0,0E0,0E0],"parents":[2147483647,0,0,1,1,2,2,3,3,4,4,5,5,6,6],"right_children":[2,4,6,8,10,12,14,-1,-1,-1,-1,-1,-1,-1,-1],"split_conditions":[1.5089E2,4E0,2.354E1,1.8285715E1,2.9162E2,2.4395E2,3.954E1,-2.987696E-1,-1.0541631E0,-6.7108415E-2,1.6411215E0,9.443562E-1,-1.043479E0,5.6582E-1,3.214988E0],"split_indices":[24,0,21,30,49,49,44,0,0,0,0,0,0,0,0],"split_type":[0,0,0,0,0,0,0,0,0,0,0,0,0,0,0],"sum_hessian":[3.57E2,1.94E2,1.63E2,1.13E2,8.1E1,3.4E1,1.29E2,6.7E1,4.6E1,7.1E1,1E1,1E1,2.4E1,1.26E2,3E0],"tree_param":{"num_deleted":"0","num_feature":"53","num_nodes":"15","size_leaf_vector":"1"}},{"base_weights":[6.9523835E-1,-1.36362E0,3.7718346E1,-9.550422E0,5.7611184E0,8.1446785E1,8.597027E0,-8.602197E-1,-9.420155E-2,2.4865112E0,1.3561216E-1,7.429595E-1,3.8346758E0,1.3975089E0,-5.784253E-1],"categories":[],"categories_nodes":[],"categories_segments":[],"categories_sizes":[],"default_left":[0,0,0,0,0,0,0,0,0,0,0,0,0,0,0],"id":48,"left_children":[1,3,5,7,9,11,13,-1,-1,-1,-1,-1,-1,-1,-1],"loss_changes":[2.8217621E4,2.0640135E4,2.3081377E4,1.4023891E4,2.481266E4,2.3481719E3,1.0069697E4,0E0,0E0,0E0,0E0,0E0,0E0,0E0,0E0],"parents":[2147483647,0,0,1,1,2,2,3,3,4,4,5,5,6,6],"right_children":[2,4,6,8,10,12,14,-1,-1,-1,-1,-1,-1,-1,-1],"split_conditions":[3.7094284E1,7.63E1,4.1995716E1,6.93E0,4.55625E1,2E0,1.1775E2,-8.602197E-1,-9.420155E-2,2.4865112E0,1.3561216E-1,7.429595E-1,3.8346758E0,1.3975089E0,-5.784253E-1],"split_indices":[39,21,39,41,31,0,11,0,0,0,0,0,0,0,0],"split_type":[0,0,0,0,0,0,0,0,0,0,0,0,0,0,0],"sum_hessian":[3.66E2,3.49E2,1.7E1,1.62E2,1.87E2,5E0,1.2E1,5.9E1,1.03E2,5E0,1.82E2,2E0,3E0,5E0,7E0],"tree_param":{"num_deleted":"0","num_feature":"53","num_nodes":"15","size_leaf_vector":"1"}},{"base_weights":[5.906195E-1,4.3682594E1,-8.6328685E-1,-7.996426E0,7.035402E1,-2.5495083E0,3.3610783E1,-5.7700115E-1,1.1498545E-1,3.1954112E0,7.00043E-1,-7.0570725E-1,2.6140684E-2,-9.249806E-1,2.1881423E0],"categories":[],"categories_nodes":[],"categories_segments":[],"categories_sizes":[],"default_left":[0,0,0,0,0,0,0,0,0,0,0,0,0,0,0],"id":49,"left_children":[1,3,5,7,9,11,13,-1,-1,-1,-1,-1,-1,-1,-1],"loss_changes":[2.3995898E4,1.8635867E4,2.1809863E4,5.579242E2,7.8672656E2,1.7263395E4,2.410482E4,0E0,0E0,0E0,0E0,0E0,0E0,0E0,0E0],"parents":[2147483647,0,0,1,1,2,2,3,3,4,4,5,5,6,6],"right_children":[2,4,6,8,10,12,14,-1,-1,-1,-1,-1,-1,-1,-1],"split_conditions":[1.0964286E1,1.1E1,8.155E1,4.3388373E-1,2.5E1,8E0,8E0,-5.7700115E-1,1.1498545E-1,3.1954112E0,7.00043E-1,-7.0570725E-1,2.6140684E-2,-9.249806E-1,2.1881423E0],"split_indices":[34,16,35,7,12,18,22,0,0,0,0,0,0,0,0],"split_type":[0,0,0,0,0,0,0,0,0,0,0,0,0,0,0],"sum_hessian":[3.79E2,1E1,3.69E2,4E0,6E0,3.54E2,1.5E1,2E0,2E0,4E0,2E0,6E1,2.94E2,4E0,1.1E1],"tree_param":{"num_deleted":"0","num_feature":"53","num_nodes":"15","size_leaf_vector":"1"}},{"base_weights":[2.6438978E0,4.0518936E1,9.9251294E-1,-1.266185E0,6.7242744E1,-1.3384354E1,4.4000716E0,3.8926518E-1,-6.579392E-1,2.994407E0,6.875979E-1,-7.1694404E-1,3.5057205E-1,2.1547942E0,1.08617485E-1],"categories":[],"categories_nodes":[],"categories_segments":[],"categories_sizes":[],"default_left":[0,0,0,0,0,0,0,0,0,0,0,0,0,0,0],"id":50,"left_children":[1,3,5,7,9,11,13,-1,-1,-1,-1,-1,-1,-1,-1],"loss_changes":[2.3197943E4,1.7521049E4,1.775914E4,1.819439E3,4.049961E2,7.380126E3,2.4010812E4,0E0,0E0,0E0,0E0,0E0,0E0,0E0,0E0],"parents":[2147483647,0,0,1,1,2,2,3,3,4,4,5,5,6,6],"right_children":[2,4,6,8,10,12,14,-1,-1,-1,-1,-1,-1,-1,-1],"split_conditions":[1.0964286E1,3E0,2.432E1,9.892858E0,4.991E1,1.1646E2,2.66E0,3.8926518E-1,-6.579392E-1,2.994407E0,6.875979E-1,-7.1694404E-1,3.5057205E-1,2.1547942E0,1.08617485E-1],"split_indices":[34,0,17,34,38,21,48,0,0,0,0,0,0,0,0],"split_type":[0,0,0,0,0,0,0,0,0,0,0,0,0,0,0],"sum_hessian":[3.7E2,1.3E1,3.57E2,6E0,7E0,6.7E1,2.9E2,4E0,2E0,5E0,2E0,5.6E1,1.1E1,7E0,2.83E2],"tree_param":{"num_deleted":"0","num_feature":"53","num_nodes":"15","size_leaf_vector":"1"}},{"base_weights":[5.721554E-1,-3.8968987E0,1.4524795E1,1.36304035E1,-7.1342983E0,2.8735037E1,-5.42688E0,9.0552315E-2,1.7906823E0,-4.1380915E-1,5.084649E-1,1.9749959E0,2.4933761E-1,-5.375237E-1,1.9499449E0],"categories":[],"categories_nodes":[],"categories_segments":[],"categories_sizes":[],"default_left":[0,0,0,0,0,0,0,0,0,0,0,0,0,0,0],"id":51,"left_children":[1,3,5,7,9,11,13,-1,-1,-1,-1,-1,-1,-1,-1],"loss_changes":[2.2495809E4,1.5762287E4,2.5197693E4,1.5142062E4,1.5144566E4,2.3148691E4,1.8347162E4,0E0,0E0,0E0,0E0,0E0,0E0,0E0,0E0],"parents":[2147483647,0,0,1,1,2,2,3,3,4,4,5,5,6,6],"right_children":[2,4,6,8,10,12,14,-1,-1,-1,-1,-1,-1,-1,-1],"split_conditions":[2.1046E2,-7.818315E-1,2.9E1,1.692E1,3E1,9.304786E1,1.8004E2,9.0552315E-2,1.7906823E0,-4.1380915E-1,5.084649E-1,1.9749959E0,2.4933761E-1,-5.375237E-1,1.9499449E0],"split_indices":[24,7,14,35,16,31,19,0,0,0,0,0,0,0,0],"split_type":[0,0,0,0,0,0,0,0,0,0,0,0,0,0,0],"sum_hessian":[3.56E2,2.71E2,8.5E1,4.1E1,2.3E2,4.9E1,3.6E1,3.2E1,9E0,1.99E2,3.1E1,2.4E1,2.5E1,3.3E1,3E0],"tree_param":{"num_deleted":"0","num_feature":"53","num_nodes":"15","size_leaf_vector":"1"}},{"base_weights":[-6.9243383E-1,-4.0886474E0,1.6261559E1,-5.829663E0,2.9537779E1,5.2433145E-1,4.3481163E1,-2.7224106E-1,1.5959303E0,8.9891754E-2,3.1254137E0,5.0839776E-1,-1.0841291E0,3.1093655E0,6.1897236E-1],"categories":[],"categories_nodes":[],"categories_segments":[],"categories_sizes":[],"default_left":[0,0,0,0,0,0,0,0,0,0,0,0,0,0,0],"id":52,"left_children":[1,3,5,7,9,11,13,-1,-1,-1,-1,-1,-1,-1,-1],"loss_changes":[2.1211482E4,1.8374262E4,2.6287209E4,1.3782793E4,2.011791E4,1.483254E4,1.8577453E4,0E0,0E0,0E0,0E0,0E0,0E0,0E0,0E0],"parents":[2147483647,0,0,1,1,2,2,3,3,4,4,5,5,6,6],"right_children":[2,4,6,8,10,12,14,-1,-1,-1,-1,-1,-1,-1,-1],"split_conditions":[3.0429E2,2.6857143E1,5E0,4.1E1,9.749279E-1,2.7142857E1,1.6E1,-2.7224106E-1,1.5959303E0,8.9891754E-2,3.1254137E0,5.0839776E-1,-1.0841291E0,3.1093655E0,6.1897236E-1],"split_indices":[32,26,0,22,7,26,20,0,0,0,0,0,0,0,0],"split_type":[0,0,0,0,0,0,0,0,0,0,0,0,0,0,0],"sum_hessian":[3.63E2,3.04E2,5.9E1,2.91E2,1.3E1,3.9E1,2E1,2.87E2,4E0,1E1,3E0,2.8E1,1.1E1,7E0,1.3E1],"tree_param":{"num_deleted":"0","num_feature":"53","num_nodes":"15","size_leaf_vector":"1"}},{"base_weights":[1.2855239E0,-2.0580094E0,1.9129248E1,-4.053284E0,1.9424107E1,3.6555147E0,4.8121284E1,1.4932059E-1,-3.766648E-1,1.7955825E0,-4.4586295E-1,4.4133887E-1,-1.1293383E0,2.2761085E0,-5.885676E-1],"categories":[],"categories_nodes":[],"categories_segments":[],"categories_sizes":[],"default_left":[0,0,0,0,0,0,0,0,0,0,0,0,0,0,0],"id":53,"left_children":[1,3,5,7,9,11,13,-1,-1,-1,-1,-1,-1,-1,-1],"loss_changes":[2.2501158E4,1.3848608E4,2.6252824E4,1.2344598E4,2.2659564E4,1.0542715E4,1.3404793E4,0E0,0E0,0E0,0E0,0E0,0E0,0E0,0E0],"parents":[2147483647,0,0,1,1,2,2,3,3,4,4,5,5,6,6],"right_children":[2,4,6,8,10,12,14,-1,-1,-1,-1,-1,-1,-1,-1],"split_conditions":[3.0429E2,2.4571428E1,5E0,5.329E1,9.46E0,3.7E1,5.1471428E1,1.4932059E-1,-3.766648E-1,1.7955825E0,-4.4586295E-1,4.4133887E-1,-1.1293383E0,2.2761085E0,-5.885676E-1],"split_indices":[32,30,0,13,44,14,51,0,0,0,0,0,0,0,0],"split_type":[0,0,0,0,0,0,0,0,0,0,0,0,0,0,0],"sum_hessian":[3.73E2,3.16E2,5.7E1,2.91E2,2.5E1,3.9E1,1.8E1,1.19E2,1.72E2,1.3E1,1.2E1,3.3E1,6E0,1.6E1,2E0],"tree_param":{"num_deleted":"0","num_feature":"53","num_nodes":"15","size_leaf_vector":"1"}},{"base_weights":[9.2162925E-1,-2.3144701E1,3.5046515E0,-2.706568E1,-1.8067479E0,5.7054214E1,2.150103E0,-4.5711093E-2,-1.1490527E0,-7.105025E-1,5.9881264E-1,-2.5074735E-1,3.777735E0,1.1308929E0,-8.764735E-3],"categories":[],"categories_nodes":[],"categories_segments":[],"categories_sizes":[],"default_left":[0,0,0,0,0,0,0,0,0,0,0,0,0,0,0],"id":54,"left_children":[1,3,5,7,9,11,13,-1,-1,-1,-1,-1,-1,-1,-1],"loss_changes":[2.4042629E4,3.015211E3,2.4971936E4,1.2739609E3,2.940158E3,2.1604605E4,2.1212582E4,0E0,0E0,0E0,0E0,0E0,0E0,0E0,0E0],"parents":[2147483647,0,0,1,1,2,2,3,3,4,4,5,5,6,6],"right_children":[2,4,6,8,10,12,14,-1,-1,-1,-1,-1,-1,-1,-1],"split_conditions":[6.51E0,1.3552E2,2.3085713E0,1.486E1,2.4246E2,2E1,1.2785714E1,-4.5711093E-2,-1.1490527E0,-7.105025E-1,5.9881264E-1,-2.5074735E-1,3.777735E0,1.1308929E0,-8.764735E-3],"split_indices":[11,19,48,28,46,18,34,0,0,0,0,0,0,0,0],"split_type":[0,0,0,0,0,0,0,0,0,0,0,0,0,0,0],"sum_hessian":[3.81E2,3.5E1,3.46E2,2.9E1,6E0,6E0,3.4E2,2E0,2.7E1,3E0,3E0,3E0,3E0,2.6E1,3.14E2],"tree_param":{"num_deleted":"0","num_feature":"53","num_nodes":"15","size_leaf_vector":"1"}},{"base_weights":[1.2708786E0,2.046775E-1,4.724548E1,-1.9251677E1,2.3198645E0,3.5623336E0,-6.4170414E-1,-9.91047E-1,1.3085116E-2,8.4323394E-1,-1.0145866E-2],"categories":[],"categories_nodes":[],"categories_segments":[],"categories_sizes":[],"default_left":[0,0,0,0,0,0,0,0,0,0,0],"id":55,"left_children":[1,3,5,7,9,-1,-1,-1,-1,-1,-1],"loss_changes":[1.8382146E4,1.531799E4,2.6064994E4,3.9682158E3,1.6211846E4,0E0,0E0,0E0,0E0,0E0,0E0],"parents":[2147483647,0,0,1,1,2,2,3,3,4,4],"right_children":[2,4,6,8,10,-1,-1,-1,-1,-1,-1],"split_conditions":[2.9854E2,4.97E0,1.045E1,2E1,1.646E1,3.5623336E0,-6.4170414E-1,-9.91047E-1,1.3085116E-2,8.4323394E-1,-1.0145866E-2],"split_indices":[11,11,45,2,13,0,0,0,0,0,0],"split_type":[0,0,0,0,0,0,0,0,0,0,0],"sum_hessian":[3.73E2,3.67E2,6E0,3.4E1,3.33E2,3E0,3E0,2.6E1,8E0,3.8E1,2.95E2],"tree_param":{"num_deleted":"0","num_feature":"53","num_nodes":"11","size_leaf_vector":"1"}},{"base_weights":[6.8915504E-1,-2.4309736E-1,2.5134726E0,-1.0982511E1,4.1981754E0,2.3562105E-1,-8.4201443E-1,8.7795295E-2,1.8978028E0],"categories":[],"categories_nodes":[],"categories_segments":[],"categories_sizes":[],"default_left":[0,0,0,0,0,0,0,0,0],"id":56,"left_children":[1,3,-1,5,7,-1,-1,-1,-1],"loss_changes":[2.1561898E4,1.7691486E4,0E0,1.8741457E4,2.2481664E4,0E0,0E0,0E0,0E0],"parents":[2147483647,0,0,1,1,3,3,4,4],"right_children":[2,4,-1,6,8,-1,-1,-1,-1],"split_conditions":[8.738E1,-2.2252093E-1,2.5134726E0,1.7E1,1.908E1,2.3562105E-1,-8.4201443E-1,8.7795295E-2,1.8978028E0],"split_indices":[38,8,0,16,50,0,0,0,0],"split_type":[0,0,0,0,0,0,0,0,0],"sum_hessian":[3.69E2,3.66E2,3E0,1.06E2,2.6E2,4E1,6.6E1,2.51E2,9E0],"tree_param":{"num_deleted":"0","num_feature":"53","num_nodes":"9","size_leaf_vector":"1"}},{"base_weights":[1.4623982E-1,-1.7366533E0,2.9042862E1,-1.6745836E1,1.3738772E0,6.0143658E1,-2.8287187E0,1.4477862E-1,-8.417136E-1,-4.2481893E-1,2.7783522E-1,2.9415255E0,-6.1868556E-2,9.525546E-1,-6.444341E-1],"categories":[],"categories_nodes":[],"categories_segments":[],"categories_sizes":[],"default_left":[0,0,0,0,0,0,0,0,0,0,0,0,0,0,0],"id":57,"left_children":[1,3,5,7,9,11,13,-1,-1,-1,-1,-1,-1,-1,-1],"loss_changes":[2.0012674E4,1.6187711E4,2.2728037E4,5.39724E3,1.9465617E4,9.786922E3,5.7364043E3,0E0,0E0,0E0,0E0,0E0,0E0,0E0,0E0],"parents":[2147483647,0,0,1,1,2,2,3,3,4,4,5,5,6,6],"right_children":[2,4,6,8,10,12,14,-1,-1,-1,-1,-1,-1,-1,-1],"split_conditions":[3.7094284E1,1.83E1,3.013857E1,-7.818315E-1,5.207E1,1.9593715E2,4.46E0,1.4477862E-1,-8.417136E-1,-4.2481893E-1,2.7783522E-1,2.9415255E0,-6.1868556E-2,9.525546E-1,-6.444341E-1],"split_indices":[39,11,36,7,21,23,35,0,0,0,0,0,0,0,0],"split_type":[0,0,0,0,0,0,0,0,0,0,0,0,0,0,0],"sum_hessian":[3.63E2,3.43E2,2E1,5.7E1,2.86E2,9E0,1.1E1,1E1,4.7E1,9E1,1.96E2,7E0,2E0,3E0,8E0],"tree_param":{"num_deleted":"0","num_feature":"53","num_nodes":"15","size_leaf_vector":"1"}},{"base_weights":[-5.924531E-2,-9.550234E-1,2.418937E0,3.0096386E1,-1.9335163E0,7.486342E-2,2.9184744E0,-4.2152607E-1,8.075349E-2],"categories":[],"categories_nodes":[],"categories_segments":[],"categories_sizes":[],"default_left":[0,0,0,0,0,0,0,0,0],"id":58,"left_children":[1,3,-1,5,7,-1,-1,-1,-1],"loss_changes":[2.0451213E4,1.14329795E4,0E0,1.3572112E4,1.238129E4,0E0,0E0,0E0,0E0],"parents":[2147483647,0,0,1,1,3,3,4,4],"right_children":[2,4,-1,6,8,-1,-1,-1,-1],"split_conditions":[8.738E1,1.0357142E1,2.418937E0,1.4489E2,1.5E1,7.486342E-2,2.9184744E0,-4.2152607E-1,8.075349E-2],"split_indices":[38,34,0,46,18,0,0,0,0],"split_type":[0,0,0,0,0,0,0,0,0],"sum_hessian":[3.72E2,3.69E2,3E0,9E0,3.6E2,7E0,2E0,1.12E2,2.48E2],"tree_param":{"num_deleted":"0","num_feature":"53","num_nodes":"9","size_leaf_vector":"1"}},{"base_weights":[9.199352E-1,5.855416E-2,2.3661602E0,-2.2732441E0,1.623079E1,1.2243633E0,-1.502823E-1,1.3707153E-1,1.6844859E0],"categories":[],"categories_nodes":[],"categories_segments":[],"categories_sizes":[],"default_left":[0,0,0,0,0,0,0,0,0],"id":59,"left_children":[1,3,-1,5,7,-1,-1,-1,-1],"loss_changes":[1.8927393E4,1.4214782E4,0E0,1.6364212E4,1.5380011E4,0E0,0E0,0E0,0E0],"parents":[2147483647,0,0,1,1,3,3,4,4],"right_children":[2,4,-1,6,8,-1,-1,-1,-1],"split_conditions":[8.738E1,1.5554E2,2.3661602E0,1.0964286E1,3.334714E1,1.2243633E0,-1.502823E-1,1.3707153E-1,1.6844859E0],"split_indices":[38,19,0,34,36,0,0,0,0],"split_type":[0,0,0,0,0,0,0,0,0],"sum_hessian":[3.75E2,3.72E2,3E0,3.27E2,4.5E1,1.2E1,3.15E2,3.2E1,1.3E1],"tree_param":{"num_deleted":"0","num_feature":"53","num_nodes":"9","size_leaf_vector":"1"}},{"base_weights":[1.6438968E0,-3.9390714E0,8.885054E0,-8.142258E0,1.6770882E1,3.9944077E0,4.6413002E1,-6.298264E-1,1.9983249E-2,1.1016589E0,-1.0723659E0,5.807712E-1,-1.24565996E-1,3.3909826E0,-1.1997104E-1],"categories":[],"categories_nodes":[],"categories_segments":[],"categories_sizes":[],"default_left":[0,0,0,0,0,0,0,0,0,0,0,0,0,0,0],"id":60,"left_children":[1,3,5,7,9,11,13,-1,-1,-1,-1,-1,-1,-1,-1],"loss_changes":[1.5106183E4,1.875199E4,2.9361105E4,1.1682728E4,1.8978377E4,1.107368E4,3.5703E4,0E0,0E0,0E0,0E0,0E0,0E0,0E0,0E0],"parents":[2147483647,0,0,1,1,2,2,3,3,4,4,5,5,6,6],"right_children":[2,4,6,8,10,12,14,-1,-1,-1,-1,-1,-1,-1,-1],"split_conditions":[4E0,3.123E1,3.938E1,7.818315E-1,4.87E1,7.200285E1,7.5182E2,-6.298264E-1,1.9983249E-2,1.1016589E0,-1.0723659E0,5.807712E-1,-1.24565996E-1,3.3909826E0,-1.1997104E-1],"split_indices":[0,41,35,7,35,23,37,0,0,0,0,0,0,0,0],"split_type":[0,0,0,0,0,0,0,0,0,0,0,0,0,0,0],"sum_hessian":[3.69E2,2.09E2,1.6E2,1.75E2,3.4E1,1.44E2,1.6E1,9.2E1,8.3E1,2.8E1,6E0,5.7E1,8.7E1,8E0,8E0],"tree_param":{"num_deleted":"0","num_feature":"53","num_nodes":"15","size_leaf_vector":"1"}},{"base_weights":[1.1542274E0,-5.0851905E-1,2.7001774E1,1.4097578E1,-3.1047084E0,3.1595683E0,5.087029E0,3.625777E-1,2.156117E0,-2.5028834E-1,4.5647818E-1,6.72693E-1,-7.089272E-1],"categories":[],"categories_nodes":[],"categories_segments":[],"categories_sizes":[],"default_left":[0,0,0,0,0,0,0,0,0,0,0,0,0],"id":61,"left_children":[1,3,5,7,9,-1,11,-1,-1,-1,-1,-1,-1],"loss_changes":[1.6000621E4,1.3438372E4,2.4629506E4,9.496997E3,1.3930535E4,0E0,5.6951953E3,0E0,0E0,0E0,0E0,0E0,0E0],"parents":[2147483647,0,0,1,1,2,2,3,3,4,4,6,6],"right_children":[2,4,6,8,10,-1,12,-1,-1,-1,-1,-1,-1],"split_conditions":[3.7094284E1,-7.818315E-1,4.1995716E1,3.0429E2,9.749279E-1,3.1595683E0,4.63E1,3.625777E-1,2.156117E0,-2.5028834E-1,4.5647818E-1,6.72693E-1,-7.089272E-1],"split_indices":[39,7,39,28,7,0,38,0,0,0,0,0,0],"split_type":[0,0,0,0,0,0,0,0,0,0,0,0,0],"sum_hessian":[3.69E2,3.49E2,2E1,5.1E1,2.98E2,4E0,1.6E1,4.8E1,3E0,2.46E2,5.2E1,1.1E1,5E0],"tree_param":{"num_deleted":"0","num_feature":"53","num_nodes":"13","size_leaf_vector":"1"}},{"base_weights":[5.237037E-1,-5.724708E0,7.0418E0,4.1698235E1,-7.5849824E0,6.3216038E1,4.540881E0,-3.0900713E-3,2.783659E0,-3.8709754E-1,1.5336527E0,3.3521717E0,1.1730381E-1,-5.7753795E-1,3.742553E-1],"categories":[],"categories_nodes":[],"categories_segments":[],"categories_sizes":[],"default_left":[0,0,0,0,0,0,0,0,0,0,0,0,0,0,0],"id":62,"left_children":[1,3,5,7,9,11,13,-1,-1,-1,-1,-1,-1,-1,-1],"loss_changes":[1.5027501E4,1.7420107E4,2.4640297E4,8.752845E3,1.8561742E4,8.69407E3,1.6377549E4,0E0,0E0,0E0,0E0,0E0,0E0,0E0,0E0],"parents":[2147483647,0,0,1,1,2,2,3,3,4,4,5,5,6,6],"right_children":[2,4,6,8,10,12,14,-1,-1,-1,-1,-1,-1,-1,-1],"split_conditions":[1.408E1,1.0357142E1,1.492E1,1.41E2,1.3689857E2,1.0632E2,3.63E1,-3.0900713E-3,2.783659E0,-3.8709754E-1,1.5336527E0,3.3521717E0,1.1730381E-1,-5.7753795E-1,3.742553E-1],"split_indices":[41,34,41,6,31,15,17,0,0,0,0,0,0,0,0],"split_type":[0,0,0,0,0,0,0,0,0,0,0,0,0,0,0],"sum_hessian":[3.64E2,1.86E2,1.78E2,5E0,1.81E2,5E0,1.73E2,3E0,2E0,1.75E2,6E0,3E0,2E0,3.4E1,1.39E2],"tree_param":{"num_deleted":"0","num_feature":"53","num_nodes":"15","size_leaf_vector":"1"}},{"base_weights":[1.3586556E0,-2.379677E-1,2.8413446E1,1.6190321E1,-3.051485E0,5.042408E1,-1.0342046E1,3.191351E-1,1.7207669E0,-6.3646835E-1,7.5360322E-3,2.699822E0,-2.0347773E-1,3.3312702E-1,-7.238732E-1],"categories":[],"categories_nodes":[],"categories_segments":[],"categories_sizes":[],"default_left":[0,0,0,0,0,0,0,0,0,0,0,0,0,0,0],"id":63,"left_children":[1,3,5,7,9,11,13,-1,-1,-1,-1,-1,-1,-1,-1],"loss_changes":[1.5891547E4,1.6277847E4,1.8790895E4,1.0488269E4,1.2528024E4,1.3651707E4,1.7522278E3,0E0,0E0,0E0,0E0,0E0,0E0,0E0,0E0],"parents":[2147483647,0,0,1,1,2,2,3,3,4,4,5,5,6,6],"right_children":[2,4,6,8,10,12,14,-1,-1,-1,-1,-1,-1,-1,-1],"split_conditions":[3.7094284E1,-7.818315E-1,1.9745285E2,2.8E1,2.462E1,4.7984E2,2.2E1,3.191351E-1,1.7207669E0,-6.3646835E-1,7.5360322E-3,2.699822E0,-2.0347773E-1,3.3312702E-1,-7.238732E-1],"split_indices":[39,7,23,18,21,37,12,0,0,0,0,0,0,0,0],"split_type":[0,0,0,0,0,0,0,0,0,0,0,0,0,0,0],"sum_hessian":[3.65E2,3.47E2,1.8E1,4.9E1,2.98E2,1.1E1,7E0,4E1,9E0,5.8E1,2.4E2,8E0,3E0,2E0,5E0],"tree_param":{"num_deleted":"0","num_feature":"53","num_nodes":"15","size_leaf_vector":"1"}},{"base_weights":[4.1430098E-1,-3.4119194E0,1.2383441E1,-9.510155E0,4.9463334E0,-1.7081095E1,2.3492353E1,-4.9687386E-1,6.8221474E-1,6.7229286E-2,1.5751697E0,6.275581E-1,-1.0610533E0,-7.319574E-1,1.1952085E0],"categories":[],"categories_nodes":[],"categories_segments":[],"categories_sizes":[],"default_left":[0,0,0,0,0,0,0,0,0,0,0,0,0,0,0],"id":64,"left_children":[1,3,5,7,9,11,13,-1,-1,-1,-1,-1,-1,-1,-1],"loss_changes":[1.7302238E4,1.4720675E4,3.0952873E4,1.3408525E4,1.3608943E4,9.2427295E3,1.9386535E4,0E0,0E0,0E0,0E0,0E0,0E0,0E0,0E0],"parents":[2147483647,0,0,1,1,2,2,3,3,4,4,5,5,6,6],"right_children":[2,4,6,8,10,12,14,-1,-1,-1,-1,-1,-1,-1,-1],"split_conditions":[2.1046E2,4E0,-2.2252093E-1,3.7477142E1,1.8284E2,4.7984E2,1.54E0,-4.9687386E-1,6.8221474E-1,6.7229286E-2,1.5751697E0,6.275581E-1,-1.0610533E0,-7.319574E-1,1.1952085E0],"split_indices":[24,0,8,36,19,37,21,0,0,0,0,0,0,0,0],"split_type":[0,0,0,0,0,0,0,0,0,0,0,0,0,0,0],"sum_hessian":[3.73E2,2.84E2,8.9E1,1.64E2,1.2E2,2.4E1,6.5E1,1.49E2,1.5E1,1.12E2,8E0,5E0,1.9E1,8E0,5.7E1],"tree_param":{"num_deleted":"0","num_feature":"53","num_nodes":"15","size_leaf_vector":"1"}},{"base_weights":[-3.7265667E-1,-2.1481347E0,2.8202194E1,-6.5847135E-1,-2.8389957E1,6.3442142E1,7.9109755E0,-1.0981837E-1,9.796344E-1,-1.5106502E0,4.3754703E-1,5.7108206E-1,2.9932315E0,1.1509941E0,-4.3449578E-1],"categories":[],"categories_nodes":[],"categories_segments":[],"categories_sizes":[],"default_left":[0,0,0,0,0,0,0,0,0,0,0,0,0,0,0],"id":65,"left_children":[1,3,5,7,9,11,13,-1,-1,-1,-1,-1,-1,-1,-1],"loss_changes":[1.8644006E4,1.3459372E4,1.41191E4,1.746235E4,7.854784E3,1.5285195E3,7.2442163E3,0E0,0E0,0E0,0E0,0E0,0E0,0E0,0E0],"parents":[2147483647,0,0,1,1,2,2,3,3,4,4,5,5,6,6],"right_children":[2,4,6,8,10,12,14,-1,-1,-1,-1,-1,-1,-1,-1],"split_conditions":[3.7094284E1,1.8552E2,4.1995716E1,2.6428572E1,6.593E1,2E0,1.1775E2,-1.0981837E-1,9.796344E-1,-1.5106502E0,4.3754703E-1,5.7108206E-1,2.9932315E0,1.1509941E0,-4.3449578E-1],"split_indices":[39,11,39,26,38,0,11,0,0,0,0,0,0,0,0],"split_type":[0,0,0,0,0,0,0,0,0,0,0,0,0,0,0],"sum_hessian":[3.62E2,3.43E2,1.9E1,3.27E2,1.6E1,5E0,1.4E1,3.04E2,2.3E1,1.3E1,3E0,2E0,3E0,6E0,8E0],"tree_param":{"num_deleted":"0","num_feature":"53","num_nodes":"15","size_leaf_vector":"1"}},{"base_weights":[3.1936175E-1,-5.7914195E0,5.594931E0,-3.45181E0,-3.2534294E1,1.5812684E1,-6.5414314E0,-2.7486306E-1,7.78256E-1,-1.4801271E0,-3.6857885E-1,1.6568756E0,2.594678E-1,-6.672695E-1,4.6859446E-1],"categories":[],"categories_nodes":[],"categories_segments":[],"categories_sizes":[],"default_left":[0,0,0,0,0,0,0,0,0,0,0,0,0,0,0],"id":66,"left_children":[1,3,5,7,9,11,13,-1,-1,-1,-1,-1,-1,-1,-1],"loss_changes":[1.1928416E4,1.0449636E4,2.4873855E4,1.290793E4,5.544717E2,2.5241455E4,1.7612566E4,0E0,0E0,0E0,0E0,0E0,0E0,0E0,0E0],"parents":[2147483647,0,0,1,1,2,2,3,3,4,4,5,5,6,6],"right_children":[2,4,6,8,10,12,14,-1,-1,-1,-1,-1,-1,-1,-1],"split_conditions":[7.227E1,1.7494E2,6.234898E-1,2.6485715E0,4.3107143E1,9.526E1,8.906286E1,-2.7486306E-1,7.78256E-1,-1.4801271E0,-3.6857885E-1,1.6568756E0,2.594678E-1,-6.672695E-1,4.6859446E-1],"split_indices":[21,17,8,51,39,21,27,0,0,0,0,0,0,0,0],"split_type":[0,0,0,0,0,0,0,0,0,0,0,0,0,0,0],"sum_hessian":[3.65E2,1.69E2,1.96E2,1.58E2,1.1E1,1.06E2,9E1,1.39E2,1.9E1,8E0,3E0,2.6E1,8E1,5.8E1,3.2E1],"tree_param":{"num_deleted":"0","num_feature":"53","num_nodes":"15","size_leaf_vector":"1"}},{"base_weights":[1.1452389E0,1.722676E1,-1.4972458E0,6.825271E1,9.33759E0,3.1249071E1,-3.1683066E0,7.1485835E-1,3.2286313E0,5.019746E-1,-1.1329827E0,-3.3803368E-1,2.0866358E0,-7.268002E-1,-2.0979198E-4],"categories":[],"categories_nodes":[],"categories_segments":[],"categories_sizes":[],"default_left":[0,0,0,0,0,0,0,0,0,0,0,0,0,0,0],"id":67,"left_children":[1,3,5,7,9,11,13,-1,-1,-1,-1,-1,-1,-1,-1],"loss_changes":[1.5511478E4,1.9138158E4,1.7457297E4,4.7511133E2,6.634351E3,1.3973254E4,1.4306331E4,0E0,0E0,0E0,0E0,0E0,0E0,0E0,0E0],"parents":[2147483647,0,0,1,1,2,2,3,3,4,4,5,5,6,6],"right_children":[2,4,6,8,10,12,14,-1,-1,-1,-1,-1,-1,-1,-1],"split_conditions":[8.6E1,1.0834286E1,1.0964286E1,5E0,2.9285715E1,5.207E1,6.6614285E0,7.1485835E-1,3.2286313E0,5.019746E-1,-1.1329827E0,-3.3803368E-1,2.0866358E0,-7.268002E-1,-2.0979198E-4],"split_indices":[6,42,34,0,26,15,42,0,0,0,0,0,0,0,0],"split_type":[0,0,0,0,0,0,0,0,0,0,0,0,0,0,0],"sum_hessian":[3.61E2,4.9E1,3.12E2,4E0,4.5E1,1.3E1,2.99E2,2E0,2E0,4.3E1,2E0,5E0,8E0,5E1,2.49E2],"tree_param":{"num_deleted":"0","num_feature":"53","num_nodes":"15","size_leaf_vector":"1"}},{"base_weights":[1.607159E0,8.490763E-1,2.0887802E0,-1.321464E0,1.5769691E1,-2.6992658E-1,2.4085344E-1,-7.4767256E-1,1.0482218E0],"categories":[],"categories_nodes":[],"categories_segments":[],"categories_sizes":[],"default_left":[0,0,0,0,0,0,0,0,0],"id":68,"left_children":[1,3,-1,5,7,-1,-1,-1,-1],"loss_changes":[1.4296467E4,1.2115807E4,0E0,1.3151534E4,1.8307252E4,0E0,0E0,0E0,0E0],"parents":[2147483647,0,0,1,1,3,3,4,4],"right_children":[2,4,-1,6,8,-1,-1,-1,-1],"split_conditions":[8.738E1,4.0091427E1,2.0887802E0,4E0,3.0871E2,-2.6992658E-1,2.4085344E-1,-7.4767256E-1,1.0482218E0],"split_indices":[38,36,0,0,43,0,0,0,0],"split_type":[0,0,0,0,0,0,0,0,0],"sum_hessian":[3.73E2,3.7E2,3E0,3.25E2,4.5E1,1.87E2,1.38E2,1E1,3.5E1],"tree_param":{"num_deleted":"0","num_feature":"53","num_nodes":"9","size_leaf_vector":"1"}},{"base_weights":[7.3616487E-1,-1.121953E1,4.2415204E0,-1.3519317E1,1.7511324E1,5.003807E1,2.8554738E0,-1.438666E-1,-1.020255E0,8.6112565E-1,1.1493462E-1,-2.8133166E-1,3.374594E0,5.813866E-1,-3.365329E-2],"categories":[],"categories_nodes":[],"categories_segments":[],"categories_sizes":[],"default_left":[0,0,0,0,0,0,0,0,0,0,0,0,0,0,0],"id":69,"left_children":[1,3,5,7,9,11,13,-1,-1,-1,-1,-1,-1,-1,-1],"loss_changes":[1.5981512E4,6.307325E3,1.8336523E4,9.464544E3,2.8633984E2,1.8135557E4,1.2486762E4,0E0,0E0,0E0,0E0,0E0,0E0,0E0,0E0],"parents":[2147483647,0,0,1,1,2,2,3,3,4,4,5,5,6,6],"right_children":[2,4,6,8,10,12,14,-1,-1,-1,-1,-1,-1,-1,-1],"split_conditions":[1.5E0,3.402714E1,2.3085713E0,1.6E1,1.2859178E2,2E1,7.5E0,-1.438666E-1,-1.020255E0,8.6112565E-1,1.1493462E-1,-2.8133166E-1,3.374594E0,5.813866E-1,-3.365329E-2],"split_indices":[35,42,48,26,31,18,38,0,0,0,0,0,0,0,0],"split_type":[0,0,0,0,0,0,0,0,0,0,0,0,0,0,0],"sum_hessian":[3.76E2,8.4E1,2.92E2,7.9E1,5E0,6E0,2.86E2,4.5E1,3.4E1,3E0,2E0,3E0,3E0,6.7E1,2.19E2],"tree_param":{"num_deleted":"0","num_feature":"53","num_nodes":"15","size_leaf_vector":"1"}},{"base_weights":[9.178008E-1,-4.7895837E0,7.1847305E0,-7.2006583E0,2.6881334E1,2.051041E1,4.014761E-1,-3.8444552E-1,8.31482E-1,-5.784112E-1,2.412667E0,-1.6920242E-1,1.2168882E0,-4.0935674E-1,5.0736344E-1],"categories":[],"categories_nodes":[],"categories_segments":[],"categories_sizes":[],"default_left":[0,0,0,0,0,0,0,0,0,0,0,0,0,0,0],"id":70,"left_children":[1,3,5,7,9,11,13,-1,-1,-1,-1,-1,-1,-1,-1],"loss_changes":[1.34810625E4,1.5565195E4,1.6204686E4,1.3014007E4,2.2223418E4,1.5157678E4,1.6196115E4,0E0,0E0,0E0,0E0,0E0,0E0,0E0,0E0],"parents":[2147483647,0,0,1,1,2,2,3,3,4,4,5,5,6,6],"right_children":[2,4,6,8,10,12,14,-1,-1,-1,-1,-1,-1,-1,-1],"split_conditions":[1.5089E2,3.673E1,2.0642857E1,2.172E1,7.3608574E1,2.208E1,2.3928572E1,-3.8444552E-1,8.31482E-1,-5.784112E-1,2.412667E0,-1.6920242E-1,1.2168882E0,-4.0935674E-1,5.0736344E-1],"split_indices":[24,38,30,44,31,17,30,0,0,0,0,0,0,0,0],"split_type":[0,0,0,0,0,0,0,0,0,0,0,0,0,0,0],"sum_hessian":[3.72E2,1.95E2,1.77E2,1.83E2,1.2E1,5.8E1,1.19E2,1.7E2,1.3E1,6E0,6E0,1.7E1,4.1E1,6.4E1,5.5E1],"tree_param":{"num_deleted":"0","num_feature":"53","num_nodes":"15","size_leaf_vector":"1"}},{"base_weights":[1.5859271E0,1.8058094E-1,3.5961544E1,1.5393253E1,-2.4181728E0,-1.09970255E1,6.3570534E1,9.0619403E-1,-3.9120162E-1,1.0427469E0,-1.4379112E-1,-6.680244E-1,-5.3272262E-2,2.3582289E-2,3.2067578E0],"categories":[],"categories_nodes":[],"categories_segments":[],"categories_sizes":[],"default_left":[0,0,0,0,0,0,0,0,0,0,0,0,0,0,0],"id":71,"left_children":[1,3,5,7,9,11,13,-1,-1,-1,-1,-1,-1,-1,-1],"loss_changes":[1.7834178E4,1.422646E4,2.0546658E4,1.0150827E4,1.0540995E4,3.5784314E2,9.812984E3,0E0,0E0,0E0,0E0,0E0,0E0,0E0,0E0],"parents":[2147483647,0,0,1,1,2,2,3,3,4,4,5,5,6,6],"right_children":[2,4,6,8,10,12,14,-1,-1,-1,-1,-1,-1,-1,-1],"split_conditions":[3.73E1,-7.818315E-1,6.291E1,4.2E1,1.0357142E1,1E0,3.172E1,9.0619403E-1,-3.9120162E-1,1.0427469E0,-1.4379112E-1,-6.680244E-1,-5.3272262E-2,2.3582289E-2,3.2067578E0],"split_indices":[44,7,13,3,34,9,19,0,0,0,0,0,0,0,0],"split_type":[0,0,0,0,0,0,0,0,0,0,0,0,0,0,0],"sum_hessian":[3.67E2,3.55E2,1.2E1,5E1,3.05E2,5E0,7E0,3.9E1,1.1E1,1E1,2.95E2,2E0,3E0,2E0,5E0],"tree_param":{"num_deleted":"0","num_feature":"53","num_nodes":"15","size_leaf_vector":"1"}},{"base_weights":[-2.7900153E-1,-1.51231E0,2.6111227E1,3.6882103E1,-2.443253E0,-1.8894812E1,5.6327724E1,2.198448E0,-3.888882E-1,-1.785015E-1,4.7514305E-1,-9.220848E-1,-9.5707595E-2,3.1925464E0,4.4709143E-1],"categories":[],"categories_nodes":[],"categories_segments":[],"categories_sizes":[],"default_left":[0,0,0,0,0,0,0,0,0,0,0,0,0,0,0],"id":72,"left_children":[1,3,5,7,9,11,13,-1,-1,-1,-1,-1,-1,-1,-1],"loss_changes":[1.2027304E4,1.2824691E4,2.5099512E4,8.497652E3,1.0153249E4,4.4524634E2,8.903953E3,0E0,0E0,0E0,0E0,0E0,0E0,0E0,0E0],"parents":[2147483647,0,0,1,1,2,2,3,3,4,4,5,5,6,6],"right_children":[2,4,6,8,10,12,14,-1,-1,-1,-1,-1,-1,-1,-1],"split_conditions":[3.676E1,9.678572E0,7.38E0,6.234898E-1,1.5554E2,1E0,8.1374E2,2.198448E0,-3.888882E-1,-1.785015E-1,4.7514305E-1,-9.220848E-1,-9.5707595E-2,3.1925464E0,4.4709143E-1],"split_indices":[44,34,35,8,19,9,25,0,0,0,0,0,0,0,0],"split_type":[0,0,0,0,0,0,0,0,0,0,0,0,0,0,0],"sum_hessian":[3.64E2,3.5E2,1.4E1,6E0,3.44E2,6E0,8E0,4E0,2E0,3.03E2,4.1E1,4E0,2E0,4E0,4E0],"tree_param":{"num_deleted":"0","num_feature":"53","num_nodes":"15","size_leaf_vector":"1"}},{"base_weights":[6.506756E-1,-5.2492654E-1,3.9738472E1,2.7122326E1,-1.790764E0,-3.2463717E-1,2.1354148E0,1.8951277E0,-1.3974942E-1,-7.2366184E-1,-6.796852E-3],"categories":[],"categories_nodes":[],"categories_segments":[],"categories_sizes":[],"default_left":[0,0,0,0,0,0,0,0,0,0,0],"id":73,"left_children":[1,3,5,7,9,-1,-1,-1,-1,-1,-1],"loss_changes":[1.6525834E4,1.2387847E4,7.9403555E3,1.0026217E4,8.909403E3,0E0,0E0,0E0,0E0,0E0,0E0],"parents":[2147483647,0,0,1,1,2,2,3,3,4,4],"right_children":[2,4,6,8,10,-1,-1,-1,-1,-1,-1],"split_conditions":[1.0033E2,1.0964286E1,2.432E1,5.1471428E1,6.51E0,-3.2463717E-1,2.1354148E0,1.8951277E0,-1.3974942E-1,-7.2366184E-1,-6.796852E-3],"split_indices":[35,34,17,51,11,0,0,0,0,0,0],"split_type":[0,0,0,0,0,0,0,0,0,0,0],"sum_hessian":[3.56E2,3.48E2,8E0,1.3E1,3.35E2,2E0,6E0,7E0,6E0,2.8E1,3.07E2],"tree_param":{"num_deleted":"0","num_feature":"53","num_nodes":"11","size_leaf_vector":"1"}},{"base_weights":[1.2022256E0,-1.5451708E-1,4.3471806E1,-2.5079925E0,1.2356318E1,-5.303716E-1,3.1009448E0,-4.6224847E-1,1.4190164E-2,1.329228E0,-3.5385883E-1,5.5564404E-1,-4.835472E-1],"categories":[],"categories_nodes":[],"categories_segments":[],"categories_sizes":[],"default_left":[0,0,0,0,0,0,0,0,0,0,0,0,0],"id":74,"left_children":[1,3,5,7,9,11,-1,-1,-1,-1,-1,-1,-1],"loss_changes":[2.1207229E4,1.0692017E4,1.7333863E4,7.923542E3,2.6184156E4,1.6699716E3,0E0,0E0,0E0,0E0,0E0,0E0,0E0],"parents":[2147483647,0,0,1,1,2,2,3,3,4,4,5,5],"right_children":[2,4,6,8,10,12,-1,-1,-1,-1,-1,-1,-1],"split_conditions":[3.73E1,2.6485715E0,1.9E1,1.5E0,1.806E1,2.519E1,3.1009448E0,-4.6224847E-1,1.4190164E-2,1.329228E0,-3.5385883E-1,5.5564404E-1,-4.835472E-1],"split_indices":[44,51,18,35,38,38,0,0,0,0,0,0,0],"split_type":[0,0,0,0,0,0,0,0,0,0,0,0,0],"sum_hessian":[3.67E2,3.58E2,9E0,3.03E2,5.5E1,5E0,4E0,7.1E1,2.32E2,2.7E1,2.8E1,2E0,3E0],"tree_param":{"num_deleted":"0","num_feature":"53","num_nodes":"13","size_leaf_vector":"1"}},{"base_weights":[9.493884E-1,-1.2979798E0,1.458102E1,-2.388102E0,3.929005E1,3.9091995E1,-1.0400676E0,-2.0658658E-1,5.2196115E-1,2.7173343E0,-2.88495E-1,3.4771266E0,7.389279E-1,-7.209862E-1,7.2136784E-1],"categories":[],"categories_nodes":[],"categories_segments":[],"categories_sizes":[],"default_left":[0,0,0,0,0,0,0,0,0,0,0,0,0,0,0],"id":75,"left_children":[1,3,5,7,9,11,13,-1,-1,-1,-1,-1,-1,-1,-1],"loss_changes":[1.1367056E4,1.437114E4,2.0203271E4,1.3605771E4,1.2546764E4,1.6205047E4,1.1989563E4,0E0,0E0,0E0,0E0,0E0,0E0,0E0,0E0],"parents":[2147483647,0,0,1,1,2,2,3,3,4,4,5,5,6,6],"right_children":[2,4,6,8,10,12,14,-1,-1,-1,-1,-1,-1,-1,-1],"split_conditions":[2.7702858E1,4E1,2.0714285E1,3.7477142E1,5.284E1,6.7E1,3.0429E2,-2.0658658E-1,5.2196115E-1,2.7173343E0,-2.88495E-1,3.4771266E0,7.389279E-1,-7.209862E-1,7.2136784E-1],"split_indices":[39,22,30,36,17,6,32,0,0,0,0,0,0,0,0],"split_type":[0,0,0,0,0,0,0,0,0,0,0,0,0,0,0],"sum_hessian":[3.67E2,3.17E2,5E1,3.11E2,6E0,1.8E1,3.2E1,2.65E2,4.6E1,3E0,3E0,3E0,1.5E1,1.7E1,1.5E1],"tree_param":{"num_deleted":"0","num_feature":"53","num_nodes":"15","size_leaf_vector":"1"}},{"base_weights":[1.0728374E0,-4.341345E0,7.1160035E0,-1.0769114E0,-2.5304583E1,4.5082507E0,5.7331512E1,-1.800128E-1,8.959201E-1,3.510422E-1,-1.1592876E0,2.3383949E0,7.980852E-2,3.1981614E0,-2.8785214E-1],"categories":[],"categories_nodes":[],"categories_segments":[],"categories_sizes":[],"default_left":[0,0,0,0,0,0,0,0,0,0,0,0,0,0,0],"id":76,"left_children":[1,3,5,7,9,11,13,-1,-1,-1,-1,-1,-1,-1,-1],"loss_changes":[1.2232267E4,1.344741E4,2.2466447E4,1.4195191E4,3.9572559E3,2.2825213E4,1.3846576E4,0E0,0E0,0E0,0E0,0E0,0E0,0E0,0E0],"parents":[2147483647,0,0,1,1,2,2,3,3,4,4,5,5,6,6],"right_children":[2,4,6,8,10,12,14,-1,-1,-1,-1,-1,-1,-1,-1],"split_conditions":[8.061E1,3.2E1,3.8E1,1.4197E2,7E0,1.2785714E1,1.2244E2,-1.800128E-1,8.959201E-1,3.510422E-1,-1.1592876E0,2.3383949E0,7.980852E-2,3.1981614E0,-2.8785214E-1],"split_indices":[21,12,12,15,3,34,15,0,0,0,0,0,0,0,0],"split_type":[0,0,0,0,0,0,0,0,0,0,0,0,0,0,0],"sum_hessian":[3.69E2,1.95E2,1.74E2,1.71E2,2.4E1,1.68E2,6E0,1.51E2,2E1,2E0,2.2E1,5E0,1.63E2,4E0,2E0],"tree_param":{"num_deleted":"0","num_feature":"53","num_nodes":"15","size_leaf_vector":"1"}},{"base_weights":[-1.0319917E0,-2.2463899E0,2.7143963E1,-4.725799E0,1.3419722E1,-1.8903315E1,6.1201008E1,-1.2670445E-1,-1.102906E0,1.7857213E-1,1.6816413E0,-1.7895149E-1,-9.89617E-1,2.8978198E0,3.3838528E-1],"categories":[],"categories_nodes":[],"categories_segments":[],"categories_sizes":[],"default_left":[0,0,0,0,0,0,0,0,0,0,0,0,0,0,0],"id":77,"left_children":[1,3,5,7,9,11,13,-1,-1,-1,-1,-1,-1,-1,-1],"loss_changes":[1.2829772E4,1.4044811E4,2.7199887E4,1.083535E4,1.2218425E4,4.39219E2,4.1018164E3,0E0,0E0,0E0,0E0,0E0,0E0,0E0,0E0],"parents":[2147483647,0,0,1,1,2,2,3,3,4,4,5,5,6,6],"right_children":[2,4,6,8,10,12,14,-1,-1,-1,-1,-1,-1,-1,-1],"split_conditions":[3.676E1,1.5554E2,7.38E0,3.4E1,4.325E1,1.3284E2,1.4E1,-1.2670445E-1,-1.102906E0,1.7857213E-1,1.6816413E0,-1.7895149E-1,-9.89617E-1,2.8978198E0,3.3838528E-1],"split_indices":[44,19,35,12,36,11,2,0,0,0,0,0,0,0,0],"split_type":[0,0,0,0,0,0,0,0,0,0,0,0,0,0,0],"sum_hessian":[3.68E2,3.55E2,1.3E1,3.08E2,4.7E1,6E0,7E0,2.91E2,1.7E1,3.8E1,9E0,3E0,3E0,5E0,2E0],"tree_param":{"num_deleted":"0","num_feature":"53","num_nodes":"15","size_leaf_vector":"1"}},{"base_weights":[7.5827485E-1,-1.5768431E0,1.2865695E1,-3.900273E0,1.2023801E1,7.9486303E0,2.336933E0,-2.0793647E-1,1.3252952E0,-6.332424E-1,9.1438496E-1,1.06197275E-1,1.6941991E0],"categories":[],"categories_nodes":[],"categories_segments":[],"categories_sizes":[],"default_left":[0,0,0,0,0,0,0,0,0,0,0,0,0],"id":78,"left_children":[1,3,5,7,9,11,-1,-1,-1,-1,-1,-1,-1],"loss_changes":[1.0582132E4,1.0055485E4,1.2391632E4,1.3434477E4,1.4939844E4,1.0191743E4,0E0,0E0,0E0,0E0,0E0,0E0,0E0],"parents":[2147483647,0,0,1,1,2,2,3,3,4,4,5,5],"right_children":[2,4,6,8,10,12,-1,-1,-1,-1,-1,-1,-1],"split_conditions":[3.0429E2,3.7477142E1,3.954E1,4E1,3.0871E2,2.3707E2,2.336933E0,-2.0793647E-1,1.3252952E0,-6.332424E-1,9.1438496E-1,1.06197275E-1,1.6941991E0],"split_indices":[32,36,44,22,43,19,0,0,0,0,0,0,0],"split_type":[0,0,0,0,0,0,0,0,0,0,0,0,0],"sum_hessian":[3.7E2,3.12E2,5.8E1,2.68E2,4.4E1,5.5E1,3E0,2.61E2,7E0,1.2E1,3.2E1,5E1,5E0],"tree_param":{"num_deleted":"0","num_feature":"53","num_nodes":"13","size_leaf_vector":"1"}},{"base_weights":[2.2654753E0,1.2401885E0,3.4002644E1,-9.5537466E-1,1.4808675E1,2.3356454E0,1.5317372E0,-7.839278E-2,1.2681042E0,1.5072649E0,1.381823E-1,8.9379704E-1,-6.477392E-1],"categories":[],"categories_nodes":[],"categories_segments":[],"categories_sizes":[],"default_left":[0,0,0,0,0,0,0,0,0,0,0,0,0],"id":79,"left_children":[1,3,5,7,9,-1,11,-1,-1,-1,-1,-1,-1],"loss_changes":[1.1950534E4,1.0804624E4,8.8834375E3,1.0439112E4,1.2789524E4,0E0,3.6714927E3,0E0,0E0,0E0,0E0,0E0,0E0],"parents":[2147483647,0,0,1,1,2,2,3,3,4,4,6,6],"right_children":[2,4,6,8,10,-1,12,-1,-1,-1,-1,-1,-1],"split_conditions":[2.2E1,7.6453E2,1.4E1,4E1,1.6E1,2.3356454E0,1.1388E2,-7.839278E-2,1.2681042E0,1.5072649E0,1.381823E-1,8.9379704E-1,-6.477392E-1],"split_indices":[50,40,38,22,16,0,13,0,0,0,0,0,0],"split_type":[0,0,0,0,0,0,0,0,0,0,0,0,0],"sum_hessian":[3.68E2,3.59E2,9E0,3.11E2,4.8E1,4E0,5E0,3.04E2,7E0,1.4E1,3.4E1,2E0,3E0],"tree_param":{"num_deleted":"0","num_feature":"53","num_nodes":"13","size_leaf_vector":"1"}},{"base_weights":[1.164649E0,-1.5683379E1,2.7832205E0,-2.209853E1,8.352727E-1,3.5137115E1,1.4199774E0,-6.033261E-2,-9.971116E-1,6.1749035E-1,-8.84444E-1,2.4811906E-1,2.5564477E0,5.323334E-1,-1.14114836E-1],"categories":[],"categories_nodes":[],"categories_segments":[],"categories_sizes":[],"default_left":[0,0,0,0,0,0,0,0,0,0,0,0,0,0,0],"id":80,"left_children":[1,3,5,7,9,11,13,-1,-1,-1,-1,-1,-1,-1,-1],"loss_changes":[1.0103484E4,3.4901587E3,1.4717009E4,1.274998E3,4.706557E3,1.0248369E4,1.662939E4,0E0,0E0,0E0,0E0,0E0,0E0,0E0,0E0],"parents":[2147483647,0,0,1,1,2,2,3,3,4,4,5,5,6,6],"right_children":[2,4,6,8,10,12,14,-1,-1,-1,-1,-1,-1,-1,-1],"split_conditions":[4.97E0,7.6980354E1,4.55625E1,1.646E1,1.8071428E1,7.147E1,7.54E0,-6.033261E-2,-9.971116E-1,6.1749035E-1,-8.84444E-1,2.4811906E-1,2.5564477E0,5.323334E-1,-1.14114836E-1],"split_indices":[11,31,31,21,30,21,38,0,0,0,0,0,0,0,0],"split_type":[0,0,0,0,0,0,0,0,0,0,0,0,0,0,0],"sum_hessian":[3.64E2,3E1,3.34E2,2.1E1,9E0,1.1E1,3.23E2,3E0,1.8E1,6E0,3E0,7E0,4E0,8.4E1,2.39E2],"tree_param":{"num_deleted":"0","num_feature":"53","num_nodes":"15","size_leaf_vector":"1"}},{"base_weights":[1.4683521E0,9.5414095E-2,2.3488121E1,2.4048395E1,-1.1659865E0,4.765744E1,3.4010994E-1,-2.524562E-2,2.6422603E0,2.4096796E-1,-1.974461E-1,2.4856937E0,2.4971318E-1,8.2844806E-1,-5.475003E-1],"categories":[],"categories_nodes":[],"categories_segments":[],"categories_sizes":[],"default_left":[0,0,0,0,0,0,0,0,0,0,0,0,0,0,0],"id":81,"left_children":[1,3,5,7,9,11,13,-1,-1,-1,-1,-1,-1,-1,-1],"loss_changes":[1.1074344E4,1.056957E4,1.1988121E4,1.8247191E4,9.087814E3,5.328949E3,4.566444E3,0E0,0E0,0E0,0E0,0E0,0E0,0E0,0E0],"parents":[2147483647,0,0,1,1,2,2,3,3,4,4,5,5,6,6],"right_children":[2,4,6,8,10,12,14,-1,-1,-1,-1,-1,-1,-1,-1],"split_conditions":[3.7094284E1,1.27575E3,3.013857E1,1.262E1,8.23E0,1.4921E2,1.1775E2,-2.524562E-2,2.6422603E0,2.4096796E-1,-1.974461E-1,2.4856937E0,2.4971318E-1,8.2844806E-1,-5.475003E-1],"split_indices":[39,33,36,44,38,13,11,0,0,0,0,0,0,0,0],"split_type":[0,0,0,0,0,0,0,0,0,0,0,0,0,0,0],"sum_hessian":[3.64E2,3.45E2,1.9E1,1.5E1,3.3E2,8E0,1.1E1,1.1E1,4E0,1.13E2,2.17E2,5E0,3E0,4E0,7E0],"tree_param":{"num_deleted":"0","num_feature":"53","num_nodes":"15","size_leaf_vector":"1"}},{"base_weights":[-5.058619E-1,1.2162366E0,-2.1096458E1,-1.6050208E0,1.755284E1,-1.4482375E0,-9.481063E0,-1.3249087E-1,9.688255E-1,9.1691077E-1,-1.1045562E0,-7.6671803E-1,3.4770176E-1],"categories":[],"categories_nodes":[],"categories_segments":[],"categories_sizes":[],"default_left":[0,0,0,0,0,0,0,0,0,0,0,0,0],"id":82,"left_children":[1,3,5,7,9,-1,11,-1,-1,-1,-1,-1,-1],"loss_changes":[1.309534E4,1.5810085E4,4.1436484E3,1.3141237E4,1.3830853E4,0E0,3.8494375E3,0E0,0E0,0E0,0E0,0E0,0E0],"parents":[2147483647,0,0,1,1,2,2,3,3,4,4,6,6],"right_children":[2,4,6,8,10,-1,12,-1,-1,-1,-1,-1,-1],"split_conditions":[1.7949E2,3.0429E2,5.504E1,3.6E1,2.7857143E1,-1.4482375E0,3.7E1,-1.3249087E-1,9.688255E-1,9.1691077E-1,-1.1045562E0,-7.6671803E-1,3.4770176E-1],"split_indices":[17,32,21,22,26,0,18,0,0,0,0,0,0],"split_type":[0,0,0,0,0,0,0,0,0,0,0,0,0],"sum_hessian":[3.65E2,3.39E2,2.6E1,2.91E2,4.8E1,9E0,1.7E1,2.75E2,1.6E1,4.4E1,4E0,1.1E1,6E0],"tree_param":{"num_deleted":"0","num_feature":"53","num_nodes":"13","size_leaf_vector":"1"}},{"base_weights":[5.2845675E-1,-1.023228E-1,1.7387191E0,1.5020325E0,-1.8425667E1,3.0331194E-2,1.6137286E0,-1.3534107E0,-2.7130145E-1],"categories":[],"categories_nodes":[],"categories_segments":[],"categories_sizes":[],"default_left":[0,0,0,0,0,0,0,0,0],"id":83,"left_children":[1,3,-1,5,7,-1,-1,-1,-1],"loss_changes":[1.029002E4,1.113722E4,0E0,9.99107E3,4.898466E3,0E0,0E0,0E0,0E0],"parents":[2147483647,0,0,1,1,3,3,4,4],"right_children":[2,4,-1,6,8,-1,-1,-1,-1],"split_conditions":[2.6094286E1,1.7949E2,1.7387191E0,2.9854E2,5.504E1,3.0331194E-2,1.6137286E0,-1.3534107E0,-2.7130145E-1],"split_indices":[48,17,0,19,21,0,0,0,0],"split_type":[0,0,0,0,0,0,0,0,0],"sum_hessian":[3.77E2,3.74E2,3E0,3.46E2,2.8E1,3.42E2,4E0,1E1,1.8E1],"tree_param":{"num_deleted":"0","num_feature":"53","num_nodes":"9","size_leaf_vector":"1"}},{"base_weights":[9.2987406E-1,-3.4013104E0,6.7659993E0,-6.9224777E0,1.3602259E1,2.989338E0,3.575875E1,1.1315482E0,-3.3219942E-1,-9.0681225E-1,1.1327239E0,5.6167215E-1,-2.0331778E-1,1.947044E0,-1.2588336E0],"categories":[],"categories_nodes":[],"categories_segments":[],"categories_sizes":[],"default_left":[0,0,0,0,0,0,0,0,0,0,0,0,0,0,0],"id":84,"left_children":[1,3,5,7,9,11,13,-1,-1,-1,-1,-1,-1,-1,-1],"loss_changes":[9.650282E3,1.3377396E4,1.7525828E4,9.520076E3,2.215553E4,1.3248962E4,1.9895617E4,0E0,0E0,0E0,0E0,0E0,0E0,0E0,0E0],"parents":[2147483647,0,0,1,1,2,2,3,3,4,4,5,5,6,6],"right_children":[2,4,6,8,10,12,14,-1,-1,-1,-1,-1,-1,-1,-1],"split_conditions":[4E0,2.4285715E1,3.938E1,2.2614E2,2.095E1,1.9E1,4.0163E2,1.1315482E0,-3.3219942E-1,-9.0681225E-1,1.1327239E0,5.6167215E-1,-2.0331778E-1,1.947044E0,-1.2588336E0],"split_indices":[0,26,35,40,21,26,49,0,0,0,0,0,0,0,0],"split_type":[0,0,0,0,0,0,0,0,0,0,0,0,0,0,0],"sum_hessian":[3.77E2,2.17E2,1.6E2,1.81E2,3.6E1,1.44E2,1.6E1,5E0,1.76E2,1E1,2.6E1,6E1,8.4E1,1.4E1,2E0],"tree_param":{"num_deleted":"0","num_feature":"53","num_nodes":"15","size_leaf_vector":"1"}},{"base_weights":[7.900541E-2,-2.361872E0,1.3182582E1,-3.800795E0,1.8024221E1,3.6363865E1,4.0518656E0,-2.5301367E-1,3.8569957E-1,1.948747E0,-3.6748248E-1,3.1303492E-1,2.4368567E0,-6.097516E-1,7.7298325E-1],"categories":[],"categories_nodes":[],"categories_segments":[],"categories_sizes":[],"default_left":[0,0,0,0,0,0,0,0,0,0,0,0,0,0,0],"id":85,"left_children":[1,3,5,7,9,11,13,-1,-1,-1,-1,-1,-1,-1,-1],"loss_changes":[1.21199E4,9.543485E3,1.2225519E4,1.0350912E4,1.9076516E4,1.0371676E4,1.4145167E4,0E0,0E0,0E0,0E0,0E0,0E0,0E0,0E0],"parents":[2147483647,0,0,1,1,2,2,3,3,4,4,5,5,6,6],"right_children":[2,4,6,8,10,12,14,-1,-1,-1,-1,-1,-1,-1,-1],"split_conditions":[3.0429E2,3.6E1,1.6E1,3.7477142E1,5.284E1,1.73E1,1.3693E2,-2.5301367E-1,3.8569957E-1,1.948747E0,-3.6748248E-1,3.1303492E-1,2.4368567E0,-6.097516E-1,7.7298325E-1],"split_indices":[32,22,16,36,17,38,15,0,0,0,0,0,0,0,0],"split_type":[0,0,0,0,0,0,0,0,0,0,0,0,0,0,0],"sum_hessian":[3.74E2,3.17E2,5.7E1,2.98E2,1.9E1,1.4E1,4.3E1,2.52E2,4.6E1,8E0,1.1E1,8E0,6E0,1.9E1,2.4E1],"tree_param":{"num_deleted":"0","num_feature":"53","num_nodes":"15","size_leaf_vector":"1"}},{"base_weights":[5.8188146E-1,1.8664288E1,-1.1724979E0,3.7499798E1,5.543143E0,-2.457029E0,2.3255547E1,-3.6250758E-1,1.9410651E0,-3.7087402E-1,1.0678711E0,1.6043239E0,-1.2224245E-1,-4.567636E-1,2.072412E0],"categories":[],"categories_nodes":[],"categories_segments":[],"categories_sizes":[],"default_left":[0,0,0,0,0,0,0,0,0,0,0,0,0,0,0],"id":86,"left_children":[1,3,5,7,9,11,13,-1,-1,-1,-1,-1,-1,-1,-1],"loss_changes":[1.1300654E4,7.2653535E3,1.0356579E4,7.517412E3,7.356727E3,8.249023E3,1.781614E4,0E0,0E0,0E0,0E0,0E0,0E0,0E0,0E0],"parents":[2147483647,0,0,1,1,2,2,3,3,4,4,5,5,6,6],"right_children":[2,4,6,8,10,12,14,-1,-1,-1,-1,-1,-1,-1,-1],"split_conditions":[2.8575E2,8.044286E0,3.676E1,1.54E0,1.131E1,1.0708E2,6.291E1,-3.6250758E-1,1.9410651E0,-3.7087402E-1,1.0678711E0,1.6043239E0,-1.2224245E-1,-4.567636E-1,2.072412E0],"split_indices":[40,39,44,11,47,49,13,0,0,0,0,0,0,0,0],"split_type":[0,0,0,0,0,0,0,0,0,0,0,0,0,0,0],"sum_hessian":[3.52E2,2.9E1,3.23E2,1E1,1.9E1,3.09E2,1.4E1,2E0,8E0,1.2E1,7E0,2E0,3.07E2,7E0,7E0],"tree_param":{"num_deleted":"0","num_feature":"53","num_nodes":"15","size_leaf_vector":"1"}},{"base_weights":[8.692693E-1,-1.6698126E0,1.6332727E1,-4.7638316E0,1.0995825E1,2.6357351E1,-2.0215574E1,-2.2947226E-1,1.6757224E0,5.1577568E-2,1.124334E0,6.0925066E-1,2.6029181E0,-1.2234157E0,2.7539322E-1],"categories":[],"categories_nodes":[],"categories_segments":[],"categories_sizes":[],"default_left":[0,0,0,0,0,0,0,0,0,0,0,0,0,0,0],"id":87,"left_children":[1,3,5,7,9,11,13,-1,-1,-1,-1,-1,-1,-1,-1],"loss_changes":[1.4340276E4,1.2455494E4,2.0200797E4,1.2154113E4,1.02906875E4,1.5398396E4,4.039267E3,0E0,0E0,0E0,0E0,0E0,0E0,0E0,0E0],"parents":[2147483647,0,0,1,1,2,2,3,3,4,4,5,5,6,6],"right_children":[2,4,6,8,10,12,14,-1,-1,-1,-1,-1,-1,-1,-1],"split_conditions":[2.172E1,1.333E2,1.943E2,2.6094286E1,1.0954143E2,3.2E1,3.5749E2,-2.2947226E-1,1.6757224E0,5.1577568E-2,1.124334E0,6.0925066E-1,2.6029181E0,-1.2234157E0,2.7539322E-1],"split_indices":[44,19,52,48,23,22,49,0,0,0,0,0,0,0,0],"split_type":[0,0,0,0,0,0,0,0,0,0,0,0,0,0,0],"sum_hessian":[3.61E2,3.12E2,4.9E1,2.52E2,6E1,3.9E1,1E1,2.49E2,3E0,4E1,2E1,3.3E1,6E0,7E0,3E0],"tree_param":{"num_deleted":"0","num_feature":"53","num_nodes":"15","size_leaf_vector":"1"}},{"base_weights":[1.2447181E0,-1.0279907E1,3.496452E0,-1.4343012E1,7.1237707E0,4.406595E1,2.3649902E0,-3.0464354E-1,-1.0125275E0,1.0476689E0,-4.7184485E-1,-2.6213855E-1,2.986215E0,1.3782164E0,4.0775776E-2],"categories":[],"categories_nodes":[],"categories_segments":[],