{"learner":{"attributes":{},"feature_names":["dia_semana","mes","dia_mes","semana_anio","trimestre","es_fin_semana","dias_desde_inicio","sin_dia","cos_dia","sin_mes","cos_mes","target_lag_1d","eventos_lag_1d","target_lag_2d","eventos_lag_2d","target_lag_3d","eventos_lag_3d","target_lag_7d","eventos_lag_7d","target_lag_14d","eventos_lag_14d","target_lag_28d","eventos_lag_28d","target_media_7d","target_max_7d","target_suma_7d","eventos_media_7d","target_media_14d","target_max_14d","target_suma_14d","eventos_media_14d","target_media_28d","target_max_28d","target_suma_28d","eventos_media_28d","subclave_1_min_lag_1d","subclave_1_min_media_7d","subclave_1_min_suma_28d","subclave_2_min_lag_1d","subclave_2_min_media_7d","subclave_2_min_suma_28d","subclave_3_min_lag_1d","subclave_3_min_media_7d","subclave_3_min_suma_28d","subclave_4_min_lag_1d","subclave_4_min_media_7d","subclave_4_min_suma_28d","subclave_5_min_lag_1d","subclave_5_min_media_7d","subclave_5_min_suma_28d","subclave_6_min_lag_1d","subclave_6_min_media_7d","subclave_6_min_suma_28d"],"feature_types":["int","int","int","int","int","int","int","float","float","float","float","float","float","float","float","float","float","float","float","float","float","float","float","float","float","float","float","float","float","float","float","float","float","float","float","float","float","float","float","float","float","float","float","float","float","float","float","float","float","float","float","float","float"],"gradient_booster":{"model":{"cats":{"enc":[],"feature_segments":[],"sorted_idx":[]},"gbtree_model_param":{"num_parallel_tree":"1","num_trees":"420"},"iteration_indptr":[0,1,2,3,4,5,6,7,8,9,10,11,12,13,14,15,16,17,18,19,20,21,22,23,24,25,26,27,28,29,30,31,32,33,34,35,36,37,38,39,40,41,42,43,44,45,46,47,48,49,50,51,52,53,54,55,56,57,58,59,60,61,62,63,64,65,66,67,68,69,70,71,72,73,74,75,76,77,78,79,80,81,82,83,84,85,86,87,88,89,90,91,92,93,94,95,96,97,98,99,100,101,102,103,104,105,106,107,108,109,110,111,112,113,114,115,116,117,118,119,120,121,122,123,124,125,126,127,128,129,130,131,132,133,134,135,136,137,138,139,140,141,142,143,144,145,146,147,148,149,150,151,152,153,154,155,156,157,158,159,160,161,162,163,164,165,166,167,168,169,170,171,172,173,174,175,176,177,178,179,180,181,182,183,184,185,186,187,188,189,190,191,192,193,194,195,196,197,198,199,200,201,202,203,204,205,206,207,208,209,210,211,212,213,214,215,216,217,218,219,220,221,222,223,224,225,226,227,228,229,230,231,232,233,234,235,236,237,238,239,240,241,242,243,244,245,246,247,248,249,250,251,252,253,254,255,256,257,258,259,260,261,262,263,264,265,266,267,268,269,270,271,272,273,274,275,276,277,278,279,280,281,282,283,284,285,286,287,288,289,290,291,292,293,294,295,296,297,298,299,300,301,302,303,304,305,306,307,308,309,310,311,312,313,314,315,316,317,318,319,320,321,322,323,324,325,326,327,328,329,330,331,332,333,334,335,336,337,338,339,340,341,342,343,344,345,346,347,348,349,350,351,352,353,354,355,356,357,358,359,360,361,362,363,364,365,366,367,368,369,370,371,372,373,374,375,376,377,378,379,380,381,382,383,384,385,386,387,388,389,390,391,392,393,394,395,396,397,398,399,400,401,402,403,404,405,406,407,408,409,410,411,412,413,414,415,416,417,418,419,420],"tree_info":[0,0,0,0,0,0,0,0,0,0,0,0,0,0,0,0,0,0,0,0,0,0,0,0,0,0,0,0,0,0,0,0,0,0,0,0,0,0,0,0,0,0,0,0,0,0,0,0,0,0,0,0,0,0,0,0,0,0,0,0,0,0,0,0,0,0,0,0,0,0,0,0,0,0,0,0,0,0,0,0,0,0,0,0,0,0,0,0,0,0,0,0,0,0,0,0,0,0,0,0,0,0,0,0,0,0,0,0,0,0,0,0,0,0,0,0,0,0,0,0,0,0,0,0,0,0,0,0,0,0,0,0,0,0,0,0,0,0,0,0,0,0,0,0,0,0,0,0,0,0,0,0,0,0,0,0,0,0,0,0,0,0,0,0,0,0,0,0,0,0,0,0,0,0,0,0,0,0,0,0,0,0,0,0,0,0,0,0,0,0,0,0,0,0,0,0,0,0,0,0,0,0,0,0,0,0,0,0,0,0,0,0,0,0,0,0,0,0,0,0,0,0,0,0,0,0,0,0,0,0,0,0,0,0,0,0,0,0,0,0,0,0,0,0,0,0,0,0,0,0,0,0,0,0,0,0,0,0,0,0,0,0,0,0,0,0,0,0,0,0,0,0,0,0,0,0,0,0,0,0,0,0,0,0,0,0,0,0,0,0,0,0,0,0,0,0,0,0,0,0,0,0,0,0,0,0,0,0,0,0,0,0,0,0,0,0,0,0,0,0,0,0,0,0,0,0,0,0,0,0,0,0,0,0,0,0,0,0,0,0,0,0,0,0,0,0,0,0,0,0,0,0,0,0,0,0,0,0,0,0,0,0,0,0,0,0,0,0,0,0,0,0,0,0,0,0,0,0,0,0,0,0,0,0,0,0,0,0,0,0,0,0,0,0,0,0,0,0,0,0,0,0,0,0,0,0,0,0,0,0,0,0,0,0,0,0,0,0,0,0],"trees":[{"base_weights":[1.8555773E-2,-1.2650619E0,2.3336768E-1,-1.8048713E0,1.8616973E-1,-3.2695335E-1,4.4877425E-1,-8.6029194E-2,1.3663515E-2,2.2929287E-2,-2.5191395E-2,-3.657418E-2,1.5735108E-2,1.882446E-2,-3.579342E-2],"categories":[],"categories_nodes":[],"categories_segments":[],"categories_sizes":[],"default_left":[0,0,0,0,0,0,0,0,0,0,0,0,0,0,0],"id":0,"left_children":[1,3,5,7,9,11,13,-1,-1,-1,-1,-1,-1,-1,-1],"loss_changes":[1.0096822E2,4.1967926E1,3.8205276E1,3.0417969E1,6.1136513E0,3.8345627E1,7.727829E0,0E0,0E0,0E0,0E0,0E0,0E0,0E0,0E0],"parents":[2147483647,0,0,1,1,2,2,3,3,4,4,5,5,6,6],"right_children":[2,4,6,8,10,12,14,-1,-1,-1,-1,-1,-1,-1,-1],"split_conditions":[1.5E0,3.5E1,-2.2252093E-1,1.4942857E0,7.818315E-1,4E0,2.1E1,-8.6029194E-2,1.3663515E-2,2.2929287E-2,-2.5191395E-2,-3.657418E-2,1.5735108E-2,1.882446E-2,-3.579342E-2],"split_indices":[35,3,8,39,7,0,18,0,0,0,0,0,0,0,0],"split_type":[0,0,0,0,0,0,0,0,0,0,0,0,0,0,0],"sum_hessian":[3.61E2,5E1,3.11E2,3.6E1,1.4E1,8.6E1,2.25E2,3.1E1,5E0,1E1,4E0,4.7E1,3.9E1,2.23E2,2E0],"tree_param":{"num_deleted":"0","num_feature":"53","num_nodes":"15","size_leaf_vector":"1"}},{"base_weights":[3.0169655E-2,-1.2342511E0,2.3698126E-1,-1.7412597E0,1.0504864E-1,9.1304874E-1,1.3014948E-1,-8.2831025E-2,-1.603562E-2,2.8016709E-2,-4.3211807E-2,3.9333485E-2,-9.071824E-3,-1.5969642E-2,1.26495855E-2],"categories":[],"categories_nodes":[],"categories_segments":[],"categories_sizes":[],"default_left":[0,0,0,0,0,0,0,0,0,0,0,0,0,0,0],"id":1,"left_children":[1,3,5,7,9,11,13,-1,-1,-1,-1,-1,-1,-1,-1],"loss_changes":[9.578535E1,3.5427666E1,2.2417833E1,1.4487373E1,1.3535977E1,3.9625473E0,2.7357836E1,0E0,0E0,0E0,0E0,0E0,0E0,0E0,0E0],"parents":[2147483647,0,0,1,1,2,2,3,3,4,4,5,5,6,6],"right_children":[2,4,6,8,10,12,14,-1,-1,-1,-1,-1,-1,-1,-1],"split_conditions":[1.5E0,7.1428573E-1,2.8229286E1,3.5E1,7.818315E-1,8.642858E0,-2.2252093E-1,-8.2831025E-2,-1.603562E-2,2.8016709E-2,-4.3211807E-2,3.9333485E-2,-9.071824E-3,-1.5969642E-2,1.26495855E-2],"split_indices":[11,39,31,3,7,30,8,0,0,0,0,0,0,0,0],"split_type":[0,0,0,0,0,0,0,0,0,0,0,0,0,0,0],"sum_hessian":[3.61E2,4.9E1,3.12E2,3.5E1,1.4E1,4E1,2.72E2,2.7E1,8E0,1E1,4E0,3.8E1,2E0,7E1,2.02E2],"tree_param":{"num_deleted":"0","num_feature":"53","num_nodes":"15","size_leaf_vector":"1"}},{"base_weights":[3.8998355E-3,-1.2203203E0,2.0324847E-1,-1.8891996E0,-3.0064893E-1,-2.847949E-1,3.7653667E-1,-8.5276246E-2,-6.923533E-3,-3.7027653E-2,2.1381337E-2,-2.8502578E-2,1.0224582E-2,7.6649147E-3,2.4881322E-2],"categories":[],"categories_nodes":[],"categories_segments":[],"categories_sizes":[],"default_left":[0,0,0,0,0,0,0,0,0,0,0,0,0,0,0],"id":2,"left_children":[1,3,5,7,9,11,13,-1,-1,-1,-1,-1,-1,-1,-1],"loss_changes":[9.323576E1,3.1490517E1,2.8050041E1,1.1781082E1,1.4548655E1,2.0682793E1,1.0755856E1,0E0,0E0,0E0,0E0,0E0,0E0,0E0,0E0],"parents":[2147483647,0,0,1,1,2,2,3,3,4,4,5,5,6,6],"right_children":[2,4,6,8,10,12,14,-1,-1,-1,-1,-1,-1,-1,-1],"split_conditions":[1.5E0,9E0,-2.2252093E-1,6.3714284E-1,4E0,4E0,9E0,-8.5276246E-2,-6.923533E-3,-3.7027653E-2,2.1381337E-2,-2.8502578E-2,1.0224582E-2,7.6649147E-3,2.4881322E-2],"split_indices":[11,43,8,39,0,0,12,0,0,0,0,0,0,0,0],"split_type":[0,0,0,0,0,0,0,0,0,0,0,0,0,0,0],"sum_hessian":[3.77E2,5.1E1,3.26E2,2.8E1,2.3E1,8.5E1,2.41E2,2.4E1,4E0,1.3E1,1E1,4.7E1,3.8E1,1.4E2,1.01E2],"tree_param":{"num_deleted":"0","num_feature":"53","num_nodes":"15","size_leaf_vector":"1"}},{"base_weights":[6.3757743E-3,-1.1572102E0,1.7812E-1,-1.5784295E0,1.0261932E-1,-3.0611044E-1,3.6405718E-1,-8.239018E-2,-2.7316844E-2,2.5762685E-2,-4.304575E-2,-3.0616296E-2,1.1170515E-2,8.486659E-3,2.4439964E-2],"categories":[],"categories_nodes":[],"categories_segments":[],"categories_sizes":[],"default_left":[0,0,0,0,0,0,0,0,0,0,0,0,0,0,0],"id":3,"left_children":[1,3,5,7,9,11,13,-1,-1,-1,-1,-1,-1,-1,-1],"loss_changes":[7.535509E1,2.6142166E1,2.985558E1,1.2215988E1,1.0987234E1,2.5403942E1,8.621614E0,0E0,0E0,0E0,0E0,0E0,0E0,0E0,0E0],"parents":[2147483647,0,0,1,1,2,2,3,3,4,4,5,5,6,6],"right_children":[2,4,6,8,10,12,14,-1,-1,-1,-1,-1,-1,-1,-1],"split_conditions":[1.5E0,7.1428573E-1,-2.2252093E-1,9E0,7.818315E-1,4E0,8.223E1,-8.239018E-2,-2.7316844E-2,2.5762685E-2,-4.304575E-2,-3.0616296E-2,1.1170515E-2,8.486659E-3,2.4439964E-2],"split_indices":[11,39,8,43,7,0,24,0,0,0,0,0,0,0,0],"split_type":[0,0,0,0,0,0,0,0,0,0,0,0,0,0,0],"sum_hessian":[3.72E2,4.6E1,3.26E2,3.4E1,1.2E1,9E1,2.36E2,2E1,1.4E1,9E0,3E0,5E1,4E1,1.49E2,8.7E1],"tree_param":{"num_deleted":"0","num_feature":"53","num_nodes":"15","size_leaf_vector":"1"}},{"base_weights":[5.736082E-3,-1.1715876E0,1.9369835E-1,-1.5030603E0,3.081132E-1,-2.2095034E-1,3.5165766E-1,-6.842206E-2,1.41664E-3,2.9306185E-2,-3.0372597E-2,3.3509836E-2,-1.836109E-2,-2.1384745E-3,2.031207E-2],"categories":[],"categories_nodes":[],"categories_segments":[],"categories_sizes":[],"default_left":[0,0,0,0,0,0,0,0,0,0,0,0,0,0,0],"id":4,"left_children":[1,3,5,7,9,11,13,-1,-1,-1,-1,-1,-1,-1,-1],"loss_changes":[8.2777466E1,2.6417526E1,2.131723E1,1.3718315E1,6.6022153E0,2.3772001E1,1.4901644E1,0E0,0E0,0E0,0E0,0E0,0E0,0E0,0E0],"parents":[2147483647,0,0,1,1,2,2,3,3,4,4,5,5,6,6],"right_children":[2,4,6,8,10,12,14,-1,-1,-1,-1,-1,-1,-1,-1],"split_conditions":[1.5E0,5.31E0,-2.2252093E-1,1.4942857E0,1.0231E2,2.8630714E1,5.908E1,-6.842206E-2,1.41664E-3,2.9306185E-2,-3.0372597E-2,3.3509836E-2,-1.836109E-2,-2.1384745E-3,2.031207E-2],"split_indices":[11,49,8,39,32,31,24,0,0,0,0,0,0,0,0],"split_type":[0,0,0,0,0,0,0,0,0,0,0,0,0,0,0],"sum_hessian":[3.69E2,4.9E1,3.2E2,4E1,9E0,8.8E1,2.32E2,3.5E1,5E0,7E0,2E0,1.5E1,7.3E1,6.5E1,1.67E2],"tree_param":{"num_deleted":"0","num_feature":"53","num_nodes":"15","size_leaf_vector":"1"}},{"base_weights":[-2.2104882E-2,-1.2013422E0,1.736919E-1,-1.5719668E0,1.879095E-1,-2.261573E-1,3.2851833E-1,-7.770595E-2,-3.0595994E-2,2.8425638E-2,-2.5934221E-2,1.3862804E-2,-2.7512716E-2,2.1370832E-2,5.999974E-3],"categories":[],"categories_nodes":[],"categories_segments":[],"categories_sizes":[],"default_left":[0,0,0,0,0,0,0,0,0,0,0,0,0,0,0],"id":5,"left_children":[1,3,5,7,9,11,13,-1,-1,-1,-1,-1,-1,-1,-1],"loss_changes":[8.67594E1,2.8285133E1,2.0150824E1,8.99968E0,7.0532885E0,2.4789064E1,8.376272E0,0E0,0E0,0E0,0E0,0E0,0E0,0E0,0E0],"parents":[2147483647,0,0,1,1,2,2,3,3,4,4,5,5,6,6],"right_children":[2,4,6,8,10,12,14,-1,-1,-1,-1,-1,-1,-1,-1],"split_conditions":[1.5E0,3.0705715E1,-2.2252093E-1,2.1E1,1.01274E3,0E0,2.608E1,-7.770595E-2,-3.0595994E-2,2.8425638E-2,-2.5934221E-2,1.3862804E-2,-2.7512716E-2,2.1370832E-2,5.999974E-3],"split_indices":[11,23,8,3,37,7,13,0,0,0,0,0,0,0,0],"split_type":[0,0,0,0,0,0,0,0,0,0,0,0,0,0,0],"sum_hessian":[3.71E2,5.1E1,3.2E2,4E1,1.1E1,8.9E1,2.31E2,2.5E1,1.5E1,7E0,4E0,4E1,4.9E1,1.05E2,1.26E2],"tree_param":{"num_deleted":"0","num_feature":"53","num_nodes":"15","size_leaf_vector":"1"}},{"base_weights":[1.8925782E-2,-1.0248991E0,1.8049704E-1,-1.3688492E0,1.457917E-1,4.3403414E-1,-3.6396757E-2,-7.392663E-2,-2.4036676E-2,-2.7122399E-2,2.1704828E-2,3.3494525E-3,2.3237215E-2,-8.834639E-3,2.2723956E-2],"categories":[],"categories_nodes":[],"categories_segments":[],"categories_sizes":[],"default_left":[0,0,0,0,0,0,0,0,0,0,0,0,0,0,0],"id":6,"left_children":[1,3,5,7,9,11,13,-1,-1,-1,-1,-1,-1,-1,-1],"loss_changes":[6.2273464E1,2.0430546E1,1.7608997E1,1.1394707E1,5.333355E0,7.468361E0,1.9772322E1,0E0,0E0,0E0,0E0,0E0,0E0,0E0,0E0],"parents":[2147483647,0,0,1,1,2,2,3,3,4,4,5,5,6,6],"right_children":[2,4,6,8,10,12,14,-1,-1,-1,-1,-1,-1,-1,-1],"split_conditions":[1.5E0,4.5482E2,2.608E1,2.1E1,6.3714284E-1,1.6E1,1.33E2,-7.392663E-2,-2.4036676E-2,-2.7122399E-2,2.1704828E-2,3.3494525E-3,2.3237215E-2,-8.834639E-3,2.2723956E-2],"split_indices":[11,29,13,3,39,11,32,0,0,0,0,0,0,0,0],"split_type":[0,0,0,0,0,0,0,0,0,0,0,0,0,0,0],"sum_hessian":[3.64E2,4.7E1,3.17E2,3.6E1,1.1E1,1.45E2,1.72E2,2E1,1.6E1,3E0,8E0,4.4E1,1.01E2,1.33E2,3.9E1],"tree_param":{"num_deleted":"0","num_feature":"53","num_nodes":"15","size_leaf_vector":"1"}},{"base_weights":[-3.4591787E-2,-1.1259224E0,1.478608E-1,-1.7759252E0,-4.6863854E-1,-2.0559694E-1,2.8528857E-1,-7.888925E-2,-2.5895206E-2,9.221006E-3,-4.926628E-2,3.3939417E-2,-1.6498012E-2,4.1212235E-3,2.0521667E-2],"categories":[],"categories_nodes":[],"categories_segments":[],"categories_sizes":[],"default_left":[0,0,0,0,0,0,0,0,0,0,0,0,0,0,0],"id":7,"left_children":[1,3,5,7,9,11,13,-1,-1,-1,-1,-1,-1,-1,-1],"loss_changes":[7.299402E1,2.0349236E1,1.5423443E1,2.4573212E0,1.6447329E1,2.0389517E1,9.3113365E0,0E0,0E0,0E0,0E0,0E0,0E0,0E0,0E0],"parents":[2147483647,0,0,1,1,2,2,3,3,4,4,5,5,6,6],"right_children":[2,4,6,8,10,12,14,-1,-1,-1,-1,-1,-1,-1,-1],"split_conditions":[1E0,7E0,-2.2252093E-1,1.9E1,2.93E1,2.8108572E1,9E0,-7.888925E-2,-2.5895206E-2,9.221006E-3,-4.926628E-2,3.3939417E-2,-1.6498012E-2,4.1212235E-3,2.0521667E-2],"split_indices":[12,43,8,2,19,31,12,0,0,0,0,0,0,0,0],"split_type":[0,0,0,0,0,0,0,0,0,0,0,0,0,0,0],"sum_hessian":[3.62E2,5E1,3.12E2,2.3E1,2.7E1,8.7E1,2.25E2,1.8E1,5E0,1.5E1,1.2E1,1.3E1,7.4E1,1.27E2,9.8E1],"tree_param":{"num_deleted":"0","num_feature":"53","num_nodes":"15","size_leaf_vector":"1"}},{"base_weights":[5.219824E-3,-9.9957895E-1,1.6724406E-1,-1.4368722E0,-7.5329736E-2,-2.1372443E-1,3.1065264E-1,-6.80841E-2,-1.6004374E-2,1.887487E-2,-3.6890347E-2,-2.549179E-2,1.1222096E-2,2.1412494E-2,4.6477546E-3],"categories":[],"categories_nodes":[],"categories_segments":[],"categories_sizes":[],"default_left":[0,0,0,0,0,0,0,0,0,0,0,0,0,0,0],"id":8,"left_children":[1,3,5,7,9,11,13,-1,-1,-1,-1,-1,-1,-1,-1],"loss_changes":[6.1549995E1,2.094822E1,1.7949402E1,8.0592575E0,1.0125065E1,1.939416E1,1.0220173E1,0E0,0E0,0E0,0E0,0E0,0E0,0E0,0E0],"parents":[2147483647,0,0,1,1,2,2,3,3,4,4,5,5,6,6],"right_children":[2,4,6,8,10,12,14,-1,-1,-1,-1,-1,-1,-1,-1],"split_conditions":[1.5E0,5.714286E-1,-2.2252093E-1,2.1E1,7.818315E-1,4E0,2.608E1,-6.80841E-2,-1.6004374E-2,1.887487E-2,-3.6890347E-2,-2.549179E-2,1.1222096E-2,2.1412494E-2,4.6477546E-3],"split_indices":[11,39,8,3,7,0,13,0,0,0,0,0,0,0,0],"split_type":[0,0,0,0,0,0,0,0,0,0,0,0,0,0,0],"sum_hessian":[3.73E2,5E1,3.23E2,3.3E1,1.7E1,8.8E1,2.35E2,2.5E1,8E0,1.1E1,6E0,4.7E1,4.1E1,1.07E2,1.28E2],"tree_param":{"num_deleted":"0","num_feature":"53","num_nodes":"15","size_leaf_vector":"1"}},{"base_weights":[-4.3126572E-2,-1.0365376E0,1.2738532E-1,-1.2213011E0,2.9630033E-2,-3.0728188E-1,2.9224253E-1,-5.862471E-2,4.739625E-4,-2.984289E-2,1.2164318E-2,2.573959E-2,6.3770562E-3],"categories":[],"categories_nodes":[],"categories_segments":[],"categories_sizes":[],"default_left":[0,0,0,0,0,0,0,0,0,0,0,0,0],"id":9,"left_children":[1,3,5,7,-1,9,11,-1,-1,-1,-1,-1,-1],"loss_changes":[6.071706E1,1.9501549E1,2.2187685E1,1.4655457E1,0E0,2.3504475E1,1.0170092E1,0E0,0E0,0E0,0E0,0E0,0E0],"parents":[2147483647,0,0,1,1,2,2,3,3,5,5,6,6],"right_children":[2,4,6,8,-1,10,12,-1,-1,-1,-1,-1,-1],"split_conditions":[1.5E0,2E1,-2.2252093E-1,3.2487144E1,2.9630033E-2,4E0,1.362E1,-5.862471E-2,4.739625E-4,-2.984289E-2,1.2164318E-2,2.573959E-2,6.3770562E-3],"split_indices":[11,49,8,27,0,0,13,0,0,0,0,0,0],"split_type":[0,0,0,0,0,0,0,0,0,0,0,0,0],"sum_hessian":[3.54E2,5E1,3.04E2,4.6E1,4E0,8.3E1,2.21E2,3.8E1,8E0,4.8E1,3.5E1,5.8E1,1.63E2],"tree_param":{"num_deleted":"0","num_feature":"53","num_nodes":"13","size_leaf_vector":"1"}},{"base_weights":[-1.0220326E-2,-9.433157E-1,1.3827375E-1,-1.2682835E0,4.3446267E-1,-2.2281718E-1,2.6845536E-1,-6.355676E-2,-1.5891448E-2,2.9805321E-2,-9.725893E-3,-1.8274108E-3,-7.255948E-2,6.0487865E-3,2.3975214E-2],"categories":[],"categories_nodes":[],"categories_segments":[],"categories_sizes":[],"default_left":[0,0,0,0,0,0,0,0,0,0,0,0,0,0,0],"id":10,"left_children":[1,3,5,7,9,11,13,-1,-1,-1,-1,-1,-1,-1,-1],"loss_changes":[5.0969448E1,2.3988102E1,1.507439E1,1.0011673E1,2.8738465E0,2.3890736E1,8.871119E0,0E0,0E0,0E0,0E0,0E0,0E0,0E0,0E0],"parents":[2147483647,0,0,1,1,2,2,3,3,4,4,5,5,6,6],"right_children":[2,4,6,8,10,12,14,-1,-1,-1,-1,-1,-1,-1,-1],"split_conditions":[1.5E0,3.0705715E1,-2.2252093E-1,1.8E1,1.01274E3,7.781E1,8.868E1,-6.355676E-2,-1.5891448E-2,2.9805321E-2,-9.725893E-3,-1.8274108E-3,-7.255948E-2,6.0487865E-3,2.3975214E-2],"split_indices":[11,23,8,2,37,40,24,0,0,0,0,0,0,0,0],"split_type":[0,0,0,0,0,0,0,0,0,0,0,0,0,0,0],"sum_hessian":[3.63E2,4.8E1,3.15E2,3.9E1,9E0,8.3E1,2.32E2,2.7E1,1.2E1,6E0,3E0,7.7E1,6E0,1.74E2,5.8E1],"tree_param":{"num_deleted":"0","num_feature":"53","num_nodes":"15","size_leaf_vector":"1"}},{"base_weights":[1.406331E-2,-9.5086884E-1,1.629837E-1,-1.5434121E0,-2.4186614E-1,5.862606E-1,5.5792905E-2,-7.114523E-2,-1.418591E-2,1.0226237E-2,-5.2484125E-2,4.0859427E-2,1.4514712E-2,-1.5277621E-2,8.808699E-3],"categories":[],"categories_nodes":[],"categories_segments":[],"categories_sizes":[],"default_left":[0,0,0,0,0,0,0,0,0,0,0,0,0,0,0],"id":11,"left_children":[1,3,5,7,9,11,13,-1,-1,-1,-1,-1,-1,-1,-1],"loss_changes":[5.3196484E1,1.986243E1,1.4459758E1,5.8329544E0,1.4416513E1,5.344425E0,1.881559E1,0E0,0E0,0E0,0E0,0E0,0E0,0E0,0E0],"parents":[2147483647,0,0,1,1,2,2,3,3,4,4,5,5,6,6],"right_children":[2,4,6,8,10,12,14,-1,-1,-1,-1,-1,-1,-1,-1],"split_conditions":[1.5E0,9E0,8.0705E2,1.9E1,1.2E1,9E0,-2.2252093E-1,-7.114523E-2,-1.418591E-2,1.0226237E-2,-5.2484125E-2,4.0859427E-2,1.4514712E-2,-1.5277621E-2,8.808699E-3],"split_indices":[11,43,33,2,20,43,8,0,0,0,0,0,0,0,0],"split_type":[0,0,0,0,0,0,0,0,0,0,0,0,0,0,0],"sum_hessian":[3.65E2,4.7E1,3.18E2,2.4E1,2.3E1,6.2E1,2.56E2,1.9E1,5E0,1.7E1,6E0,1.8E1,4.4E1,6.9E1,1.87E2],"tree_param":{"num_deleted":"0","num_feature":"53","num_nodes":"15","size_leaf_vector":"1"}},{"base_weights":[-1.7802726E-2,-1.4480453E0,5.7599816E-2,4.85767E-4,-6.930485E-2,6.70096E-1,-2.1985808E-2,3.269958E-2,-1.66122E-2,-1.620291E-2,5.3757876E-3],"categories":[],"categories_nodes":[],"categories_segments":[],"categories_sizes":[],"default_left":[0,0,0,0,0,0,0,0,0,0,0],"id":12,"left_children":[1,3,5,-1,-1,7,9,-1,-1,-1,-1],"loss_changes":[3.984116E1,7.7400017E0,1.7171011E1,0E0,0E0,7.3280087E0,1.8917048E1,0E0,0E0,0E0,0E0],"parents":[2147483647,0,0,1,1,2,2,5,5,6,6],"right_children":[2,4,6,-1,-1,8,10,-1,-1,-1,-1],"split_conditions":[2E1,9.23E0,2.7721428E1,4.85767E-4,-6.930485E-2,3.977E1,-2.2252093E-1,3.269958E-2,-1.66122E-2,-1.620291E-2,5.3757876E-3],"split_indices":[24,40,31,0,0,46,8,0,0,0,0],"split_type":[0,0,0,0,0,0,0,0,0,0,0],"sum_hessian":[3.65E2,1.6E1,3.49E2,3E0,1.3E1,3.8E1,3.11E2,3.4E1,4E0,8.9E1,2.22E2],"tree_param":{"num_deleted":"0","num_feature":"53","num_nodes":"11","size_leaf_vector":"1"}},{"base_weights":[6.9521315E-4,-1.5436413E0,8.105665E-2,-5.8633257E-3,-6.763089E-2,-4.1745365E-2,4.3651122E-1,-1.0454938E-2,9.865859E-3,1.969173E-2,-3.6617517E-2],"categories":[],"categories_nodes":[],"categories_segments":[],"categories_sizes":[],"default_left":[0,0,0,0,0,0,0,0,0,0,0],"id":13,"left_children":[1,3,5,-1,-1,7,9,-1,-1,-1,-1],"loss_changes":[4.641785E1,3.1830864E0,1.556332E1,0E0,0E0,1.7040998E1,8.027086E0,0E0,0E0,0E0,0E0],"parents":[2147483647,0,0,1,1,2,2,5,5,6,6],"right_children":[2,4,6,-1,-1,8,10,-1,-1,-1,-1],"split_conditions":[2E1,9.23E0,4.059714E1,-5.8633257E-3,-6.763089E-2,4E0,2.1E1,-1.0454938E-2,9.865859E-3,1.969173E-2,-3.6617517E-2],"split_indices":[24,40,23,0,0,0,18,0,0,0,0],"split_type":[0,0,0,0,0,0,0,0,0,0,0],"sum_hessian":[3.69E2,1.6E1,3.53E2,2E0,1.4E1,2.64E2,8.9E1,1.5E2,1.14E2,8.7E1,2E0],"tree_param":{"num_deleted":"0","num_feature":"53","num_nodes":"11","size_leaf_vector":"1"}},{"base_weights":[1.18545685E-2,-1.0040917E0,1.1290825E-1,4.227955E-1,-1.2333981E0,-2.1410452E-1,2.3447584E-1,-4.1564736E-3,2.858466E-2,-5.7241697E-2,1.1180962E-2,-2.8077971E-2,5.111774E-3,-5.664738E-3,1.5425639E-2],"categories":[],"categories_nodes":[],"categories_segments":[],"categories_sizes":[],"default_left":[0,0,0,0,0,0,0,0,0,0,0,0,0,0,0],"id":14,"left_children":[1,3,5,7,9,11,13,-1,-1,-1,-1,-1,-1,-1,-1],"loss_changes":[3.8012856E1,1.2264702E1,1.3502778E1,1.1847204E0,9.821133E0,1.5652668E1,1.4150637E1,0E0,0E0,0E0,0E0,0E0,0E0,0E0,0E0],"parents":[2147483647,0,0,1,1,2,2,3,3,4,4,5,5,6,6],"right_children":[2,4,6,8,10,12,14,-1,-1,-1,-1,-1,-1,-1,-1],"split_conditions":[1.5844286E1,5.4E-1,-2.2252093E-1,3.208E1,2.7E1,1.239E1,5.908E1,-4.1564736E-3,2.858466E-2,-5.7241697E-2,1.1180962E-2,-2.8077971E-2,5.111774E-3,-5.664738E-3,1.5425639E-2],"split_indices":[36,19,8,21,2,19,24,0,0,0,0,0,0,0,0],"split_type":[0,0,0,0,0,0,0,0,0,0,0,0,0,0,0],"sum_hessian":[3.65E2,3.1E1,3.34E2,4E0,2.7E1,9E1,2.44E2,2E0,2E0,2.4E1,3E0,3.6E1,5.4E1,7E1,1.74E2],"tree_param":{"num_deleted":"0","num_feature":"53","num_nodes":"15","size_leaf_vector":"1"}},{"base_weights":[-3.019534E-2,-1.2979375E0,4.9803782E-2,-1.5018538E0,1.4083643E-2,-1.3110237E-1,3.0369166E-1,-9.628632E-3,-6.422655E-2,-2.825658E-2,3.971418E-3,1.3480421E-2,-2.8873745E-2],"categories":[],"categories_nodes":[],"categories_segments":[],"categories_sizes":[],"default_left":[0,0,0,0,0,0,0,0,0,0,0,0,0],"id":15,"left_children":[1,3,5,7,-1,9,11,-1,-1,-1,-1,-1,-1],"loss_changes":[3.8447002E1,8.892498E0,1.6519468E1,1.7175636E0,0E0,2.8076048E1,5.7165375E0,0E0,0E0,0E0,0E0,0E0,0E0],"parents":[2147483647,0,0,1,1,2,2,3,3,5,5,6,6],"right_children":[2,4,6,8,-1,10,12,-1,-1,-1,-1,-1,-1],"split_conditions":[1.2735714E1,2.7E1,4E0,8.38E0,1.4083643E-2,5.814E1,5.707E1,-9.628632E-3,-6.422655E-2,-2.825658E-2,3.971418E-3,1.3480421E-2,-2.8873745E-2],"split_indices":[23,2,0,19,0,24,43,0,0,0,0,0,0],"split_type":[0,0,0,0,0,0,0,0,0,0,0,0,0],"sum_hessian":[3.75E2,2E1,3.55E2,1.8E1,2E0,2.08E2,1.47E2,2E0,1.6E1,5.8E1,1.5E2,1.44E2,3E0],"tree_param":{"num_deleted":"0","num_feature":"53","num_nodes":"13","size_leaf_vector":"1"}},{"base_weights":[1.9165315E-2,-7.728928E-1,1.407818E-1,-6.0398426E-2,-1.6580226E-1,5.957974E-1,6.141823E-2,1.4534652E-2,-3.249447E-2,-5.8259506E-5,2.8554536E-2,-1.5925117E-2,7.4873404E-3],"categories":[],"categories_nodes":[],"categories_segments":[],"categories_sizes":[],"default_left":[0,0,0,0,0,0,0,0,0,0,0,0,0],"id":16,"left_children":[1,3,5,-1,7,9,11,-1,-1,-1,-1,-1,-1],"loss_changes":[3.653926E1,2.197119E1,1.1771202E1,0E0,1.1173201E1,3.422596E0,1.6513382E1,0E0,0E0,0E0,0E0,0E0,0E0],"parents":[2147483647,0,0,1,1,2,2,4,4,5,5,6,6],"right_children":[2,4,6,-1,8,10,12,-1,-1,-1,-1,-1,-1],"split_conditions":[5.4E-1,7E0,2.8229286E1,-6.0398426E-2,3.208E1,1.187E1,1.038E1,1.4534652E-2,-3.249447E-2,-5.8259506E-5,2.8554536E-2,-1.5925117E-2,7.4873404E-3],"split_indices":[11,43,31,0,19,11,19,0,0,0,0,0,0],"split_type":[0,0,0,0,0,0,0,0,0,0,0,0,0],"sum_hessian":[3.74E2,4.8E1,3.26E2,2E1,2.8E1,4.6E1,2.8E2,1.6E1,1.2E1,8E0,3.8E1,5.9E1,2.21E2],"tree_param":{"num_deleted":"0","num_feature":"53","num_nodes":"13","size_leaf_vector":"1"}},{"base_weights":[-8.88209E-3,-6.4451903E-1,9.228916E-2,-9.8354894E-1,2.0311059E-1,3.884545E-2,4.6795383E-2,-5.1944654E-2,-1.1264645E-2,2.105805E-2,-1.9872714E-2,-1.465947E-2,7.0554125E-3],"categories":[],"categories_nodes":[],"categories_segments":[],"categories_sizes":[],"default_left":[0,0,0,0,0,0,0,0,0,0,0,0,0],"id":17,"left_children":[1,3,5,7,9,-1,11,-1,-1,-1,-1,-1,-1],"loss_changes":[2.3653343E1,1.50117E1,1.2580694E1,7.157921E0,4.3880787E0,0E0,1.6469776E1,0E0,0E0,0E0,0E0,0E0,0E0],"parents":[2147483647,0,0,1,1,2,2,3,3,4,4,6,6],"right_children":[2,4,6,8,10,-1,12,-1,-1,-1,-1,-1,-1],"split_conditions":[5.4E-1,7.1428573E-1,4.857143E0,2.4E1,3.5559284E1,3.884545E-2,1.146E1,-5.1944654E-2,-1.1264645E-2,2.105805E-2,-1.9872714E-2,-1.465947E-2,7.0554125E-3],"split_indices":[11,39,34,17,31,0,19,0,0,0,0,0,0],"split_type":[0,0,0,0,0,0,0,0,0,0,0,0,0],"sum_hessian":[3.63E2,4.8E1,3.15E2,3.4E1,1.4E1,1.3E1,3.02E2,2.2E1,1.2E1,1E1,4E0,7.1E1,2.31E2],"tree_param":{"num_deleted":"0","num_feature":"53","num_nodes":"13","size_leaf_vector":"1"}},{"base_weights":[-5.7510827E-3,-8.395208E-1,1.20699085E-1,-1.1509076E0,3.1236565E-1,6.306354E-1,3.98769E-2,-5.0035484E-2,1.2865931E-2,2.5164317E-2,-1.5068761E-2,2.9688364E-2,-1.2284287E-2,-1.4865962E-2,7.99278E-3],"categories":[],"categories_nodes":[],"categories_segments":[],"categories_sizes":[],"default_left":[0,0,0,0,0,0,0,0,0,0,0,0,0,0,0],"id":18,"left_children":[1,3,5,7,9,11,13,-1,-1,-1,-1,-1,-1,-1,-1],"loss_changes":[3.9631554E1,1.865353E1,1.3393555E1,6.821274E0,3.3207707E0,5.225767E0,1.89116E1,0E0,0E0,0E0,0E0,0E0,0E0,0E0,0E0],"parents":[2147483647,0,0,1,1,2,2,3,3,4,4,5,5,6,6],"right_children":[2,4,6,8,10,12,14,-1,-1,-1,-1,-1,-1,-1,-1],"split_conditions":[1.5E0,3.0705715E1,2.8229286E1,7.8E1,4.172E1,3.977E1,-2.2252093E-1,-5.0035484E-2,1.2865931E-2,2.5164317E-2,-1.5068761E-2,2.9688364E-2,-1.2284287E-2,-1.4865962E-2,7.99278E-3],"split_indices":[11,23,31,40,27,46,8,0,0,0,0,0,0,0,0],"split_type":[0,0,0,0,0,0,0,0,0,0,0,0,0,0,0],"sum_hessian":[3.71E2,4.7E1,3.24E2,3.7E1,1E1,4.2E1,2.82E2,3.5E1,2E0,7E0,3E0,3.8E1,4E0,7.8E1,2.04E2],"tree_param":{"num_deleted":"0","num_feature":"53","num_nodes":"15","size_leaf_vector":"1"}},{"base_weights":[-1.2102282E-2,-7.619494E-1,1.1039338E-1,-1.2447312E0,-1.4766893E-1,1.3378629E-1,-5.0757118E-2,-5.5774093E-2,-1.4440309E-2,1.2919478E-2,-4.7359075E-2,-6.5115923E-3,9.503377E-3],"categories":[],"categories_nodes":[],"categories_segments":[],"categories_sizes":[],"default_left":[0,0,0,0,0,0,0,0,0,0,0,0,0],"id":19,"left_children":[1,3,5,7,9,11,-1,-1,-1,-1,-1,-1,-1],"loss_changes":[3.3690712E1,1.4813496E1,1.0604442E1,2.509945E0,1.3393505E1,9.716703E0,0E0,0E0,0E0,0E0,0E0,0E0,0E0],"parents":[2147483647,0,0,1,1,2,2,3,3,4,4,5,5],"right_children":[2,4,6,8,10,12,-1,-1,-1,-1,-1,-1,-1],"split_conditions":[1.5E0,9E0,2.1E1,1.9E1,1.1E1,-2.2252093E-1,-5.0757118E-2,-5.5774093E-2,-1.4440309E-2,1.2919478E-2,-4.7359075E-2,-6.5115923E-3,9.503377E-3],"split_indices":[11,43,18,2,20,8,0,0,0,0,0,0,0],"split_type":[0,0,0,0,0,0,0,0,0,0,0,0,0],"sum_hessian":[3.62E2,4.9E1,3.13E2,2.6E1,2.3E1,3.1E2,3E0,2.1E1,5E0,1.7E1,6E0,8E1,2.3E2],"tree_param":{"num_deleted":"0","num_feature":"53","num_nodes":"13","size_leaf_vector":"1"}},{"base_weights":[-1.7054494E-2,-1.1065942E0,4.0905677E-2,-1.3290995E-1,-5.409125E-2,4.958987E-1,-3.7673302E-2,2.1490006E-2,-2.9169247E-2,-2.87536E-3,2.769141E-2,2.205244E-2,-5.350886E-3],"categories":[],"categories_nodes":[],"categories_segments":[],"categories_sizes":[],"default_left":[0,0,0,0,0,0,0,0,0,0,0,0,0],"id":20,"left_children":[1,3,5,7,-1,9,11,-1,-1,-1,-1,-1,-1],"loss_changes":[2.3131306E1,3.9762688E0,1.2506586E1,3.5770483E0,0E0,5.866914E0,1.713629E1,0E0,0E0,0E0,0E0,0E0,0E0],"parents":[2147483647,0,0,1,1,2,2,3,3,5,5,6,6],"right_children":[2,4,6,8,-1,10,12,-1,-1,-1,-1,-1,-1],"split_conditions":[2E1,1E0,2.8229286E1,8.177E1,-5.409125E-2,1.187E1,-7.818315E-1,2.1490006E-2,-2.9169247E-2,-2.87536E-3,2.769141E-2,2.205244E-2,-5.350886E-3],"split_indices":[24,0,31,32,0,11,7,0,0,0,0,0,0],"split_type":[0,0,0,0,0,0,0,0,0,0,0,0,0],"sum_hessian":[3.62E2,1.6E1,3.46E2,4E0,1.2E1,4.9E1,2.97E2,2E0,2E0,1.3E1,3.6E1,4E1,2.57E2],"tree_param":{"num_deleted":"0","num_feature":"53","num_nodes":"13","size_leaf_vector":"1"}},{"base_weights":[3.8174808E-3,-7.158189E-1,1.1493279E-1,-9.689456E-1,1.3862003E-1,2.6996225E-2,5.1597327E-1,-4.9063444E-2,-1.3241036E-2,1.8551223E-2,-2.1806004E-2,-6.3526076E-3,1.043388E-2,2.5630986E-2,-3.7795384E-4],"categories":[],"categories_nodes":[],"categories_segments":[],"categories_sizes":[],"default_left":[0,0,0,0,0,0,0,0,0,0,0,0,0,0,0],"id":21,"left_children":[1,3,5,7,9,11,13,-1,-1,-1,-1,-1,-1,-1,-1],"loss_changes":[2.959194E1,1.1041714E1,1.1267969E1,5.3125496E0,3.6335986E0,1.1640109E1,3.7856073E0,0E0,0E0,0E0,0E0,0E0,0E0,0E0,0E0],"parents":[2147483647,0,0,1,1,2,2,3,3,4,4,5,5,6,6],"right_children":[2,4,6,8,10,12,14,-1,-1,-1,-1,-1,-1,-1,-1],"split_conditions":[1.5E0,7.1428573E-1,5.899E1,9E0,7.818315E-1,4E0,2.9014285E0,-4.9063444E-2,-1.3241036E-2,1.8551223E-2,-2.1806004E-2,-6.3526076E-3,1.043388E-2,2.5630986E-2,-3.7795384E-4],"split_indices":[11,39,15,43,7,0,39,0,0,0,0,0,0,0,0],"split_type":[0,0,0,0,0,0,0,0,0,0,0,0,0,0,0],"sum_hessian":[3.65E2,4.7E1,3.18E2,3.6E1,1.1E1,2.63E2,5.5E1,2.4E1,1.2E1,8E0,3E0,1.47E2,1.16E2,4.4E1,1.1E1],"tree_param":{"num_deleted":"0","num_feature":"53","num_nodes":"15","size_leaf_vector":"1"}},{"base_weights":[-2.3898555E-2,-6.723489E-1,8.317646E-2,-1.0975959E0,-1.5157862E-1,-1.2723803E-2,5.58791E-1,-4.7725312E-2,2.9914433E-3,1.1051733E-2,-4.5556925E-2,1.4742149E-2,-5.996012E-3,3.514956E-2,1.2087988E-2],"categories":[],"categories_nodes":[],"categories_segments":[],"categories_sizes":[],"default_left":[0,0,0,0,0,0,0,0,0,0,0,0,0,0,0],"id":22,"left_children":[1,3,5,7,9,11,13,-1,-1,-1,-1,-1,-1,-1,-1],"loss_changes":[2.5725803E1,1.1210514E1,1.4545055E1,3.4152412E0,1.1981804E1,1.4128985E1,3.7282429E0,0E0,0E0,0E0,0E0,0E0,0E0,0E0,0E0],"parents":[2147483647,0,0,1,1,2,2,3,3,4,4,5,5,6,6],"right_children":[2,4,6,8,10,12,14,-1,-1,-1,-1,-1,-1,-1,-1],"split_conditions":[5.4E-1,9E0,1.33E2,7.401E1,1.2E1,3E0,3.437E1,-4.7725312E-2,2.9914433E-3,1.1051733E-2,-4.5556925E-2,1.4742149E-2,-5.996012E-3,3.514956E-2,1.2087988E-2],"split_indices":[11,43,32,19,20,14,11,0,0,0,0,0,0,0,0],"split_type":[0,0,0,0,0,0,0,0,0,0,0,0,0,0,0],"sum_hessian":[3.66E2,5E1,3.16E2,2.6E1,2.4E1,2.65E2,5.1E1,2.4E1,2E0,1.8E1,6E0,6.9E1,1.96E2,2E1,3.1E1],"tree_param":{"num_deleted":"0","num_feature":"53","num_nodes":"15","size_leaf_vector":"1"}},{"base_weights":[-3.1504303E-2,-6.87323E-1,6.798389E-2,-9.025622E-1,2.0139512E-1,5.8758676E-1,-9.222077E-3,-4.2608343E-2,2.3482949E-2,-2.4466662E-2,2.1341234E-2,-8.755413E-3,2.9572254E-2,1.950714E-2,-3.4821406E-3],"categories":[],"categories_nodes":[],"categories_segments":[],"categories_sizes":[],"default_left":[0,0,0,0,0,0,0,0,0,0,0,0,0,0,0],"id":23,"left_children":[1,3,5,7,9,11,13,-1,-1,-1,-1,-1,-1,-1,-1],"loss_changes":[2.4029556E1,9.731848E0,1.2870868E1,1.1133606E1,3.9213965E0,5.482399E0,1.0993004E1,0E0,0E0,0E0,0E0,0E0,0E0,0E0,0E0],"parents":[2147483647,0,0,1,1,2,2,3,3,4,4,5,5,6,6],"right_children":[2,4,6,8,10,12,14,-1,-1,-1,-1,-1,-1,-1,-1],"split_conditions":[1.5E0,4.292E1,7.9042E2,2E1,1E0,1.187E1,-7.818315E-1,-4.2608343E-2,2.3482949E-2,-2.4466662E-2,2.1341234E-2,-8.755413E-3,2.9572254E-2,1.950714E-2,-3.4821406E-3],"split_indices":[11,15,33,49,20,11,7,0,0,0,0,0,0,0,0],"split_type":[0,0,0,0,0,0,0,0,0,0,0,0,0,0,0],"sum_hessian":[3.64E2,4.6E1,3.18E2,3.7E1,9E0,3.9E1,2.79E2,3.4E1,3E0,2E0,7E0,6E0,3.3E1,3.6E1,2.43E2],"tree_param":{"num_deleted":"0","num_feature":"53","num_nodes":"15","size_leaf_vector":"1"}},{"base_weights":[-2.575381E-2,-4.1166964E-1,1.20569825E-1,-7.205827E-1,-5.700244E-2,6.523229E-1,4.590571E-2,-3.9283063E-2,6.0827616E-3,2.5791815E-2,-1.0110388E-2,3.9967177E-3,3.5469368E-2,-1.5784042E-2,7.296034E-3],"categories":[],"categories_nodes":[],"categories_segments":[],"categories_sizes":[],"default_left":[0,0,0,0,0,0,0,0,0,0,0,0,0,0,0],"id":24,"left_children":[1,3,5,7,9,11,13,-1,-1,-1,-1,-1,-1,-1,-1],"loss_changes":[2.0650423E1,1.0908228E1,1.04662485E1,1.2581688E1,7.207855E0,3.9869213E0,1.4339855E1,0E0,0E0,0E0,0E0,0E0,0E0,0E0,0E0],"parents":[2147483647,0,0,1,1,2,2,3,3,4,4,5,5,6,6],"right_children":[2,4,6,8,10,12,14,-1,-1,-1,-1,-1,-1,-1,-1],"split_conditions":[1.118E1,2.354E1,2.7978214E1,7.4714285E-1,-7.818315E-1,4E0,1.239E1,-3.9283063E-2,6.0827616E-3,2.5791815E-2,-1.0110388E-2,3.9967177E-3,3.5469368E-2,-1.5784042E-2,7.296034E-3],"split_indices":[11,17,31,39,7,14,19,0,0,0,0,0,0,0,0],"split_type":[0,0,0,0,0,0,0,0,0,0,0,0,0,0,0],"sum_hessian":[3.61E2,9.8E1,2.63E2,5.1E1,4.7E1,3E1,2.33E2,3.9E1,1.2E1,9E0,3.8E1,1E1,2E1,5.4E1,1.79E2],"tree_param":{"num_deleted":"0","num_feature":"53","num_nodes":"15","size_leaf_vector":"1"}},{"base_weights":[-1.6368907E-2,-5.958939E-1,6.9578834E-2,-8.486712E-1,4.018833E-1,-1.51927015E-2,4.9491113E-1,-4.1850194E-2,1.3724174E-2,3.157639E-2,-1.5187817E-2,8.317658E-3,-9.5865475E-3,2.3541521E-2,-1.1519872E-2],"categories":[],"categories_nodes":[],"categories_segments":[],"categories_sizes":[],"default_left":[0,0,0,0,0,0,0,0,0,0,0,0,0,0,0],"id":25,"left_children":[1,3,5,7,9,11,13,-1,-1,-1,-1,-1,-1,-1,-1],"loss_changes":[1.8707264E1,1.3085112E1,1.1827161E1,1.0198719E1,4.232486E0,1.3923598E1,4.41866E0,0E0,0E0,0E0,0E0,0E0,0E0,0E0,0E0],"parents":[2147483647,0,0,1,1,2,2,3,3,4,4,5,5,6,6],"right_children":[2,4,6,8,10,12,14,-1,-1,-1,-1,-1,-1,-1,-1],"split_conditions":[1.5E0,5.31E0,1.33E2,2.2142856E0,9E0,2.608E1,6.438214E1,-4.1850194E-2,1.3724174E-2,3.157639E-2,-1.5187817E-2,8.317658E-3,-9.5865475E-3,2.3541521E-2,-1.1519872E-2],"split_indices":[11,49,32,39,20,13,27,0,0,0,0,0,0,0,0],"split_type":[0,0,0,0,0,0,0,0,0,0,0,0,0,0,0],"sum_hessian":[3.71E2,4.6E1,3.25E2,3.7E1,9E0,2.73E2,5.2E1,3.2E1,5E0,6E0,3E0,1.37E2,1.36E2,4.7E1,5E0],"tree_param":{"num_deleted":"0","num_feature":"53","num_nodes":"15","size_leaf_vector":"1"}},{"base_weights":[5.530161E-3,-2.8856072E-1,1.4527029E-1,-5.5103546E-1,5.4575525E-2,-1.992953E-1,2.87384E-1,1.5204525E-2,-2.759479E-2,-2.765876E-2,1.31972395E-2,2.8026598E-2,-1.453747E-2,1.2532205E-2,-3.6019158E-2],"categories":[],"categories_nodes":[],"categories_segments":[],"categories_sizes":[],"default_left":[0,0,0,0,0,0,0,0,0,0,0,0,0,0,0],"id":26,"left_children":[1,3,5,7,9,11,13,-1,-1,-1,-1,-1,-1,-1,-1],"loss_changes":[1.5372073E1,1.0927966E1,1.2556447E1,9.510931E0,1.1766137E1,1.1789536E1,6.2630444E0,0E0,0E0,0E0,0E0,0E0,0E0,0E0,0E0],"parents":[2147483647,0,0,1,1,2,2,3,3,4,4,5,5,6,6],"right_children":[2,4,6,8,10,12,14,-1,-1,-1,-1,-1,-1,-1,-1],"split_conditions":[5.814E1,4E0,-2.2252093E-1,1.346E1,1.5478572E1,2.828E1,2.1E1,1.5204525E-2,-2.759479E-2,-2.765876E-2,1.31972395E-2,2.8026598E-2,-1.453747E-2,1.2532205E-2,-3.6019158E-2],"split_indices":[24,0,8,40,36,31,18,0,0,0,0,0,0,0,0],"split_type":[0,0,0,0,0,0,0,0,0,0,0,0,0,0,0],"sum_hessian":[3.69E2,1.18E2,2.51E2,6.6E1,5.2E1,7.3E1,1.78E2,8E0,5.8E1,1.3E1,3.9E1,1E1,6.3E1,1.76E2,2E0],"tree_param":{"num_deleted":"0","num_feature":"53","num_nodes":"15","size_leaf_vector":"1"}},{"base_weights":[-2.9857134E-2,-2.040247E-1,2.0082267E-1,-4.0971106E-1,3.1947196E-1,-3.8349308E-2,2.5420773E-1,2.3941243E-2,-1.9661587E-2,-5.862947E-3,1.9246675E-2,1.3389307E-2,-1.1164016E-2],"categories":[],"categories_nodes":[],"categories_segments":[],"categories_sizes":[],"default_left":[0,0,0,0,0,0,0,0,0,0,0,0,0],"id":27,"left_children":[1,3,5,7,9,-1,11,-1,-1,-1,-1,-1,-1],"loss_changes":[1.4787103E1,2.2885378E1,1.0420911E1,1.32347145E1,4.735427E0,0E0,6.8255587E0,0E0,0E0,0E0,0E0,0E0,0E0],"parents":[2147483647,0,0,1,1,2,2,3,3,4,4,6,6],"right_children":[2,4,6,8,10,-1,12,-1,-1,-1,-1,-1,-1],"split_conditions":[4E0,3.917E1,2E1,1.119E1,4E0,-3.8349308E-2,9.428572E0,2.3941243E-2,-1.9661587E-2,-5.862947E-3,1.9246675E-2,1.3389307E-2,-1.1164016E-2],"split_indices":[0,23,24,40,18,0,26,0,0,0,0,0,0],"split_type":[0,0,0,0,0,0,0,0,0,0,0,0,0],"sum_hessian":[3.63E2,2.07E2,1.56E2,1.49E2,5.8E1,5E0,1.51E2,1E1,1.39E2,1.5E1,4.3E1,1.32E2,1.9E1],"tree_param":{"num_deleted":"0","num_feature":"53","num_nodes":"13","size_leaf_vector":"1"}},{"base_weights":[-1.2547063E-2,-5.593641E-1,7.493927E-2,-6.933095E-1,2.6208596E-2,3.9641616E-1,-2.07901E-2,-3.423139E-2,1.2919256E-2,2.265067E-2,3.1437742E-4,-6.9310116E-3,1.1285476E-2],"categories":[],"categories_nodes":[],"categories_segments":[],"categories_sizes":[],"default_left":[0,0,0,0,0,0,0,0,0,0,0,0,0],"id":28,"left_children":[1,3,5,7,-1,9,11,-1,-1,-1,-1,-1,-1],"loss_changes":[1.8211863E1,9.67675E0,1.013012E1,8.699432E0,0E0,4.9716177E0,1.1924245E1,0E0,0E0,0E0,0E0,0E0,0E0],"parents":[2147483647,0,0,1,1,2,2,3,3,5,5,6,6],"right_children":[2,4,6,8,-1,10,12,-1,-1,-1,-1,-1,-1],"split_conditions":[1.5E0,2E1,3E0,2.2142856E0,2.6208596E-2,1.4942857E0,3.917E1,-3.423139E-2,1.2919256E-2,2.265067E-2,3.1437742E-4,-6.9310116E-3,1.1285476E-2],"split_indices":[11,49,14,39,0,39,23,0,0,0,0,0,0],"split_type":[0,0,0,0,0,0,0,0,0,0,0,0,0],"sum_hessian":[3.76E2,5E1,3.26E2,4.6E1,4E0,7.3E1,2.53E2,4E1,6E0,5E1,2.3E1,1.69E2,8.4E1],"tree_param":{"num_deleted":"0","num_feature":"53","num_nodes":"13","size_leaf_vector":"1"}},{"base_weights":[1.2980894E-2,-4.8884E-1,9.203549E-2,-6.174594E-1,2.5563462E-2,1.7222475E-1,-2.7504173E-1,-3.3434782E-2,3.4960504E-3,-3.8850396E-3,1.2166275E-2,-4.741189E-2,5.115416E-3],"categories":[],"categories_nodes":[],"categories_segments":[],"categories_sizes":[],"default_left":[0,0,0,0,0,0,0,0,0,0,0,0,0],"id":29,"left_children":[1,3,5,7,-1,9,11,-1,-1,-1,-1,-1,-1],"loss_changes":[1.5009028E1,8.457799E0,9.729163E0,7.495205E0,0E0,9.650808E0,2.220157E1,0E0,0E0,0E0,0E0,0E0,0E0],"parents":[2147483647,0,0,1,1,2,2,3,3,5,5,6,6],"right_children":[2,4,6,8,-1,10,12,-1,-1,-1,-1,-1,-1],"split_conditions":[1.5E0,2E1,2.9014285E0,4.292E1,2.5563462E-2,5.908E1,-2.2252093E-1,-3.3434782E-2,3.4960504E-3,-3.8850396E-3,1.2166275E-2,-4.741189E-2,5.115416E-3],"split_indices":[11,49,39,15,0,24,8,0,0,0,0,0,0],"split_type":[0,0,0,0,0,0,0,0,0,0,0,0,0],"sum_hessian":[3.73E2,4.9E1,3.24E2,4.5E1,4E0,2.67E2,5.7E1,3.4E1,1.1E1,8.8E1,1.79E2,1.6E1,4.1E1],"tree_param":{"num_deleted":"0","num_feature":"53","num_nodes":"13","size_leaf_vector":"1"}},{"base_weights":[-1.5569917E-2,-4.961188E-1,6.302337E-2,-7.13551E-1,2.6415756E-1,4.520385E-1,-2.3285268E-2,-1.1487386E-2,-5.029022E-2,2.3834372E-2,-7.992944E-3,2.735743E-2,4.299577E-3,-1.4291445E-2,4.417786E-3],"categories":[],"categories_nodes":[],"categories_segments":[],"categories_sizes":[],"default_left":[0,0,0,0,0,0,0,0,0,0,0,0,0,0,0],"id":30,"left_children":[1,3,5,7,9,11,13,-1,-1,-1,-1,-1,-1,-1,-1],"loss_changes":[1.4108949E1,9.14992E0,1.0820796E1,8.717758E0,2.3753624E0,4.4903603E0,1.1957449E1,0E0,0E0,0E0,0E0,0E0,0E0,0E0,0E0],"parents":[2147483647,0,0,1,1,2,2,3,3,4,4,5,5,6,6],"right_children":[2,4,6,8,10,12,14,-1,-1,-1,-1,-1,-1,-1,-1],"split_conditions":[1.5E0,3.2487144E1,2.8684643E1,2.93E1,7.5E0,2.8279285E1,-2.2252093E-1,-1.1487386E-2,-5.029022E-2,2.3834372E-2,-7.992944E-3,2.735743E-2,4.299577E-3,-1.4291445E-2,4.417786E-3],"split_indices":[35,27,31,19,34,27,8,0,0,0,0,0,0,0,0],"split_type":[0,0,0,0,0,0,0,0,0,0,0,0,0,0,0],"sum_hessian":[3.69E2,5E1,3.19E2,3.9E1,1.1E1,5.6E1,2.63E2,2.4E1,1.5E1,6E0,5E0,3.2E1,2.4E1,7.4E1,1.89E2],"tree_param":{"num_deleted":"0","num_feature":"53","num_nodes":"15","size_leaf_vector":"1"}},{"base_weights":[1.9589595E-2,-8.4722385E-2,2.9882446E-1,-3.0446467E-1,7.159618E-2,3.4314767E-1,-3.3494975E-2,-2.2930885E-2,-1.0276278E-4,1.3937079E-2,-8.7173E-3,1.9726872E-2,2.1813277E-3],"categories":[],"categories_nodes":[],"categories_segments":[],"categories_sizes":[],"default_left":[0,0,0,0,0,0,0,0,0,0,0,0,0],"id":31,"left_children":[1,3,5,7,9,11,-1,-1,-1,-1,-1,-1,-1],"loss_changes":[1.0767665E1,9.311767E0,5.7795334E0,9.125894E0,1.2973834E1,4.19773E0,0E0,0E0,0E0,0E0,0E0,0E0,0E0],"parents":[2147483647,0,0,1,1,2,2,3,3,4,4,5,5],"right_children":[2,4,6,8,10,12,-1,-1,-1,-1,-1,-1,-1],"split_conditions":[3.917E1,1.63E1,2.1E1,2.4E1,2.608E1,7E0,-3.3494975E-2,-2.2930885E-2,-1.0276278E-4,1.3937079E-2,-8.7173E-3,1.9726872E-2,2.1813277E-3],"split_indices":[23,11,18,17,13,1,0,0,0,0,0,0,0],"split_type":[0,0,0,0,0,0,0,0,0,0,0,0,0],"sum_hessian":[3.65E2,2.67E2,9.8E1,1.1E2,1.57E2,9.6E1,2E0,5.7E1,5.3E1,8E1,7.7E1,6.2E1,3.4E1],"tree_param":{"num_deleted":"0","num_feature":"53","num_nodes":"13","size_leaf_vector":"1"}},{"base_weights":[9.279969E-3,-4.8122177E-1,9.108646E-2,-6.701243E-1,1.8859373E-1,1.1239205E-1,-4.627951E-2,-1.2426931E-2,-4.3001056E-2,2.2489712E-2,-1.1909593E-2,1.6503182E-3,1.8140132E-2],"categories":[],"categories_nodes":[],"categories_segments":[],"categories_sizes":[],"default_left":[0,0,0,0,0,0,0,0,0,0,0,0,0],"id":32,"left_children":[1,3,5,7,9,11,-1,-1,-1,-1,-1,-1,-1],"loss_changes":[1.4735591E1,6.958767E0,8.687948E0,5.205057E0,2.8716993E0,7.5116596E0,0E0,0E0,0E0,0E0,0E0,0E0,0E0],"parents":[2147483647,0,0,1,1,2,2,3,3,4,4,5,5],"right_children":[2,4,6,8,10,12,-1,-1,-1,-1,-1,-1,-1],"split_conditions":[1.5E0,3.0705715E1,2.323E1,2.93E1,3.5559284E1,1.33E2,-4.627951E-2,-1.2426931E-2,-4.3001056E-2,2.2489712E-2,-1.1909593E-2,1.6503182E-3,1.8140132E-2],"split_indices":[11,23,38,19,31,32,0,0,0,0,0,0,0],"split_type":[0,0,0,0,0,0,0,0,0,0,0,0,0],"sum_hessian":[3.62E2,5E1,3.12E2,3.9E1,1.1E1,3.09E2,3E0,2.3E1,1.6E1,6E0,5E0,2.58E2,5.1E1],"tree_param":{"num_deleted":"0","num_feature":"53","num_nodes":"13","size_leaf_vector":"1"}},{"base_weights":[1.1402829E-2,-5.486772E-1,7.225057E-2,-8.0467486E-1,3.9065146E-1,-1.7616072E-1,1.7220679E-1,1.5409882E-2,-3.902908E-2,3.0555152E-3,1.7959697E-2,3.9188117E-3,-2.8287396E-2,7.794838E-4,1.3593586E-2],"categories":[],"categories_nodes":[],"categories_segments":[],"categories_sizes":[],"default_left":[0,0,0,0,0,0,0,0,0,0,0,0,0,0,0],"id":33,"left_children":[1,3,5,7,9,11,13,-1,-1,-1,-1,-1,-1,-1,-1],"loss_changes":[1.2691518E1,9.562875E0,8.406391E0,6.9441338E0,8.8433266E-2,1.43663025E1,6.140447E0,0E0,0E0,0E0,0E0,0E0,0E0,0E0,0E0],"parents":[2147483647,0,0,1,1,2,2,3,3,4,4,5,5,6,6],"right_children":[2,4,6,8,10,12,14,-1,-1,-1,-1,-1,-1,-1,-1],"split_conditions":[3.7142856E0,4E0,-2.2252093E-1,1E0,9E0,3.068E1,3.351E1,1.5409882E-2,-3.902908E-2,3.0555152E-3,1.7959697E-2,3.9188117E-3,-2.8287396E-2,7.794838E-4,1.3593586E-2],"split_indices":[26,12,8,20,2,11,35,0,0,0,0,0,0,0,0],"split_type":[0,0,0,0,0,0,0,0,0,0,0,0,0,0,0],"sum_hessian":[3.67E2,3.4E1,3.33E2,2.7E1,7E0,9.5E1,2.38E2,3E0,2.4E1,2E0,5E0,6.4E1,3.1E1,1.26E2,1.12E2],"tree_param":{"num_deleted":"0","num_feature":"53","num_nodes":"15","size_leaf_vector":"1"}},{"base_weights":[-4.360416E-3,-4.8046738E-1,7.2939485E-2,-7.191913E-1,9.972205E-2,5.096969E-1,3.2483519E-3,-3.2154452E-2,1.3932467E-2,1.7774802E-2,-2.6177596E-2,2.2884376E-2,-3.0087323E-3,-1.2953474E-2,4.95189E-3],"categories":[],"categories_nodes":[],"categories_segments":[],"categories_sizes":[],"default_left":[0,0,0,0,0,0,0,0,0,0,0,0,0,0,0],"id":34,"left_children":[1,3,5,7,9,11,13,-1,-1,-1,-1,-1,-1,-1,-1],"loss_changes":[1.3833542E1,7.450816E0,9.842593E0,4.0894394E0,5.2756414E0,1.7320995E0,1.1199705E1,0E0,0E0,0E0,0E0,0E0,0E0,0E0,0E0],"parents":[2147483647,0,0,1,1,2,2,3,3,4,4,5,5,6,6],"right_children":[2,4,6,8,10,12,14,-1,-1,-1,-1,-1,-1,-1,-1],"split_conditions":[1E0,7.1428573E-1,2.8229286E1,1.6E1,7.818315E-1,3.0657144E0,-2.2252093E-1,-3.2154452E-2,1.3932467E-2,1.7774802E-2,-2.6177596E-2,2.2884376E-2,-3.0087323E-3,-1.2953474E-2,4.95189E-3],"split_indices":[12,39,31,20,7,39,8,0,0,0,0,0,0,0,0],"split_type":[0,0,0,0,0,0,0,0,0,0,0,0,0,0,0],"sum_hessian":[3.71E2,5E1,3.21E2,3.5E1,1.5E1,4.2E1,2.79E2,3.3E1,2E0,1.1E1,4E0,3.8E1,4E0,7.4E1,2.05E2],"tree_param":{"num_deleted":"0","num_feature":"53","num_nodes":"15","size_leaf_vector":"1"}},{"base_weights":[-1.3725007E-2,-4.446492E-1,5.6022137E-2,-6.556843E-1,4.1357514E-1,1.3597134E-1,-3.373754E-1,-3.2355066E-2,7.078706E-3,2.9198615E-2,-1.9364953E-2,1.3434663E-3,2.4302283E-2,-2.4461748E-2,1.2559656E-2],"categories":[],"categories_nodes":[],"categories_segments":[],"categories_sizes":[],"default_left":[0,0,0,0,0,0,0,0,0,0,0,0,0,0,0],"id":35,"left_children":[1,3,5,7,9,11,13,-1,-1,-1,-1,-1,-1,-1,-1],"loss_changes":[1.0897367E1,9.824266E0,9.943376E0,5.651436E0,4.149751E0,1.2575029E1,1.0034301E1,0E0,0E0,0E0,0E0,0E0,0E0,0E0,0E0],"parents":[2147483647,0,0,1,1,2,2,3,3,4,4,5,5,6,6],"right_children":[2,4,6,8,10,12,14,-1,-1,-1,-1,-1,-1,-1,-1],"split_conditions":[1.5E0,5.31E0,2.9014285E0,1.4942857E0,3.945E1,5.908E1,3.992E1,-3.2355066E-2,7.078706E-3,2.9198615E-2,-1.9364953E-2,1.3434663E-3,2.4302283E-2,-2.4461748E-2,1.2559656E-2],"split_indices":[11,49,39,39,13,15,35,0,0,0,0,0,0,0,0],"split_type":[0,0,0,0,0,0,0,0,0,0,0,0,0,0,0],"sum_hessian":[3.58E2,4.8E1,3.1E2,3.9E1,9E0,2.59E2,5.1E1,3.3E1,6E0,7E0,2E0,2.15E2,4.4E1,3.6E1,1.5E1],"tree_param":{"num_deleted":"0","num_feature":"53","num_nodes":"15","size_leaf_vector":"1"}},{"base_weights":[-8.348616E-3,-2.945816E-1,1.00844696E-1,-1.890343E-1,-1.0978653E0,1.24780744E-1,-4.4540323E-2,-1.7493557E-2,4.5811706E-3,8.084011E-3,-6.4644724E-2,-9.370657E-3,8.384918E-3],"categories":[],"categories_nodes":[],"categories_segments":[],"categories_sizes":[],"default_left":[0,0,0,0,0,0,0,0,0,0,0,0,0],"id":36,"left_children":[1,3,5,7,9,11,-1,-1,-1,-1,-1,-1,-1],"loss_changes":[1.1716653E1,8.256352E0,8.238998E0,7.2482753E0,8.564218E0,8.301912E0,0E0,0E0,0E0,0E0,0E0,0E0,0E0],"parents":[2147483647,0,0,1,1,2,2,3,3,4,4,5,5],"right_children":[2,4,6,8,10,12,-1,-1,-1,-1,-1,-1,-1],"split_conditions":[1.118E1,9E0,2.756E1,1.5E0,1.038E1,5.538E1,-4.4540323E-2,-1.7493557E-2,4.5811706E-3,8.084011E-3,-6.4644724E-2,-9.370657E-3,8.384918E-3],"split_indices":[11,11,38,11,13,24,0,0,0,0,0,0,0],"split_type":[0,0,0,0,0,0,0,0,0,0,0,0,0],"sum_hessian":[3.7E2,1.01E2,2.69E2,9.2E1,9E0,2.66E2,3E0,5E1,4.2E1,3E0,6E0,5E1,2.16E2],"tree_param":{"num_deleted":"0","num_feature":"53","num_nodes":"13","size_leaf_vector":"1"}},{"base_weights":[1.2002295E-2,-2.397091E-1,1.4643918E-1,-7.088589E-1,-1.0207321E-1,-1.9475512E-1,2.5135782E-1,1.584223E-2,-3.5107113E-2,-1.6160835E-2,7.074204E-3,1.2649826E-2,-2.3377826E-2,1.1742887E-2,-1.775369E-2],"categories":[],"categories_nodes":[],"categories_segments":[],"categories_sizes":[],"default_left":[0,0,0,0,0,0,0,0,0,0,0,0,0,0,0],"id":37,"left_children":[1,3,5,7,9,11,13,-1,-1,-1,-1,-1,-1,-1,-1],"loss_changes":[1.2388339E1,8.052023E0,8.660122E0,6.1851435E0,8.727141E0,1.1912171E1,5.7110033E0,0E0,0E0,0E0,0E0,0E0,0E0,0E0,0E0],"parents":[2147483647,0,0,1,1,2,2,3,3,4,4,5,5,6,6],"right_children":[2,4,6,8,10,12,14,-1,-1,-1,-1,-1,-1,-1,-1],"split_conditions":[1.503E1,3.7142856E0,-2.2252093E-1,1E0,4E0,3.068E1,3.977E1,1.584223E-2,-3.5107113E-2,-1.6160835E-2,7.074204E-3,1.2649826E-2,-2.3377826E-2,1.1742887E-2,-1.775369E-2],"split_indices":[35,26,8,20,0,11,46,0,0,0,0,0,0,0,0],"split_type":[0,0,0,0,0,0,0,0,0,0,0,0,0,0,0],"sum_hessian":[3.61E2,1.25E2,2.36E2,2.6E1,9.9E1,5.5E1,1.81E2,3E0,2.3E1,4.7E1,5.2E1,2.4E1,3.1E1,1.72E2,9E0],"tree_param":{"num_deleted":"0","num_feature":"53","num_nodes":"15","size_leaf_vector":"1"}},{"base_weights":[-3.5975125E-5,-6.715679E-2,3.9468536E-1,-1.4115724E-1,4.3884364E-1,6.8696123E-1,1.7547026E-1,1.2955408E-2,-8.86143E-3,2.2467587E-2,-4.910662E-3,3.611245E-2,-1.8270402E-3,1.7319057E-2,-1.017447E-2],"categories":[],"categories_nodes":[],"categories_segments":[],"categories_sizes":[],"default_left":[0,0,0,0,0,0,0,0,0,0,0,0,0,0,0],"id":38,"left_children":[1,3,5,7,9,11,13,-1,-1,-1,-1,-1,-1,-1,-1],"loss_changes":[9.9352865E0,1.215575E1,3.1905308E0,1.0701688E1,3.0355434E0,3.6612377E0,4.0939426E0,0E0,0E0,0E0,0E0,0E0,0E0,0E0,0E0],"parents":[2147483647,0,0,1,1,2,2,3,3,4,4,5,5,6,6],"right_children":[2,4,6,8,10,12,14,-1,-1,-1,-1,-1,-1,-1,-1],"split_conditions":[1.33E2,6.177E1,3.437E1,-7.818315E-1,5.645E1,5E0,4.831E1,1.2955408E-2,-8.86143E-3,2.2467587E-2,-4.910662E-3,3.611245E-2,-1.8270402E-3,1.7319057E-2,-1.017447E-2],"split_indices":[32,35,11,7,17,0,19,0,0,0,0,0,0,0,0],"split_type":[0,0,0,0,0,0,0,0,0,0,0,0,0,0,0],"sum_hessian":[3.7E2,3.18E2,5.2E1,2.79E2,3.9E1,2E1,3.2E1,4E1,2.39E2,3.2E1,7E0,1.5E1,5E0,2E1,1.2E1],"tree_param":{"num_deleted":"0","num_feature":"53","num_nodes":"15","size_leaf_vector":"1"}},{"base_weights":[-1.244439E-2,-5.2570266E-1,5.1709913E-2,-2.0318264E-1,-6.098669E-2,-2.2007862E-1,1.6162278E-1,-2.542661E-2,4.4847024E-3,2.6537258E-2,-1.4747727E-2,-2.1038288E-3,1.116854E-2],"categories":[],"categories_nodes":[],"categories_segments":[],"categories_sizes":[],"default_left":[0,0,0,0,0,0,0,0,0,0,0,0,0],"id":39,"left_children":[1,3,5,7,-1,9,11,-1,-1,-1,-1,-1,-1],"loss_changes":[1.200426E1,1.2274071E1,9.782731E0,4.7462955E0,0E0,1.3019587E1,5.893415E0,0E0,0E0,0E0,0E0,0E0,0E0],"parents":[2147483647,0,0,1,1,2,2,3,3,5,5,6,6],"right_children":[2,4,6,8,-1,10,12,-1,-1,-1,-1,-1,-1],"split_conditions":[5.538E1,2.6289286E1,-2.2252093E-1,1.761E1,-6.098669E-2,2.8108572E1,6E0,-2.542661E-2,4.4847024E-3,2.6537258E-2,-1.4747727E-2,-2.1038288E-3,1.116854E-2],"split_indices":[28,27,8,24,0,31,12,0,0,0,0,0,0],"split_type":[0,0,0,0,0,0,0,0,0,0,0,0,0],"sum_hessian":[3.6E2,3.8E1,3.22E2,3.1E1,7E0,9.2E1,2.3E2,1.2E1,1.9E1,1.2E1,8E1,8.2E1,1.48E2],"tree_param":{"num_deleted":"0","num_feature":"53","num_nodes":"13","size_leaf_vector":"1"}},{"base_weights":[2.4636058E-2,-3.940098E-2,3.6853993E-1,-9.583637E-2,3.5668546E-1,5.7183975E-1,7.998744E-2,-5.609663E-3,2.0841772E-2,2.233615E-2,1.6537732E-3,3.6183074E-2,1.0618661E-2,1.6414821E-2,-1.3545066E-2],"categories":[],"categories_nodes":[],"categories_segments":[],"categories_sizes":[],"default_left":[0,0,0,0,0,0,0,0,0,0,0,0,0,0,0],"id":40,"left_children":[1,3,5,7,9,11,13,-1,-1,-1,-1,-1,-1,-1,-1],"loss_changes":[8.349827E0,7.2496896E0,3.3760786E0,7.9211226E0,2.5184908E0,2.9166517E0,4.150739E0,0E0,0E0,0E0,0E0,0E0,0E0,0E0,0E0],"parents":[2147483647,0,0,1,1,2,2,3,3,4,4,5,5,6,6],"right_children":[2,4,6,8,10,12,14,-1,-1,-1,-1,-1,-1,-1,-1],"split_conditions":[5.908E1,6.177E1,6.123234E-17,8.32E1,8.7347E2,1.49E2,3.565E1,-5.609663E-3,2.0841772E-2,2.233615E-2,1.6537732E-3,3.6183074E-2,1.0618661E-2,1.6414821E-2,-1.3545066E-2],"split_indices":[15,35,10,19,37,6,17,0,0,0,0,0,0,0,0],"split_type":[0,0,0,0,0,0,0,0,0,0,0,0,0,0,0],"sum_hessian":[3.75E2,3.18E2,5.7E1,2.8E2,3.8E1,3.2E1,2.5E1,2.63E2,1.7E1,2.2E1,1.6E1,1.3E1,1.9E1,1.4E1,1.1E1],"tree_param":{"num_deleted":"0","num_feature":"53","num_nodes":"15","size_leaf_vector":"1"}},{"base_weights":[-1.6324019E-2,-6.8191186E-2,4.4345728E-1,-1.06707685E-1,6.579574E-1,5.7782644E-1,1.7674895E-1,2.3030718E-3,-9.014825E-3,2.0571686E-3,2.9116958E-2,2.5026934E-2,7.030805E-4,-5.907318E-3,1.399645E-2],"categories":[],"categories_nodes":[],"categories_segments":[],"categories_sizes":[],"default_left":[0,0,0,0,0,0,0,0,0,0,0,0,0,0,0],"id":41,"left_children":[1,3,5,7,9,11,13,-1,-1,-1,-1,-1,-1,-1,-1],"loss_changes":[9.054202E0,9.698866E0,1.124413E0,6.3778944E0,6.490526E-1,6.292591E-1,1.0561495E0,0E0,0E0,0E0,0E0,0E0,0E0,0E0,0E0],"parents":[2147483647,0,0,1,1,2,2,3,3,4,4,5,5,6,6],"right_children":[2,4,6,8,10,12,14,-1,-1,-1,-1,-1,-1,-1,-1],"split_conditions":[1.4E1,8.577E1,8.6297E2,0E0,5.4E-1,2.1E1,2.353E1,2.3030718E-3,-9.014825E-3,2.0571686E-3,2.9116958E-2,2.5026934E-2,7.030805E-4,-5.907318E-3,1.399645E-2],"split_indices":[12,19,37,7,35,12,40,0,0,0,0,0,0,0,0],"split_type":[0,0,0,0,0,0,0,0,0,0,0,0,0,0,0],"sum_hessian":[3.74E2,3.38E2,3.6E1,3.23E2,1.5E1,2.2E1,1.4E1,1.36E2,1.87E2,2E0,1.3E1,2E1,2E0,5E0,9E0],"tree_param":{"num_deleted":"0","num_feature":"53","num_nodes":"15","size_leaf_vector":"1"}},{"base_weights":[-1.9699965E-2,-8.660519E-2,2.8472954E-1,-2.2979163E-1,1.0784527E-1,3.7727737E-1,-7.5737935E-1,-1.9341268E-3,-2.9143725E-2,-3.1336773E-2,6.570532E-3,1.8452354E-2,8.73E-5,9.251775E-4,-4.4684872E-2],"categories":[],"categories_nodes":[],"categories_segments":[],"categories_sizes":[],"default_left":[0,0,0,0,0,0,0,0,0,0,0,0,0,0,0],"id":42,"left_children":[1,3,5,7,9,11,13,-1,-1,-1,-1,-1,-1,-1,-1],"loss_changes":[7.8523793E0,8.846317E0,7.4172783E0,1.6428497E1,7.1351166E0,2.062028E0,1.8896804E0,0E0,0E0,0E0,0E0,0E0,0E0,0E0,0E0],"parents":[2147483647,0,0,1,1,2,2,3,3,4,4,5,5,6,6],"right_children":[2,4,6,8,10,12,14,-1,-1,-1,-1,-1,-1,-1,-1],"split_conditions":[4.323143E1,4E0,1.061E1,3E0,2E1,5.9202858E1,3E0,-1.9341268E-3,-2.9143725E-2,-3.1336773E-2,6.570532E-3,1.8452354E-2,8.73E-5,9.251775E-4,-4.4684872E-2],"split_indices":[36,0,38,0,24,23,0,0,0,0,0,0,0,0,0],"split_type":[0,0,0,0,0,0,0,0,0,0,0,0,0,0,0],"sum_hessian":[3.8E2,3.13E2,6.7E1,1.8E2,1.33E2,6.3E1,4E0,1.34E2,4.6E1,6E0,1.27E2,5.1E1,1.2E1,2E0,2E0],"tree_param":{"num_deleted":"0","num_feature":"53","num_nodes":"15","size_leaf_vector":"1"}},{"base_weights":[1.5778856E-2,-4.0913835E-1,6.968686E-2,-9.983696E-2,-1.2690859E0,9.047164E-2,-4.617118E-2,-1.622644E-2,1.3989931E-2,-6.465712E-2,3.682109E-3,-5.977337E-3,7.515103E-3],"categories":[],"categories_nodes":[],"categories_segments":[],"categories_sizes":[],"default_left":[0,0,0,0,0,0,0,0,0,0,0,0,0],"id":43,"left_children":[1,3,5,7,9,11,-1,-1,-1,-1,-1,-1,-1],"loss_changes":[8.237424E0,1.0455555E1,8.363674E0,4.8232527E0,5.336191E0,7.4428473E0,0E0,0E0,0E0,0E0,0E0,0E0,0E0],"parents":[2147483647,0,0,1,1,2,2,3,3,4,4,5,5],"right_children":[2,4,6,8,10,12,-1,-1,-1,-1,-1,-1,-1],"split_conditions":[5.538E1,2.6289286E1,2.1E1,5.392857E0,3.208E1,-2.2252093E-1,-4.617118E-2,-1.622644E-2,1.3989931E-2,-6.465712E-2,3.682109E-3,-5.977337E-3,7.515103E-3],"split_indices":[28,27,18,34,11,8,0,0,0,0,0,0,0],"split_type":[0,0,0,0,0,0,0,0,0,0,0,0,0],"sum_hessian":[3.54E2,3.8E1,3.16E2,3E1,8E0,3.13E2,3E0,1.8E1,1.2E1,6E0,2E0,9E1,2.23E2],"tree_param":{"num_deleted":"0","num_feature":"53","num_nodes":"13","size_leaf_vector":"1"}},{"base_weights":[-1.1647346E-2,-2.0864497E-1,1.0519789E-1,-3.614722E-1,2.276592E-1,1.3267419E-1,-4.516381E-2,-5.710889E-3,-3.2301746E-2,1.9532628E-2,-1.648678E-2,8.129387E-3,-8.121156E-3],"categories":[],"categories_nodes":[],"categories_segments":[],"categories_sizes":[],"default_left":[0,0,0,0,0,0,0,0,0,0,0,0,0],"id":44,"left_children":[1,3,5,7,9,11,-1,-1,-1,-1,-1,-1,-1],"loss_changes":[8.813312E0,9.70751E0,8.530772E0,1.01014595E1,6.9240303E0,5.7289076E0,0E0,0E0,0E0,0E0,0E0,0E0,0E0],"parents":[2147483647,0,0,1,1,2,2,3,3,4,4,5,5],"right_children":[2,4,6,8,10,12,-1,-1,-1,-1,-1,-1,-1],"split_conditions":[7.991E1,3.65E2,2.1E1,3.0738214E1,3.4528572E1,3.51E2,-4.516381E-2,-5.710889E-3,-3.2301746E-2,1.9532628E-2,-1.648678E-2,8.129387E-3,-8.121156E-3],"split_indices":[28,6,18,31,27,6,0,0,0,0,0,0,0],"split_type":[0,0,0,0,0,0,0,0,0,0,0,0,0],"sum_hessian":[3.78E2,1.4E2,2.38E2,1.04E2,3.6E1,2.35E2,3E0,7.2E1,3.2E1,2.6E1,1E1,1.95E2,4E1],"tree_param":{"num_deleted":"0","num_feature":"53","num_nodes":"13","size_leaf_vector":"1"}},{"base_weights":[4.3786857E-3,-5.578262E-2,3.3790684E-1,-1.1464987E-1,3.7621206E-1,5.473809E-1,-5.8071747E-2,-1.1423441E-3,-1.8929617E-2,1.7666811E-2,-1.5131202E-2,2.4653723E-2,-1.1672078E-3,-1.2018078E-2,1.410691E-2],"categories":[],"categories_nodes":[],"categories_segments":[],"categories_sizes":[],"default_left":[0,0,0,0,0,0,0,0,0,0,0,0,0,0,0],"id":45,"left_children":[1,3,5,7,9,11,13,-1,-1,-1,-1,-1,-1,-1,-1],"loss_changes":[7.6820426E0,8.359977E0,4.9318814E0,8.841773E0,2.3685026E0,1.575757E0,2.5049207E0,0E0,0E0,0E0,0E0,0E0,0E0,0E0,0E0],"parents":[2147483647,0,0,1,1,2,2,3,3,4,4,5,5,6,6],"right_children":[2,4,6,8,10,12,14,-1,-1,-1,-1,-1,-1,-1,-1],"split_conditions":[1.33E2,6.177E1,1.1E1,1E1,3E1,6E0,5.215E1,-1.1423441E-3,-1.8929617E-2,1.7666811E-2,-1.5131202E-2,2.4653723E-2,-1.1672078E-3,-1.2018078E-2,1.410691E-2],"split_indices":[32,35,12,1,2,0,13,0,0,0,0,0,0,0,0],"split_type":[0,0,0,0,0,0,0,0,0,0,0,0,0,0,0],"sum_hessian":[3.78E2,3.22E2,5.6E1,2.85E2,3.7E1,3.6E1,2E1,2.32E2,5.3E1,3.5E1,2E0,3.2E1,4E0,1.3E1,7E0],"tree_param":{"num_deleted":"0","num_feature":"53","num_nodes":"15","size_leaf_vector":"1"}},{"base_weights":[-1.1158119E-3,-1.2854421E-1,1.5790422E-1,1.7762527E-2,-5.3070265E-1,-4.8244223E-1,2.233123E-1,-2.466982E-2,3.8149178E-3,1.4581626E-2,-2.878056E-2,-3.617608E-2,1.3015073E-2,1.1784575E-2,-8.341393E-3],"categories":[],"categories_nodes":[],"categories_segments":[],"categories_sizes":[],"default_left":[0,0,0,0,0,0,0,0,0,0,0,0,0,0,0],"id":46,"left_children":[1,3,5,7,9,11,13,-1,-1,-1,-1,-1,-1,-1,-1],"loss_changes":[7.7205424E0,1.2467906E1,7.368648E0,7.903051E0,1.0206047E1,6.3599863E0,4.941686E0,0E0,0E0,0E0,0E0,0E0,0E0,0E0,0E0],"parents":[2147483647,0,0,1,1,2,2,3,3,4,4,5,5,6,6],"right_children":[2,4,6,8,10,12,14,-1,-1,-1,-1,-1,-1,-1,-1],"split_conditions":[4E0,3E0,1.5478572E1,5.508E1,2.8108572E1,3.9E1,9.428572E0,-2.466982E-2,3.8149178E-3,1.4581626E-2,-2.878056E-2,-3.617608E-2,1.3015073E-2,1.1784575E-2,-8.341393E-3],"split_indices":[0,0,36,28,31,3,26,0,0,0,0,0,0,0,0],"split_type":[0,0,0,0,0,0,0,0,0,0,0,0,0,0,0],"sum_hessian":[3.76E2,2.09E2,1.67E2,1.55E2,5.4E1,1.4E1,1.53E2,1.5E1,1.4E2,9E0,4.5E1,9E0,5E0,1.32E2,2.1E1],"tree_param":{"num_deleted":"0","num_feature":"53","num_nodes":"15","size_leaf_vector":"1"}},{"base_weights":[-7.428301E-3,-9.869196E-2,2.0318948E-1,5.025319E-2,-3.761229E-1,2.4302924E-1,-2.642449E-2,-7.329729E-3,1.0250276E-2,-9.564156E-3,-5.3481955E-2,1.2460636E-2,-1.33717405E-2],"categories":[],"categories_nodes":[],"categories_segments":[],"categories_sizes":[],"default_left":[0,0,0,0,0,0,0,0,0,0,0,0,0],"id":47,"left_children":[1,3,5,7,9,11,-1,-1,-1,-1,-1,-1,-1],"loss_changes":[6.9603515E0,1.0481057E1,4.169667E0,8.126232E0,1.0853129E1,4.4712377E0,0E0,0E0,0E0,0E0,0E0,0E0,0E0],"parents":[2147483647,0,0,1,1,2,2,3,3,4,4,5,5],"right_children":[2,4,6,8,10,12,-1,-1,-1,-1,-1,-1,-1],"split_conditions":[3.4267143E1,3.224E1,9.179E1,2.823E1,7.75E0,7.15E0,-2.642449E-2,-7.329729E-3,1.0250276E-2,-9.564156E-3,-5.3481955E-2,1.2460636E-2,-1.33717405E-2],"split_indices":[36,13,40,21,34,52,0,0,0,0,0,0,0],"split_type":[0,0,0,0,0,0,0,0,0,0,0,0,0],"sum_hessian":[3.57E2,2.5E2,1.07E2,1.64E2,8.6E1,1.04E2,3E0,7.7E1,8.7E1,7.8E1,8E0,9.4E1,1E1],"tree_param":{"num_deleted":"0","num_feature":"53","num_nodes":"13","size_leaf_vector":"1"}},{"base_weights":[-9.355906E-3,-1.9280036E-1,1.10457025E-1,-2.6735812E-1,4.8045534E-1,1.379461E-1,-4.1872438E-2,-1.9207163E-2,-5.539074E-4,2.1846686E-2,6.560156E-4,1.7194696E-2,1.0137153E-3],"categories":[],"categories_nodes":[],"categories_segments":[],"categories_sizes":[],"default_left":[0,0,0,0,0,0,0,0,0,0,0,0,0],"id":48,"left_children":[1,3,5,7,9,11,-1,-1,-1,-1,-1,-1,-1],"loss_changes":[8.152508E0,7.6749125E0,7.5028563E0,7.186014E0,4.502616E-1,7.253752E0,0E0,0E0,0E0,0E0,0E0,0E0,0E0],"parents":[2147483647,0,0,1,1,2,2,3,3,4,4,5,5],"right_children":[2,4,6,8,10,12,-1,-1,-1,-1,-1,-1,-1],"split_conditions":[1.67E1,2.8418E2,2.23E1,4E0,7.5857145E-1,2.9037144E1,-4.1872438E-2,-1.9207163E-2,-5.539074E-4,2.1846686E-2,6.560156E-4,1.7194696E-2,1.0137153E-3],"split_indices":[35,25,38,0,48,27,0,0,0,0,0,0,0],"split_type":[0,0,0,0,0,0,0,0,0,0,0,0,0],"sum_hessian":[3.66E2,1.44E2,2.22E2,1.31E2,1.3E1,2.19E2,3E0,7E1,6.1E1,1.1E1,2E0,5.9E1,1.6E2],"tree_param":{"num_deleted":"0","num_feature":"53","num_nodes":"13","size_leaf_vector":"1"}},{"base_weights":[-1.7742863E-2,-5.632059E-2,5.5013674E-1,-1.0843506E-1,2.9169628E-1,6.489925E-1,-3.4544598E-3,-6.668353E-3,1.1844113E-2,1.4524238E-2,-1.6746484E-2,1.3671833E-3,2.830673E-2],"categories":[],"categories_nodes":[],"categories_segments":[],"categories_sizes":[],"default_left":[0,0,0,0,0,0,0,0,0,0,0,0,0],"id":49,"left_children":[1,3,5,7,9,11,-1,-1,-1,-1,-1,-1,-1],"loss_changes":[8.435173E0,6.599224E0,1.6816964E0,7.5374136E0,2.7895532E0,7.1513367E-1,0E0,0E0,0E0,0E0,0E0,0E0,0E0],"parents":[2147483647,0,0,1,1,2,2,3,3,4,4,5,5],"right_children":[2,4,6,8,10,12,-1,-1,-1,-1,-1,-1,-1],"split_conditions":[8.577E1,6.177E1,1.3252E3,1.33E2,6.216E1,5.4E-1,-3.4544598E-3,-6.668353E-3,1.1844113E-2,1.4524238E-2,-1.6746484E-2,1.3671833E-3,2.830673E-2],"split_indices":[19,35,33,32,19,35,0,0,0,0,0,0,0],"split_type":[0,0,0,0,0,0,0,0,0,0,0,0,0],"sum_hessian":[3.79E2,3.57E2,2.2E1,3.12E2,4.5E1,1.9E1,3E0,2.74E2,3.8E1,4.2E1,3E0,2E0,1.7E1],"tree_param":{"num_deleted":"0","num_feature":"53","num_nodes":"13","size_leaf_vector":"1"}},{"base_weights":[-2.6136013E-3,-4.7058623E-2,3.4525707E-1,-1.114266E-2,-5.406627E-1,4.4577688E-1,-1.2122669E-1,-2.7183124E-3,1.3764106E-2,1.7350856E-2,-2.9847495E-2,1.9239418E-2,-2.5594097E-3,-1.0261307E-2,3.7513368E-3],"categories":[],"categories_nodes":[],"categories_segments":[],"categories_sizes":[],"default_left":[0,0,0,0,0,0,0,0,0,0,0,0,0,0,0],"id":50,"left_children":[1,3,5,7,9,11,13,-1,-1,-1,-1,-1,-1,-1,-1],"loss_changes":[5.7998857E0,5.879587E0,2.1279616E0,6.365748E0,5.315269E0,7.1409464E-1,3.3652174E-1,0E0,0E0,0E0,0E0,0E0,0E0,0E0,0E0],"parents":[2147483647,0,0,1,1,2,2,3,3,4,4,5,5,6,6],"right_children":[2,4,6,8,10,12,14,-1,-1,-1,-1,-1,-1,-1,-1],"split_conditions":[1.4E1,8.476E1,7.857143E0,1.33E2,4E0,6.0532856E1,7E0,-2.7183124E-3,1.3764106E-2,1.7350856E-2,-2.9847495E-2,1.9239418E-2,-2.5594097E-3,-1.0261307E-2,3.7513368E-3],"split_indices":[12,40,34,32,2,27,16,0,0,0,0,0,0,0,0],"split_type":[0,0,0,0,0,0,0,0,0,0,0,0,0,0,0],"sum_hessian":[3.7E2,3.3E2,4E1,3.1E2,2E1,3.3E1,7E0,2.69E2,4.1E1,3E0,1.7E1,3.1E1,2E0,4E0,3E0],"tree_param":{"num_deleted":"0","num_feature":"53","num_nodes":"15","size_leaf_vector":"1"}},{"base_weights":[-2.4400236E-2,-6.194495E-2,5.174015E-1,-1.0712015E-1,3.5599715E-1,6.154538E-1,-3.3299376E-3,-1.4262617E-2,-5.4263655E-4,-9.710064E-3,1.6531156E-2,1.2446933E-3,2.6976809E-2],"categories":[],"categories_nodes":[],"categories_segments":[],"categories_sizes":[],"default_left":[0,0,0,0,0,0,0,0,0,0,0,0,0],"id":51,"left_children":[1,3,5,7,9,11,-1,-1,-1,-1,-1,-1,-1],"loss_changes":[7.372659E0,6.467544E0,1.5121231E0,7.140593E0,1.3997736E0,6.5388775E-1,0E0,0E0,0E0,0E0,0E0,0E0,0E0],"parents":[2147483647,0,0,1,1,2,2,3,3,4,4,5,5],"right_children":[2,4,6,8,10,12,-1,-1,-1,-1,-1,-1,-1],"split_conditions":[8.577E1,1.4E1,4.732857E1,1.146E1,2E0,5.4E-1,-3.3299376E-3,-1.4262617E-2,-5.4263655E-4,-9.710064E-3,1.6531156E-2,1.2446933E-3,2.6976809E-2],"split_indices":[19,12,31,19,2,35,0,0,0,0,0,0,0],"split_type":[0,0,0,0,0,0,0,0,0,0,0,0,0],"sum_hessian":[3.56E2,3.35E2,2.1E1,3.04E2,3.1E1,1.8E1,3E0,8.1E1,2.23E2,2E0,2.9E1,2E0,1.6E1],"tree_param":{"num_deleted":"0","num_feature":"53","num_nodes":"13","size_leaf_vector":"1"}},{"base_weights":[-1.6423237E-2,-1.5826143E-4,-4.3238714E-2,-5.5617505E-1,3.1224439E-2,6.062386E-3,-3.0530455E-2,1.7096462E-2,-1.0252031E-3],"categories":[],"categories_nodes":[],"categories_segments":[],"categories_sizes":[],"default_left":[0,0,0,0,0,0,0,0,0],"id":52,"left_children":[1,3,-1,5,7,-1,-1,-1,-1],"loss_changes":[6.3281283E0,6.36879E0,0E0,3.147162E0,7.8097835E0,0E0,0E0,0E0,0E0],"parents":[2147483647,0,0,1,1,3,3,4,4],"right_children":[2,4,-1,6,8,-1,-1,-1,-1],"split_conditions":[2.1E1,2E1,-4.3238714E-2,1E0,7.8339E2,6.062386E-3,-3.0530455E-2,1.7096462E-2,-1.0252031E-3],"split_indices":[18,24,0,0,33,0,0,0,0],"split_type":[0,0,0,0,0,0,0,0,0],"sum_hessian":[3.63E2,3.6E2,3E0,1.7E1,3.43E2,4E0,1.3E1,4.1E1,3.02E2],"tree_param":{"num_deleted":"0","num_feature":"53","num_nodes":"9","size_leaf_vector":"1"}},{"base_weights":[4.8822712E-4,-3.27509E-2,5.018521E-1,1.7395009E-1,-1.2629585E-1,5.575411E-1,-1.720971E-3,-5.800417E-3,1.5178634E-2,-2.6001219E-2,-2.0560366E-3,-1.3808144E-4,2.4620855E-2],"categories":[],"categories_nodes":[],"categories_segments":[],"categories_sizes":[],"default_left":[0,0,0,0,0,0,0,0,0,0,0,0,0],"id":53,"left_children":[1,3,5,7,9,11,-1,-1,-1,-1,-1,-1,-1],"loss_changes":[6.298759E0,6.909476E0,7.730446E-1,7.446549E0,9.546224E0,7.0463324E-1,0E0,0E0,0E0,0E0,0E0,0E0,0E0],"parents":[2147483647,0,0,1,1,2,2,3,3,4,4,5,5],"right_children":[2,4,6,8,10,12,-1,-1,-1,-1,-1,-1,-1],"split_conditions":[8.577E1,7.5648E2,4.732857E1,3E0,7.7577E2,2.9787857E1,-1.720971E-3,-5.800417E-3,1.5178634E-2,-2.6001219E-2,-2.0560366E-3,-1.3808144E-4,2.4620855E-2],"split_indices":[19,37,31,12,37,27,0,0,0,0,0,0,0],"split_type":[0,0,0,0,0,0,0,0,0,0,0,0,0],"sum_hessian":[3.73E2,3.52E2,2.1E1,1.09E2,2.43E2,1.9E1,2E0,4.3E1,6.6E1,2.8E1,2.15E2,2E0,1.7E1],"tree_param":{"num_deleted":"0","num_feature":"53","num_nodes":"13","size_leaf_vector":"1"}},{"base_weights":[6.6090096E-3,2.1929026E-2,-4.2250466E-2,-5.315483E-1,5.1469564E-2,1.4332778E-2,-2.990533E-2,-2.8543936E-3,8.387459E-3],"categories":[],"categories_nodes":[],"categories_segments":[],"categories_sizes":[],"default_left":[0,0,0,0,0,0,0,0,0],"id":54,"left_children":[1,3,-1,5,7,-1,-1,-1,-1],"loss_changes":[6.302512E0,6.2895784E0,0E0,4.419326E0,7.101555E0,0E0,0E0,0E0,0E0],"parents":[2147483647,0,0,1,1,3,3,4,4],"right_children":[2,4,-1,6,8,-1,-1,-1,-1],"split_conditions":[2.1E1,2E1,-4.2250466E-2,9.23E0,4E0,1.4332778E-2,-2.990533E-2,-2.8543936E-3,8.387459E-3],"split_indices":[18,24,0,40,0,0,0,0,0],"split_type":[0,0,0,0,0,0,0,0,0],"sum_hessian":[3.81E2,3.78E2,3E0,1.7E1,3.61E2,3E0,1.4E1,2.04E2,1.57E2],"tree_param":{"num_deleted":"0","num_feature":"53","num_nodes":"9","size_leaf_vector":"1"}},{"base_weights":[-8.266514E-3,-6.2328255E-1,2.3439921E-2,-2.8890364E-2,3.435974E-3,3.9992502E-1,-3.9193198E-2,1.9237993E-2,-1.3839872E-2,-7.8331055E-3,6.4576766E-3],"categories":[],"categories_nodes":[],"categories_segments":[],"categories_sizes":[],"default_left":[0,0,0,0,0,0,0,0,0,0,0],"id":55,"left_children":[1,3,5,-1,-1,7,9,-1,-1,-1,-1],"loss_changes":[7.3587623E0,1.4536619E0,8.516353E0,0E0,0E0,3.5285835E0,9.8369255E0,0E0,0E0,0E0,0E0],"parents":[2147483647,0,0,1,1,2,2,5,5,6,6],"right_children":[2,4,6,-1,-1,8,10,-1,-1,-1,-1],"split_conditions":[2E1,1.8E1,2.8229286E1,-2.8890364E-2,3.435974E-3,3.977E1,4E0,1.9237993E-2,-1.3839872E-2,-7.8331055E-3,6.4576766E-3],"split_indices":[24,2,31,0,0,46,0,0,0,0,0],"split_type":[0,0,0,0,0,0,0,0,0,0,0],"sum_hessian":[3.73E2,1.6E1,3.57E2,1.4E1,2E0,4.9E1,3.08E2,4.5E1,4E0,1.73E2,1.35E2],"tree_param":{"num_deleted":"0","num_feature":"53","num_nodes":"11","size_leaf_vector":"1"}},{"base_weights":[-1.5702186E-2,-2.1915206E-1,6.867217E-2,-5.0978464E-1,9.75315E-2,-3.4532177E-1,1.2531662E-1,-2.943736E-2,1.1510012E-2,-3.389228E-2,8.572644E-3,1.576623E-3,-5.1486544E-2,8.129726E-3,-4.086131E-3],"categories":[],"categories_nodes":[],"categories_segments":[],"categories_sizes":[],"default_left":[0,0,0,0,0,0,0,0,0,0,0,0,0,0,0],"id":56,"left_children":[1,3,5,7,9,11,13,-1,-1,-1,-1,-1,-1,-1,-1],"loss_changes":[6.414776E0,1.0202522E1,6.310832E0,1.09002285E1,6.467649E0,1.1903594E1,4.2086377E0,0E0,0E0,0E0,0E0,0E0,0E0,0E0,0E0],"parents":[2147483647,0,0,1,1,2,2,3,3,4,4,5,5,6,6],"right_children":[2,4,6,8,10,12,14,-1,-1,-1,-1,-1,-1,-1,-1],"split_conditions":[-2.2252093E-1,4E0,5.538E1,4.38E1,5E0,2.6289286E1,5.254E1,-2.943736E-2,1.1510012E-2,-3.389228E-2,8.572644E-3,1.576623E-3,-5.1486544E-2,8.129726E-3,-4.086131E-3],"split_indices":[8,0,28,23,2,27,21,0,0,0,0,0,0,0,0],"split_type":[0,0,0,0,0,0,0,0,0,0,0,0,0,0,0],"sum_hessian":[3.69E2,1.07E2,2.62E2,5.5E1,5.2E1,3E1,2.32E2,4.3E1,1.2E1,4E0,4.8E1,2.3E1,7E0,1.73E2,5.9E1],"tree_param":{"num_deleted":"0","num_feature":"53","num_nodes":"15","size_leaf_vector":"1"}},{"base_weights":[1.391542E-2,-4.3061975E-1,5.5425283E-2,-1.05030864E-1,-5.749975E-2,7.292577E-2,-4.1237358E-2,-1.5255018E-2,1.6274774E-2,3.615032E-3,-4.035242E-2],"categories":[],"categories_nodes":[],"categories_segments":[],"categories_sizes":[],"default_left":[0,0,0,0,0,0,0,0,0,0,0],"id":57,"left_children":[1,3,5,7,-1,9,-1,-1,-1,-1,-1],"loss_changes":[6.804091E0,9.949099E0,6.585431E0,4.136638E0,0E0,6.5231867E0,0E0,0E0,0E0,0E0,0E0],"parents":[2147483647,0,0,1,1,2,2,3,3,5,5],"right_children":[2,4,6,8,-1,10,-1,-1,-1,-1,-1],"split_conditions":[5.276E1,2.6289286E1,2.1E1,7E0,-5.749975E-2,2.756E1,-4.1237358E-2,-1.5255018E-2,1.6274774E-2,3.615032E-3,-4.035242E-2],"split_indices":[28,27,18,43,0,38,0,0,0,0,0],"split_type":[0,0,0,0,0,0,0,0,0,0,0],"sum_hessian":[3.63E2,2.9E1,3.34E2,2.4E1,5E0,3.31E2,3E0,1.6E1,8E0,3.28E2,3E0],"tree_param":{"num_deleted":"0","num_feature":"53","num_nodes":"11","size_leaf_vector":"1"}},{"base_weights":[1.1987084E-3,1.61382E-2,-4.0337637E-2,-2.4995025E-2,3.953743E-1,4.913434E-3,-4.8578572E-3,2.5849273E-2,2.558724E-3],"categories":[],"categories_nodes":[],"categories_segments":[],"categories_sizes":[],"default_left":[0,0,0,0,0,0,0,0,0],"id":58,"left_children":[1,3,-1,5,7,-1,-1,-1,-1],"loss_changes":[5.689458E0,5.81981E0,0E0,4.849538E0,2.9311094E0,0E0,0E0,0E0,0E0],"parents":[2147483647,0,0,1,1,3,3,4,4],"right_children":[2,4,-1,6,8,-1,-1,-1,-1],"split_conditions":[2.1E1,1.0851E2,-4.0337637E-2,3.037E1,2.2E1,4.913434E-3,-4.8578572E-3,2.5849273E-2,2.558724E-3],"split_indices":[18,24,0,31,2,0,0,0,0],"split_type":[0,0,0,0,0,0,0,0,0],"sum_hessian":[3.72E2,3.69E2,3E0,3.35E2,3.4E1,1.32E2,2.03E2,1.8E1,1.6E1],"tree_param":{"num_deleted":"0","num_feature":"53","num_nodes":"9","size_leaf_vector":"1"}},{"base_weights":[-4.09522E-3,-1.1961924E-1,9.8293245E-2,-7.6147534E-2,-4.96264E-2,3.0643287E-1,-3.936646E-2,-5.7237884E-3,2.0308686E-2,-1.591851E-2,1.6818373E-2,-1.8851107E-2,3.747537E-3],"categories":[],"categories_nodes":[],"categories_segments":[],"categories_sizes":[],"default_left":[0,0,0,0,0,0,0,0,0,0,0,0,0],"id":59,"left_children":[1,3,5,7,-1,9,11,-1,-1,-1,-1,-1,-1],"loss_changes":[4.494588E0,8.462756E0,5.803625E0,7.002503E0,0E0,6.8840547E0,7.2076683E0,0E0,0E0,0E0,0E0,0E0,0E0],"parents":[2147483647,0,0,1,1,2,2,3,3,5,5,6,6],"right_children":[2,4,6,8,-1,10,12,-1,-1,-1,-1,-1,-1],"split_conditions":[6E0,3.554E1,3.1877857E1,1.33E2,-4.96264E-2,2.2585714E1,-2.2252093E-1,-5.7237884E-3,2.0308686E-2,-1.591851E-2,1.6818373E-2,-1.8851107E-2,3.747537E-3],"split_indices":[12,11,27,32,0,27,8,0,0,0,0,0,0],"split_type":[0,0,0,0,0,0,0,0,0,0,0,0,0],"sum_hessian":[3.75E2,1.76E2,1.99E2,1.72E2,4E0,7.8E1,1.21E2,1.56E2,1.6E1,1E1,6.8E1,2.7E1,9.4E1],"tree_param":{"num_deleted":"0","num_feature":"53","num_nodes":"13","size_leaf_vector":"1"}},{"base_weights":[-2.1994306E-2,2.130418E-1,-9.4658785E-2,-3.2741067E-1,3.0851835E-1,-2.6209113E-1,1.1796504E-1,-2.3009779E-2,2.171646E-2,1.5617584E-2,-3.0742206E-3,-1.7235791E-2,5.5280267E-3,-1.7099028E-2,8.23277E-3],"categories":[],"categories_nodes":[],"categories_segments":[],"categories_sizes":[],"default_left":[0,0,0,0,0,0,0,0,0,0,0,0,0,0,0],"id":60,"left_children":[1,3,5,7,9,11,13,-1,-1,-1,-1,-1,-1,-1,-1],"loss_changes":[6.3951817E0,4.819178E0,1.0241125E1,3.908349E0,2.4901466E0,1.0993975E1,6.3296614E0,0E0,0E0,0E0,0E0,0E0,0E0,0E0,0E0],"parents":[2147483647,0,0,1,1,2,2,3,3,4,4,5,5,6,6],"right_children":[2,4,6,8,10,12,14,-1,-1,-1,-1,-1,-1,-1,-1],"split_conditions":[2.895857E1,4.732E1,4E0,1.9E1,3.388286E1,3.917E1,5E0,-2.3009779E-2,2.171646E-2,1.5617584E-2,-3.0742206E-3,-1.7235791E-2,5.5280267E-3,-1.7099028E-2,8.23277E-3],"split_indices":[31,28,0,2,27,23,2,0,0,0,0,0,0,0,0],"split_type":[0,0,0,0,0,0,0,0,0,0,0,0,0,0,0],"sum_hessian":[3.69E2,8.6E1,2.83E2,1.2E1,7.4E1,1.58E2,1.25E2,1E1,2E0,6.1E1,1.3E1,1.11E2,4.7E1,1.6E1,1.09E2],"tree_param":{"num_deleted":"0","num_feature":"53","num_nodes":"15","size_leaf_vector":"1"}},{"base_weights":[-6.1819055E-3,-4.9551718E-2,3.614803E-1,-1.5844363E-1,9.289053E-2,4.6054837E-1,-2.6596364E-2,1.0256385E-2,-1.0640814E-2,-2.2444928E-4,1.9361362E-2,2.31549E-2,2.687644E-3],"categories":[],"categories_nodes":[],"categories_segments":[],"categories_sizes":[],"default_left":[0,0,0,0,0,0,0,0,0,0,0,0,0],"id":61,"left_children":[1,3,5,7,9,11,-1,-1,-1,-1,-1,-1,-1],"loss_changes":[5.9685116E0,5.2251606E0,4.782012E0,8.672264E0,5.6511903E0,1.6481485E0,0E0,0E0,0E0,0E0,0E0,0E0,0E0],"parents":[2147483647,0,0,1,1,2,2,3,3,4,4,5,5],"right_children":[2,4,6,8,10,12,-1,-1,-1,-1,-1,-1,-1],"split_conditions":[1.0851E2,4E0,2E1,2.8684643E1,2.5E1,2.94E2,-2.6596364E-2,1.0256385E-2,-1.0640814E-2,-2.2444928E-4,1.9361362E-2,2.31549E-2,2.687644E-3],"split_indices":[24,0,18,31,2,6,0,0,0,0,0,0,0],"split_type":[0,0,0,0,0,0,0,0,0,0,0,0,0],"sum_hessian":[3.69E2,3.32E2,3.7E1,1.88E2,1.44E2,3.5E1,2E0,3.8E1,1.5E2,1.17E2,2.7E1,2.6E1,9E0],"tree_param":{"num_deleted":"0","num_feature":"53","num_nodes":"13","size_leaf_vector":"1"}},{"base_weights":[-2.3690868E-2,-2.0236236E-1,8.642979E-2,1.2409189E-2,-5.978216E-1,-1.9376412E-1,1.8681829E-1,-1.3661008E-2,6.7580473E-3,-3.7772387E-2,4.415577E-3,1.7315147E-2,-1.9117707E-2,1.0319207E-2,-5.816524E-3],"categories":[],"categories_nodes":[],"categories_segments":[],"categories_sizes":[],"default_left":[0,0,0,0,0,0,0,0,0,0,0,0,0,0,0],"id":62,"left_children":[1,3,5,7,9,11,13,-1,-1,-1,-1,-1,-1,-1,-1],"loss_changes":[7.2547674E0,1.1951691E1,6.517801E0,5.324676E0,1.2407244E1,1.1469053E1,4.101138E0,0E0,0E0,0E0,0E0,0E0,0E0,0E0,0E0],"parents":[2147483647,0,0,1,1,2,2,3,3,4,4,5,5,6,6],"right_children":[2,4,6,8,10,12,14,-1,-1,-1,-1,-1,-1,-1,-1],"split_conditions":[7.991E1,3.0386786E1,1.138E1,5.276E1,3.2537144E1,5.785714E0,3.53E2,-1.3661008E-2,6.7580473E-3,-3.7772387E-2,4.415577E-3,1.7315147E-2,-1.9117707E-2,1.0319207E-2,-5.816524E-3],"split_indices":[28,31,19,28,23,30,6,0,0,0,0,0,0,0,0],"split_type":[0,0,0,0,0,0,0,0,0,0,0,0,0,0,0],"sum_hessian":[3.64E2,1.38E2,2.26E2,9.1E1,4.7E1,5.9E1,1.67E2,2.7E1,6.4E1,3.1E1,1.6E1,1.8E1,4.1E1,1.38E2,2.9E1],"tree_param":{"num_deleted":"0","num_feature":"53","num_nodes":"15","size_leaf_vector":"1"}},{"base_weights":[-1.9244902E-2,-4.63182E-3,-3.9157838E-2,-4.8404655E-1,2.5235027E-2,2.1390917E-2,-2.6284058E-2,1.5513251E-2,-1.0708647E-3],"categories":[],"categories_nodes":[],"categories_segments":[],"categories_sizes":[],"default_left":[0,0,0,0,0,0,0,0,0],"id":63,"left_children":[1,3,-1,5,7,-1,-1,-1,-1],"loss_changes":[5.1425543E0,5.2496686E0,0E0,4.6692033E0,6.541194E0,0E0,0E0,0E0,0E0],"parents":[2147483647,0,0,1,1,3,3,4,4],"right_children":[2,4,-1,6,8,-1,-1,-1,-1],"split_conditions":[2.756E1,1.2735714E1,-3.9157838E-2,5.4E-1,2.7978214E1,2.1390917E-2,-2.6284058E-2,1.5513251E-2,-1.0708647E-3],"split_indices":[38,23,0,19,31,0,0,0,0],"split_type":[0,0,0,0,0,0,0,0,0],"sum_hessian":[3.65E2,3.62E2,3E0,1.9E1,3.43E2,2E0,1.7E1,4.1E1,3.02E2],"tree_param":{"num_deleted":"0","num_feature":"53","num_nodes":"9","size_leaf_vector":"1"}},{"base_weights":[-1.2672431E-2,1.3643793E-3,-3.8303483E-2,1.560716E-2,-3.8244467E-2,-1.0378601E-2,2.4273875E-3],"categories":[],"categories_nodes":[],"categories_segments":[],"categories_sizes":[],"default_left":[0,0,0,0,0,0,0],"id":64,"left_children":[1,3,-1,5,-1,-1,-1],"loss_changes":[4.9837437E0,5.117133E0,0E0,4.621007E0,0E0,0E0,0E0],"parents":[2147483647,0,0,1,1,3,3],"right_children":[2,4,-1,6,-1,-1,-1],"split_conditions":[2.756E1,2.1E1,-3.8303483E-2,1.5E0,-3.8244467E-2,-1.0378601E-2,2.4273875E-3],"split_indices":[38,18,0,11,0,0,0],"split_type":[0,0,0,0,0,0,0],"sum_hessian":[3.73E2,3.7E2,3E0,3.67E2,3E0,5E1,3.17E2],"tree_param":{"num_deleted":"0","num_feature":"53","num_nodes":"7","size_leaf_vector":"1"}},{"base_weights":[1.840392E-2,3.280788E-2,-3.7467774E-2,4.7430765E-2,-3.7410043E-2,-1.1957464E-2,3.3936931E-3],"categories":[],"categories_nodes":[],"categories_segments":[],"categories_sizes":[],"default_left":[0,0,0,0,0,0,0],"id":65,"left_children":[1,3,-1,5,-1,-1,-1],"loss_changes":[5.091325E0,5.2282267E0,0E0,4.7089014E0,0E0,0E0,0E0],"parents":[2147483647,0,0,1,1,3,3],"right_children":[2,4,-1,6,-1,-1,-1],"split_conditions":[2.756E1,2.1E1,-3.7467774E-2,5.276E1,-3.7410043E-2,-1.1957464E-2,3.3936931E-3],"split_indices":[38,18,0,28,0,0,0],"split_type":[0,0,0,0,0,0,0],"sum_hessian":[3.62E2,3.59E2,3E0,3.56E2,3E0,3.3E1,3.23E2],"tree_param":{"num_deleted":"0","num_feature":"53","num_nodes":"7","size_leaf_vector":"1"}},{"base_weights":[-1.4558243E-2,-6.4277396E-2,2.5080776E-1,-1.8782489E-1,9.3435824E-2,4.1101187E-1,-3.5931927E-1,8.644332E-3,-1.1691767E-2,8.501414E-3,-8.3150035E-3,1.4645848E-3,2.5454186E-2,8.938934E-3,-3.0714635E-2],"categories":[],"categories_nodes":[],"categories_segments":[],"categories_sizes":[],"default_left":[0,0,0,0,0,0,0,0,0,0,0,0,0,0,0],"id":66,"left_children":[1,3,5,7,9,11,13,-1,-1,-1,-1,-1,-1,-1,-1],"loss_changes":[4.8890142E0,6.113475E0,6.0872855E0,7.5637736E0,5.080662E0,3.9492178E0,3.6433167E0,0E0,0E0,0E0,0E0,0E0,0E0,0E0,0E0],"parents":[2147483647,0,0,1,1,2,2,3,3,4,4,5,5,6,6],"right_children":[2,4,6,8,10,12,14,-1,-1,-1,-1,-1,-1,-1,-1],"split_conditions":[5.908E1,4E0,2.9014285E0,2.8684643E1,5.276E1,8.619E1,6.123234E-17,8.644332E-3,-1.1691767E-2,8.501414E-3,-8.3150035E-3,1.4645848E-3,2.5454186E-2,8.938934E-3,-3.0714635E-2],"split_indices":[15,0,39,31,21,28,10,0,0,0,0,0,0,0,0],"split_type":[0,0,0,0,0,0,0,0,0,0,0,0,0,0,0],"sum_hessian":[3.65E2,3.09E2,5.6E1,1.73E2,1.36E2,4.5E1,1.1E1,3.5E1,1.38E2,9.8E1,3.8E1,1.8E1,2.7E1,5E0,6E0],"tree_param":{"num_deleted":"0","num_feature":"53","num_nodes":"15","size_leaf_vector":"1"}},{"base_weights":[-1.9297993E-2,-7.146412E-2,2.7341962E-1,-4.125004E-2,-9.249021E-1,5.968328E-1,-1.367646E-3,3.4662357E-3,-7.379251E-3,6.060799E-3,-4.89097E-2,3.0586308E-2,-2.433319E-3,6.7744004E-3,-2.1329356E-2],"categories":[],"categories_nodes":[],"categories_segments":[],"categories_sizes":[],"default_left":[0,0,0,0,0,0,0,0,0,0,0,0,0,0,0],"id":67,"left_children":[1,3,5,7,9,11,13,-1,-1,-1,-1,-1,-1,-1,-1],"loss_changes":[5.599473E0,7.9111233E0,4.934316E0,5.5818033E0,3.8294973E0,2.9307957E0,3.1769106E0,0E0,0E0,0E0,0E0,0E0,0E0,0E0,0E0],"parents":[2147483647,0,0,1,1,2,2,3,3,4,4,5,5,6,6],"right_children":[2,4,6,8,10,12,14,-1,-1,-1,-1,-1,-1,-1,-1],"split_conditions":[1.33E2,1.2E1,3.437E1,2.608E1,3.1652857E1,5E0,9.357142E0,3.4662357E-3,-7.379251E-3,6.060799E-3,-4.89097E-2,3.0586308E-2,-2.433319E-3,6.7744004E-3,-2.1329356E-2],"split_indices":[32,1,11,13,31,0,30,0,0,0,0,0,0,0,0],"split_type":[0,0,0,0,0,0,0,0,0,0,0,0,0,0,0],"sum_hessian":[3.61E2,3.08E2,5.3E1,3E2,8E0,2.3E1,3E1,1.59E2,1.41E2,2E0,6E0,1.8E1,5E0,2.4E1,6E0],"tree_param":{"num_deleted":"0","num_feature":"53","num_nodes":"15","size_leaf_vector":"1"}},{"base_weights":[2.6424186E-2,-2.443622E-2,2.8709504E-1,1.2214099E-1,-1.20441034E-1,1.4077906E-1,5.841886E-1,-1.0973919E-2,8.866753E-3,9.208496E-3,-8.53126E-3,1.2290273E-2,-8.810118E-3,2.7663404E-2,-1.4165704E-4],"categories":[],"categories_nodes":[],"categories_segments":[],"categories_sizes":[],"default_left":[0,0,0,0,0,0,0,0,0,0,0,0,0,0,0],"id":68,"left_children":[1,3,5,7,9,11,13,-1,-1,-1,-1,-1,-1,-1,-1],"loss_changes":[4.995852E0,4.490602E0,2.4677725E0,5.1439404E0,6.389556E0,2.8438046E0,1.2369661E0,0E0,0E0,0E0,0E0,0E0,0E0,0E0,0E0],"parents":[2147483647,0,0,1,1,2,2,3,3,4,4,5,5,6,6],"right_children":[2,4,6,8,10,12,14,-1,-1,-1,-1,-1,-1,-1,-1],"split_conditions":[5.908E1,3.0298214E1,4.167E1,5.276E1,9.24E0,1.814E1,1.3632E2,-1.0973919E-2,8.866753E-3,9.208496E-3,-8.53126E-3,1.2290273E-2,-8.810118E-3,2.7663404E-2,-1.4165704E-4],"split_indices":[15,31,27,28,13,43,28,0,0,0,0,0,0,0,0],"split_type":[0,0,0,0,0,0,0,0,0,0,0,0,0,0,0],"sum_hessian":[3.73E2,3.14E2,5.9E1,1.24E2,1.9E2,4.2E1,1.7E1,2.4E1,1E2,3.9E1,1.51E2,2.9E1,1.3E1,1.4E1,3E0],"tree_param":{"num_deleted":"0","num_feature":"53","num_nodes":"15","size_leaf_vector":"1"}},{"base_weights":[-3.2670725E-2,-8.9213006E-2,1.6976048E-1,3.7324045E-2,-2.586609E-1,2.2943515E-1,-6.2539905E-1,3.6071886E-3,-2.0503916E-2,-1.9717647E-3,-2.4828564E-2,2.1587448E-2,5.9398245E-3,5.0025195E-4,-3.663442E-2],"categories":[],"categories_nodes":[],"categories_segments":[],"categories_sizes":[],"default_left":[0,0,0,0,0,0,0,0,0,0,0,0,0,0,0],"id":69,"left_children":[1,3,5,7,9,11,13,-1,-1,-1,-1,-1,-1,-1,-1],"loss_changes":[4.3701434E0,6.402964E0,4.3208694E0,5.1295357E0,9.588252E0,1.7960176E0,1.2329998E0,0E0,0E0,0E0,0E0,0E0,0E0,0E0,0E0],"parents":[2147483647,0,0,1,1,2,2,3,3,4,4,5,5,6,6],"right_children":[2,4,6,8,10,12,14,-1,-1,-1,-1,-1,-1,-1,-1],"split_conditions":[4.38E1,4.3388373E-1,1.061E1,4.31E0,3E0,1.01E2,3E0,3.6071886E-3,-2.0503916E-2,-1.9717647E-3,-2.4828564E-2,2.1587448E-2,5.9398245E-3,5.0025195E-4,-3.663442E-2],"split_indices":[23,7,38,46,0,6,0,0,0,0,0,0,0,0,0],"split_type":[0,0,0,0,0,0,0,0,0,0,0,0,0,0,0],"sum_hessian":[3.76E2,2.95E2,8.1E1,1.7E2,1.25E2,7.7E1,4E0,1.57E2,1.3E1,8.1E1,4.4E1,1.3E1,6.4E1,2E0,2E0],"tree_param":{"num_deleted":"0","num_feature":"53","num_nodes":"15","size_leaf_vector":"1"}},{"base_weights":[7.0807417E-3,-6.1098155E-2,2.1361567E-1,-3.4881836E-1,1.2484073E-3,2.5441548E-1,-2.2192983E-2,3.0207639E-3,-2.9609937E-2,1.2141029E-2,-3.2895606E-3,-8.611973E-3,1.3323027E-2],"categories":[],"categories_nodes":[],"categories_segments":[],"categories_sizes":[],"default_left":[0,0,0,0,0,0,0,0,0,0,0,0,0],"id":70,"left_children":[1,3,5,7,9,11,-1,-1,-1,-1,-1,-1,-1],"loss_changes":[5.306084E0,5.0866156E0,3.2843213E0,8.527728E0,6.005566E0,3.5230584E0,0E0,0E0,0E0,0E0,0E0,0E0,0E0],"parents":[2147483647,0,0,1,1,2,2,3,3,4,4,5,5],"right_children":[2,4,6,8,10,12,-1,-1,-1,-1,-1,-1,-1],"split_conditions":[4.059714E1,4.62E0,1.061E1,4.3388373E-1,1.9E1,8.437E1,-2.2192983E-2,3.0207639E-3,-2.9609937E-2,1.2141029E-2,-3.2895606E-3,-8.611973E-3,1.3323027E-2],"split_indices":[23,21,38,7,21,32,0,0,0,0,0,0,0],"split_type":[0,0,0,0,0,0,0,0,0,0,0,0,0],"sum_hessian":[3.72E2,2.81E2,9.1E1,4.8E1,2.33E2,8.8E1,3E0,2.4E1,2.4E1,4.9E1,1.84E2,1.2E1,7.6E1],"tree_param":{"num_deleted":"0","num_feature":"53","num_nodes":"13","size_leaf_vector":"1"}},{"base_weights":[1.2142014E-3,-2.8197862E-2,4.3725967E-1,-1.9576904E-1,6.1946403E-2,4.876739E-1,-1.8612184E-3,-1.7291298E-2,1.3465916E-3,3.360803E-3,-3.484927E-2,-3.1849756E-4,2.158117E-2],"categories":[],"categories_nodes":[],"categories_segments":[],"categories_sizes":[],"default_left":[0,0,0,0,0,0,0,0,0,0,0,0,0],"id":71,"left_children":[1,3,5,7,9,11,-1,-1,-1,-1,-1,-1,-1],"loss_changes":[4.769661E0,5.2946134E0,6.298919E-1,6.683743E0,4.8898E0,5.633197E-1,0E0,0E0,0E0,0E0,0E0,0E0,0E0],"parents":[2147483647,0,0,1,1,2,2,3,3,4,4,5,5],"right_children":[2,4,6,8,10,12,-1,-1,-1,-1,-1,-1,-1],"split_conditions":[8.577E1,1.623E1,4.732857E1,2.354E1,2.756E1,5.4E-1,-1.8612184E-3,-1.7291298E-2,1.3465916E-3,3.360803E-3,-3.484927E-2,-3.1849756E-4,2.158117E-2],"split_indices":[19,11,31,17,38,35,0,0,0,0,0,0,0],"split_type":[0,0,0,0,0,0,0,0,0,0,0,0,0],"sum_hessian":[3.67E2,3.46E2,2.1E1,1.2E2,2.26E2,1.9E1,2E0,5.8E1,6.2E1,2.23E2,3E0,2E0,1.7E1],"tree_param":{"num_deleted":"0","num_feature":"53","num_nodes":"13","size_leaf_vector":"1"}},{"base_weights":[-1.6192652E-2,1.005739E-1,-1.2074422E-1,-8.5597575E-2,2.2145328E-1,-3.3726037E-1,5.864323E-2,2.6430227E-2,-6.2132576E-3,-1.9534625E-2,1.0737938E-2,-4.4937354E-2,-8.053309E-3,-2.377118E-2,5.6005213E-3],"categories":[],"categories_nodes":[],"categories_segments":[],"categories_sizes":[],"default_left":[0,0,0,0,0,0,0,0,0,0,0,0,0,0,0],"id":72,"left_children":[1,3,5,7,9,11,13,-1,-1,-1,-1,-1,-1,-1,-1],"loss_changes":[4.5046372E0,3.974389E0,7.6038795E0,3.9258404E0,3.880385E0,8.891888E0,5.9724264E0,0E0,0E0,0E0,0E0,0E0,0E0,0E0,0E0],"parents":[2147483647,0,0,1,1,2,2,3,3,4,4,5,5,6,6],"right_children":[2,4,6,8,10,12,14,-1,-1,-1,-1,-1,-1,-1,-1],"split_conditions":[2.608E1,4E0,2.3567E2,9.23E0,4E0,3.31E0,3.284E1,2.6430227E-2,-6.2132576E-3,-1.9534625E-2,1.0737938E-2,-4.4937354E-2,-8.053309E-3,-2.377118E-2,5.6005213E-3],"split_indices":[13,12,25,40,3,21,13,0,0,0,0,0,0,0,0],"split_type":[0,0,0,0,0,0,0,0,0,0,0,0,0,0,0],"sum_hessian":[3.64E2,1.72E2,1.92E2,6.8E1,1.04E2,8.6E1,1.06E2,4E0,6.4E1,5E0,9.9E1,1E1,7.6E1,1E1,9.6E1],"tree_param":{"num_deleted":"0","num_feature":"53","num_nodes":"15","size_leaf_vector":"1"}},{"base_weights":[-2.3782255E-2,-7.3516354E-2,2.2422686E-1,9.904128E-2,-1.8960787E-1,7.818837E-2,6.018162E-1,2.4636518E-4,1.8070156E-2,8.595226E-3,-1.1083003E-2,1.3514818E-2,-1.1694729E-2,2.7006602E-2,5.929003E-3],"categories":[],"categories_nodes":[],"categories_segments":[],"categories_sizes":[],"default_left":[0,0,0,0,0,0,0,0,0,0,0,0,0,0,0],"id":73,"left_children":[1,3,5,7,9,11,13,-1,-1,-1,-1,-1,-1,-1,-1],"loss_changes":[4.463133E0,6.0667076E0,3.218488E0,4.0062304E0,6.534841E0,4.7215075E0,2.987709E-1,0E0,0E0,0E0,0E0,0E0,0E0,0E0,0E0],"parents":[2147483647,0,0,1,1,2,2,3,3,4,4,5,5,6,6],"right_children":[2,4,6,8,10,12,14,-1,-1,-1,-1,-1,-1,-1,-1],"split_conditions":[5.908E1,3.037E1,6.452E1,7.7714E2,9E0,7.77E0,5.658E1,2.4636518E-4,1.8070156E-2,8.595226E-3,-1.1083003E-2,1.3514818E-2,-1.1694729E-2,2.7006602E-2,5.929003E-3],"split_indices":[15,31,40,37,13,43,11,0,0,0,0,0,0,0,0],"split_type":[0,0,0,0,0,0,0,0,0,0,0,0,0,0,0],"sum_hessian":[3.56E2,2.98E2,5.8E1,1.2E2,1.78E2,4.4E1,1.4E1,9.7E1,2.3E1,3.1E1,1.47E2,2.6E1,1.8E1,1.1E1,3E0],"tree_param":{"num_deleted":"0","num_feature":"53","num_nodes":"15","size_leaf_vector":"1"}},{"base_weights":[5.2381423E-4,3.104148E-2,-4.1420877E-1,4.550661E-2,-3.5459258E-2,-8.615712E-3,-9.915761E-1,1.5126172E-4,1.5032412E-2,1.8879496E-2,-1.1810177E-2,-5.2070107E-2,-1.2000958E-2],"categories":[],"categories_nodes":[],"categories_segments":[],"categories_sizes":[],"default_left":[0,0,0,0,0,0,0,0,0,0,0,0,0],"id":74,"left_children":[1,3,5,7,-1,9,11,-1,-1,-1,-1,-1,-1],"loss_changes":[4.708783E0,4.699631E0,5.9501343E0,4.7305446E0,0E0,2.7591813E0,1.2758932E0,0E0,0E0,0E0,0E0,0E0,0E0],"parents":[2147483647,0,0,1,1,2,2,3,3,5,5,6,6],"right_children":[2,4,6,8,-1,10,12,-1,-1,-1,-1,-1,-1],"split_conditions":[4.408E1,2.1E1,3.23E1,1.0851E2,-3.5459258E-2,3.08E0,2.5444286E1,1.5126172E-4,1.5032412E-2,1.8879496E-2,-1.1810177E-2,-5.2070107E-2,-1.2000958E-2],"split_indices":[46,18,13,24,0,11,23,0,0,0,0,0,0],"split_type":[0,0,0,0,0,0,0,0,0,0,0,0,0],"sum_hessian":[3.67E2,3.44E2,2.3E1,3.41E2,3E0,1.5E1,8E0,3.05E2,3.6E1,5E0,1E1,4E0,4E0],"tree_param":{"num_deleted":"0","num_feature":"53","num_nodes":"13","size_leaf_vector":"1"}},{"base_weights":[-1.0389851E-2,-5.8519173E-2,2.7662256E-1,-9.097828E-2,5.1277435E-1,5.2486944E-1,-7.077885E-2,3.076827E-3,-8.648017E-3,2.3446726E-2,-9.96047E-4,2.4806987E-2,3.3832155E-3,9.332203E-3,-1.2828676E-2],"categories":[],"categories_nodes":[],"categories_segments":[],"categories_sizes":[],"default_left":[0,0,0,0,0,0,0,0,0,0,0,0,0,0,0],"id":75,"left_children":[1,3,5,7,9,11,13,-1,-1,-1,-1,-1,-1,-1,-1],"loss_changes":[5.144636E0,6.02279E0,4.7067847E0,6.4225626E0,7.27077E-1,1.1906614E0,2.049115E0,0E0,0E0,0E0,0E0,0E0,0E0,0E0,0E0],"parents":[2147483647,0,0,1,1,2,2,3,3,4,4,5,5,6,6],"right_children":[2,4,6,8,10,12,14,-1,-1,-1,-1,-1,-1,-1,-1],"split_conditions":[1.33E2,8.577E1,1E1,3.037E1,4.692107E1,5E0,1.65E2,3.076827E-3,-8.648017E-3,2.3446726E-2,-9.96047E-4,2.4806987E-2,3.3832155E-3,9.332203E-3,-1.2828676E-2],"split_indices":[32,19,12,31,31,0,6,0,0,0,0,0,0,0,0],"split_type":[0,0,0,0,0,0,0,0,0,0,0,0,0,0,0],"sum_hessian":[3.67E2,3.16E2,5.1E1,3.01E2,1.5E1,2.9E1,2.2E1,1.29E2,1.72E2,1.3E1,2E0,2.3E1,6E0,1E1,1.2E1],"tree_param":{"num_deleted":"0","num_feature":"53","num_nodes":"15","size_leaf_vector":"1"}},{"base_weights":[2.2026163E-3,-3.7159756E-1,3.5376992E-2,2.2346978E-1,-6.8912673E-1,-6.1889943E-2,1.8767078E-1,3.2753978E-2,-1.1901879E-2,5.429272E-3,-3.908409E-2,-9.5053605E-4,-5.0208107E-2,1.1146528E-2,-1.2918839E-2],"categories":[],"categories_nodes":[],"categories_segments":[],"categories_sizes":[],"default_left":[0,0,0,0,0,0,0,0,0,0,0,0,0,0,0],"id":76,"left_children":[1,3,5,7,9,11,13,-1,-1,-1,-1,-1,-1,-1,-1],"loss_changes":[4.6396832E0,6.14801E0,5.1173544E0,4.4866505E0,5.2011127E0,9.548021E0,6.4744773E0,0E0,0E0,0E0,0E0,0E0,0E0,0E0,0E0],"parents":[2147483647,0,0,1,1,2,2,3,3,4,4,5,5,6,6],"right_children":[2,4,6,8,10,12,14,-1,-1,-1,-1,-1,-1,-1,-1],"split_conditions":[1.5478572E1,2E0,3.565E1,8.177E1,1.631E1,3.531E1,4.4E1,3.2753978E-2,-1.1901879E-2,5.429272E-3,-3.908409E-2,-9.5053605E-4,-5.0208107E-2,1.1146528E-2,-1.2918839E-2],"split_indices":[36,0,21,32,21,21,3,0,0,0,0,0,0,0,0],"split_type":[0,0,0,0,0,0,0,0,0,0,0,0,0,0,0],"sum_hessian":[3.69E2,2.8E1,3.41E2,1E1,1.8E1,2.09E2,1.32E2,4E0,6E0,5E0,1.3E1,2.05E2,4E0,1.13E2,1.9E1],"tree_param":{"num_deleted":"0","num_feature":"53","num_nodes":"15","size_leaf_vector":"1"}},{"base_weights":[-6.929225E-3,-1.5690713E-1,6.828032E-2,1.1378027E-1,-3.137044E-1,8.7619804E-2,-3.3040013E-2,-4.3033836E-3,2.0345284E-2,-3.0499455E-2,-4.8007313E-3,4.79127E-3,-1.6357668E-2],"categories":[],"categories_nodes":[],"categories_segments":[],"categories_sizes":[],"default_left":[0,0,0,0,0,0,0,0,0,0,0,0,0],"id":77,"left_children":[1,3,5,7,9,11,-1,-1,-1,-1,-1,-1,-1],"loss_changes":[4.205939E0,5.3733926E0,4.4787245E0,4.288603E0,6.681585E0,4.043189E0,0E0,0E0,0E0,0E0,0E0,0E0,0E0],"parents":[2147483647,0,0,1,1,2,2,3,3,4,4,5,5],"right_children":[2,4,6,8,10,12,-1,-1,-1,-1,-1,-1,-1],"split_conditions":[1.354E1,1.781E1,2.323E1,3E0,8.254E1,4.408E1,-3.3040013E-2,-4.3033836E-3,2.0345284E-2,-3.0499455E-2,-4.8007313E-3,4.79127E-3,-1.6357668E-2],"split_indices":[35,21,38,22,32,46,0,0,0,0,0,0,0],"split_type":[0,0,0,0,0,0,0,0,0,0,0,0,0],"sum_hessian":[3.68E2,1.22E2,2.46E2,4.5E1,7.7E1,2.43E2,3E0,3E1,1.5E1,2.1E1,5.6E1,2.3E2,1.3E1],"tree_param":{"num_deleted":"0","num_feature":"53","num_nodes":"13","size_leaf_vector":"1"}},{"base_weights":[9.606129E-3,-1.2795423E-2,4.9487528E-1,-2.9937184E-1,2.1515217E-2,2.1900555E-2,2.0132468E-3,-3.046407E-2,7.974673E-3,6.2055225E-3,-2.4690335E-3],"categories":[],"categories_nodes":[],"categories_segments":[],"categories_sizes":[],"default_left":[0,0,0,0,0,0,0,0,0,0,0],"id":78,"left_children":[1,3,5,7,9,-1,-1,-1,-1,-1,-1],"loss_changes":[4.065197E0,3.541097E0,3.1721067E-1,9.255075E0,3.611077E0,0E0,0E0,0E0,0E0,0E0,0E0],"parents":[2147483647,0,0,1,1,2,2,3,3,4,4],"right_children":[2,4,6,8,10,-1,-1,-1,-1,-1,-1],"split_conditions":[8.868E1,4E0,4.3E1,6E0,1.4E1,2.1900555E-2,2.0132468E-3,-3.046407E-2,7.974673E-3,6.2055225E-3,-2.4690335E-3],"split_indices":[13,2,3,12,2,0,0,0,0,0,0],"split_type":[0,0,0,0,0,0,0,0,0,0,0],"sum_hessian":[3.7E2,3.56E2,1.4E1,3.6E1,3.2E2,1.2E1,2E0,1.8E1,1.8E1,1.22E2,1.98E2],"tree_param":{"num_deleted":"0","num_feature":"53","num_nodes":"11","size_leaf_vector":"1"}},{"base_weights":[1.5089258E-2,-3.1179393E-2,2.4000932E-1,1.5025848E-1,-1.1829577E-1,3.6741778E-1,-2.5389126E-1,-5.559986E-3,1.2309006E-2,1.3297003E-2,-7.5657326E-3,-1.7420312E-2,1.6874181E-2,-2.552581E-2,8.201468E-3],"categories":[],"categories_nodes":[],"categories_segments":[],"categories_sizes":[],"default_left":[0,0,0,0,0,0,0,0,0,0,0,0,0,0,0],"id":79,"left_children":[1,3,5,7,9,11,13,-1,-1,-1,-1,-1,-1,-1,-1],"loss_changes":[3.8744087E0,4.9364595E0,4.229081E0,4.7301087E0,6.8789744E0,2.7102995E0,2.8841095E0,0E0,0E0,0E0,0E0,0E0,0E0,0E0,0E0],"parents":[2147483647,0,0,1,1,2,2,3,3,4,4,5,5,6,6],"right_children":[2,4,6,8,10,12,14,-1,-1,-1,-1,-1,-1,-1,-1],"split_conditions":[5.908E1,1.253E1,2.9014285E0,1.37E2,7.2799E2,5E1,3.0298214E1,-5.559986E-3,1.2309006E-2,1.3297003E-2,-7.5657326E-3,-1.7420312E-2,1.6874181E-2,-2.552581E-2,8.201468E-3],"split_indices":[15,13,39,6,37,6,31,0,0,0,0,0,0,0,0],"split_type":[0,0,0,0,0,0,0,0,0,0,0,0,0,0,0],"sum_hessian":[3.68E2,3.07E2,6.1E1,9.9E1,2.08E2,4.9E1,1.2E1,3.5E1,6.4E1,2.7E1,1.81E2,2E0,4.7E1,6E0,6E0],"tree_param":{"num_deleted":"0","num_feature":"53","num_nodes":"15","size_leaf_vector":"1"}},{"base_weights":[5.249804E-3,-1.7700806E-1,7.3420346E-2,1.6142577E-1,-3.8923284E-1,-3.310194E-1,1.1834249E-1,-9.821742E-3,1.6995694E-2,-3.4335036E-2,-7.6983083E-4,-2.156606E-2,1.1711641E-2,-8.9344345E-3,6.613253E-3],"categories":[],"categories_nodes":[],"categories_segments":[],"categories_sizes":[],"default_left":[0,0,0,0,0,0,0,0,0,0,0,0,0,0,0],"id":80,"left_children":[1,3,5,7,9,11,13,-1,-1,-1,-1,-1,-1,-1,-1],"loss_changes":[4.5861125E0,7.375396E0,4.976123E0,4.6033487E0,1.0807253E1,3.965109E0,4.002017E0,0E0,0E0,0E0,0E0,0E0,0E0,0E0,0E0],"parents":[2147483647,0,0,1,1,2,2,3,3,4,4,5,5,6,6],"right_children":[2,4,6,8,10,12,14,-1,-1,-1,-1,-1,-1,-1,-1],"split_conditions":[1.146E1,2.8797142E1,4.515E1,3.08E0,3.5618572E1,2.2E1,4E0,-9.821742E-3,1.6995694E-2,-3.4335036E-2,-7.6983083E-4,-2.156606E-2,1.1711641E-2,-8.9344345E-3,6.613253E-3],"split_indices":[19,27,24,17,23,2,2,0,0,0,0,0,0,0,0],"split_type":[0,0,0,0,0,0,0,0,0,0,0,0,0,0,0],"sum_hessian":[3.64E2,9.8E1,2.66E2,3.8E1,6E1,2.5E1,2.41E2,1.5E1,2.3E1,2.5E1,3.5E1,1.9E1,6E0,2.8E1,2.13E2],"tree_param":{"num_deleted":"0","num_feature":"53","num_nodes":"15","size_leaf_vector":"1"}},{"base_weights":[1.620755E-2,-3.0973908E-1,5.405453E-2,7.6223165E-2,-8.3590436E-1,6.977059E-2,-3.024662E-2,1.7402228E-2,-9.850286E-3,-5.3865355E-2,1.6340401E-3,-1.0149425E-2,4.481779E-3],"categories":[],"categories_nodes":[],"categories_segments":[],"categories_sizes":[],"default_left":[0,0,0,0,0,0,0,0,0,0,0,0,0],"id":81,"left_children":[1,3,5,7,9,11,-1,-1,-1,-1,-1,-1,-1],"loss_changes":[4.563036E0,7.977866E0,4.340306E0,3.1028914E0,7.525978E0,4.536244E0,0E0,0E0,0E0,0E0,0E0,0E0,0E0],"parents":[2147483647,0,0,1,1,2,2,3,3,4,4,5,5],"right_children":[2,4,6,8,10,12,-1,-1,-1,-1,-1,-1,-1],"split_conditions":[4E0,8E0,9.179E1,5E0,3.938E1,4.515E1,-3.024662E-2,1.7402228E-2,-9.850286E-3,-5.3865355E-2,1.6340401E-3,-1.0149425E-2,4.481779E-3],"split_indices":[2,22,40,16,17,24,0,0,0,0,0,0,0],"split_type":[0,0,0,0,0,0,0,0,0,0,0,0,0],"sum_hessian":[3.64E2,3.6E1,3.28E2,2.2E1,1.4E1,3.24E2,4E0,1E1,1.2E1,8E0,6E0,3.6E1,2.88E2],"tree_param":{"num_deleted":"0","num_feature":"53","num_nodes":"13","size_leaf_vector":"1"}},{"base_weights":[-1.3597629E-2,3.2646023E-2,-2.5434822E-1,-6.592383E-2,2.7036852E-1,-5.423443E-1,2.12416E-1,2.8267214E-3,-1.15788495E-2,1.356398E-2,-3.833883E-2,5.1679867E-3,-3.6474295E-2,-8.965342E-3,1.5371518E-2],"categories":[],"categories_nodes":[],"categories_segments":[],"categories_sizes":[],"default_left":[0,0,0,0,0,0,0,0,0,0,0,0,0,0,0],"id":82,"left_children":[1,3,5,7,9,11,13,-1,-1,-1,-1,-1,-1,-1,-1],"loss_changes":[4.1122046E0,7.3202806E0,8.286368E0,6.81459E0,8.540575E0,9.599939E0,2.0535803E0,0E0,0E0,0E0,0E0,0E0,0E0,0E0,0E0],"parents":[2147483647,0,0,1,1,2,2,3,3,4,4,5,5,6,6],"right_children":[2,4,6,8,10,12,14,-1,-1,-1,-1,-1,-1,-1,-1],"split_conditions":[6.177E1,3.565E1,8.577E1,1.9E1,8.999E1,1.488E1,5.5E0,2.8267214E-3,-1.15788495E-2,1.356398E-2,-3.833883E-2,5.1679867E-3,-3.6474295E-2,-8.965342E-3,1.5371518E-2],"split_indices":[21,21,21,21,40,13,30,0,0,0,0,0,0,0,0],"split_type":[0,0,0,0,0,0,0,0,0,0,0,0,0,0,0],"sum_hessian":[3.65E2,3.08E2,5.7E1,2.19E2,8.9E1,3.5E1,2.2E1,1.37E2,8.2E1,8.6E1,3E0,1.3E1,2.2E1,6E0,1.6E1],"tree_param":{"num_deleted":"0","num_feature":"53","num_nodes":"15","size_leaf_vector":"1"}},{"base_weights":[-1.45531325E-2,-2.4327906E-3,-3.3505224E-2,-3.4138206E-2,3.7340197E-1,-5.002135E-3,3.5261004E-3,2.0093162E-2,8.201281E-4],"categories":[],"categories_nodes":[],"categories_segments":[],"categories_sizes":[],"default_left":[0,0,0,0,0,0,0,0,0],"id":83,"left_children":[1,3,-1,5,7,-1,-1,-1,-1],"loss_changes":[3.7807903E0,4.518241E0,0E0,3.9133291E0,1.3164492E0,0E0,0E0,0E0,0E0],"parents":[2147483647,0,0,1,1,3,3,4,4],"right_children":[2,4,-1,6,8,-1,-1,-1,-1],"split_conditions":[2.1E1,7.985E1,-3.3505224E-2,4E0,5.361E1,-5.002135E-3,3.5261004E-3,2.0093162E-2,8.201281E-4],"split_indices":[18,17,0,0,21,0,0,0,0],"split_type":[0,0,0,0,0,0,0,0,0],"sum_hessian":[3.77E2,3.74E2,3E0,3.47E2,2.7E1,1.99E2,1.48E2,1.9E1,8E0],"tree_param":{"num_deleted":"0","num_feature":"53","num_nodes":"9","size_leaf_vector":"1"}},{"base_weights":[-5.474189E-3,6.451522E-3,-3.27742E-2,1.0164486E-1,-1.15138344E-1,4.751909E-3,-3.0287921E-2,1.7056179E-3,-1.632978E-2],"categories":[],"categories_nodes":[],"categories_segments":[],"categories_sizes":[],"default_left":[0,0,0,0,0,0,0,0,0],"id":84,"left_children":[1,3,-1,5,7,-1,-1,-1,-1],"loss_changes":[3.696683E0,4.3870745E0,0E0,3.3553543E0,7.7434673E0,0E0,0E0,0E0,0E0],"parents":[2147483647,0,0,1,1,3,3,4,4],"right_children":[2,4,-1,6,8,-1,-1,-1,-1],"split_conditions":[2.1E1,4.3388373E-1,-3.27742E-2,6E0,3E0,4.751909E-3,-3.0287921E-2,1.7056179E-3,-1.632978E-2],"split_indices":[18,7,0,47,0,0,0,0,0],"split_type":[0,0,0,0,0,0,0,0,0],"sum_hessian":[3.77E2,3.74E2,3E0,2.1E2,1.64E2,2.08E2,2E0,1.08E2,5.6E1],"tree_param":{"num_deleted":"0","num_feature":"53","num_nodes":"9","size_leaf_vector":"1"}},{"base_weights":[-4.737409E-2,-7.472239E-2,3.363929E-1,-1.1697427E-1,1.9701496E-1,4.5780534E-1,1.1433727E-2,-3.978292E-4,-1.1593203E-2,1.5546992E-2,-1.0948982E-2,2.1071462E-2,-1.9784842E-3,9.336976E-3,-7.232085E-3],"categories":[],"categories_nodes":[],"categories_segments":[],"categories_sizes":[],"default_left":[0,0,0,0,0,0,0,0,0,0,0,0,0,0,0],"id":85,"left_children":[1,3,5,7,9,11,13,-1,-1,-1,-1,-1,-1,-1,-1],"loss_changes":[4.0143485E0,4.116295E0,9.9299335E-1,5.6817E0,4.641735E0,7.124908E-1,5.109175E-1,0E0,0E0,0E0,0E0,0E0,0E0,0E0,0E0],"parents":[2147483647,0,0,1,1,2,2,3,3,4,4,5,5,6,6],"right_children":[2,4,6,8,10,12,14,-1,-1,-1,-1,-1,-1,-1,-1],"split_conditions":[8.577E1,1.33E2,4.015E1,3.1678215E1,5.658E1,2.9E1,6.234898E-1,-3.978292E-4,-1.1593203E-2,1.5546992E-2,-1.0948982E-2,2.1071462E-2,-1.9784842E-3,9.336976E-3,-7.232085E-3],"split_indices":[19,32,11,31,11,2,8,0,0,0,0,0,0,0,0],"split_type":[0,0,0,0,0,0,0,0,0,0,0,0,0,0,0],"sum_hessian":[3.74E2,3.51E2,2.3E1,3.05E2,4.6E1,1.6E1,7E0,1.9E2,1.15E2,3.3E1,1.3E1,1.4E1,2E0,3E0,4E0],"tree_param":{"num_deleted":"0","num_feature":"53","num_nodes":"15","size_leaf_vector":"1"}},{"base_weights":[6.570507E-3,1.4877038E-1,-7.543174E-2,5.9292804E-2,4.9433398E-1,-5.4774535E-1,-2.3055786E-2,6.5097497E-3,-1.2936011E-2,2.3759756E-2,-6.2473128E-3,-2.9386112E-2,2.8381539E-3,-1.9741831E-2,1.0265167E-3],"categories":[],"categories_nodes":[],"categories_segments":[],"categories_sizes":[],"default_left":[0,0,0,0,0,0,0,0,0,0,0,0,0,0,0],"id":86,"left_children":[1,3,5,7,9,11,13,-1,-1,-1,-1,-1,-1,-1,-1],"loss_changes":[4.1617765E0,3.9618096E0,5.5715575E0,4.347909E0,1.9499354E0,2.7322044E0,4.7649884E0,0E0,0E0,0E0,0E0,0E0,0E0,0E0,0E0],"parents":[2147483647,0,0,1,1,2,2,3,3,4,4,5,5,6,6],"right_children":[2,4,6,8,10,12,14,-1,-1,-1,-1,-1,-1,-1,-1],"split_conditions":[3.037E1,7.7714E2,2.46E0,7.5574E2,7.25E0,1E1,4.571429E0,6.5097497E-3,-1.2936011E-2,2.3759756E-2,-6.2473128E-3,-2.9386112E-2,2.8381539E-3,-1.9741831E-2,1.0265167E-3],"split_indices":[31,37,17,37,34,16,26,0,0,0,0,0,0,0,0],"split_type":[0,0,0,0,0,0,0,0,0,0,0,0,0,0,0],"sum_hessian":[3.52E2,1.28E2,2.24E2,1.04E2,2.4E1,2E1,2.04E2,8.3E1,2.1E1,2.1E1,3E0,1.5E1,5E0,1.7E1,1.87E2],"tree_param":{"num_deleted":"0","num_feature":"53","num_nodes":"15","size_leaf_vector":"1"}},{"base_weights":[4.4126557E-3,-1.966655E-2,4.317159E-1,-4.8236974E-2,3.971072E-1,7.35481E-3,5.4004216E-1,-4.2332552E-4,-1.7640896E-2,1.9129466E-2,-2.8414708E-3,-4.5135114E-3,4.938456E-3,2.3035523E-2,5.2992436E-3],"categories":[],"categories_nodes":[],"categories_segments":[],"categories_sizes":[],"default_left":[0,0,0,0,0,0,0,0,0,0,0,0,0,0,0],"id":87,"left_children":[1,3,5,7,9,11,13,-1,-1,-1,-1,-1,-1,-1,-1],"loss_changes":[3.761322E0,4.1738033E0,8.8647485E-1,4.8172274E0,9.39487E-1,1.2553628E-1,3.570938E-2,0E0,0E0,0E0,0E0,0E0,0E0,0E0,0E0],"parents":[2147483647,0,0,1,1,2,2,3,3,4,4,5,5,6,6],"right_children":[2,4,6,8,10,12,14,-1,-1,-1,-1,-1,-1,-1,-1],"split_conditions":[8.868E1,8.577E1,1E0,6.284E1,4.6181427E1,3.43E1,1.9714285E-1,-4.2332552E-4,-1.7640896E-2,1.9129466E-2,-2.8414708E-3,-4.5135114E-3,4.938456E-3,2.3035523E-2,5.2992436E-3],"split_indices":[13,19,0,19,36,21,42,0,0,0,0,0,0,0,0],"split_type":[0,0,0,0,0,0,0,0,0,0,0,0,0,0,0],"sum_hessian":[3.61E2,3.44E2,1.7E1,3.24E2,2E1,4E0,1.3E1,2.98E2,2.6E1,1.7E1,3E0,2E0,2E0,1.1E1,2E0],"tree_param":{"num_deleted":"0","num_feature":"53","num_nodes":"15","size_leaf_vector":"1"}},{"base_weights":[-5.2632955E-3,6.41849E-3,-3.2016728E-2,-4.5633998E-2,1.6463119E-1,2.212566E-3,-7.3668645E-3,1.678455E-2,1.8131786E-3],"categories":[],"categories_nodes":[],"categories_segments":[],"categories_sizes":[],"default_left":[0,0,0,0,0,0,0,0,0],"id":88,"left_children":[1,3,-1,5,7,-1,-1,-1,-1],"loss_changes":[3.5286655E0,3.1111612E0,0E0,4.004234E0,2.7967045E0,0E0,0E0,0E0,0E0],"parents":[2147483647,0,0,1,1,3,3,4,4],"right_children":[2,4,-1,6,8,-1,-1,-1,-1],"split_conditions":[2.1E1,4.059714E1,-3.2016728E-2,2.823E1,2.884E1,2.212566E-3,-7.3668645E-3,1.678455E-2,1.8131786E-3],"split_indices":[18,23,0,15,11,0,0,0,0],"split_type":[0,0,0,0,0,0,0,0,0],"sum_hessian":[3.76E2,3.73E2,3E0,2.82E2,9.1E1,1.64E2,1.18E2,2.7E1,6.4E1],"tree_param":{"num_deleted":"0","num_feature":"53","num_nodes":"9","size_leaf_vector":"1"}},{"base_weights":[-4.597676E-3,6.94453E-3,-3.145314E-2,-3.6060724E-2,2.5497738E-1,-3.3073907E-3,1.0951167E-2,2.2668017E-2,1.5780096E-3],"categories":[],"categories_nodes":[],"categories_segments":[],"categories_sizes":[],"default_left":[0,0,0,0,0,0,0,0,0],"id":89,"left_children":[1,3,-1,5,7,-1,-1,-1,-1],"loss_changes":[3.4107733E0,4.007005E0,0E0,4.686533E0,3.6728642E0,0E0,0E0,0E0,0E0],"parents":[2147483647,0,0,1,1,3,3,4,4],"right_children":[2,4,-1,6,8,-1,-1,-1,-1],"split_conditions":[2.323E1,1.33E2,-3.145314E-2,6.177E1,3.385E1,-3.3073907E-3,1.0951167E-2,2.2668017E-2,1.5780096E-3],"split_indices":[38,32,0,35,11,0,0,0,0],"split_type":[0,0,0,0,0,0,0,0,0],"sum_hessian":[3.74E2,3.71E2,3E0,3.18E2,5.3E1,2.78E2,4E1,2E1,3.3E1],"tree_param":{"num_deleted":"0","num_feature":"53","num_nodes":"9","size_leaf_vector":"1"}},{"base_weights":[-1.7114483E-2,-4.0375265E-1,1.6607499E-2,-1.0204747E-1,-1.119128E0,1.717664E-1,-5.1837236E-2,-1.776429E-2,9.34289E-3,-5.1480565E-2,-1.0195519E-2,3.2582108E-3,2.2199491E-2,-1.3935563E-2,1.2755379E-3],"categories":[],"categories_nodes":[],"categories_segments":[],"categories_sizes":[],"default_left":[0,0,0,0,0,0,0,0,0,0,0,0,0,0,0],"id":90,"left_children":[1,3,5,7,9,11,13,-1,-1,-1,-1,-1,-1,-1,-1],"loss_changes":[4.795265E0,6.081547E0,3.627685E0,2.9571755E0,4.1318798E-1,3.5036361E0,5.924663E0,0E0,0E0,0E0,0E0,0E0,0E0,0E0,0E0],"parents":[2147483647,0,0,1,1,2,2,3,3,4,4,5,5,6,6],"right_children":[2,4,6,8,10,12,14,-1,-1,-1,-1,-1,-1,-1,-1],"split_conditions":[5.276E1,2.352E1,7.6456E2,1.761E1,9E0,6.75E0,1.146E1,-1.776429E-2,9.34289E-3,-5.1480565E-2,-1.0195519E-2,3.2582108E-3,2.2199491E-2,-1.3935563E-2,1.2755379E-3],"split_indices":[28,13,37,24,14,34,19,0,0,0,0,0,0,0,0],"split_type":[0,0,0,0,0,0,0,0,0,0,0,0,0,0,0],"sum_hessian":[3.64E2,2.7E1,3.37E2,2.1E1,6E0,1.02E2,2.35E2,1E1,1.1E1,4E0,2E0,8.5E1,1.7E1,5E1,1.85E2],"tree_param":{"num_deleted":"0","num_feature":"53","num_nodes":"15","size_leaf_vector":"1"}},{"base_weights":[-5.9729666E-3,5.8278306E-3,-3.1241512E-2,